{"learner":{"attributes":{"best_iteration":"95","best_score":"0.8873980037190697","scikit_learn":"{\"_estimator_type\": \"classifier\"}"},"feature_names":[],"feature_types":[],"gradient_booster":{"model":{"cats":{"enc":[],"feature_segments":[],"sorted_idx":[]},"gbtree_model_param":{"num_parallel_tree":"1","num_trees":"378"},"iteration_indptr":[0,3,6,9,12,15,18,21,24,27,30,33,36,39,42,45,48,51,54,57,60,63,66,69,72,75,78,81,84,87,90,93,96,99,102,105,108,111,114,117,120,123,126,129,132,135,138,141,144,147,150,153,156,159,162,165,168,171,174,177,180,183,186,189,192,195,198,201,204,207,210,213,216,219,222,225,228,231,234,237,240,243,246,249,252,255,258,261,264,267,270,273,276,279,282,285,288,291,294,297,300,303,306,309,312,315,318,321,324,327,330,333,336,339,342,345,348,351,354,357,360,363,366,369,372,375,378],"tree_info":[0,1,2,0,1,2,0,1,2,0,1,2,0,1,2,0,1,2,0,1,2,0,1,2,0,1,2,0,1,2,0,1,2,0,1,2,0,1,2,0,1,2,0,1,2,0,1,2,0,1,2,0,1,2,0,1,2,0,1,2,0,1,2,0,1,2,0,1,2,0,1,2,0,1,2,0,1,2,0,1,2,0,1,2,0,1,2,0,1,2,0,1,2,0,1,2,0,1,2,0,1,2,0,1,2,0,1,2,0,1,2,0,1,2,0,1,2,0,1,2,0,1,2,0,1,2,0,1,2,0,1,2,0,1,2,0,1,2,0,1,2,0,1,2,0,1,2,0,1,2,0,1,2,0,1,2,0,1,2,0,1,2,0,1,2,0,1,2,0,1,2,0,1,2,0,1,2,0,1,2,0,1,2,0,1,2,0,1,2,0,1,2,0,1,2,0,1,2,0,1,2,0,1,2,0,1,2,0,1,2,0,1,2,0,1,2,0,1,2,0,1,2,0,1,2,0,1,2,0,1,2,0,1,2,0,1,2,0,1,2,0,1,2,0,1,2,0,1,2,0,1,2,0,1,2,0,1,2,0,1,2,0,1,2,0,1,2,0,1,2,0,1,2,0,1,2,0,1,2,0,1,2,0,1,2,0,1,2,0,1,2,0,1,2,0,1,2,0,1,2,0,1,2,0,1,2,0,1,2,0,1,2,0,1,2,0,1,2,0,1,2,0,1,2,0,1,2,0,1,2,0,1,2,0,1,2,0,1,2,0,1,2,0,1,2,0,1,2,0,1,2,0,1,2,0,1,2,0,1,2,0,1,2,0,1,2,0,1,2,0,1,2,0,1,2,0,1,2],"trees":[{"base_weights":[1.320807E-1,8.9490396E-1,-2.1072755E-2,3.980617E-2,-1.7556027E-2],"categories":[],"categories_nodes":[],"categories_segments":[],"categories_sizes":[],"default_left":[0,0,0,0,0],"id":0,"left_children":[1,3,-1,-1,-1],"loss_changes":[2.0895803E1,1.1692209E1,0E0,0E0,0E0],"parents":[2147483647,0,0,1,1],"right_children":[2,4,-1,-1,-1],"split_conditions":[-1.1457851E-2,6.754389E0,-2.1072755E-2,3.980617E-2,-1.7556027E-2],"split_indices":[45,27,0,0,0],"split_type":[0,0,0,0,0],"sum_hessian":[3.0837605E1,1.6072933E1,1.4764671E1,1.2521936E1,3.550997E0],"tree_param":{"num_deleted":"0","num_feature":"53","num_nodes":"5","size_leaf_vector":"1"}},{"base_weights":[3.143826E-2,-4.2148253E-1,1.0841278E0,2.822179E-2,-5.9598535E-1,-1.821776E-3,3.8881216E-2,-6.804894E-1,4.703628E-3,-2.1068519E-2,-5.94682E-3],"categories":[],"categories_nodes":[],"categories_segments":[],"categories_sizes":[],"default_left":[0,0,0,0,0,0,0,0,0,0,0],"id":1,"left_children":[1,3,5,-1,7,-1,-1,9,-1,-1,-1],"loss_changes":[1.3743079E1,5.363201E0,2.1803474E0,0E0,1.2848802E0,0E0,0E0,3.7781715E-2,0E0,0E0,0E0],"parents":[2147483647,0,0,1,1,2,2,4,4,7,7],"right_children":[2,4,6,-1,8,-1,-1,10,-1,-1,-1],"split_conditions":[3.3056918E-1,-1.5837718E0,6.401218E0,2.822179E-2,1.3633225E1,-1.821776E-3,3.8881216E-2,1.0404302E1,4.703628E-3,-2.1068519E-2,-5.94682E-3],"split_indices":[1,39,29,0,25,0,0,25,0,0,0],"split_type":[0,0,0,0,0,0,0,0,0,0,0],"sum_hessian":[2.68661E1,1.9203423E1,7.662679E0,1.6820515E0,1.752137E1,1.3082622E0,6.354417E0,1.5839318E1,1.6820514E0,1.4717951E1,1.1213677E0],"tree_param":{"num_deleted":"0","num_feature":"53","num_nodes":"11","size_leaf_vector":"1"}},{"base_weights":[-9.761334E-2,-3.7399122E-1,9.0782547E-1,2.9314803E-2,-5.2970225E-1,3.550211E-2,5.504386E-3,1.4574183E-2,-6.1534727E-1,2.452239E-3,-2.1300316E-2],"categories":[],"categories_nodes":[],"categories_segments":[],"categories_sizes":[],"default_left":[0,0,0,0,0,0,0,0,0,0,0],"id":2,"left_children":[1,3,5,-1,7,-1,-1,-1,9,-1,-1],"loss_changes":[8.719174E0,5.6430664E0,1.1389933E0,0E0,2.2552185E0,0E0,0E0,0E0,1.4559822E0,0E0,0E0],"parents":[2147483647,0,0,1,1,2,2,4,4,8,8],"right_children":[2,4,6,-1,8,-1,-1,-1,10,-1,-1],"split_conditions":[2.8100412E0,1.2362E3,2.1653627E-1,2.9314803E-2,3.232937E-1,3.550211E-2,5.504386E-3,1.4574183E-2,2.0469537E-1,2.452239E-3,-2.1300316E-2],"split_indices":[31,8,44,0,0,0,0,0,44,0,0],"split_type":[0,0,0,0,0,0,0,0,0,0,0],"sum_hessian":[2.9155552E1,2.336182E1,5.793731E0,1.8689456E0,2.1492874E1,3.7378912E0,2.0558403E0,1.3082619E0,2.0184612E1,2.4296293E0,1.7754984E1],"tree_param":{"num_deleted":"0","num_feature":"53","num_nodes":"11","size_leaf_vector":"1"}},{"base_weights":[7.2947375E-2,8.5115546E-1,-2.101394E-2,3.7632726E-2,-1.7377654E-2],"categories":[],"categories_nodes":[],"categories_segments":[],"categories_sizes":[],"default_left":[0,0,0,0,0],"id":3,"left_children":[1,3,-1,-1,-1],"loss_changes":[2.1114964E1,1.0789277E1,0E0,0E0,0E0],"parents":[2147483647,0,0,1,1],"right_children":[2,4,-1,-1,-1],"split_conditions":[-1.1457851E-2,6.754389E0,-2.101394E-2,3.7632726E-2,-1.7377654E-2],"split_indices":[45,27,0,0,0],"split_type":[0,0,0,0,0],"sum_hessian":[3.3091366E1,1.6444435E1,1.664693E1,1.2923896E1,3.5205395E0],"tree_param":{"num_deleted":"0","num_feature":"53","num_nodes":"5","size_leaf_vector":"1"}},{"base_weights":[3.0386347E-2,-3.271355E-1,1.0310495E0,-5.991667E-1,3.0483011E-2,-1.958107E-3,3.7315443E-2,-1.9030917E-3,-6.5187997E-1,-3.7455428E-1,3.1098768E-2,-5.8349334E-3,-2.0415349E-2,-1.5730415E-2,4.6613393E-3],"categories":[],"categories_nodes":[],"categories_segments":[],"categories_sizes":[],"default_left":[0,0,0,0,0,0,0,0,0,0,0,0,0,0,0],"id":4,"left_children":[1,3,5,7,9,-1,-1,-1,11,13,-1,-1,-1,-1,-1],"loss_changes":[1.1424705E1,2.3134165E0,2.0405998E0,3.3842182E-1,4.929882E0,0E0,0E0,0E0,2.6564598E-2,7.705139E-1,0E0,0E0,0E0,0E0,0E0],"parents":[2147483647,0,0,1,1,2,2,3,3,4,4,8,8,9,9],"right_children":[2,4,6,8,10,-1,-1,-1,12,14,-1,-1,-1,-1,-1],"split_conditions":[3.311674E-1,4.890422E0,3.1546388E0,7.83078E-2,1.3949E3,-1.958107E-3,3.7315443E-2,-1.9030917E-3,1.2375E3,1.8242702E1,3.1098768E-2,-5.8349334E-3,-2.0415349E-2,-1.5730415E-2,4.6613393E-3],"split_indices":[1,25,27,41,6,0,0,0,20,25,0,0,0,0,0],"split_type":[0,0,0,0,0,0,0,0,0,0,0,0,0,0,0],"sum_hessian":[2.9991293E1,2.2592436E1,7.398856E0,1.2448073E1,1.0144363E1,1.3153853E0,6.083471E0,1.3124936E0,1.113558E1,7.6802855E0,2.4640777E0,1.1151125E0,1.0020468E1,5.9959764E0,1.684309E0],"tree_param":{"num_deleted":"0","num_feature":"53","num_nodes":"15","size_leaf_vector":"1"}},{"base_weights":[-1.0209169E-1,3.511987E-1,-2.0772263E-2,6.731397E-1,-1.8237673E-2,9.227438E-1,-1.1987499E-1,3.2749627E-2,1.161096E-2,1.7769352E-2,-1.582678E-2],"categories":[],"categories_nodes":[],"categories_segments":[],"categories_sizes":[],"default_left":[0,0,0,0,0,0,0,0,0,0,0],"id":5,"left_children":[1,3,-1,5,-1,7,9,-1,-1,-1,-1],"loss_changes":[9.274908E0,6.5094023E0,0E0,3.1322656E0,0E0,6.385422E-1,1.6305426E0,0E0,0E0,0E0,0E0],"parents":[2147483647,0,0,1,1,3,3,5,5,6,6],"right_children":[2,4,-1,6,-1,8,10,-1,-1,-1,-1],"split_conditions":[4.36E0,4.6035716E-1,-2.0772263E-2,3.3070287E-1,-1.8237673E-2,3.456522E-1,1.2903E3,3.2749627E-2,1.161096E-2,1.7769352E-2,-1.582678E-2],"split_indices":[18,44,0,1,0,2,8,0,0,0,0],"split_type":[0,0,0,0,0,0,0,0,0,0,0],"sum_hessian":[3.275276E1,1.8755741E1,1.3997019E1,1.4265514E1,4.490227E0,1.0725908E1,3.5396066E0,7.3657227E0,3.3601851E0,1.123714E0,2.4158926E0],"tree_param":{"num_deleted":"0","num_feature":"53","num_nodes":"11","size_leaf_vector":"1"}},{"base_weights":[8.906871E-2,8.9417756E-1,-2.080847E-2,3.6404822E-2,-1.6278258E-2],"categories":[],"categories_nodes":[],"categories_segments":[],"categories_sizes":[],"default_left":[0,0,0,0,0],"id":6,"left_children":[1,3,-1,-1,-1],"loss_changes":[2.164239E1,8.403584E0,0E0,0E0,0E0],"parents":[2147483647,0,0,1,1],"right_children":[2,4,-1,-1,-1],"split_conditions":[-1.1457851E-2,6.754389E0,-2.080847E-2,3.6404822E-2,-1.6278258E-2],"split_indices":[45,27,0,0,0],"split_type":[0,0,0,0,0],"sum_hessian":[3.2360794E1,1.5881662E1,1.6479134E1,1.3121012E1,2.7606502E0],"tree_param":{"num_deleted":"0","num_feature":"53","num_nodes":"5","size_leaf_vector":"1"}},{"base_weights":[1.254066E-1,-4.216603E-1,1.0494881E0,-5.2142256E-1,6.8548126E-3,-1.992543E-3,3.701575E-2,-6.2156147E-1,4.6922616E-3,-2.0210948E-2,-7.705829E-3],"categories":[],"categories_nodes":[],"categories_segments":[],"categories_sizes":[],"default_left":[0,0,0,0,0,0,0,0,0,0,0],"id":7,"left_children":[1,3,5,7,-1,-1,-1,9,-1,-1,-1],"loss_changes":[1.3170501E1,1.1911702E0,2.0671625E0,1.0905387E0,0E0,0E0,0E0,7.321596E-2,0E0,0E0,0E0],"parents":[2147483647,0,0,1,1,2,2,3,3,7,7],"right_children":[2,4,6,8,-1,-1,-1,10,-1,-1,-1],"split_conditions":[3.3070287E-1,1.4093E3,3.1546388E0,-5.3508673E-3,6.8548126E-3,-1.992543E-3,3.701575E-2,6.1839104E-1,4.6922616E-3,-2.0210948E-2,-7.705829E-3],"split_indices":[1,6,27,45,0,0,0,41,0,0,0],"split_type":[0,0,0,0,0,0,0,0,0,0,0],"sum_hessian":[2.4177263E1,1.552813E1,8.649134E0,1.3634066E1,1.8940638E0,1.3171006E0,7.332033E0,1.1951443E1,1.6826234E0,9.7153E0,2.2361434E0],"tree_param":{"num_deleted":"0","num_feature":"53","num_nodes":"11","size_leaf_vector":"1"}},{"base_weights":[-1.0898125E-1,6.569857E-1,-5.012955E-1,-1.5331984E-2,1.0144607E0,-5.912767E-1,1.438721E-2,3.6162984E-2,6.62522E-3,1.3102192E-1,-2.0748332E-2,1.7514624E-2,-1.1678905E-2],"categories":[],"categories_nodes":[],"categories_segments":[],"categories_sizes":[],"default_left":[0,0,0,0,0,0,0,0,0,0,0,0,0],"id":8,"left_children":[1,3,5,-1,7,9,-1,-1,-1,11,-1,-1,-1],"loss_changes":[9.605665E0,5.064925E0,2.1353555E0,0E0,1.048111E0,1.5158396E0,0E0,0E0,0E0,9.9046797E-1,0E0,0E0,0E0],"parents":[2147483647,0,0,1,1,2,2,4,4,5,5,9,9],"right_children":[2,4,6,-1,8,10,-1,-1,-1,12,-1,-1,-1],"split_conditions":[2.784494E-1,-1.519599E0,2.1169632E1,-1.5331984E-2,1.3507295E1,2.0469537E-1,1.438721E-2,3.6162984E-2,6.62522E-3,3.2432878E-1,-2.0748332E-2,1.7514624E-2,-1.1678905E-2],"split_indices":[41,31,30,0,25,44,0,0,0,0,0,0,0],"split_type":[0,0,0,0,0,0,0,0,0,0,0,0,0],"sum_hessian":[2.9869646E1,9.888459E0,1.9981186E1,2.2164707E0,7.6719885E0,1.8666027E1,1.3151591E0,5.7656674E0,1.9063212E0,2.2393425E0,1.6426685E1,1.1321034E0,1.107239E0],"tree_param":{"num_deleted":"0","num_feature":"53","num_nodes":"13","size_leaf_vector":"1"}},{"base_weights":[-1.974077E-3,6.507724E-1,-2.0352917E-2,3.387073E-2,-1.7462343E-2],"categories":[],"categories_nodes":[],"categories_segments":[],"categories_sizes":[],"default_left":[0,0,0,0,0],"id":9,"left_children":[1,3,-1,-1,-1],"loss_changes":[1.2955265E1,9.462044E0,0E0,0E0,0E0],"parents":[2147483647,0,0,1,1],"right_children":[2,4,-1,-1,-1],"split_conditions":[-1.1457851E-2,6.754389E0,-2.0352917E-2,3.387073E-2,-1.7462343E-2],"split_indices":[45,27,0,0,0],"split_type":[0,0,0,0,0],"sum_hessian":[2.7340239E1,1.3933287E1,1.3406952E1,1.009962E1,3.833666E0],"tree_param":{"num_deleted":"0","num_feature":"53","num_nodes":"5","size_leaf_vector":"1"}},{"base_weights":[3.141823E-2,-4.0448743E-1,1.0294816E0,-5.32732E-1,2.5628304E-2,-2.037687E-3,3.603179E-2,-6.378532E-1,9.5716985E-3,-1.96073E-2,-5.996984E-3],"categories":[],"categories_nodes":[],"categories_segments":[],"categories_sizes":[],"default_left":[0,0,0,0,0,0,0,0,0,0,0],"id":10,"left_children":[1,3,5,7,-1,-1,-1,9,-1,-1,-1],"loss_changes":[1.4543585E1,4.2194266E0,1.993289E0,2.153582E0,0E0,0E0,0E0,5.142212E-3,0E0,0E0,0E0],"parents":[2147483647,0,0,1,1,2,2,3,3,7,7],"right_children":[2,4,6,8,-1,-1,-1,10,-1,-1,-1],"split_conditions":[3.3070287E-1,1.4145214E3,6.401218E0,1.8242702E1,2.5628304E-2,-2.037687E-3,3.603179E-2,1.5229335E1,9.5716985E-3,-1.96073E-2,-5.996984E-3],"split_indices":[1,26,29,25,0,0,0,25,0,0,0],"split_type":[0,0,0,0,0,0,0,0,0,0,0],"sum_hessian":[3.1471664E1,2.2318678E1,9.152987E0,2.0778517E1,1.5401607E0,1.3192508E0,7.8337364E0,1.8719465E1,2.0590518E0,1.7595407E1,1.1240562E0],"tree_param":{"num_deleted":"0","num_feature":"53","num_nodes":"11","size_leaf_vector":"1"}},{"base_weights":[-9.972224E-2,-2.0201216E-2,4.277504E-1,1.0839348E0,-1.864866E-2,3.4934636E-2,1.1775364E-2],"categories":[],"categories_nodes":[],"categories_segments":[],"categories_sizes":[],"default_left":[0,0,0,0,0,0,0],"id":11,"left_children":[1,-1,3,5,-1,-1,-1],"loss_changes":[8.522167E0,0E0,1.0856848E1,6.999397E-2,0E0,0E0,0E0],"parents":[2147483647,0,0,2,2,3,3],"right_children":[2,-1,4,6,-1,-1,-1],"split_conditions":[-8.708234E-1,-2.0201216E-2,-5.3508673E-3,6.911062E-1,-1.864866E-2,3.4934636E-2,1.1775364E-2],"split_indices":[39,0,45,41,0,0,0],"split_type":[0,0,0,0,0,0,0],"sum_hessian":[2.6212572E1,1.2424132E1,1.378844E1,8.4633045E0,5.3251357E0,6.967389E0,1.4959152E0],"tree_param":{"num_deleted":"0","num_feature":"53","num_nodes":"7","size_leaf_vector":"1"}},{"base_weights":[-2.034289E-1,-2.0611174E-2,2.888504E-2],"categories":[],"categories_nodes":[],"categories_segments":[],"categories_sizes":[],"default_left":[0,0,0],"id":12,"left_children":[1,-1,-1],"loss_changes":[1.5625406E1,0E0,0E0],"parents":[2147483647,0,0],"right_children":[2,-1,-1],"split_conditions":[1.5518806E0,-2.0611174E-2,2.888504E-2],"split_indices":[38,0,0],"split_type":[0,0,0],"sum_hessian":[2.553094E1,1.8337784E1,7.193156E0],"tree_param":{"num_deleted":"0","num_feature":"53","num_nodes":"3","size_leaf_vector":"1"}},{"base_weights":[-1.6628057E-2,5.1949453E-1,-5.7430893E-1,9.8642105E-1,-2.1713641E-1,-1.8277626E-2,-7.7163056E-3,3.5012074E-2,-6.327065E-3,-1.6277269E-2,1.2602676E-1,-6.0200165E-3,9.32828E-3],"categories":[],"categories_nodes":[],"categories_segments":[],"categories_sizes":[],"default_left":[0,0,0,0,0,0,0,0,0,0,0,0,0],"id":13,"left_children":[1,3,5,7,9,-1,-1,-1,-1,-1,11,-1,-1],"loss_changes":[9.263654E0,5.653261E0,1.1419296E-2,2.3785715E0,8.450486E-1,0E0,0E0,0E0,0E0,0E0,3.1591505E-1,0E0,0E0],"parents":[2147483647,0,0,1,1,2,2,3,3,4,4,10,10],"right_children":[2,4,6,8,10,-1,-1,-1,-1,-1,12,-1,-1],"split_conditions":[1.3325821E0,-3.9059454E-1,1.0034764E1,2.433094E6,3.4404933E-1,-1.8277626E-2,-7.7163056E-3,3.5012074E-2,-6.327065E-3,-1.6277269E-2,1.3E3,-6.0200165E-3,9.32828E-3],"split_indices":[38,39,30,9,2,0,0,0,0,0,19,0,0],"split_type":[0,0,0,0,0,0,0,0,0,0,0,0,0],"sum_hessian":[2.8985767E1,1.4813441E1,1.4172325E1,8.858945E0,5.954496E0,1.193564E1,2.2366855E0,7.719518E0,1.1394273E0,2.757919E0,3.196577E0,1.1245806E0,2.0719965E0],"tree_param":{"num_deleted":"0","num_feature":"53","num_nodes":"13","size_leaf_vector":"1"}},{"base_weights":[-2.475926E-2,-5.5849564E-1,5.3053564E-1,-2.0150559E-2,9.431542E-3,1.0185862E0,-3.2340753E-1,1.0940229E0,1.03109665E-2,1.7417906E-2,-1.8119983E-2,1.0220516E-2,3.6020234E-2],"categories":[],"categories_nodes":[],"categories_segments":[],"categories_sizes":[],"default_left":[0,0,0,0,0,0,0,0,0,0,0,0,0],"id":14,"left_children":[1,3,5,-1,-1,7,9,11,-1,-1,-1,-1,-1],"loss_changes":[1.0131766E1,1.931119E0,7.32151E0,0E0,0E0,1.7976284E-1,2.09086E0,3.4305668E-1,0E0,0E0,0E0,0E0,0E0],"parents":[2147483647,0,0,1,1,2,2,5,5,6,6,7,7],"right_children":[2,4,6,-1,-1,8,10,12,-1,-1,-1,-1,-1],"split_conditions":[-8.708234E-1,2.1169632E1,-5.3057172E-3,-2.0150559E-2,9.431542E-3,3.002551E6,4.677866E1,3.442627E-1,1.03109665E-2,1.7417906E-2,-1.8119983E-2,1.0220516E-2,3.6020234E-2],"split_indices":[39,30,45,0,0,9,28,2,0,0,0,0,0],"split_type":[0,0,0,0,0,0,0,0,0,0,0,0,0],"sum_hessian":[3.2185192E1,1.6408226E1,1.5776964E1,1.4728785E1,1.6794418E0,9.916581E0,5.8603835E0,8.360973E0,1.5556079E0,1.1348772E0,4.7255063E0,1.5570489E0,6.803924E0],"tree_param":{"num_deleted":"0","num_feature":"53","num_nodes":"13","size_leaf_vector":"1"}},{"base_weights":[-3.322273E-2,6.1451507E-1,-2.0130083E-2,8.993043E-1,-1.5713815E-2,3.177628E-2,-1.1764103E-2],"categories":[],"categories_nodes":[],"categories_segments":[],"categories_sizes":[],"default_left":[0,0,0,0,0,0,0],"id":15,"left_children":[1,3,-1,5,-1,-1,-1],"loss_changes":[1.2636699E1,5.3994427E0,0E0,3.0025787E0,0E0,0E0,0E0],"parents":[2147483647,0,0,1,1,3,3],"right_children":[2,4,-1,6,-1,-1,-1],"split_conditions":[-1.1457851E-2,1.6259851E1,-2.0130083E-2,-5.6190646E-1,-1.5713815E-2,3.177628E-2,-1.1764103E-2],"split_indices":[45,29,0,31,0,0,0],"split_type":[0,0,0,0,0,0,0],"sum_hessian":[2.8590744E1,1.4202736E1,1.4388007E1,1.1528443E1,2.6742928E0,1.0418284E1,1.1101593E0],"tree_param":{"num_deleted":"0","num_feature":"53","num_nodes":"7","size_leaf_vector":"1"}},{"base_weights":[-7.764046E-2,-3.9341336E-1,8.966739E-1,2.2571763E-2,-4.939214E-1,-2.174682E-3,3.28958E-2,-5.903313E-1,2.119952E-2,-1.951862E-2,-6.3532935E-3],"categories":[],"categories_nodes":[],"categories_segments":[],"categories_sizes":[],"default_left":[0,0,0,0,0,0,0,0,0,0,0],"id":16,"left_children":[1,3,5,-1,7,-1,-1,9,-1,-1,-1],"loss_changes":[1.0172424E1,3.227632E0,1.6517158E0,0E0,3.126048E0,0E0,0E0,3.6907816E-1,0E0,0E0,0E0],"parents":[2147483647,0,0,1,1,2,2,4,4,7,7],"right_children":[2,4,6,-1,8,-1,-1,10,-1,-1,-1],"split_conditions":[-5.3508673E-3,-2.3795476E0,6.401218E0,2.2571763E-2,1.8737276E1,-2.174682E-3,3.28958E-2,6.2265635E-1,2.119952E-2,-1.951862E-2,-6.3532935E-3],"split_indices":[45,31,29,0,30,0,0,41,0,0,0],"split_type":[0,0,0,0,0,0,0,0,0,0,0],"sum_hessian":[3.0917032E1,2.3799793E1,7.11724E0,1.3962665E0,2.2403526E1,1.3256996E0,5.79154E0,2.1208689E1,1.1948364E0,1.7675035E1,3.5336542E0],"tree_param":{"num_deleted":"0","num_feature":"53","num_nodes":"11","size_leaf_vector":"1"}},{"base_weights":[7.800955E-2,4.09552E-1,-1.9022055E-2,9.0453446E-1,-3.7070584E-1,3.2610044E-2,-1.2229723E-2,1.4163494E-2,-1.838073E-2],"categories":[],"categories_nodes":[],"categories_segments":[],"categories_sizes":[],"default_left":[0,0,0,0,0,0,0,0,0],"id":17,"left_children":[1,3,-1,5,7,-1,-1,-1,-1],"loss_changes":[6.4381204E0,7.4664044E0,0E0,3.2176523E0,1.8955977E0,0E0,0E0,0E0,0E0],"parents":[2147483647,0,0,1,1,3,3,4,4],"right_children":[2,4,-1,6,8,-1,-1,-1,-1],"split_conditions":[4.6035716E-1,3.3070287E-1,-1.9022055E-2,1.8242702E1,4.677866E1,3.2610044E-2,-1.2229723E-2,1.4163494E-2,-1.838073E-2],"split_indices":[44,1,0,25,28,0,0,0,0],"split_type":[0,0,0,0,0,0,0,0,0],"sum_hessian":[2.517049E1,1.7464087E1,7.706403E0,1.0587976E1,6.8761106E0,9.446067E0,1.1419101E0,1.3216956E0,5.554415E0],"tree_param":{"num_deleted":"0","num_feature":"53","num_nodes":"9","size_leaf_vector":"1"}},{"base_weights":[1.5969293E-1,7.519289E-1,-1.9720208E-2,3.269341E-2,-1.6602613E-2],"categories":[],"categories_nodes":[],"categories_segments":[],"categories_sizes":[],"default_left":[0,0,0,0,0],"id":18,"left_children":[1,3,-1,-1,-1],"loss_changes":[1.5166383E1,8.561573E0,0E0,0E0,0E0],"parents":[2147483647,0,0,1,1],"right_children":[2,4,-1,-1,-1],"split_conditions":[-1.1457851E-2,6.754389E0,-1.9720208E-2,3.269341E-2,-1.6602613E-2],"split_indices":[45,27,0,0,0],"split_type":[0,0,0,0,0],"sum_hessian":[2.9322012E1,1.704583E1,1.2276183E1,1.3672298E1,3.3735309E0],"tree_param":{"num_deleted":"0","num_feature":"53","num_nodes":"5","size_leaf_vector":"1"}},{"base_weights":[4.321683E-2,-4.134535E-1,9.195184E-1,-5.3557366E-1,2.1771997E-2,-2.5437542E-3,3.2913953E-2,-6.205306E-1,4.2441515E-3,-1.9943217E-2,-7.437587E-3],"categories":[],"categories_nodes":[],"categories_segments":[],"categories_sizes":[],"default_left":[0,0,0,0,0,0,0,0,0,0,0],"id":19,"left_children":[1,3,5,7,-1,-1,-1,9,-1,-1,-1],"loss_changes":[1.0990063E1,2.9094136E0,1.7685995E0,1.0621972E0,0E0,0E0,0E0,8.6386204E-2,0E0,0E0,0E0],"parents":[2147483647,0,0,1,1,2,2,3,3,7,7],"right_children":[2,4,6,8,-1,-1,-1,10,-1,-1,-1],"split_conditions":[3.3070287E-1,1.4145214E3,4.677866E1,-5.3508673E-3,2.1771997E-2,-2.5437542E-3,3.2913953E-2,6.2265635E-1,4.2441515E-3,-1.9943217E-2,-7.437587E-3],"split_indices":[1,26,28,45,0,0,0,41,0,0,0],"split_type":[0,0,0,0,0,0,0,0,0,0,0],"sum_hessian":[2.551272E1,1.7119404E1,8.393316E0,1.5940459E1,1.1789452E0,1.3398393E0,7.053477E0,1.4237396E1,1.7030627E0,1.202542E1,2.2119768E0],"tree_param":{"num_deleted":"0","num_feature":"53","num_nodes":"11","size_leaf_vector":"1"}},{"base_weights":[7.913487E-2,4.4704664E-1,-1.9223614E-2,7.714579E-1,-1.7638713E-2,9.4543135E-1,-2.469115E-2,3.2600734E-2,3.8347028E-3,1.6966673E-2,-1.4043896E-2],"categories":[],"categories_nodes":[],"categories_segments":[],"categories_sizes":[],"default_left":[0,0,0,0,0,0,0,0,0,0,0],"id":20,"left_children":[1,3,-1,5,-1,7,9,-1,-1,-1,-1],"loss_changes":[8.551446E0,7.5852056E0,0E0,2.3230915E0,0E0,1.4377813E0,1.29917E0,0E0,0E0,0E0,0E0],"parents":[2147483647,0,0,1,1,3,3,5,5,6,6],"right_children":[2,4,-1,6,-1,8,10,-1,-1,-1,-1],"split_conditions":[4.36E0,4.6035716E-1,-1.9223614E-2,3.3070287E-1,-1.7638713E-2,3.002551E6,1.2903E3,3.2600734E-2,3.8347028E-3,1.6966673E-2,-1.4043896E-2],"split_indices":[18,44,0,1,0,9,8,0,0,0,0],"split_type":[0,0,0,0,0,0,0,0,0,0,0],"sum_hessian":[3.0204193E1,2.02398E1,9.964393E0,1.5603635E1,4.636165E0,1.2651533E1,2.9521017E0,1.0507091E1,2.1444423E0,1.1482787E0,1.803823E0],"tree_param":{"num_deleted":"0","num_feature":"53","num_nodes":"11","size_leaf_vector":"1"}},{"base_weights":[-2.9933594E-2,7.0179015E-1,-1.98486E-2,3.166944E-2,-1.5778687E-2],"categories":[],"categories_nodes":[],"categories_segments":[],"categories_sizes":[],"default_left":[0,0,0,0,0],"id":21,"left_children":[1,3,-1,-1,-1],"loss_changes":[1.4019569E1,6.66903E0,0E0,0E0,0E0],"parents":[2147483647,0,0,1,1],"right_children":[2,4,-1,-1,-1],"split_conditions":[-1.1457851E-2,6.754389E0,-1.98486E-2,3.166944E-2,-1.5778687E-2],"split_indices":[45,27,0,0,0],"split_type":[0,0,0,0,0],"sum_hessian":[2.8326406E1,1.3072591E1,1.5253816E1,1.0256626E1,2.8159642E0],"tree_param":{"num_deleted":"0","num_feature":"53","num_nodes":"5","size_leaf_vector":"1"}},{"base_weights":[-9.5477045E-2,-3.8053802E-1,8.35938E-1,4.761699E-1,-5.063043E-1,-6.2784944E-3,3.0955255E-2,-6.181832E-3,2.477544E-2,-5.806605E-1,6.975705E-3,-1.9534945E-2,-6.7157187E-3],"categories":[],"categories_nodes":[],"categories_segments":[],"categories_sizes":[],"default_left":[0,0,0,0,0,0,0,0,0,0,0,0,0],"id":22,"left_children":[1,3,5,7,9,-1,-1,-1,-1,11,-1,-1,-1],"loss_changes":[9.329511E0,3.1150637E0,1.908535E0,1.1076856E0,1.4394298E0,0E0,0E0,0E0,0E0,4.0411758E-1,0E0,0E0,0E0],"parents":[2147483647,0,0,1,1,2,2,3,3,4,4,9,9],"right_children":[2,4,6,8,10,-1,-1,-1,-1,12,-1,-1,-1],"split_conditions":[3.311674E-1,3.235303E-1,3.1546388E0,3.326596E0,1.8242702E1,-6.2784944E-3,3.0955255E-2,-6.181832E-3,2.477544E-2,3.3070287E-1,6.975705E-3,-1.9534945E-2,-6.7157187E-3],"split_indices":[1,0,27,25,25,0,0,0,0,1,0,0,0],"split_type":[0,0,0,0,0,0,0,0,0,0,0,0,0],"sum_hessian":[3.293997E1,2.567388E1,7.266089E0,2.9298522E0,2.2744026E1,1.136127E0,6.129962E0,1.132001E0,1.7978513E0,2.0858852E1,1.8851739E0,1.6728334E1,4.130518E0],"tree_param":{"num_deleted":"0","num_feature":"53","num_nodes":"13","size_leaf_vector":"1"}},{"base_weights":[-2.1171993E-2,4.0258265E-1,-1.9406825E-2,-1.6615985E-2,6.5024143E-1,-1.0930116E-1,8.632105E-1,1.6721427E-2,-1.5221976E-2,2.8539877E-2,6.8220464E-3],"categories":[],"categories_nodes":[],"categories_segments":[],"categories_sizes":[],"default_left":[0,0,0,0,0,0,0,0,0,0,0],"id":23,"left_children":[1,3,-1,-1,5,7,9,-1,-1,-1,-1],"loss_changes":[8.936586E0,5.1273646E0,0E0,0E0,2.7546725E0,1.4742546E0,5.0960827E-1,0E0,0E0,0E0,0E0],"parents":[2147483647,0,0,1,1,4,4,5,5,6,6],"right_children":[2,4,-1,-1,6,8,10,-1,-1,-1,-1],"split_conditions":[4.36E0,2.7996733E0,-1.9406825E-2,-1.6615985E-2,3.2397628E-1,3.326596E0,3.3070287E-1,1.6721427E-2,-1.5221976E-2,2.8539877E-2,6.8220464E-3],"split_indices":[18,25,0,0,0,25,1,0,0,0,0],"split_type":[0,0,0,0,0,0,0,0,0,0,0],"sum_hessian":[3.1721367E1,1.9125628E1,1.2595738E1,3.6794248E0,1.5446203E1,3.489142E0,1.1957062E1,1.1549218E0,2.3342202E0,1.0065765E1,1.8912961E0],"tree_param":{"num_deleted":"0","num_feature":"53","num_nodes":"11","size_leaf_vector":"1"}},{"base_weights":[-2.364829E-2,6.476964E-1,-1.9624263E-2,3.069525E-2,-1.6124299E-2],"categories":[],"categories_nodes":[],"categories_segments":[],"categories_sizes":[],"default_left":[0,0,0,0,0],"id":24,"left_children":[1,3,-1,-1,-1],"loss_changes":[1.2651284E1,6.9994874E0,0E0,0E0,0E0],"parents":[2147483647,0,0,1,1],"right_children":[2,4,-1,-1,-1],"split_conditions":[-1.1457851E-2,6.754389E0,-1.9624263E-2,3.069525E-2,-1.6124299E-2],"split_indices":[45,27,0,0,0],"split_type":[0,0,0,0,0],"sum_hessian":[2.7887821E1,1.3493146E1,1.4394675E1,1.0350619E1,3.142527E0],"tree_param":{"num_deleted":"0","num_feature":"53","num_nodes":"5","size_leaf_vector":"1"}},{"base_weights":[-4.8442155E-2,-3.6055988E-1,8.326182E-1,2.4317164E-2,-4.9006003E-1,-6.1380253E-3,3.0425647E-2,-5.663365E-1,6.798713E-3,-1.903221E-2,-1.8222334E-3],"categories":[],"categories_nodes":[],"categories_segments":[],"categories_sizes":[],"default_left":[0,0,0,0,0,0,0,0,0,0,0],"id":25,"left_children":[1,3,5,-1,7,-1,-1,9,-1,-1,-1],"loss_changes":[9.145866E0,4.105383E0,1.8490667E0,0E0,1.3659286E0,0E0,0E0,6.754985E-1,0E0,0E0,0E0],"parents":[2147483647,0,0,1,1,2,2,4,4,7,7],"right_children":[2,4,6,-1,8,-1,-1,10,-1,-1,-1],"split_conditions":[3.311674E-1,3.235303E-1,3.1546388E0,2.4317164E-2,-5.3508673E-3,-6.1380253E-3,3.0425647E-2,6.2265635E-1,6.798713E-3,-1.903221E-2,-1.8222334E-3],"split_indices":[1,0,27,0,45,0,0,41,0,0,0],"split_type":[0,0,0,0,0,0,0,0,0,0,0],"sum_hessian":[3.1166666E1,2.3450157E1,7.716509E0,1.8112167E0,2.163894E1,1.130677E0,6.5858316E0,1.974705E1,1.8918911E0,1.7179346E1,2.5677042E0],"tree_param":{"num_deleted":"0","num_feature":"53","num_nodes":"11","size_leaf_vector":"1"}},{"base_weights":[1.6393432E-2,3.753579E-1,-1.8778617E-2,-3.3337423E-1,7.565096E-1,1.636061E-2,-1.7742075E-2,2.918805E-2,1.3224843E-3,1.6694218E-2,-1.3612864E-2],"categories":[],"categories_nodes":[],"categories_segments":[],"categories_sizes":[],"default_left":[0,0,0,0,0,0,0,0,0,0,0],"id":26,"left_children":[1,3,-1,5,7,-1,-1,-1,9,-1,-1],"loss_changes":[6.751337E0,5.3184714E0,0E0,1.9670322E0,2.0420098E0,0E0,0E0,0E0,1.2090292E0,0E0,0E0],"parents":[2147483647,0,0,1,1,3,3,4,4,8,8],"right_children":[2,4,-1,6,8,-1,-1,-1,10,-1,-1],"split_conditions":[4.36E0,-8.708234E-1,-1.8778617E-2,-2.86042E-2,-5.3057172E-3,1.636061E-2,-1.7742075E-2,2.918805E-2,1.3012E3,1.6694218E-2,-1.3612864E-2],"split_indices":[18,39,0,45,45,0,0,0,7,0,0],"split_type":[0,0,0,0,0,0,0,0,0,0,0],"sum_hessian":[2.7260841E1,1.7754627E1,9.506213E0,6.2529454E0,1.1501682E1,1.1665752E0,5.08637E0,8.715588E0,2.7860947E0,1.1546999E0,1.6313949E0],"tree_param":{"num_deleted":"0","num_feature":"53","num_nodes":"11","size_leaf_vector":"1"}},{"base_weights":[9.414064E-2,-3.6593002E-1,8.4215176E-1,2.5923926E-2,-1.9680407E-2,-1.2682534E-2,3.1183813E-2],"categories":[],"categories_nodes":[],"categories_segments":[],"categories_sizes":[],"default_left":[0,0,0,0,0,0,0],"id":27,"left_children":[1,3,5,-1,-1,-1,-1],"loss_changes":[1.1413615E1,7.9452167E0,3.582179E0,0E0,0E0,0E0,0E0],"parents":[2147483647,0,0,1,1,2,2],"right_children":[2,4,6,-1,-1,-1,-1],"split_conditions":[-4.7182524E-1,1.2402E3,3.2349566E-1,2.5923926E-2,-1.9680407E-2,-1.2682534E-2,3.1183813E-2],"split_indices":[40,7,0,0,0,0,0],"split_type":[0,0,0,0,0,0,0],"sum_hessian":[3.1270332E1,1.9678003E1,1.1592328E1,3.3774543E0,1.6300549E1,1.4100727E0,1.0182256E1],"tree_param":{"num_deleted":"0","num_feature":"53","num_nodes":"7","size_leaf_vector":"1"}},{"base_weights":[-3.9053194E-2,-2.888332E-1,7.5461227E-1,2.7631922E-2,-5.1937544E-1,-2.3226799E-3,2.8602097E-2,-5.116951E-2,-5.8412075E-1,2.6239608E-3,-5.6487736E-3,-1.873336E-2,-1.2157868E-3],"categories":[],"categories_nodes":[],"categories_segments":[],"categories_sizes":[],"default_left":[0,0,0,0,0,0,0,0,0,0,0,0,0],"id":28,"left_children":[1,3,5,-1,7,-1,-1,9,11,-1,-1,-1,-1],"loss_changes":[6.024845E0,6.8947268E0,1.2793756E0,0E0,5.7521105E-1,0E0,0E0,8.340265E-2,3.5698366E-1,0E0,0E0,0E0,0E0],"parents":[2147483647,0,0,1,1,2,2,4,4,7,7,8,8],"right_children":[2,4,6,-1,8,-1,-1,10,12,-1,-1,-1,-1],"split_conditions":[-5.3057172E-3,3.235303E-1,3.1546388E0,2.7631922E-2,3.442629E-1,-2.3226799E-3,2.8602097E-2,1.3703E3,6.911062E-1,2.6239608E-3,-5.6487736E-3,-1.873336E-2,-1.2157868E-3],"split_indices":[45,0,27,0,2,0,0,21,41,0,0,0,0],"split_type":[0,0,0,0,0,0,0,0,0,0,0,0,0],"sum_hessian":[2.8291952E1,2.2003237E1,6.2887154E0,3.0422337E0,1.8961002E1,1.3304946E0,4.958221E0,2.5209632E0,1.644004E1,1.4336474E0,1.0873158E0,1.5166253E1,1.273787E0],"tree_param":{"num_deleted":"0","num_feature":"53","num_nodes":"13","size_leaf_vector":"1"}},{"base_weights":[-1.8612294E-2,4.487159E-1,-5.172365E-1,8.547233E-1,-1.6774472E-2,-1.930519E-2,1.4451432E-2,2.8409133E-2,6.779339E-3],"categories":[],"categories_nodes":[],"categories_segments":[],"categories_sizes":[],"default_left":[0,0,0,0,0,0,0,0,0],"id":29,"left_children":[1,3,5,7,-1,-1,-1,-1,-1],"loss_changes":[7.063368E0,6.8894506E0,2.157606E0,4.5675373E-1,0E0,0E0,0E0,0E0,0E0],"parents":[2147483647,0,0,1,1,2,2,3,3],"right_children":[2,4,6,8,-1,-1,-1,-1,-1],"split_conditions":[3.3040696E-1,-5.493738E-1,4.35205E6,2.82583E6,-1.6774472E-2,-1.930519E-2,1.4451432E-2,2.8409133E-2,6.779339E-3],"split_indices":[1,40,9,9,0,0,0,0,0],"split_type":[0,0,0,0,0,0,0,0,0],"sum_hessian":[2.8316114E1,1.4668433E1,1.3647681E1,1.0564562E1,4.1038713E0,1.2432057E1,1.2156247E0,8.7715025E0,1.7930597E0],"tree_param":{"num_deleted":"0","num_feature":"53","num_nodes":"9","size_leaf_vector":"1"}},{"base_weights":[9.035533E-2,7.0609736E-1,-1.9295126E-2,9.3517286E-1,-1.4886222E-2,1.648991E-2,3.1109722E-2],"categories":[],"categories_nodes":[],"categories_segments":[],"categories_sizes":[],"default_left":[0,0,0,0,0,0,0],"id":30,"left_children":[1,3,-1,5,-1,-1,-1],"loss_changes":[1.4980256E1,5.4108744E0,0E0,3.5788536E-2,0E0,0E0,0E0],"parents":[2147483647,0,0,1,1,3,3],"right_children":[2,4,-1,6,-1,-1,-1],"split_conditions":[-8.708234E-1,6.754389E0,-1.9295126E-2,1.4161E3,-1.4886222E-2,1.648991E-2,3.1109722E-2],"split_indices":[39,27,0,21,0,0,0],"split_type":[0,0,0,0,0,0,0],"sum_hessian":[3.1161406E1,1.6961147E1,1.4200259E1,1.4433341E1,2.527806E0,4.3524237E0,1.0080917E1],"tree_param":{"num_deleted":"0","num_feature":"53","num_nodes":"7","size_leaf_vector":"1"}},{"base_weights":[-4.6321176E-2,-3.4634197E-1,7.953314E-1,2.461729E-2,-4.8449972E-1,-2.5104794E-3,2.8793432E-2,-5.593627E-1,7.065625E-3,-1.7991086E-2,-7.567359E-3],"categories":[],"categories_nodes":[],"categories_segments":[],"categories_sizes":[],"default_left":[0,0,0,0,0,0,0,0,0,0,0],"id":31,"left_children":[1,3,5,-1,7,-1,-1,9,-1,-1,-1],"loss_changes":[8.635713E0,4.4448547E0,1.3818593E0,0E0,1.375576E0,0E0,0E0,1.1136007E-1,0E0,0E0,0E0],"parents":[2147483647,0,0,1,1,2,2,4,4,7,7],"right_children":[2,4,6,-1,8,-1,-1,10,-1,-1,-1],"split_conditions":[3.311674E-1,3.235149E-1,6.401218E0,2.461729E-2,1.8242702E1,-2.5104794E-3,2.8793432E-2,1.6259851E1,7.065625E-3,-1.7991086E-2,-7.567359E-3],"split_indices":[1,0,29,0,25,0,0,29,0,0,0],"split_type":[0,0,0,0,0,0,0,0,0,0,0],"sum_hessian":[3.210818E1,2.4104305E1,8.003875E0,2.0288303E0,2.2075476E1,1.3388119E0,6.665063E0,2.0198498E1,1.8769768E0,1.7011356E1,3.187143E0],"tree_param":{"num_deleted":"0","num_feature":"53","num_nodes":"11","size_leaf_vector":"1"}},{"base_weights":[4.186747E-2,-1.8618962E-2,3.6688516E-1,-1.6703244E-2,6.4220405E-1,-1.3777731E-2,8.303817E-1,2.871231E-2,2.8196848E-3],"categories":[],"categories_nodes":[],"categories_segments":[],"categories_sizes":[],"default_left":[0,0,0,0,0,0,0,0,0],"id":32,"left_children":[1,-1,3,-1,5,-1,7,-1,-1],"loss_changes":[6.5750155E0,0E0,5.5464416E0,0E0,3.735704E0,0E0,1.2328272E0,0E0,0E0],"parents":[2147483647,0,0,2,2,4,4,6,6],"right_children":[2,-1,4,-1,6,-1,8,-1,-1],"split_conditions":[3.2398227E-1,-1.8618962E-2,2.7205553E0,-1.6703244E-2,3.433194E-1,-1.3777731E-2,1.5229335E1,2.871231E-2,2.8196848E-3],"split_indices":[0,0,25,0,2,0,25,0,0],"split_type":[0,0,0,0,0,0,0,0,0],"sum_hessian":[2.8477964E1,9.073491E0,1.9404474E1,4.2210603E0,1.51834135E1,2.0052886E0,1.3178125E1,1.0987974E1,2.1901505E0],"tree_param":{"num_deleted":"0","num_feature":"53","num_nodes":"9","size_leaf_vector":"1"}},{"base_weights":[5.397253E-2,6.4988756E-1,-1.9197872E-2,2.8461916E-2,-1.6021552E-2],"categories":[],"categories_nodes":[],"categories_segments":[],"categories_sizes":[],"default_left":[0,0,0,0,0],"id":33,"left_children":[1,3,-1,-1,-1],"loss_changes":[1.4268603E1,7.0589013E0,0E0,0E0,0E0],"parents":[2147483647,0,0,1,1],"right_children":[2,4,-1,-1,-1],"split_conditions":[-1.1457851E-2,6.754389E0,-1.9197872E-2,2.8461916E-2,-1.6021552E-2],"split_indices":[45,27,0,0,0],"split_type":[0,0,0,0,0],"sum_hessian":[3.250062E1,1.751896E1,1.4981661E1,1.414678E1,3.372181E0],"tree_param":{"num_deleted":"0","num_feature":"53","num_nodes":"5","size_leaf_vector":"1"}},{"base_weights":[3.1647425E-2,-2.4089012E-1,7.4492687E-1,4.990013E-1,-4.127307E-1,-6.473515E-3,2.8112635E-2,-6.7594154E-3,2.481323E-2,-5.1937807E-1,9.164686E-2,-1.7318346E-2,-7.3480867E-3,7.628373E-3,-5.2524684E-3],"categories":[],"categories_nodes":[],"categories_segments":[],"categories_sizes":[],"default_left":[0,0,0,0,0,0,0,0,0,0,0,0,0,0,0],"id":34,"left_children":[1,3,5,7,9,-1,-1,-1,-1,11,13,-1,-1,-1,-1],"loss_changes":[5.611418E0,2.8725934E0,1.6734505E0,1.2333868E0,9.925797E-1,0E0,0E0,0E0,0E0,9.14197E-2,2.1440248E-1,0E0,0E0,0E0,0E0],"parents":[2147483647,0,0,1,1,2,2,3,3,4,4,9,9,10,10],"right_children":[2,4,6,8,10,-1,-1,-1,-1,12,14,-1,-1,-1,-1],"split_conditions":[3.311674E-1,3.235303E-1,4.677866E1,3.326596E0,1.0404302E1,-6.473515E-3,2.8112635E-2,-6.7594154E-3,2.481323E-2,4.720825E-1,3.2581532E-1,-1.7318346E-2,-7.3480867E-3,7.628373E-3,-5.2524684E-3],"split_indices":[1,0,28,25,25,0,0,0,0,44,0,0,0,0,0],"split_type":[0,0,0,0,0,0,0,0,0,0,0,0,0,0,0],"sum_hessian":[2.6942902E1,1.9973492E1,6.9694104E0,3.405711E0,1.6567781E1,1.1411728E0,5.8282375E0,1.159448E0,2.2462628E0,1.3651516E1,2.916265E0,1.036195E1,3.2895656E0,1.8406473E0,1.0756178E0],"tree_param":{"num_deleted":"0","num_feature":"53","num_nodes":"15","size_leaf_vector":"1"}},{"base_weights":[-1.3676715E-1,-1.9056648E-2,3.7365323E-1,8.5206026E-1,-3.1199315E-1,8.448174E-3,2.8114837E-2,1.6303258E-2,-1.7517146E-2],"categories":[],"categories_nodes":[],"categories_segments":[],"categories_sizes":[],"default_left":[0,0,0,0,0,0,0,0,0],"id":35,"left_children":[1,-1,3,5,7,-1,-1,-1,-1],"loss_changes":[7.54447E0,0E0,5.1269274E0,1.7286015E-1,1.9042708E0,0E0,0E0,0E0,0E0],"parents":[2147483647,0,0,2,2,3,3,4,4],"right_children":[2,-1,4,6,8,-1,-1,-1,-1],"split_conditions":[-8.708234E-1,-1.9056648E-2,-5.3508673E-3,3.4416908E-1,4.686718E1,8.448174E-3,2.8114837E-2,1.6303258E-2,-1.7517146E-2],"split_indices":[39,0,45,2,28,0,0,0,0],"split_type":[0,0,0,0,0,0,0,0,0],"sum_hessian":[2.772054E1,1.3900959E1,1.3819581E1,7.996997E0,5.8225837E0,1.5975145E0,6.3994827E0,1.1635271E0,4.6590567E0],"tree_param":{"num_deleted":"0","num_feature":"53","num_nodes":"9","size_leaf_vector":"1"}},{"base_weights":[1.1238457E-1,7.4260175E-1,-1.896902E-2,2.8511075E-2,-1.4167899E-2],"categories":[],"categories_nodes":[],"categories_segments":[],"categories_sizes":[],"default_left":[0,0,0,0,0],"id":36,"left_children":[1,3,-1,-1,-1],"loss_changes":[1.4944589E1,4.7815123E0,0E0,0E0,0E0],"parents":[2147483647,0,0,1,1],"right_children":[2,4,-1,-1,-1],"split_conditions":[-1.1457851E-2,6.754389E0,-1.896902E-2,2.8511075E-2,-1.4167899E-2],"split_indices":[45,27,0,0,0],"split_type":[0,0,0,0,0],"sum_hessian":[2.9843018E1,1.616532E1,1.3677697E1,1.3990387E1,2.1749332E0],"tree_param":{"num_deleted":"0","num_feature":"53","num_nodes":"5","size_leaf_vector":"1"}},{"base_weights":[4.249365E-2,-3.944095E-1,8.337534E-1,-5.0251216E-1,2.0210763E-2,-2.5211151E-3,2.9231822E-2,-6.0078853E-1,6.7599397E-3,-1.9286541E-2,-6.5230844E-3],"categories":[],"categories_nodes":[],"categories_segments":[],"categories_sizes":[],"default_left":[0,0,0,0,0,0,0,0,0,0,0],"id":37,"left_children":[1,3,5,7,-1,-1,-1,9,-1,-1,-1],"loss_changes":[1.0373279E1,2.5783143E0,1.4574881E0,1.4363523E0,0E0,0E0,0E0,1.2320852E-1,0E0,0E0,0E0],"parents":[2147483647,0,0,1,1,2,2,3,3,7,7],"right_children":[2,4,6,8,-1,-1,-1,10,-1,-1,-1],"split_conditions":[3.3056918E-1,1.4145214E3,3.1546388E0,1.8242702E1,2.0210763E-2,-2.5211151E-3,2.9231822E-2,1.0404302E1,6.7599397E-3,-1.9286541E-2,-6.5230844E-3],"split_indices":[1,26,27,25,0,0,0,25,0,0,0],"split_type":[0,0,0,0,0,0,0,0,0,0,0],"sum_hessian":[2.8055035E1,1.8397942E1,9.657092E0,1.7187881E1,1.2100593E0,1.3366798E0,8.320413E0,1.5296986E1,1.890897E0,1.3173398E1,2.1235871E0],"tree_param":{"num_deleted":"0","num_feature":"53","num_nodes":"11","size_leaf_vector":"1"}},{"base_weights":[4.7070947E-2,3.7637287E-1,-1.8236697E-2,-1.5842048E-2,5.990785E-1,7.8322697E-1,-9.823E-2,2.6918394E-2,4.3739243E-3,1.9105012E-2,-1.5332199E-2],"categories":[],"categories_nodes":[],"categories_segments":[],"categories_sizes":[],"default_left":[0,0,0,0,0,0,0,0,0,0,0],"id":38,"left_children":[1,3,-1,-1,5,7,9,-1,-1,-1,-1],"loss_changes":[6.4978004E0,4.336629E0,0E0,0E0,2.1936364E0,8.25325E-1,1.6401818E0,0E0,0E0,0E0,0E0],"parents":[2147483647,0,0,1,1,4,4,5,5,6,6],"right_children":[2,4,-1,-1,6,8,10,-1,-1,-1,-1],"split_conditions":[4.36E0,2.7996733E0,-1.8236697E-2,-1.5842048E-2,-5.3508673E-3,1.3949E3,1.297E3,2.6918394E-2,4.3739243E-3,1.9105012E-2,-1.5332199E-2],"split_indices":[18,25,0,0,45,6,6,0,0,0,0],"split_type":[0,0,0,0,0,0,0,0,0,0,0],"sum_hessian":[2.806626E1,1.8959255E1,9.107004E0,3.4751194E0,1.5484136E1,1.21518135E1,3.3323226E0,9.961741E0,2.1900716E0,1.0033362E0,2.3289864E0],"tree_param":{"num_deleted":"0","num_feature":"53","num_nodes":"11","size_leaf_vector":"1"}},{"base_weights":[1.2096433E-2,6.1767066E-1,-1.867949E-2,2.6169408E-2,-1.4318268E-2],"categories":[],"categories_nodes":[],"categories_segments":[],"categories_sizes":[],"default_left":[0,0,0,0,0],"id":39,"left_children":[1,3,-1,-1,-1],"loss_changes":[1.0612588E1,4.353069E0,0E0,0E0,0E0],"parents":[2147483647,0,0,1,1],"right_children":[2,4,-1,-1,-1],"split_conditions":[-1.1457851E-2,6.754389E0,-1.867949E-2,2.6169408E-2,-1.4318268E-2],"split_indices":[45,27,0,0,0],"split_type":[0,0,0,0,0],"sum_hessian":[2.5608665E1,1.3119252E1,1.2489412E1,1.0808851E1,2.3104012E0],"tree_param":{"num_deleted":"0","num_feature":"53","num_nodes":"5","size_leaf_vector":"1"}},{"base_weights":[-4.0162146E-2,-3.4427145E-1,2.7971389E-2,-4.2951107E-1,2.0460222E-2,-5.1839215E-1,1.7940363E-2,-1.726755E-2,1.9836759E-3],"categories":[],"categories_nodes":[],"categories_segments":[],"categories_sizes":[],"default_left":[0,0,0,0,0,0,0,0,0],"id":40,"left_children":[1,3,-1,5,-1,7,-1,-1,-1],"loss_changes":[9.228177E0,2.363809E0,0E0,2.3622122E0,0E0,7.4736404E-1,0E0,0E0,0E0],"parents":[2147483647,0,0,1,1,3,3,5,5],"right_children":[2,4,-1,6,-1,8,-1,-1,-1],"split_conditions":[-5.3918674E-3,5.367879E-1,2.7971389E-2,3.311674E-1,2.0460222E-2,1.8737276E1,1.7940363E-2,-1.726755E-2,1.9836759E-3],"split_indices":[45,44,0,1,0,30,0,0,0],"split_type":[0,0,0,0,0,0,0,0,0],"sum_hessian":[2.911636E1,2.2672716E1,6.4436445E0,2.1470896E1,1.2018204E0,2.0217564E1,1.2533318E0,1.8429567E1,1.7879963E0],"tree_param":{"num_deleted":"0","num_feature":"53","num_nodes":"9","size_leaf_vector":"1"}},{"base_weights":[-3.6362547E-2,-1.8195894E-2,3.261112E-1,-1.53513765E-2,5.8495146E-1,-1.33261895E-2,7.706304E-1,2.598561E-2,6.009604E-3],"categories":[],"categories_nodes":[],"categories_segments":[],"categories_sizes":[],"default_left":[0,0,0,0,0,0,0,0,0],"id":41,"left_children":[1,-1,3,-1,5,-1,7,-1,-1],"loss_changes":[5.065101E0,0E0,3.562714E0,0E0,2.6283708E0,0E0,3.987155E-1,0E0,0E0],"parents":[2147483647,0,0,2,2,4,4,6,6],"right_children":[2,-1,4,-1,6,-1,8,-1,-1],"split_conditions":[-8.708234E-1,-1.8195894E-2,3.4363678E-1,-1.53513765E-2,3.245826E-1,-1.33261895E-2,3.002551E6,2.598561E-2,6.009604E-3],"split_indices":[39,0,2,0,0,0,9,0,0],"split_type":[0,0,0,0,0,0,0,0,0],"sum_hessian":[2.2551022E1,8.502841E0,1.4048182E1,3.085141E0,1.096304E1,1.4628123E0,9.500229E0,7.69253E0,1.8076985E0],"tree_param":{"num_deleted":"0","num_feature":"53","num_nodes":"9","size_leaf_vector":"1"}},{"base_weights":[-2.1494733E-2,5.2307355E-1,-1.8602975E-2,7.847812E-1,-1.5161306E-2,2.765666E-2,4.5441478E-1,-1.1701952E-2,2.3133961E-2],"categories":[],"categories_nodes":[],"categories_segments":[],"categories_sizes":[],"default_left":[0,0,0,0,0,0,0,0,0],"id":42,"left_children":[1,3,-1,5,-1,-1,7,-1,-1],"loss_changes":[9.370543E0,4.4537277E0,0E0,1.4309454E-1,0E0,0E0,1.801561E0,0E0,0E0],"parents":[2147483647,0,0,1,1,3,3,6,6],"right_children":[2,4,-1,6,-1,-1,8,-1,-1],"split_conditions":[-1.1457851E-2,4.890422E0,-1.8602975E-2,1.452659E6,-1.5161306E-2,2.765666E-2,3.4669876E-1,-1.1701952E-2,2.3133961E-2],"split_indices":[45,25,0,9,0,0,2,0,0],"split_type":[0,0,0,0,0,0,0,0,0],"sum_hessian":[2.6750648E1,1.4073628E1,1.267702E1,1.140767E1,2.6659577E0,6.796506E0,4.6111646E0,1.1945323E0,3.4166322E0],"tree_param":{"num_deleted":"0","num_feature":"53","num_nodes":"9","size_leaf_vector":"1"}},{"base_weights":[6.746157E-2,-3.6143887E-1,7.867242E-1,-5.0165E-1,2.1542573E-2,-3.4371081E-3,2.8119382E-2,-6.1403704E-1,6.492157E-3,-1.9165661E-2,-4.4349995E-3],"categories":[],"categories_nodes":[],"categories_segments":[],"categories_sizes":[],"default_left":[0,0,0,0,0,0,0,0,0,0,0],"id":43,"left_children":[1,3,5,7,-1,-1,-1,9,-1,-1,-1],"loss_changes":[8.515888E0,2.9940302E0,1.5029597E0,1.423213E0,0E0,0E0,0E0,6.853628E-2,0E0,0E0,0E0],"parents":[2147483647,0,0,1,1,2,2,3,3,7,7],"right_children":[2,4,6,8,-1,-1,-1,10,-1,-1,-1],"split_conditions":[3.3056918E-1,1.4136857E3,4.677866E1,1.8242702E1,2.1542573E-2,-3.4371081E-3,2.8119382E-2,2.151421E1,6.492157E-3,-1.9165661E-2,-4.4349995E-3],"split_indices":[1,26,28,25,0,0,0,29,0,0,0],"split_type":[0,0,0,0,0,0,0,0,0,0,0],"sum_hessian":[2.5683138E1,1.6400759E1,9.28238E0,1.4989228E1,1.4115303E0,1.3631153E0,7.9192643E0,1.3085933E1,1.9032954E0,1.2072897E1,1.0130361E0],"tree_param":{"num_deleted":"0","num_feature":"53","num_nodes":"11","size_leaf_vector":"1"}},{"base_weights":[4.0138017E-2,3.921536E-1,-1.796283E-2,7.78139E-1,-3.0907735E-1,2.592883E-2,5.8411993E-3,1.5538691E-2,-1.694475E-2],"categories":[],"categories_nodes":[],"categories_segments":[],"categories_sizes":[],"default_left":[0,0,0,0,0,0,0,0,0],"id":44,"left_children":[1,3,-1,5,7,-1,-1,-1,-1],"loss_changes":[6.26093E0,5.0800266E0,0E0,4.2568636E-1,1.7865795E0,0E0,0E0,0E0,0E0],"parents":[2147483647,0,0,1,1,3,3,4,4],"right_children":[2,4,-1,6,8,-1,-1,-1,-1],"split_conditions":[4.6035716E-1,3.3070287E-1,-1.796283E-2,3.002551E6,6.401218E0,2.592883E-2,5.8411993E-3,1.5538691E-2,-1.694475E-2],"split_indices":[44,1,0,9,29,0,0,0,0],"split_type":[0,0,0,0,0,0,0,0,0],"sum_hessian":[2.5794395E1,1.6880123E1,8.914273E0,1.0816574E1,6.063548E0,9.005358E0,1.8112166E0,1.1900182E0,4.87353E0],"tree_param":{"num_deleted":"0","num_feature":"53","num_nodes":"9","size_leaf_vector":"1"}},{"base_weights":[-5.4194573E-3,5.190321E-1,-1.8370014E-2,2.6133027E-2,-1.5751235E-2],"categories":[],"categories_nodes":[],"categories_segments":[],"categories_sizes":[],"default_left":[0,0,0,0,0],"id":45,"left_children":[1,3,-1,-1,-1],"loss_changes":[8.926699E0,5.98962E0,0E0,0E0,0E0],"parents":[2147483647,0,0,1,1],"right_children":[2,4,-1,-1,-1],"split_conditions":[-1.1457851E-2,6.754389E0,-1.8370014E-2,2.6133027E-2,-1.5751235E-2],"split_indices":[45,27,0,0,0],"split_type":[0,0,0,0,0],"sum_hessian":[2.6046665E1,1.4050253E1,1.1996412E1,1.0631057E1,3.4191957E0],"tree_param":{"num_deleted":"0","num_feature":"53","num_nodes":"5","size_leaf_vector":"1"}},{"base_weights":[-4.879059E-2,-3.4667483E-1,2.6061231E-2,2.2525487E-2,-4.831562E-1,-5.59412E-1,6.4654932E-3,-1.8429365E-2,-7.6554427E-3],"categories":[],"categories_nodes":[],"categories_segments":[],"categories_sizes":[],"default_left":[0,0,0,0,0,0,0,0,0],"id":46,"left_children":[1,3,-1,-1,5,7,-1,-1,-1],"loss_changes":[8.820893E0,3.9947941E0,0E0,0E0,1.3019376E0,1.8179369E-1,0E0,0E0,0E0],"parents":[2147483647,0,0,1,1,4,4,5,5],"right_children":[2,4,-1,-1,6,8,-1,-1,-1],"split_conditions":[3.311674E-1,3.235303E-1,2.6061231E-2,2.2525487E-2,1.8242702E1,3.3070287E-1,6.4654932E-3,-1.8429365E-2,-7.6554427E-3],"split_indices":[1,0,0,0,25,1,0,0,0],"split_type":[0,0,0,0,0,0,0,0,0],"sum_hessian":[3.0172619E1,2.3247126E1,6.9254937E0,2.0732734E0,2.1173851E1,1.9269974E1,1.9038768E0,1.546076E1,3.8092144E0],"tree_param":{"num_deleted":"0","num_feature":"53","num_nodes":"9","size_leaf_vector":"1"}},{"base_weights":[9.663433E-2,-4.5625594E-1,4.8552442E-1,9.8878555E-3,-1.8074937E-2,-1.4711781E-2,7.0311004E-1,7.8069174E-1,4.0829084E-3,2.6522279E-2,4.850493E-3],"categories":[],"categories_nodes":[],"categories_segments":[],"categories_sizes":[],"default_left":[0,0,0,0,0,0,0,0,0,0,0],"id":47,"left_children":[1,3,5,-1,-1,-1,7,9,-1,-1,-1],"loss_changes":[6.53069E0,1.6503308E0,4.1056314E0,0E0,0E0,0E0,5.488877E-1,6.8192196E-1,0E0,0E0,0E0],"parents":[2147483647,0,0,1,1,2,2,6,6,7,7],"right_children":[2,4,6,-1,-1,-1,8,10,-1,-1,-1],"split_conditions":[-8.708234E-1,3.232937E-1,3.4363678E-1,9.8878555E-3,-1.8074937E-2,-1.4711781E-2,1.8242702E1,3.3070287E-1,4.0829084E-3,2.6522279E-2,4.850493E-3],"split_indices":[39,0,2,0,0,0,25,1,0,0,0],"split_type":[0,0,0,0,0,0,0,0,0,0,0],"sum_hessian":[2.8343117E1,1.1632215E1,1.6710901E1,1.6283408E0,1.0003874E1,2.817962E0,1.389294E1,1.1889331E1,2.0036094E0,9.820875E0,2.0684552E0],"tree_param":{"num_deleted":"0","num_feature":"53","num_nodes":"11","size_leaf_vector":"1"}},{"base_weights":[5.2570007E-3,6.288139E-1,-1.8341765E-2,2.4662087E-2,-1.2861758E-2],"categories":[],"categories_nodes":[],"categories_segments":[],"categories_sizes":[],"default_left":[0,0,0,0,0],"id":48,"left_children":[1,3,-1,-1,-1],"loss_changes":[1.0520229E1,3.1318436E0,0E0,0E0,0E0],"parents":[2147483647,0,0,1,1],"right_children":[2,4,-1,-1,-1],"split_conditions":[-1.1457851E-2,6.754389E0,-1.8341765E-2,2.4662087E-2,-1.2861758E-2],"split_indices":[45,27,0,0,0],"split_type":[0,0,0,0,0],"sum_hessian":[2.5359842E1,1.2599487E1,1.2760354E1,1.0841043E1,1.7584441E0],"tree_param":{"num_deleted":"0","num_feature":"53","num_nodes":"5","size_leaf_vector":"1"}},{"base_weights":[9.065682E-2,-2.97792E-1,7.504401E-1,1.9196777E-2,-4.0683392E-1,-3.722804E-3,2.6961137E-2,-4.944721E-1,4.675996E-3,-1.6903328E-2,2.220102E-3],"categories":[],"categories_nodes":[],"categories_segments":[],"categories_sizes":[],"default_left":[0,0,0,0,0,0,0,0,0,0,0],"id":49,"left_children":[1,3,5,-1,7,-1,-1,9,-1,-1,-1],"loss_changes":[7.1494455E0,2.0726895E0,1.4468403E0,0E0,8.902669E-1,0E0,0E0,6.105263E-1,0E0,0E0,0E0],"parents":[2147483647,0,0,1,1,2,2,4,4,7,7],"right_children":[2,4,6,-1,8,-1,-1,10,-1,-1,-1],"split_conditions":[3.3070287E-1,-3.796184E-1,4.677866E1,1.9196777E-2,1.4093E3,-3.722804E-3,2.6961137E-2,3.002551E6,4.675996E-3,-1.6903328E-2,2.220102E-3],"split_indices":[1,41,28,0,6,0,0,9,0,0,0],"split_type":[0,0,0,0,0,0,0,0,0,0,0],"sum_hessian":[2.6023745E1,1.6725325E1,9.298419E0,1.2351946E0,1.549013E1,1.3715278E0,7.926891E0,1.35076275E1,1.982503E0,1.20539875E1,1.4536402E0],"tree_param":{"num_deleted":"0","num_feature":"53","num_nodes":"11","size_leaf_vector":"1"}},{"base_weights":[1.5455172E-2,3.644006E-1,-1.7969277E-2,5.895082E-1,-1.5852476E-2,7.371489E-1,-6.589756E-2,2.4333036E-2,5.104477E-3,1.8803347E-2,-1.4750733E-2],"categories":[],"categories_nodes":[],"categories_segments":[],"categories_sizes":[],"default_left":[0,0,0,0,0,0,0,0,0,0,0],"id":50,"left_children":[1,3,-1,5,-1,7,9,-1,-1,-1,-1],"loss_changes":[7.1525855E0,4.5822086E0,0E0,1.7364664E0,0E0,4.623747E-1,1.5247658E0,0E0,0E0,0E0,0E0],"parents":[2147483647,0,0,1,1,3,3,5,5,6,6],"right_children":[2,4,-1,6,-1,8,10,-1,-1,-1,-1],"split_conditions":[4.36E0,4.6035716E-1,-1.7969277E-2,-5.3508673E-3,-1.5852476E-2,3.3040696E-1,1.297E3,2.4333036E-2,5.104477E-3,1.8803347E-2,-1.4750733E-2],"split_indices":[18,44,0,45,0,1,6,0,0,0,0],"split_type":[0,0,0,0,0,0,0,0,0,0,0],"sum_hessian":[3.1342463E1,2.0249418E1,1.1093044E1,1.6443266E1,3.8061526E0,1.3318368E1,3.1248982E0,1.14008665E1,1.917501E0,1.009931E0,2.1149673E0],"tree_param":{"num_deleted":"0","num_feature":"53","num_nodes":"11","size_leaf_vector":"1"}},{"base_weights":[4.0591702E-2,5.972972E-1,-1.8396385E-2,2.5936589E-2,-1.5265167E-2],"categories":[],"categories_nodes":[],"categories_segments":[],"categories_sizes":[],"default_left":[0,0,0,0,0],"id":51,"left_children":[1,3,-1,-1,-1],"loss_changes":[1.2293155E1,5.8216844E0,0E0,0E0,0E0],"parents":[2147483647,0,0,1,1],"right_children":[2,4,-1,-1,-1],"split_conditions":[-1.1457851E-2,6.754389E0,-1.8396385E-2,2.5936589E-2,-1.5265167E-2],"split_indices":[45,27,0,0,0],"split_type":[0,0,0,0,0],"sum_hessian":[3.1768278E1,1.7204939E1,1.4563339E1,1.403284E1,3.1720994E0],"tree_param":{"num_deleted":"0","num_feature":"53","num_nodes":"5","size_leaf_vector":"1"}},{"base_weights":[-6.422234E-2,-3.5419556E-1,6.859656E-1,3.4514606E-1,-4.6499223E-1,-3.213117E-3,2.5083827E-2,2.0759685E-2,-7.18272E-3,-5.270318E-1,4.659437E-3,-1.799484E-2,-6.0247015E-3],"categories":[],"categories_nodes":[],"categories_segments":[],"categories_sizes":[],"default_left":[0,0,0,0,0,0,0,0,0,0,0,0,0],"id":52,"left_children":[1,3,5,7,9,-1,-1,-1,-1,11,-1,-1,-1],"loss_changes":[7.210764E0,2.0015898E0,1.1935034E0,9.4092166E-1,8.8759565E-1,0E0,0E0,0E0,0E0,3.3693218E-1,0E0,0E0,0E0],"parents":[2147483647,0,0,1,1,2,2,3,3,4,4,9,9],"right_children":[2,4,6,8,10,-1,-1,-1,-1,12,-1,-1,-1],"split_conditions":[3.311674E-1,3.235303E-1,3.1546388E0,2.1169632E1,1.5229335E1,-3.213117E-3,2.5083827E-2,2.0759685E-2,-7.18272E-3,3.3070287E-1,4.659437E-3,-1.799484E-2,-6.0247015E-3],"split_indices":[1,0,27,30,25,0,0,0,0,1,0,0,0],"split_type":[0,0,0,0,0,0,0,0,0,0,0,0,0],"sum_hessian":[3.1030785E1,2.276081E1,8.269973E0,2.8235576E0,1.9937254E1,1.3622248E0,6.9077477E0,1.6567805E0,1.1667773E0,1.8261238E1,1.6760163E0,1.4243818E1,4.017419E0],"tree_param":{"num_deleted":"0","num_feature":"53","num_nodes":"13","size_leaf_vector":"1"}},{"base_weights":[-1.2019404E-1,5.76736E-1,-3.7614992E-1,7.7813005E-1,-1.0441158E-2,-5.2882504E-1,1.8068992E-2,2.6576271E-2,8.044892E-3,7.727108E-3,-1.8869823E-2],"categories":[],"categories_nodes":[],"categories_segments":[],"categories_sizes":[],"default_left":[0,0,0,0,0,0,0,0,0,0,0],"id":53,"left_children":[1,3,5,7,-1,9,-1,-1,-1,-1,-1],"loss_changes":[5.170767E0,1.7336311E0,3.443109E0,1.3381004E-1,0E0,1.6292009E0,0E0,0E0,0E0,0E0,0E0],"parents":[2147483647,0,0,1,1,2,2,3,3,5,5],"right_children":[2,4,6,8,-1,10,-1,-1,-1,-1,-1],"split_conditions":[2.1123329E-1,8.130874E-1,3.2576892E-1,1.3507295E1,-1.0441158E-2,3.232937E-1,1.8068992E-2,2.6576271E-2,8.044892E-3,7.727108E-3,-1.8869823E-2],"split_indices":[44,38,0,25,0,0,0,0,0,0,0],"split_type":[0,0,0,0,0,0,0,0,0,0,0],"sum_hessian":[2.6770689E1,6.854268E0,1.9916422E1,5.758726E0,1.0955417E0,1.7625677E1,2.2907438E0,4.1457005E0,1.613026E0,1.8139087E0,1.5811769E1],"tree_param":{"num_deleted":"0","num_feature":"53","num_nodes":"11","size_leaf_vector":"1"}},{"base_weights":[6.690316E-2,5.5436313E-1,-1.8045345E-2,2.4638643E-2,-1.5416379E-2],"categories":[],"categories_nodes":[],"categories_segments":[],"categories_sizes":[],"default_left":[0,0,0,0,0],"id":54,"left_children":[1,3,-1,-1,-1],"loss_changes":[1.0489239E1,5.7099495E0,0E0,0E0,0E0],"parents":[2147483647,0,0,1,1],"right_children":[2,4,-1,-1,-1],"split_conditions":[-1.1457851E-2,6.754389E0,-1.8045345E-2,2.4638643E-2,-1.5416379E-2],"split_indices":[45,27,0,0,0],"split_type":[0,0,0,0,0],"sum_hessian":[3.01694E1,1.7544914E1,1.2624485E1,1.4222319E1,3.3225954E0],"tree_param":{"num_deleted":"0","num_feature":"53","num_nodes":"5","size_leaf_vector":"1"}},{"base_weights":[-6.8934076E-2,-3.0897585E-1,6.446091E-1,3.9123765E-1,-4.4102672E-1,-6.5833856E-3,2.4668025E-2,2.1307314E-2,-7.2991643E-3,-5.036927E-1,5.128641E-3,-1.8032061E-2,-5.0551393E-3],"categories":[],"categories_nodes":[],"categories_segments":[],"categories_sizes":[],"default_left":[0,0,0,0,0,0,0,0,0,0,0,0,0],"id":55,"left_children":[1,3,5,7,9,-1,-1,-1,-1,11,-1,-1,-1],"loss_changes":[5.4050846E0,2.3379703E0,1.40466E0,1.0322348E0,8.597686E-1,0E0,0E0,0E0,0E0,5.042734E-1,0E0,0E0,0E0],"parents":[2147483647,0,0,1,1,2,2,3,3,4,4,9,9],"right_children":[2,4,6,8,10,-1,-1,-1,-1,12,-1,-1,-1],"split_conditions":[-5.3057172E-3,3.235303E-1,3.1546388E0,2.1169632E1,6.2265635E-1,-6.5833856E-3,2.4668025E-2,2.1307314E-2,-7.2991643E-3,6.754389E0,5.128641E-3,-1.8032061E-2,-5.0551393E-3],"split_indices":[45,0,27,30,41,0,0,0,0,27,0,0,0],"split_type":[0,0,0,0,0,0,0,0,0,0,0,0,0],"sum_hessian":[2.9394154E1,2.2419151E1,6.9750023E0,3.2457013E0,1.9173449E1,1.1494331E0,5.825569E0,2.0804763E0,1.165225E0,1.7552996E1,1.6204529E0,1.29869175E1,4.566079E0],"tree_param":{"num_deleted":"0","num_feature":"53","num_nodes":"13","size_leaf_vector":"1"}},{"base_weights":[-4.8989863E-3,-1.771471E-2,4.2275217E-1,-1.3581262E-2,6.1262864E-1,7.523101E-1,-1.2733311E-2,2.489734E-2,6.7274566E-3],"categories":[],"categories_nodes":[],"categories_segments":[],"categories_sizes":[],"default_left":[0,0,0,0,0,0,0,0,0],"id":56,"left_children":[1,-1,3,-1,5,7,-1,-1,-1],"loss_changes":[6.5250225E0,0E0,2.781601E0,0E0,2.1742368E0,2.911129E-1,0E0,0E0,0E0],"parents":[2147483647,0,0,2,2,4,4,5,5],"right_children":[2,-1,4,-1,6,8,-1,-1,-1],"split_conditions":[-8.708234E-1,-1.771471E-2,3.4346887E-1,-1.3581262E-2,3.002551E6,3.3056918E-1,-1.2733311E-2,2.489734E-2,6.7274566E-3],"split_indices":[39,0,2,0,9,1,0,0,0],"split_type":[0,0,0,0,0,0,0,0,0],"sum_hessian":[2.4058578E1,9.9935E0,1.4065079E1,2.2601242E0,1.1804955E1,1.0645688E1,1.1592665E0,8.783318E0,1.8623704E0],"tree_param":{"num_deleted":"0","num_feature":"53","num_nodes":"9","size_leaf_vector":"1"}},{"base_weights":[-5.885972E-2,2.0940397E-2,-3.6854E-1,2.1352494E-2,-1.8604424E-2],"categories":[],"categories_nodes":[],"categories_segments":[],"categories_sizes":[],"default_left":[0,0,0,0,0],"id":57,"left_children":[1,-1,3,-1,-1],"loss_changes":[6.9059005E0,0E0,6.0907154E0,0E0,0E0],"parents":[2147483647,0,0,2,2],"right_children":[2,-1,4,-1,-1],"split_conditions":[2.4500794E0,2.0940397E-2,3.241914E-1,2.1352494E-2,-1.8604424E-2],"split_indices":[25,0,1,0,0],"split_type":[0,0,0,0,0],"sum_hessian":[2.7365942E1,7.5817685E0,1.9784174E1,3.3919313E0,1.6392242E1],"tree_param":{"num_deleted":"0","num_feature":"53","num_nodes":"5","size_leaf_vector":"1"}},{"base_weights":[-5.7198867E-2,-2.99605E-1,6.3482875E-1,-1.646546E-2,1.4074862E-1,-7.093092E-3,2.4353273E-2,-2.2541806E-1,2.2029921E-2,3.2682677E-3,-1.5522331E-2],"categories":[],"categories_nodes":[],"categories_segments":[],"categories_sizes":[],"default_left":[0,0,0,0,0,0,0,0,0,0,0],"id":58,"left_children":[1,3,5,-1,7,-1,-1,9,-1,-1,-1],"loss_changes":[5.2673106E0,2.6119013E0,1.4517901E0,0E0,2.152701E0,0E0,0E0,6.831273E-1,0E0,0E0,0E0],"parents":[2147483647,0,0,1,1,2,2,4,4,7,7],"right_children":[2,4,6,-1,8,-1,-1,10,-1,-1,-1],"split_conditions":[-5.3057172E-3,6.8232036E0,4.677866E1,-1.646546E-2,1.4168E3,-7.093092E-3,2.4353273E-2,1.3681E3,2.2029921E-2,3.2682677E-3,-1.5522331E-2],"split_indices":[45,27,28,0,21,0,0,21,0,0,0],"split_type":[0,0,0,0,0,0,0,0,0,0,0],"sum_hessian":[2.926563E1,2.2093643E1,7.171986E0,1.3950927E1,8.142717E0,1.1539383E0,6.018048E0,5.419684E0,2.7230332E0,2.8187933E0,2.6008906E0],"tree_param":{"num_deleted":"0","num_feature":"53","num_nodes":"11","size_leaf_vector":"1"}},{"base_weights":[6.005893E-2,3.7570205E-1,-1.7365433E-2,5.7713884E-1,-1.4855109E-2,6.738381E-1,-1.0949939E-2,2.3182448E-2,2.01022E-3],"categories":[],"categories_nodes":[],"categories_segments":[],"categories_sizes":[],"default_left":[0,0,0,0,0,0,0,0,0],"id":59,"left_children":[1,3,-1,5,-1,7,-1,-1,-1],"loss_changes":[5.8299484E0,3.6599414E0,0E0,1.7111468E0,0E0,8.4476566E-1,0E0,0E0,0E0],"parents":[2147483647,0,0,1,1,3,3,5,5],"right_children":[2,4,-1,6,-1,8,-1,-1,-1],"split_conditions":[4.6035716E-1,4.36E0,-1.7365433E-2,1.4136857E3,-1.4855109E-2,3.002551E6,-1.0949939E-2,2.3182448E-2,2.01022E-3],"split_indices":[44,18,0,26,0,9,0,0,0],"split_type":[0,0,0,0,0,0,0,0,0],"sum_hessian":[2.6830473E1,1.8234118E1,8.596355E0,1.5082705E1,3.1514122E0,1.3937012E1,1.1456933E0,1.1748631E1,2.188381E0],"tree_param":{"num_deleted":"0","num_feature":"53","num_nodes":"9","size_leaf_vector":"1"}},{"base_weights":[1.02123566E-1,5.261164E-1,-1.7616125E-2,2.3756355E-2,-1.5311989E-2],"categories":[],"categories_nodes":[],"categories_segments":[],"categories_sizes":[],"default_left":[0,0,0,0,0],"id":60,"left_children":[1,3,-1,-1,-1],"loss_changes":[8.823678E0,5.518383E0,0E0,0E0,0E0],"parents":[2147483647,0,0,1,1],"right_children":[2,4,-1,-1,-1],"split_conditions":[-1.1457851E-2,6.754389E0,-1.7616125E-2,2.3756355E-2,-1.5311989E-2],"split_indices":[45,27,0,0,0],"split_type":[0,0,0,0,0],"sum_hessian":[2.8133131E1,1.7565615E1,1.0567517E1,1.4168769E1,3.3968456E0],"tree_param":{"num_deleted":"0","num_feature":"53","num_nodes":"5","size_leaf_vector":"1"}},{"base_weights":[-3.7382632E-3,-2.6870978E-1,6.4583534E-1,2.0086594E-2,-3.897862E-1,-3.185276E-3,2.3790848E-2,-4.7271532E-1,1.7423915E-2,-1.6879562E-2,-5.927263E-3],"categories":[],"categories_nodes":[],"categories_segments":[],"categories_sizes":[],"default_left":[0,0,0,0,0,0,0,0,0,0,0],"id":61,"left_children":[1,3,5,-1,7,-1,-1,9,-1,-1,-1],"loss_changes":[5.3421736E0,2.764217E0,1.079783E0,0E0,1.8963182E0,0E0,0E0,3.6181355E-1,0E0,0E0,0E0],"parents":[2147483647,0,0,1,1,2,2,4,4,7,7],"right_children":[2,4,6,-1,8,-1,-1,10,-1,-1,-1],"split_conditions":[3.311674E-1,3.235303E-1,6.401218E0,2.0086594E-2,-5.3057172E-3,-3.185276E-3,2.3790848E-2,6.8232036E0,1.7423915E-2,-1.6879562E-2,-5.927263E-3],"split_indices":[1,0,29,0,45,0,0,27,0,0,0],"split_type":[0,0,0,0,0,0,0,0,0,0,0],"sum_hessian":[2.902949E1,2.1035217E1,7.9942737E0,1.8864515E0,1.9148766E1,1.3542168E0,6.6400566E0,1.8114016E1,1.0347496E0,1.286408E1,5.2499347E0],"tree_param":{"num_deleted":"0","num_feature":"53","num_nodes":"11","size_leaf_vector":"1"}},{"base_weights":[2.8240632E-2,3.4384242E-1,-1.725413E-2,6.913421E-1,-2.9913205E-1,6.1219926E-3,2.242864E-2,1.2672776E-2,-1.6420264E-2],"categories":[],"categories_nodes":[],"categories_segments":[],"categories_sizes":[],"default_left":[0,0,0,0,0,0,0,0,0],"id":62,"left_children":[1,3,-1,5,7,-1,-1,-1,-1],"loss_changes":[5.188241E0,4.191184E0,0E0,1.7317533E-1,1.4767275E0,0E0,0E0,0E0,0E0],"parents":[2147483647,0,0,1,1,3,3,4,4],"right_children":[2,4,-1,6,8,-1,-1,-1,-1],"split_conditions":[4.6035716E-1,3.3070287E-1,-1.725413E-2,-3.7667993E-1,4.677866E1,6.1219926E-3,2.242864E-2,1.2672776E-2,-1.6420264E-2],"split_indices":[44,1,0,41,28,0,0,0,0],"split_type":[0,0,0,0,0,0,0,0,0],"sum_hessian":[2.520677E1,1.6832523E1,8.374246E0,1.0878139E1,5.954385E0,1.6052816E0,9.272858E0,1.3443655E0,4.6100197E0],"tree_param":{"num_deleted":"0","num_feature":"53","num_nodes":"9","size_leaf_vector":"1"}},{"base_weights":[-8.9407817E-4,-1.7861793E-2,6.769334E-1,1.2011514E-2,2.3346744E-2],"categories":[],"categories_nodes":[],"categories_segments":[],"categories_sizes":[],"default_left":[0,0,0,0,0],"id":63,"left_children":[1,-1,3,-1,-1],"loss_changes":[1.0363954E1,0E0,2.5059223E-2,0E0,0E0],"parents":[2147483647,0,0,2,2],"right_children":[2,-1,4,-1,-1],"split_conditions":[1.5211473E0,-1.7861793E-2,3.5183236E-1,1.2011514E-2,2.3346744E-2],"split_indices":[38,0,2,0,0],"split_type":[0,0,0,0,0],"sum_hessian":[2.3718882E1,1.2700941E1,1.10179405E1,4.281425E0,6.736515E0],"tree_param":{"num_deleted":"0","num_feature":"53","num_nodes":"5","size_leaf_vector":"1"}},{"base_weights":[-1.6859006E-2,-2.552398E-1,6.278265E-1,4.2089644E-1,-4.1920546E-1,-3.152775E-3,2.3851383E-2,2.0936968E-2,-4.2048586E-3,-5.0448996E-1,5.5742256E-2,-1.6914343E-2,6.492583E-4,6.797856E-3,-5.5185226E-3],"categories":[],"categories_nodes":[],"categories_segments":[],"categories_sizes":[],"default_left":[0,0,0,0,0,0,0,0,0,0,0,0,0,0,0],"id":64,"left_children":[1,3,5,7,9,-1,-1,-1,-1,11,13,-1,-1,-1,-1],"loss_changes":[4.499661E0,2.540616E0,1.0531635E0,8.222217E-1,7.4361634E-1,0E0,0E0,0E0,0E0,4.8269272E-1,1.8868104E-1,0E0,0E0,0E0,0E0],"parents":[2147483647,0,0,1,1,2,2,3,3,4,4,9,9,10,10],"right_children":[2,4,6,8,10,-1,-1,-1,-1,12,14,-1,-1,-1,-1],"split_conditions":[-5.3508673E-3,3.235149E-1,3.1546388E0,2.433094E6,6.2265635E-1,-3.152775E-3,2.3851383E-2,2.0936968E-2,-4.2048586E-3,1.8548052E1,6.998098E-1,-1.6914343E-2,6.492583E-4,6.797856E-3,-5.5185226E-3],"split_indices":[45,0,27,9,41,0,0,0,0,30,41,0,0,0,0],"split_type":[0,0,0,0,0,0,0,0,0,0,0,0,0,0,0],"sum_hessian":[2.7236568E1,2.0325163E1,6.911406E0,3.6611004E0,1.6664062E1,1.3529584E0,5.5584474E0,2.2877223E0,1.373378E0,1.4074549E1,2.5895128E0,1.2584075E1,1.4904737E0,1.5437636E0,1.0457492E0],"tree_param":{"num_deleted":"0","num_feature":"53","num_nodes":"15","size_leaf_vector":"1"}},{"base_weights":[7.015353E-2,-4.60946E-1,4.7425175E-1,7.663577E-3,-1.7595708E-2,7.332971E-1,-2.2447756E-1,2.3548115E-2,6.6574244E-3,1.4706139E-2,-1.5629737E-2],"categories":[],"categories_nodes":[],"categories_segments":[],"categories_sizes":[],"default_left":[0,0,0,0,0,0,0,0,0,0,0],"id":65,"left_children":[1,3,5,-1,-1,7,9,-1,-1,-1,-1],"loss_changes":[6.9769716E0,1.4195867E0,3.4907737E0,0E0,0E0,1.8602848E-1,1.4708827E0,0E0,0E0,0E0,0E0],"parents":[2147483647,0,0,1,1,2,2,5,5,6,6],"right_children":[2,4,6,-1,-1,8,10,-1,-1,-1,-1],"split_conditions":[-8.708234E-1,-3.7260346E0,-5.3057172E-3,7.663577E-3,-1.7595708E-2,3.456522E-1,4.677866E1,2.3548115E-2,6.6574244E-3,1.4706139E-2,-1.5629737E-2],"split_indices":[39,39,45,0,0,2,28,0,0,0,0],"split_type":[0,0,0,0,0,0,0,0,0,0,0],"sum_hessian":[3.0490456E1,1.3114116E1,1.737634E1,1.8016725E0,1.1312444E1,1.2640542E1,4.7357984E0,1.0995293E1,1.6452491E0,1.1971349E0,3.5386634E0],"tree_param":{"num_deleted":"0","num_feature":"53","num_nodes":"11","size_leaf_vector":"1"}},{"base_weights":[1.0950713E-1,5.025951E-1,-1.7325167E-2,-1.5000583E-2,2.19332E-2],"categories":[],"categories_nodes":[],"categories_segments":[],"categories_sizes":[],"default_left":[0,0,0,0,0],"id":66,"left_children":[1,3,-1,-1,-1],"loss_changes":[7.919798E0,4.605125E0,0E0,0E0,0E0],"parents":[2147483647,0,0,1,1],"right_children":[2,4,-1,-1,-1],"split_conditions":[-8.708234E-1,3.235149E-1,-1.7325167E-2,-1.5000583E-2,2.19332E-2],"split_indices":[39,0,0,0,0],"split_type":[0,0,0,0,0],"sum_hessian":[2.7251677E1,1.750454E1,9.747136E0,3.0285137E0,1.4476027E1],"tree_param":{"num_deleted":"0","num_feature":"53","num_nodes":"5","size_leaf_vector":"1"}},{"base_weights":[-5.624383E-2,-3.415437E-1,2.357137E-2,-4.3234795E-1,2.0044321E-2,-5.8110523E-1,-8.286595E-2,-4.2466265E-3,-1.8039875E-2,2.0845756E-2,-1.05504645E-2],"categories":[],"categories_nodes":[],"categories_segments":[],"categories_sizes":[],"default_left":[0,0,0,0,0,0,0,0,0,0,0],"id":67,"left_children":[1,3,-1,5,-1,7,9,-1,-1,-1,-1],"loss_changes":[7.9546914E0,2.5440083E0,0E0,1.1566396E0,0E0,5.7901382E-2,1.9347475E0,0E0,0E0,0E0,0E0],"parents":[2147483647,0,0,1,1,3,3,5,5,6,6],"right_children":[2,4,-1,6,-1,8,10,-1,-1,-1,-1],"split_conditions":[3.311674E-1,5.367879E-1,2.357137E-2,1.0368793E1,2.0044321E-2,1.2368E3,3.247251E-1,-4.2466265E-3,-1.8039875E-2,2.0845756E-2,-1.05504645E-2],"split_indices":[1,44,0,27,0,21,0,0,0,0,0],"split_type":[0,0,0,0,0,0,0,0,0,0,0],"sum_hessian":[3.0998405E1,2.3596867E1,7.401538E0,2.2174452E1,1.4224147E0,1.5089032E1,7.0854206E0,1.0155774E0,1.4073455E1,1.4128772E0,5.6725435E0],"tree_param":{"num_deleted":"0","num_feature":"53","num_nodes":"11","size_leaf_vector":"1"}},{"base_weights":[-5.054996E-2,-1.7639915E-2,3.774955E-1,6.790263E-1,-1.5569567E-2,2.343313E-2,2.6973677E-3],"categories":[],"categories_nodes":[],"categories_segments":[],"categories_sizes":[],"default_left":[0,0,0,0,0,0,0],"id":68,"left_children":[1,-1,3,5,-1,-1,-1],"loss_changes":[6.8020754E0,0E0,4.82098E0,6.997094E-1,0E0,0E0,0E0],"parents":[2147483647,0,0,2,2,3,3],"right_children":[2,-1,4,6,-1,-1,-1],"split_conditions":[-8.708234E-1,-1.7639915E-2,3.3070287E-1,3.002551E6,-1.5569567E-2,2.343313E-2,2.6973677E-3],"split_indices":[39,0,1,9,0,0,0],"split_type":[0,0,0,0,0,0,0],"sum_hessian":[2.7602726E1,1.2071836E1,1.55308895E1,1.1803391E1,3.7274985E0,9.782451E0,2.02094E0],"tree_param":{"num_deleted":"0","num_feature":"53","num_nodes":"7","size_leaf_vector":"1"}},{"base_weights":[-2.0462807E-2,5.062369E-1,-1.7515507E-2,2.1320064E-2,-1.3186437E-2],"categories":[],"categories_nodes":[],"categories_segments":[],"categories_sizes":[],"default_left":[0,0,0,0,0],"id":69,"left_children":[1,3,-1,-1,-1],"loss_changes":[7.953277E0,2.994718E0,0E0,0E0,0E0],"parents":[2147483647,0,0,1,1],"right_children":[2,4,-1,-1,-1],"split_conditions":[-1.1457851E-2,1.6259851E1,-1.7515507E-2,2.1320064E-2,-1.3186437E-2],"split_indices":[45,29,0,0,0],"split_type":[0,0,0,0,0],"sum_hessian":[2.4806479E1,1.2873107E1,1.19333725E1,1.0789536E1,2.08357E0],"tree_param":{"num_deleted":"0","num_feature":"53","num_nodes":"5","size_leaf_vector":"1"}},{"base_weights":[-7.01054E-2,-2.865581E-1,5.612969E-1,3.5044566E-1,-4.1862488E-1,-7.101547E-3,2.2354458E-2,1.944642E-2,-7.0200698E-3,-4.9627233E-1,-5.7987995E-2,4.011292E-4,-1.6144888E-2,-1.2726847E-2,9.594997E-3],"categories":[],"categories_nodes":[],"categories_segments":[],"categories_sizes":[],"default_left":[0,0,0,0,0,0,0,0,0,0,0,0,0,0,0],"id":70,"left_children":[1,3,5,7,9,-1,-1,-1,-1,11,13,-1,-1,-1,-1],"loss_changes":[3.979168E0,1.9527444E0,1.2724404E0,8.879816E-1,4.8190832E-1,0E0,0E0,0E0,0E0,3.2474232E-1,7.3943835E-1,0E0,0E0,0E0,0E0],"parents":[2147483647,0,0,1,1,2,2,3,3,4,4,9,9,10,10],"right_children":[2,4,6,8,10,-1,-1,-1,-1,12,14,-1,-1,-1,-1],"split_conditions":[-5.3057172E-3,3.235303E-1,3.1546388E0,6.6214386E1,6.2265635E-1,-7.101547E-3,2.2354458E-2,1.944642E-2,-7.0200698E-3,4.4894E5,1.2776E3,4.011292E-4,-1.6144888E-2,-1.2726847E-2,9.594997E-3],"split_indices":[45,0,27,28,41,0,0,0,0,9,7,0,0,0,0],"split_type":[0,0,0,0,0,0,0,0,0,0,0,0,0,0,0],"sum_hessian":[2.6938534E1,2.0468E1,6.4705334E0,3.2308662E0,1.7237135E1,1.1577457E0,5.312788E0,2.0680952E0,1.162771E0,1.3873895E1,3.3632395E0,1.1054722E0,1.2768423E1,1.6454237E0,1.7178159E0],"tree_param":{"num_deleted":"0","num_feature":"53","num_nodes":"15","size_leaf_vector":"1"}},{"base_weights":[-1.1306052E-1,3.5353976E-1,-3.969846E-1,-1.4050187E-2,6.795442E-1,-1.7743213E-2,1.932689E-2,2.3070855E-2,6.8078814E-3,2.2129754E-2,-1.5107057E-2],"categories":[],"categories_nodes":[],"categories_segments":[],"categories_sizes":[],"default_left":[0,0,0,0,0,0,0,0,0,0,0],"id":71,"left_children":[1,3,5,-1,7,-1,9,-1,-1,-1,-1],"loss_changes":[3.62847E0,3.1287634E0,1.3747115E0,0E0,1.4619541E-1,0E0,2.7490556E0,0E0,0E0,0E0,0E0],"parents":[2147483647,0,0,1,1,2,2,4,4,6,6],"right_children":[2,4,6,-1,8,-1,10,-1,-1,-1,-1],"split_conditions":[1.29E3,1.2368E3,2.814889E6,-1.4050187E-2,1.275E3,-1.7743213E-2,3.002551E6,2.3070855E-2,6.8078814E-3,2.2129754E-2,-1.5107057E-2],"split_indices":[8,22,9,0,6,0,9,0,0,0,0],"split_type":[0,0,0,0,0,0,0,0,0,0,0],"sum_hessian":[2.5329597E1,9.489454E0,1.5840142E1,2.5710523E0,6.918402E0,1.0510228E1,5.329914E0,5.192699E0,1.7257031E0,2.0723243E0,3.25759E0],"tree_param":{"num_deleted":"0","num_feature":"53","num_nodes":"11","size_leaf_vector":"1"}},{"base_weights":[8.8637665E-2,5.7908225E-1,-1.7382834E-2,7.091511E-1,-1.201034E-2,1.1114147E-2,2.414884E-2],"categories":[],"categories_nodes":[],"categories_segments":[],"categories_sizes":[],"default_left":[0,0,0,0,0,0,0],"id":72,"left_children":[1,3,-1,5,-1,-1,-1],"loss_changes":[9.629785E0,2.4314876E0,0E0,1.9638729E-1,0E0,0E0,0E0],"parents":[2147483647,0,0,1,1,3,3],"right_children":[2,4,-1,6,-1,-1,-1],"split_conditions":[-8.708234E-1,6.754389E0,-1.7382834E-2,1.4162E3,-1.201034E-2,1.1114147E-2,2.414884E-2],"split_indices":[39,27,0,21,0,0,0],"split_type":[0,0,0,0,0,0,0],"sum_hessian":[2.7366472E1,1.5857936E1,1.1508536E1,1.4242475E1,1.6154615E0,4.2138095E0,1.0028666E1],"tree_param":{"num_deleted":"0","num_feature":"53","num_nodes":"7","size_leaf_vector":"1"}},{"base_weights":[-7.114308E-2,-3.2326257E-1,5.7342446E-1,-3.97495E-1,1.6542539E-2,-3.5857097E-3,2.184178E-2,2.4631907E-1,-5.1063234E-1,1.715349E-2,-7.1908664E-3,-1.646085E-2,-6.673164E-5],"categories":[],"categories_nodes":[],"categories_segments":[],"categories_sizes":[],"default_left":[0,0,0,0,0,0,0,0,0,0,0,0,0],"id":73,"left_children":[1,3,5,7,-1,-1,-1,9,11,-1,-1,-1,-1],"loss_changes":[4.740782E0,1.569057E0,9.702029E-1,1.5639563E0,0E0,0E0,0E0,7.105666E-1,3.300519E-1,0E0,0E0,0E0,0E0],"parents":[2147483647,0,0,1,1,2,2,3,3,7,7,8,8],"right_children":[2,4,6,8,-1,-1,-1,10,12,-1,-1,-1,-1],"split_conditions":[3.311674E-1,-5.3057172E-3,6.401218E0,3.235149E-1,1.6542539E-2,-3.5857097E-3,2.184178E-2,2.433094E6,6.911062E-1,1.715349E-2,-7.1908664E-3,-1.646085E-2,-6.673164E-5],"split_indices":[1,45,29,0,0,0,0,9,41,0,0,0,0],"split_type":[0,0,0,0,0,0,0,0,0,0,0,0,0],"sum_hessian":[2.7031935E1,1.978975E1,7.2421837E0,1.8744495E1,1.0452543E0,1.3627051E0,5.879479E0,2.625692E0,1.6118803E1,1.4668978E0,1.1587939E0,1.4922378E1,1.1964258E0],"tree_param":{"num_deleted":"0","num_feature":"53","num_nodes":"13","size_leaf_vector":"1"}},{"base_weights":[9.088934E-2,3.919184E-1,-1.6622303E-2,6.492906E-1,-2.3427185E-1,2.2322085E-2,2.6025365E-3,1.4086212E-2,-1.5396419E-2],"categories":[],"categories_nodes":[],"categories_segments":[],"categories_sizes":[],"default_left":[0,0,0,0,0,0,0,0,0],"id":74,"left_children":[1,3,-1,5,7,-1,-1,-1,-1],"loss_changes":[5.1797843E0,3.0550587E0,0E0,6.3020897E-1,1.4153136E0,0E0,0E0,0E0,0E0],"parents":[2147483647,0,0,1,1,3,3,4,4],"right_children":[2,4,-1,6,8,-1,-1,-1,-1],"split_conditions":[4.6035716E-1,3.3070287E-1,-1.6622303E-2,1.8242702E1,6.401218E0,2.2322085E-2,2.6025365E-3,1.4086212E-2,-1.5396419E-2],"split_indices":[44,1,0,25,29,0,0,0,0],"split_type":[0,0,0,0,0,0,0,0,0],"sum_hessian":[2.4560345E1,1.701239E1,7.5479555E0,1.203072E1,4.9816704E0,1.0019838E1,2.010881E0,1.22004E0,3.7616303E0],"tree_param":{"num_deleted":"0","num_feature":"53","num_nodes":"9","size_leaf_vector":"1"}},{"base_weights":[-1.7479987E-1,1.8401688E-2,-1.7943185E-2],"categories":[],"categories_nodes":[],"categories_segments":[],"categories_sizes":[],"default_left":[0,0,0],"id":75,"left_children":[1,-1,-1],"loss_changes":[8.0543165E0,0E0,0E0],"parents":[2147483647,0,0],"right_children":[2,-1,-1],"split_conditions":[2.4500794E0,1.8401688E-2,-1.7943185E-2],"split_indices":[25,0,0],"split_type":[0,0,0],"sum_hessian":[2.2040752E1,7.544315E0,1.4496437E1],"tree_param":{"num_deleted":"0","num_feature":"53","num_nodes":"3","size_leaf_vector":"1"}},{"base_weights":[1.9900423E-1,-1.7094919E-1,2.3720635E-2,-1.5882147E-2,3.1329852E-1,-2.777807E-1,2.4996478E-2,-1.2280035E-2,2.5334765E-4],"categories":[],"categories_nodes":[],"categories_segments":[],"categories_sizes":[],"default_left":[0,0,0,0,0,0,0,0,0],"id":76,"left_children":[1,3,-1,-1,5,7,-1,-1,-1],"loss_changes":[4.633596E0,2.50344E0,0E0,0E0,2.1848817E0,1.4370489E-1,0E0,0E0,0E0],"parents":[2147483647,0,0,1,1,4,4,5,5],"right_children":[2,4,-1,-1,6,8,-1,-1,-1],"split_conditions":[3.3070287E-1,4.890422E0,2.3720635E-2,-1.5882147E-2,3.445099E-1,3.4416908E-1,2.4996478E-2,-1.2280035E-2,2.5334765E-4],"split_indices":[1,25,0,0,2,2,0,0,0],"split_type":[0,0,0,0,0,0,0,0,0],"sum_hessian":[1.9550587E1,1.2466758E1,7.0838284E0,7.110261E0,5.3564963E0,2.724646E0,2.6318502E0,1.5720129E0,1.1526332E0],"tree_param":{"num_deleted":"0","num_feature":"53","num_nodes":"9","size_leaf_vector":"1"}},{"base_weights":[6.997179E-2,-4.4756415E-1,4.6320897E-1,7.2035184E-3,-1.7171133E-2,2.1243673E-2,-2.0606796E-1,1.4504876E-2,-1.5168137E-2],"categories":[],"categories_nodes":[],"categories_segments":[],"categories_sizes":[],"default_left":[0,0,0,0,0,0,0,0,0],"id":77,"left_children":[1,3,5,-1,-1,-1,7,-1,-1],"loss_changes":[6.433664E0,1.3148148E0,3.0760918E0,0E0,0E0,0E0,1.3936279E0,0E0,0E0],"parents":[2147483647,0,0,1,1,2,2,6,6],"right_children":[2,4,6,-1,-1,-1,8,-1,-1],"split_conditions":[-8.708234E-1,-3.7260346E0,-5.3057172E-3,7.2035184E-3,-1.7171133E-2,2.1243673E-2,4.677866E1,1.4504876E-2,-1.5168137E-2],"split_indices":[39,39,45,0,0,0,28,0,0],"split_type":[0,0,0,0,0,0,0,0,0],"sum_hessian":[2.9594141E1,1.2717975E1,1.6876167E1,1.811695E0,1.090628E1,1.2312516E1,4.563651E0,1.1960579E0,3.3675933E0],"tree_param":{"num_deleted":"0","num_feature":"53","num_nodes":"9","size_leaf_vector":"1"}},{"base_weights":[-1.8128894E-2,4.1547287E-1,-1.703726E-2,6.544606E-1,-1.3968052E-2,1.0618734E-2,2.3138579E-2],"categories":[],"categories_nodes":[],"categories_segments":[],"categories_sizes":[],"default_left":[0,0,0,0,0,0,0],"id":78,"left_children":[1,3,-1,5,-1,-1,-1],"loss_changes":[6.1927934E0,3.367974E0,0E0,1.4333677E-1,0E0,0E0,0E0],"parents":[2147483647,0,0,1,1,3,3],"right_children":[2,4,-1,6,-1,-1,-1],"split_conditions":[-8.708234E-1,6.754389E0,-1.703726E-2,1.4161E3,-1.3968052E-2,1.0618734E-2,2.3138579E-2],"split_indices":[39,27,0,21,0,0,0],"split_type":[0,0,0,0,0,0,0],"sum_hessian":[2.3988281E1,1.3547721E1,1.044056E1,1.0859365E1,2.6883552E0,4.1680207E0,6.6913443E0],"tree_param":{"num_deleted":"0","num_feature":"53","num_nodes":"7","size_leaf_vector":"1"}},{"base_weights":[-6.138369E-2,-2.940825E-1,5.754481E-1,-5.275262E-1,7.153377E-2,-3.690244E-3,2.187187E-2,-2.6085516E-3,-1.6920583E-2,4.2331344E-1,-1.522467E-2,-7.656436E-3,1.835212E-2],"categories":[],"categories_nodes":[],"categories_segments":[],"categories_sizes":[],"default_left":[0,0,0,0,0,0,0,0,0,0,0,0,0],"id":79,"left_children":[1,3,5,7,9,-1,-1,-1,-1,11,-1,-1,-1],"loss_changes":[4.6249905E0,1.9737561E0,9.893105E-1,1.7545843E-1,2.1946406E0,0E0,0E0,0E0,0E0,9.9886656E-1,0E0,0E0,0E0],"parents":[2147483647,0,0,1,1,2,2,3,3,4,4,9,9],"right_children":[2,4,6,8,10,-1,-1,-1,-1,12,-1,-1,-1],"split_conditions":[-5.3057172E-3,6.8232036E0,3.1546388E0,7.83078E-2,2.370191E1,-3.690244E-3,2.187187E-2,-2.6085516E-3,-1.6920583E-2,4.1600895E0,-1.522467E-2,-7.656436E-3,1.835212E-2],"split_indices":[45,27,27,41,27,0,0,0,0,25,0,0,0],"split_type":[0,0,0,0,0,0,0,0,0,0,0,0,0],"sum_hessian":[2.9067894E1,2.1683088E1,7.384806E0,1.2963276E1,8.719812E0,1.3672786E0,6.0175276E0,1.2503811E0,1.1712894E1,5.5916047E0,3.1282077E0,1.1382422E0,4.4533625E0],"tree_param":{"num_deleted":"0","num_feature":"53","num_nodes":"13","size_leaf_vector":"1"}},{"base_weights":[8.964331E-3,3.099831E-1,-1.6712181E-2,5.2107555E-1,-1.4774905E-2,6.2205136E-1,1.8832188E-2,2.2898471E-2,5.8907166E-4,1.7110698E-2,-1.263693E-2],"categories":[],"categories_nodes":[],"categories_segments":[],"categories_sizes":[],"default_left":[0,0,0,0,0,0,0,0,0,0,0],"id":80,"left_children":[1,3,-1,5,-1,7,9,-1,-1,-1,-1],"loss_changes":[4.9785957E0,3.4846559E0,0E0,7.7806854E-1,0E0,1.0855241E0,1.1232352E0,0E0,0E0,0E0,0E0],"parents":[2147483647,0,0,1,1,3,3,5,5,6,6],"right_children":[2,4,-1,6,-1,8,10,-1,-1,-1,-1],"split_conditions":[4.36E0,4.6035716E-1,-1.6712181E-2,-5.3057172E-3,-1.4774905E-2,3.456522E-1,1.297E3,2.2898471E-2,5.8907166E-4,1.7110698E-2,-1.263693E-2],"split_indices":[18,44,0,45,0,2,6,0,0,0,0],"split_type":[0,0,0,0,0,0,0,0,0,0,0],"sum_hessian":[2.7205736E1,1.805594E1,9.149796E0,1.4573142E1,3.4827983E0,1.1935059E1,2.6380837E0,9.452068E0,2.4829898E0,1.0393738E0,1.5987101E0],"tree_param":{"num_deleted":"0","num_feature":"53","num_nodes":"11","size_leaf_vector":"1"}},{"base_weights":[-3.271667E-2,1.9150287E-2,-3.351856E-1,1.8983345E-2,-1.7737348E-2],"categories":[],"categories_nodes":[],"categories_segments":[],"categories_sizes":[],"default_left":[0,0,0,0,0],"id":81,"left_children":[1,-1,3,-1,-1],"loss_changes":[5.345975E0,0E0,4.856389E0,0E0,0E0],"parents":[2147483647,0,0,2,2],"right_children":[2,-1,4,-1,-1],"split_conditions":[2.4500794E0,1.9150287E-2,3.241914E-1,1.8983345E-2,-1.7737348E-2],"split_indices":[25,0,1,0,0],"split_type":[0,0,0,0,0],"sum_hessian":[2.4283998E1,7.1998725E0,1.7084126E1,3.2661402E0,1.38179865E1],"tree_param":{"num_deleted":"0","num_feature":"53","num_nodes":"5","size_leaf_vector":"1"}},{"base_weights":[-7.402139E-2,-2.69803E-1,2.1579672E-2,3.8678253E-1,-4.0530157E-1,1.9848134E-2,-7.122628E-3,-5.048534E-1,-3.5800934E-2,-1.6855141E-2,-5.6308988E-3,-1.533949E-2,1.9710427E-2],"categories":[],"categories_nodes":[],"categories_segments":[],"categories_sizes":[],"default_left":[0,0,0,0,0,0,0,0,0,0,0,0,0],"id":82,"left_children":[1,3,-1,5,7,-1,-1,9,11,-1,-1,-1,-1],"loss_changes":[4.700918E0,2.291963E0,0E0,9.491496E-1,7.316954E-1,0E0,0E0,1.8335962E-1,2.1157231E0,0E0,0E0,0E0,0E0],"parents":[2147483647,0,0,1,1,3,3,4,4,7,7,8,8],"right_children":[2,4,-1,6,8,-1,-1,10,12,-1,-1,-1,-1],"split_conditions":[-5.3057172E-3,3.235149E-1,2.1579672E-2,6.6214386E1,3.3070287E-1,1.9848134E-2,-7.122628E-3,6.2265635E-1,3.2353526E-1,-1.6855141E-2,-5.6308988E-3,-1.533949E-2,1.9710427E-2],"split_indices":[45,0,0,28,1,0,0,41,0,0,0,0,0],"split_type":[0,0,0,0,0,0,0,0,0,0,0,0,0],"sum_hessian":[2.8016106E1,2.3000061E1,5.0160446E0,3.6172829E0,1.9382778E1,2.4699185E0,1.1473644E0,1.4980406E1,4.4023724E0,1.2044794E1,2.9356115E0,2.7659376E0,1.6364349E0],"tree_param":{"num_deleted":"0","num_feature":"53","num_nodes":"13","size_leaf_vector":"1"}},{"base_weights":[1.6002768E-1,3.6471182E-1,-1.584195E-2,6.422424E-1,-2.902791E-1,7.1920776E-1,2.6577825E-3,1.1274509E-2,-1.573674E-2,8.110811E-3,2.2864034E-2],"categories":[],"categories_nodes":[],"categories_segments":[],"categories_sizes":[],"default_left":[0,0,0,0,0,0,0,0,0,0,0],"id":83,"left_children":[1,3,-1,5,7,9,-1,-1,-1,-1,-1],"loss_changes":[3.9321713E0,4.013941E0,0E0,5.7974577E-1,1.2825091E0,4.6682835E-2,0E0,0E0,0E0,0E0,0E0],"parents":[2147483647,0,0,1,1,3,3,4,4,5,5],"right_children":[2,4,-1,6,8,10,-1,-1,-1,-1,-1],"split_conditions":[4.6035716E-1,3.3070287E-1,-1.584195E-2,1.8242702E1,6.401218E0,3.235149E-1,2.6577825E-3,1.1274509E-2,-1.573674E-2,8.110811E-3,2.2864034E-2],"split_indices":[44,1,0,25,29,0,0,0,0,0,0],"split_type":[0,0,0,0,0,0,0,0,0,0,0],"sum_hessian":[2.5551662E1,2.0055733E1,5.49593E0,1.4100555E1,5.9551773E0,1.2117075E1,1.9834802E0,1.3923471E0,4.56283E0,1.694749E0,1.0422326E1],"tree_param":{"num_deleted":"0","num_feature":"53","num_nodes":"11","size_leaf_vector":"1"}},{"base_weights":[4.6639066E-2,5.5418116E-1,-1.7128868E-2,2.1038564E-2,-1.2290205E-2],"categories":[],"categories_nodes":[],"categories_segments":[],"categories_sizes":[],"default_left":[0,0,0,0,0],"id":84,"left_children":[1,3,-1,-1,-1],"loss_changes":[9.458612E0,2.6291537E0,0E0,0E0,0E0],"parents":[2147483647,0,0,1,1],"right_children":[2,4,-1,-1,-1],"split_conditions":[-1.1457851E-2,6.754389E0,-1.7128868E-2,2.1038564E-2,-1.2290205E-2],"split_indices":[45,27,0,0,0],"split_type":[0,0,0,0,0],"sum_hessian":[2.8165556E1,1.5516693E1,1.2648862E1,1.36984415E1,1.8182523E0],"tree_param":{"num_deleted":"0","num_feature":"53","num_nodes":"5","size_leaf_vector":"1"}},{"base_weights":[2.017383E-2,2.025978E-2,-1.4094822E-1,-5.0824124E-1,1.6717842E-1,-1.6671762E-2,-3.6900162E-3,-1.7766052E-1,2.1580225E-2,-1.0422639E-2,1.5502113E-2],"categories":[],"categories_nodes":[],"categories_segments":[],"categories_sizes":[],"default_left":[0,0,0,0,0,0,0,0,0,0,0],"id":85,"left_children":[1,-1,3,5,7,-1,-1,9,-1,-1,-1],"loss_changes":[2.72874E0,0E0,2.4447706E0,1.1018205E-1,2.4300938E0,0E0,0E0,1.1514583E0,0E0,0E0,0E0],"parents":[2147483647,0,0,2,2,3,3,4,4,7,7],"right_children":[2,-1,4,6,8,-1,-1,10,-1,-1,-1],"split_conditions":[3.4388688E-1,2.025978E-2,3.4880145E0,1.461452E6,1.3983E3,-1.6671762E-2,-3.6900162E-3,-5.3508673E-3,2.1580225E-2,-1.0422639E-2,1.5502113E-2],"split_indices":[50,0,25,9,8,0,0,45,0,0,0],"split_type":[0,0,0,0,0,0,0,0,0,0,0],"sum_hessian":[2.3948532E1,4.097193E0,1.985134E1,8.759906E0,1.10914345E1,7.4046755E0,1.3552301E0,7.2450004E0,3.8464339E0,6.223266E0,1.0217346E0],"tree_param":{"num_deleted":"0","num_feature":"53","num_nodes":"11","size_leaf_vector":"1"}},{"base_weights":[1.1224385E-2,-1.7071158E-2,3.9140454E-1,6.5104717E-1,-2.4140754E-1,2.0859098E-2,6.0971202E-3,1.6855014E-2,-1.5543001E-2],"categories":[],"categories_nodes":[],"categories_segments":[],"categories_sizes":[],"default_left":[0,0,0,0,0,0,0,0,0],"id":86,"left_children":[1,-1,3,5,7,-1,-1,-1,-1],"loss_changes":[6.7459216E0,0E0,3.1897995E0,1.23422146E-1,1.6466628E0,0E0,0E0,0E0,0E0],"parents":[2147483647,0,0,2,2,3,3,4,4],"right_children":[2,-1,4,6,8,-1,-1,-1,-1],"split_conditions":[-8.708234E-1,-1.7071158E-2,-5.3057172E-3,6.911062E-1,4.677866E1,2.0859098E-2,6.0971202E-3,1.6855014E-2,-1.5543001E-2],"split_indices":[39,0,45,41,28,0,0,0,0],"split_type":[0,0,0,0,0,0,0,0,0],"sum_hessian":[2.8569653E1,1.1112325E1,1.7457329E1,1.2358019E1,5.0993085E0,1.0743579E1,1.6144402E0,1.0424703E0,4.056838E0],"tree_param":{"num_deleted":"0","num_feature":"53","num_nodes":"9","size_leaf_vector":"1"}},{"base_weights":[6.186183E-2,4.869278E-1,-1.6803954E-2,2.1479985E-2,-1.4221864E-2],"categories":[],"categories_nodes":[],"categories_segments":[],"categories_sizes":[],"default_left":[0,0,0,0,0],"id":87,"left_children":[1,3,-1,-1,-1],"loss_changes":[7.753286E0,4.1571374E0,0E0,0E0,0E0],"parents":[2147483647,0,0,1,1],"right_children":[2,4,-1,-1,-1],"split_conditions":[-1.1457851E-2,6.754389E0,-1.6803954E-2,2.1479985E-2,-1.4221864E-2],"split_indices":[45,27,0,0,0],"split_type":[0,0,0,0,0],"sum_hessian":[2.7293766E1,1.634254E1,1.0951226E1,1.3402675E1,2.9398668E0],"tree_param":{"num_deleted":"0","num_feature":"53","num_nodes":"5","size_leaf_vector":"1"}},{"base_weights":[2.7435387E-2,-1.8069248E-1,5.2740693E-1,3.3290422E-1,-3.1307665E-1,-6.8274476E-3,2.102956E-2,1.8393477E-2,-4.439081E-3,7.096087E-3,-4.047061E-1,-1.5753323E-2,-5.4231717E-4],"categories":[],"categories_nodes":[],"categories_segments":[],"categories_sizes":[],"default_left":[0,0,0,0,0,0,0,0,0,0,0,0,0],"id":88,"left_children":[1,3,5,7,9,-1,-1,-1,-1,-1,11,-1,-1],"loss_changes":[2.654966E0,1.3357781E0,1.1404746E0,6.562103E-1,8.4693384E-1,0E0,0E0,0E0,0E0,0E0,6.0284686E-1,0E0,0E0],"parents":[2147483647,0,0,1,1,2,2,3,3,4,4,10,10],"right_children":[2,4,6,8,10,-1,-1,-1,-1,-1,12,-1,-1],"split_conditions":[-5.3057172E-3,3.235303E-1,3.1546388E0,2.1169632E1,3.442629E-1,-6.8274476E-3,2.102956E-2,1.8393477E-2,-4.439081E-3,7.096087E-3,3.4558573E-1,-1.5753323E-2,-5.4231717E-4],"split_indices":[45,0,27,30,2,0,0,0,0,0,2,0,0],"split_type":[0,0,0,0,0,0,0,0,0,0,0,0,0],"sum_hessian":[2.3598469E1,1.7113194E1,6.4852753E0,3.1966827E0,1.391651E1,1.154145E0,5.3311305E0,1.8459928E0,1.35069E0,1.7626023E0,1.2153908E1,8.994612E0,3.1592963E0],"tree_param":{"num_deleted":"0","num_feature":"53","num_nodes":"13","size_leaf_vector":"1"}},{"base_weights":[-1.10198915E-1,1.6599631E-1,-1.6440863E-2,3.709223E-1,-1.4409942E-2,5.3347826E-1,-8.567929E-2,1.8949393E-2,3.960285E-3,1.657294E-2,-1.4033029E-2],"categories":[],"categories_nodes":[],"categories_segments":[],"categories_sizes":[],"default_left":[0,0,0,0,0,0,0,0,0,0,0],"id":89,"left_children":[1,3,-1,5,-1,7,9,-1,-1,-1,-1],"loss_changes":[3.1324508E0,2.322526E0,0E0,9.999825E-1,0E0,2.957437E-1,1.2914749E0,0E0,0E0,0E0,0E0],"parents":[2147483647,0,0,1,1,3,3,5,5,6,6],"right_children":[2,4,-1,6,-1,8,10,-1,-1,-1,-1],"split_conditions":[4.36E0,4.6035716E-1,-1.6440863E-2,-5.4650283E-3,-1.4409942E-2,1.3949E3,1.2976E3,1.8949393E-2,3.960285E-3,1.657294E-2,-1.4033029E-2],"split_indices":[18,44,0,45,0,6,7,0,0,0,0],"split_type":[0,0,0,0,0,0,0,0,0,0,0],"sum_hessian":[2.4151472E1,1.519004E1,8.961432E0,1.1856804E1,3.3332348E0,8.619711E0,3.2370932E0,6.4654284E0,2.1542826E0,1.0453966E0,2.1916966E0],"tree_param":{"num_deleted":"0","num_feature":"53","num_nodes":"11","size_leaf_vector":"1"}},{"base_weights":[-1.6702132E-2,4.10686E-1,-1.664985E-2,-1.24807665E-2,5.6238395E-1,2.6030475E-1,2.1415358E-2,-1.3415899E-2,1.8173385E-2],"categories":[],"categories_nodes":[],"categories_segments":[],"categories_sizes":[],"default_left":[0,0,0,0,0,0,0,0,0],"id":90,"left_children":[1,3,-1,-1,5,7,-1,-1,-1],"loss_changes":[5.6799893E0,1.9627204E0,0E0,0E0,3.665495E-1,1.6410599E0,0E0,0E0,0E0],"parents":[2147483647,0,0,1,1,4,4,5,5],"right_children":[2,4,-1,-1,6,8,-1,-1,-1],"split_conditions":[-1.1457851E-2,3.235149E-1,-1.664985E-2,-1.24807665E-2,7.029066E1,3.5054556E-1,2.1415358E-2,-1.3415899E-2,1.8173385E-2],"split_indices":[45,0,0,0,28,2,0,0,0],"split_type":[0,0,0,0,0,0,0,0,0],"sum_hessian":[2.2698433E1,1.2784772E1,9.913661E0,1.7120602E0,1.1072712E1,4.605661E0,6.4670506E0,1.4144838E0,3.1911771E0],"tree_param":{"num_deleted":"0","num_feature":"53","num_nodes":"9","size_leaf_vector":"1"}},{"base_weights":[4.6966545E-2,-2.618292E-1,5.9394234E-1,-3.9988983E-1,1.7672364E-2,-4.460473E-3,2.2330664E-2,-5.0449395E-1,5.975884E-3,-1.7209481E-2,-7.731562E-3],"categories":[],"categories_nodes":[],"categories_segments":[],"categories_sizes":[],"default_left":[0,0,0,0,0,0,0,0,0,0,0],"id":91,"left_children":[1,3,5,7,-1,-1,-1,9,-1,-1,-1],"loss_changes":[4.2337523E0,2.1300938E0,1.1180484E0,1.0073545E0,0E0,0E0,0E0,6.724191E-2,0E0,0E0,0E0],"parents":[2147483647,0,0,1,1,2,2,3,3,7,7],"right_children":[2,4,6,8,-1,-1,-1,10,-1,-1,-1],"split_conditions":[3.3070287E-1,1.4145214E3,4.677866E1,1.8242702E1,1.7672364E-2,-4.460473E-3,2.2330664E-2,7.049761E1,5.975884E-3,-1.7209481E-2,-7.731562E-3],"split_indices":[1,26,28,25,0,0,0,28,0,0,0],"split_type":[0,0,0,0,0,0,0,0,0,0,0],"sum_hessian":[2.3145346E1,1.5126807E1,8.018539E0,1.3471145E1,1.6556629E0,1.3524897E0,6.66605E0,1.160307E1,1.8680735E0,8.028584E0,3.574487E0],"tree_param":{"num_deleted":"0","num_feature":"53","num_nodes":"11","size_leaf_vector":"1"}},{"base_weights":[3.1200998E-2,3.056003E-1,-1.6489554E-2,6.455276E-1,-1.5067053E-2,2.1118024E-2,4.7829025E-3],"categories":[],"categories_nodes":[],"categories_segments":[],"categories_sizes":[],"default_left":[0,0,0,0,0,0,0],"id":92,"left_children":[1,3,-1,5,-1,-1,-1],"loss_changes":[4.037974E0,5.029069E0,0E0,2.4256325E-1,0E0,0E0,0E0],"parents":[2147483647,0,0,1,1,3,3],"right_children":[2,4,-1,6,-1,-1,-1],"split_conditions":[3.3070287E-1,4.6035716E-1,-1.6489554E-2,3.002551E6,-1.5067053E-2,2.1118024E-2,4.7829025E-3],"split_indices":[1,44,0,9,0,0,0],"split_type":[0,0,0,0,0,0,0],"sum_hessian":[2.328074E1,1.613318E1,7.1475606E0,1.1496507E1,4.636674E0,9.863264E0,1.6332426E0],"tree_param":{"num_deleted":"0","num_feature":"53","num_nodes":"7","size_leaf_vector":"1"}},{"base_weights":[1.0929558E-1,5.219886E-1,-1.6481774E-2,6.71918E-1,-1.2275136E-2,1.1092796E-2,2.2266686E-2],"categories":[],"categories_nodes":[],"categories_segments":[],"categories_sizes":[],"default_left":[0,0,0,0,0,0,0],"id":93,"left_children":[1,3,-1,5,-1,-1,-1],"loss_changes":[7.268211E0,2.5508895E0,0E0,3.188467E-2,0E0,0E0,0E0],"parents":[2147483647,0,0,1,1,3,3],"right_children":[2,4,-1,6,-1,-1,-1],"split_conditions":[-1.1457851E-2,6.754389E0,-1.6481774E-2,1.4161E3,-1.2275136E-2,1.1092796E-2,2.2266686E-2],"split_indices":[45,27,0,21,0,0,0],"split_type":[0,0,0,0,0,0,0],"sum_hessian":[2.4682531E1,1.530248E1,9.380051E0,1.34200735E1,1.8824067E0,3.714631E0,9.705442E0],"tree_param":{"num_deleted":"0","num_feature":"53","num_nodes":"7","size_leaf_vector":"1"}},{"base_weights":[-9.1745235E-2,-3.490698E-1,5.336373E-1,-4.1271368E-1,1.3320658E-2,-4.0079053E-3,2.0272197E-2,-4.829719E-1,5.211736E-3,-1.6586967E-2,-3.2661473E-3],"categories":[],"categories_nodes":[],"categories_segments":[],"categories_sizes":[],"default_left":[0,0,0,0,0,0,0,0,0,0,0],"id":94,"left_children":[1,3,5,7,-1,-1,-1,9,-1,-1,-1],"loss_changes":[4.7629824E0,1.2308016E0,9.1385937E-1,8.968291E-1,0E0,0E0,0E0,4.076414E-1,0E0,0E0,0E0],"parents":[2147483647,0,0,1,1,2,2,3,3,7,7],"right_children":[2,4,6,8,-1,-1,-1,10,-1,-1,-1],"split_conditions":[3.311674E-1,1.4329E3,8.113422E0,-5.3508673E-3,1.3320658E-2,-4.0079053E-3,2.0272197E-2,6.2265635E-1,5.211736E-3,-1.6586967E-2,-3.2661473E-3],"split_indices":[1,7,30,45,0,0,0,41,0,0,0],"split_type":[0,0,0,0,0,0,0,0,0,0,0],"sum_hessian":[2.7439762E1,1.975362E1,7.6861424E0,1.8730179E1,1.0234411E0,1.3600354E0,6.326107E0,1.6883842E1,1.8463371E0,1.3822241E1,3.0616012E0],"tree_param":{"num_deleted":"0","num_feature":"53","num_nodes":"11","size_leaf_vector":"1"}},{"base_weights":[1.2587175E-3,2.542687E-1,-1.6395552E-2,5.4998446E-1,-1.4939185E-2,6.2987155E-1,1.9722055E-3,5.7173017E-3,2.0095658E-2],"categories":[],"categories_nodes":[],"categories_segments":[],"categories_sizes":[],"default_left":[0,0,0,0,0,0,0,0,0],"id":95,"left_children":[1,3,-1,5,-1,7,-1,-1,-1],"loss_changes":[3.5575705E0,4.179106E0,0E0,4.6446896E-1,0E0,6.745815E-2,0E0,0E0,0E0],"parents":[2147483647,0,0,1,1,3,3,5,5],"right_children":[2,4,-1,6,-1,8,-1,-1,-1],"split_conditions":[3.3070287E-1,4.6035716E-1,-1.6395552E-2,3.002551E6,-1.4939185E-2,4.4894E5,1.9722055E-3,5.7173017E-3,2.0095658E-2],"split_indices":[1,44,0,9,0,9,0,0,0],"split_type":[0,0,0,0,0,0,0,0,0],"sum_hessian":[2.3666513E1,1.6555565E1,7.110949E0,1.2076867E1,4.478698E0,1.0108508E1,1.9683594E0,1.3243587E0,8.784149E0],"tree_param":{"num_deleted":"0","num_feature":"53","num_nodes":"9","size_leaf_vector":"1"}},{"base_weights":[6.541556E-2,4.799838E-1,-1.6504332E-2,6.354937E-1,-1.2529484E-2,9.12759E-3,2.1923883E-2],"categories":[],"categories_nodes":[],"categories_segments":[],"categories_sizes":[],"default_left":[0,0,0,0,0,0,0],"id":96,"left_children":[1,3,-1,5,-1,-1,-1],"loss_changes":[7.149185E0,2.5904746E0,0E0,2.3833609E-1,0E0,0E0,0E0],"parents":[2147483647,0,0,1,1,3,3],"right_children":[2,4,-1,6,-1,-1,-1],"split_conditions":[-8.708234E-1,6.754389E0,-1.6504332E-2,1.4162E3,-1.2529484E-2,9.12759E-3,2.1923883E-2],"split_indices":[39,27,0,21,0,0,0],"split_type":[0,0,0,0,0,0,0],"sum_hessian":[2.5980213E1,1.56562605E1,1.0323953E1,1.3593328E1,2.0629327E0,3.9738836E0,9.619445E0],"tree_param":{"num_deleted":"0","num_feature":"53","num_nodes":"7","size_leaf_vector":"1"}},{"base_weights":[-3.801126E-2,-2.3865497E-1,5.048453E-1,1.8669592E-2,-3.6088622E-1,-4.75349E-3,1.9889E-2,-4.7157738E-1,8.0604434E-2,-1.5914427E-2,-1.881634E-3,2.0104464E-2,-1.3128534E-2],"categories":[],"categories_nodes":[],"categories_segments":[],"categories_sizes":[],"default_left":[0,0,0,0,0,0,0,0,0,0,0,0,0],"id":97,"left_children":[1,3,5,-1,7,-1,-1,9,11,-1,-1,-1,-1],"loss_changes":[3.2383022E0,2.4955082E0,9.4889355E-1,0E0,9.9238515E-1,0E0,0E0,3.4628487E-1,1.7502317E0,0E0,0E0,0E0,0E0],"parents":[2147483647,0,0,1,1,2,2,4,4,7,7,8,8],"right_children":[2,4,6,-1,8,-1,-1,10,12,-1,-1,-1,-1],"split_conditions":[3.311674E-1,3.235303E-1,4.677866E1,1.8669592E-2,1.6259851E1,-4.75349E-3,1.9889E-2,6.2265635E-1,3.4077835E1,-1.5914427E-2,-1.881634E-3,2.0104464E-2,-1.3128534E-2],"split_indices":[1,0,28,0,29,0,0,41,27,0,0,0,0],"split_type":[0,0,0,0,0,0,0,0,0,0,0,0,0],"sum_hessian":[2.762465E1,2.0578909E1,7.045741E0,2.0497203E0,1.8529188E1,1.3558948E0,5.689846E0,1.4760313E1,3.768875E0,1.2641577E1,2.1187363E0,1.6259637E0,2.1429112E0],"tree_param":{"num_deleted":"0","num_feature":"53","num_nodes":"13","size_leaf_vector":"1"}},{"base_weights":[-5.7125E-3,2.8021866E-1,-1.6077463E-2,-1.3526541E-2,4.5158505E-1,-2.8616078E-2,5.7749635E-1,1.4532393E-2,-1.2597334E-2,1.9530013E-2,3.4310557E-3],"categories":[],"categories_nodes":[],"categories_segments":[],"categories_sizes":[],"default_left":[0,0,0,0,0,0,0,0,0,0,0],"id":98,"left_children":[1,3,-1,-1,5,7,9,-1,-1,-1,-1],"loss_changes":[4.005347E0,2.3556676E0,0E0,0E0,8.880956E-1,9.9581397E-1,3.1592607E-1,0E0,0E0,0E0,0E0],"parents":[2147483647,0,0,1,1,4,4,5,5,6,6],"right_children":[2,4,-1,-1,6,8,10,-1,-1,-1,-1],"split_conditions":[4.36E0,2.7996733E0,-1.6077463E-2,-1.3526541E-2,3.2397628E-1,3.326596E0,3.002551E6,1.4532393E-2,-1.2597334E-2,1.9530013E-2,3.4310557E-3],"split_indices":[18,25,0,0,0,25,9,0,0,0,0],"split_type":[0,0,0,0,0,0,0,0,0,0,0],"sum_hessian":[2.4429642E1,1.6177061E1,8.25258E0,2.7620716E0,1.341499E1,2.9472976E0,1.0467692E1,1.1723063E0,1.7749914E0,8.683805E0,1.7838874E0],"tree_param":{"num_deleted":"0","num_feature":"53","num_nodes":"11","size_leaf_vector":"1"}},{"base_weights":[5.098571E-2,4.4854957E-1,-1.6480923E-2,6.506064E-1,-1.365058E-2,1.064332E-2,2.1596069E-2],"categories":[],"categories_nodes":[],"categories_segments":[],"categories_sizes":[],"default_left":[0,0,0,0,0,0,0],"id":99,"left_children":[1,3,-1,5,-1,-1,-1],"loss_changes":[6.7181807E0,3.374772E0,0E0,3.541708E-2,0E0,0E0,0E0],"parents":[2147483647,0,0,1,1,3,3],"right_children":[2,4,-1,6,-1,-1,-1],"split_conditions":[-1.1457851E-2,6.754389E0,-1.6480923E-2,1.4161E3,-1.365058E-2,1.064332E-2,2.1596069E-2],"split_indices":[45,27,0,21,0,0,0],"split_type":[0,0,0,0,0,0,0],"sum_hessian":[2.6115112E1,1.5863098E1,1.0252014E1,1.319286E1,2.6702387E0,3.6643174E0,9.5285425E0],"tree_param":{"num_deleted":"0","num_feature":"53","num_nodes":"7","size_leaf_vector":"1"}},{"base_weights":[-4.92067E-2,-2.4935018E-1,4.933699E-1,-4.6187487E-1,9.971221E-2,-7.7017876E-3,2.0276941E-2,-5.252384E-4,-5.008937E-1,4.4234794E-1,-3.233488E-1,-5.287858E-3,-1.5829176E-2,2.1221515E-2,-7.1513467E-3,-1.3026574E-2,-2.2218985E-4],"categories":[],"categories_nodes":[],"categories_segments":[],"categories_sizes":[],"default_left":[0,0,0,0,0,0,0,0,0,0,0,0,0,0,0,0,0],"id":100,"left_children":[1,3,5,7,9,-1,-1,-1,11,13,15,-1,-1,-1,-1,-1,-1],"loss_changes":[2.9120882E0,1.4872228E0,1.1670741E0,2.0367384E-1,1.327939E0,0E0,0E0,0E0,4.4779778E-3,1.0596528E0,1.4514932E-1,0E0,0E0,0E0,0E0,0E0,0E0],"parents":[2147483647,0,0,1,1,2,2,3,3,4,4,8,8,9,9,10,10],"right_children":[2,4,6,8,10,-1,-1,-1,12,14,16,-1,-1,-1,-1,-1,-1],"split_conditions":[-5.3918674E-3,6.8232036E0,4.677866E1,2.7369857E-1,3.2529235E-1,-7.7017876E-3,2.0276941E-2,-5.252384E-4,1.2384572E3,3.463945E-1,8.5E-1,-5.287858E-3,-1.5829176E-2,2.1221515E-2,-7.1513467E-3,-1.3026574E-2,-2.2218985E-4],"split_indices":[45,27,28,41,0,0,0,0,26,2,3,0,0,0,0,0,0],"split_type":[0,0,0,0,0,0,0,0,0,0,0,0,0,0,0,0,0],"sum_hessian":[2.4683624E1,1.842684E1,6.2567854E0,1.1252581E1,7.1742587E0,1.1449857E0,5.1117997E0,1.0252457E0,1.0227335E1,3.9387162E0,3.2355423E0,1.3562145E0,8.87112E0,2.8067622E0,1.1319538E0,2.1179512E0,1.1175913E0],"tree_param":{"num_deleted":"0","num_feature":"53","num_nodes":"17","size_leaf_vector":"1"}},{"base_weights":[6.189874E-2,-1.5785346E-2,3.232325E-1,-1.3377435E-2,5.1561415E-1,6.194005E-1,1.6440704E-1,2.1018041E-2,3.2155062E-3,-1.22963535E-2,1.6647419E-2],"categories":[],"categories_nodes":[],"categories_segments":[],"categories_sizes":[],"default_left":[0,0,0,0,0,0,0,0,0,0,0],"id":101,"left_children":[1,-1,3,-1,5,7,9,-1,-1,-1,-1],"loss_changes":[3.5170116E0,0E0,2.5526195E0,0E0,3.7275982E-1,3.2789207E-1,1.1987989E0,0E0,0E0,0E0,0E0],"parents":[2147483647,0,0,2,2,4,4,5,5,6,6],"right_children":[2,-1,4,-1,6,8,10,-1,-1,-1,-1],"split_conditions":[-8.708234E-1,-1.5785346E-2,3.4388688E-1,-1.3377435E-2,1.303E3,1.933092E6,1.3681E3,2.1018041E-2,3.2155062E-3,-1.22963535E-2,1.6647419E-2],"split_indices":[39,0,2,0,7,9,6,0,0,0,0],"split_type":[0,0,0,0,0,0,0,0,0,0,0],"sum_hessian":[2.0777975E1,6.0808535E0,1.4697121E1,2.676908E0,1.2020213E1,8.688896E0,3.3313165E0,7.182486E0,1.5064106E0,1.3282967E0,2.0030198E0],"tree_param":{"num_deleted":"0","num_feature":"53","num_nodes":"11","size_leaf_vector":"1"}},{"base_weights":[-3.411933E-1,1.6762212E-2,-1.7337E-2],"categories":[],"categories_nodes":[],"categories_segments":[],"categories_sizes":[],"default_left":[0,0,0],"id":102,"left_children":[1,-1,-1],"loss_changes":[3.907669E0,0E0,0E0],"parents":[2147483647,0,0],"right_children":[2,-1,-1],"split_conditions":[1.2402E3,1.6762212E-2,-1.7337E-2],"split_indices":[7,0,0],"split_type":[0,0,0],"sum_hessian":[1.5828314E1,3.012944E0,1.2815371E1],"tree_param":{"num_deleted":"0","num_feature":"53","num_nodes":"3","size_leaf_vector":"1"}},{"base_weights":[-1.5889028E-2,-2.524321E-1,4.9784616E-1,-3.5425732E-1,1.6943714E-2,-7.38726E-3,2.0063635E-2,-4.2716104E-1,5.256927E-3,1.5441726E-3,-1.5304364E-2],"categories":[],"categories_nodes":[],"categories_segments":[],"categories_sizes":[],"default_left":[0,0,0,0,0,0,0,0,0,0,0],"id":103,"left_children":[1,3,5,7,-1,-1,-1,9,-1,-1,-1],"loss_changes":[2.9125998E0,1.5620363E0,1.1271576E0,6.603658E-1,0E0,0E0,0E0,5.6736374E-1,0E0,0E0,0E0],"parents":[2147483647,0,0,1,1,2,2,3,3,7,7],"right_children":[2,4,6,8,-1,-1,-1,10,-1,-1,-1],"split_conditions":[-5.3918674E-3,5.367868E-1,3.1546388E0,6.1839104E-1,1.6943714E-2,-7.38726E-3,2.0063635E-2,3.2350224E-1,5.256927E-3,1.5441726E-3,-1.5304364E-2],"split_indices":[45,44,27,41,0,0,0,0,0,0,0],"split_type":[0,0,0,0,0,0,0,0,0,0,0],"sum_hessian":[2.1933805E1,1.5366925E1,6.5668793E0,1.4168103E1,1.1988221E0,1.1445013E0,5.422378E0,1.2623295E1,1.5448086E0,1.9213225E0,1.0701972E1],"tree_param":{"num_deleted":"0","num_feature":"53","num_nodes":"11","size_leaf_vector":"1"}},{"base_weights":[-4.8090173E-3,2.1858679E-1,-1.5391972E-2,4.021865E-1,-1.3666424E-2,5.321655E-1,-1.340314E-2,1.9326923E-2,1.7047862E-3],"categories":[],"categories_nodes":[],"categories_segments":[],"categories_sizes":[],"default_left":[0,0,0,0,0,0,0,0,0],"id":104,"left_children":[1,3,-1,5,-1,7,-1,-1,-1],"loss_changes":[2.6601048E0,2.1994443E0,0E0,1.7091424E0,0E0,6.0369134E-1,0E0,0E0,0E0],"parents":[2147483647,0,0,1,1,3,3,5,5],"right_children":[2,4,-1,6,-1,8,-1,-1,-1],"split_conditions":[4.36E0,4.6035716E-1,-1.5391972E-2,2.82583E6,-1.3666424E-2,3.3056918E-1,-1.340314E-2,1.9326923E-2,1.7047862E-3],"split_indices":[18,44,0,9,0,1,0,0,0],"split_type":[0,0,0,0,0,0,0,0,0],"sum_hessian":[2.144056E1,1.5290014E1,6.1505437E0,1.2334209E1,2.9558053E0,1.1020135E1,1.314075E0,8.630189E0,2.389946E0],"tree_param":{"num_deleted":"0","num_feature":"53","num_nodes":"9","size_leaf_vector":"1"}},{"base_weights":[-1.5611649E-2,-1.6423173E-2,5.378379E-1,2.579943E-1,1.9762587E-2,1.6547633E-2,-1.3166585E-2],"categories":[],"categories_nodes":[],"categories_segments":[],"categories_sizes":[],"default_left":[0,0,0,0,0,0,0],"id":105,"left_children":[1,-1,3,5,-1,-1,-1],"loss_changes":[6.727E0,0E0,2.0949101E-1,1.2706368E0,0E0,0E0,0E0],"parents":[2147483647,0,0,2,2,3,3],"right_children":[2,-1,4,6,-1,-1,-1],"split_conditions":[1.5518806E0,-1.6423173E-2,3.5183236E-1,1.2368E3,1.9762587E-2,1.6547633E-2,-1.3166585E-2],"split_indices":[38,0,2,8,0,0,0],"split_type":[0,0,0,0,0,0,0],"sum_hessian":[2.0854229E1,1.0640393E1,1.0213835E1,4.0271497E0,6.1866856E0,2.9801233E0,1.0470263E0],"tree_param":{"num_deleted":"0","num_feature":"53","num_nodes":"7","size_leaf_vector":"1"}},{"base_weights":[-1.7127553E-2,-2.2433491E-1,4.7844294E-1,-3.38322E-1,1.8197108E-2,-6.838732E-3,1.90137E-2,-4.2878354E-1,1.6536683E-2,1.2442317E-4,-1.4445867E-2],"categories":[],"categories_nodes":[],"categories_segments":[],"categories_sizes":[],"default_left":[0,0,0,0,0,0,0,0,0,0,0],"id":106,"left_children":[1,3,5,7,-1,-1,-1,9,-1,-1,-1],"loss_changes":[2.7245464E0,1.9719458E0,1.0041573E0,1.6079808E0,0E0,0E0,0E0,3.6814332E-1,0E0,0E0,0E0],"parents":[2147483647,0,0,1,1,2,2,3,3,7,7],"right_children":[2,4,6,8,-1,-1,-1,10,-1,-1,-1],"split_conditions":[3.311674E-1,5.367868E-1,3.1546388E0,3.002551E6,1.8197108E-2,-6.838732E-3,1.90137E-2,3.235149E-1,1.6536683E-2,1.2442317E-4,-1.4445867E-2],"split_indices":[1,44,27,9,0,0,0,0,0,0,0],"split_type":[0,0,0,0,0,0,0,0,0,0,0],"sum_hessian":[2.448759E1,1.7653606E1,6.833985E0,1.6045273E1,1.6083319E0,1.1477013E0,5.6862836E0,1.5034343E1,1.0109307E0,1.7328215E0,1.3301521E1],"tree_param":{"num_deleted":"0","num_feature":"53","num_nodes":"11","size_leaf_vector":"1"}},{"base_weights":[4.189962E-2,-2.9335815E-1,4.2869973E-1,9.191003E-3,-4.0327093E-1,5.4263073E-1,-1.010104E-2,-1.6271591E-2,8.7502245E-3,1.9635426E-2,1.7302944E-3],"categories":[],"categories_nodes":[],"categories_segments":[],"categories_sizes":[],"default_left":[0,0,0,0,0,0,0,0,0,0,0],"id":107,"left_children":[1,3,5,-1,7,9,-1,-1,-1,-1,-1],"loss_changes":[3.11555E0,9.768077E-1,1.1516299E0,0E0,1.2575392E0,5.077872E-1,0E0,0E0,0E0,0E0,0E0],"parents":[2147483647,0,0,1,1,2,2,4,4,5,5],"right_children":[2,4,6,-1,8,10,-1,-1,-1,-1,-1],"split_conditions":[1.5527345E-1,3.232937E-1,3.3070287E-1,9.191003E-3,-3.763863E-1,1.8242702E1,-1.010104E-2,-1.6271591E-2,8.7502245E-3,1.9635426E-2,1.7302944E-3],"split_indices":[31,0,1,0,39,25,0,0,0,0,0],"split_type":[0,0,0,0,0,0,0,0,0,0,0],"sum_hessian":[2.205552E1,1.194436E1,1.0111159E1,1.573174E0,1.0371185E1,9.054443E0,1.0567158E0,8.824255E0,1.5469307E0,7.072996E0,1.9814471E0],"tree_param":{"num_deleted":"0","num_feature":"53","num_nodes":"11","size_leaf_vector":"1"}},{"base_weights":[3.2232217E-2,4.0366933E-1,-1.5828323E-2,1.912301E-2,-1.3195446E-2],"categories":[],"categories_nodes":[],"categories_segments":[],"categories_sizes":[],"default_left":[0,0,0,0,0],"id":108,"left_children":[1,3,-1,-1,-1],"loss_changes":[4.581419E0,2.8822806E0,0E0,0E0,0E0],"parents":[2147483647,0,0,1,1],"right_children":[2,4,-1,-1,-1],"split_conditions":[-1.1457851E-2,6.754389E0,-1.5828323E-2,1.912301E-2,-1.3195446E-2],"split_indices":[45,27,0,0,0],"split_type":[0,0,0,0,0],"sum_hessian":[2.0007513E1,1.2195299E1,7.812214E0,9.740285E0,2.4550145E0],"tree_param":{"num_deleted":"0","num_feature":"53","num_nodes":"5","size_leaf_vector":"1"}},{"base_weights":[1.5096146E-1,-2.1477345E-1,2.114585E-2,1.7172396E-2,-3.651967E-1,-1.6422687E-2,1.6840924E-1,-4.7651296E-3,1.6708154E-2],"categories":[],"categories_nodes":[],"categories_segments":[],"categories_sizes":[],"default_left":[0,