{"learner":{"attributes":{"best_iteration":"79","best_score":"1.0678264239384223","scikit_learn":"{\"_estimator_type\": \"classifier\"}"},"feature_names":[],"feature_types":[],"gradient_booster":{"model":{"cats":{"enc":[],"feature_segments":[],"sorted_idx":[]},"gbtree_model_param":{"num_parallel_tree":"1","num_trees":"330"},"iteration_indptr":[0,3,6,9,12,15,18,21,24,27,30,33,36,39,42,45,48,51,54,57,60,63,66,69,72,75,78,81,84,87,90,93,96,99,102,105,108,111,114,117,120,123,126,129,132,135,138,141,144,147,150,153,156,159,162,165,168,171,174,177,180,183,186,189,192,195,198,201,204,207,210,213,216,219,222,225,228,231,234,237,240,243,246,249,252,255,258,261,264,267,270,273,276,279,282,285,288,291,294,297,300,303,306,309,312,315,318,321,324,327,330],"tree_info":[0,1,2,0,1,2,0,1,2,0,1,2,0,1,2,0,1,2,0,1,2,0,1,2,0,1,2,0,1,2,0,1,2,0,1,2,0,1,2,0,1,2,0,1,2,0,1,2,0,1,2,0,1,2,0,1,2,0,1,2,0,1,2,0,1,2,0,1,2,0,1,2,0,1,2,0,1,2,0,1,2,0,1,2,0,1,2,0,1,2,0,1,2,0,1,2,0,1,2,0,1,2,0,1,2,0,1,2,0,1,2,0,1,2,0,1,2,0,1,2,0,1,2,0,1,2,0,1,2,0,1,2,0,1,2,0,1,2,0,1,2,0,1,2,0,1,2,0,1,2,0,1,2,0,1,2,0,1,2,0,1,2,0,1,2,0,1,2,0,1,2,0,1,2,0,1,2,0,1,2,0,1,2,0,1,2,0,1,2,0,1,2,0,1,2,0,1,2,0,1,2,0,1,2,0,1,2,0,1,2,0,1,2,0,1,2,0,1,2,0,1,2,0,1,2,0,1,2,0,1,2,0,1,2,0,1,2,0,1,2,0,1,2,0,1,2,0,1,2,0,1,2,0,1,2,0,1,2,0,1,2,0,1,2,0,1,2,0,1,2,0,1,2,0,1,2,0,1,2,0,1,2,0,1,2,0,1,2,0,1,2,0,1,2,0,1,2,0,1,2,0,1,2,0,1,2,0,1,2,0,1,2,0,1,2,0,1,2,0,1,2,0,1,2,0,1,2,0,1,2],"trees":[{"base_weights":[-5.6602675E-3,2.8122025E-2,-3.0398262E-1,-4.7928183E-3,2.6317585E-1,-9.0886734E-2,-4.792099E-1,-2.3948912E-2,3.6400673E-1,1.0178021E0,1.8991758E-1,-6.2575704E-1,7.85671E-2,-5.2223325E-1,4.0076587E-1,1.4230155E-3,-3.860654E-3,1.8311977E-2,-6.696182E-3,-1.4474639E-2,3.680454E-2,9.4700735E-3,-3.8810181E-3,8.665078E-3,-2.1288529E-2,-1.9322183E-2,4.9876147E-3,-1.8134013E-2,-4.890426E-3,-1.4618388E-2,3.138931E-2],"categories":[],"categories_nodes":[],"categories_segments":[],"categories_sizes":[],"default_left":[0,0,1,1,0,1,0,0,0,0,1,0,0,0,0,0,0,0,0,0,0,0,0,0,0,0,0,0,0,0,0],"id":0,"left_children":[1,3,5,7,9,11,13,15,17,19,21,23,25,27,29,-1,-1,-1,-1,-1,-1,-1,-1,-1,-1,-1,-1,-1,-1,-1,-1],"loss_changes":[1.7840847E1,1.2305436E1,6.6804466E0,9.871051E0,1.0606845E1,7.5257854E0,3.9416027E0,9.935016E0,1.0118279E1,5.941023E0,7.2400117E0,1.7357135E0,4.1328893E0,2.6906872E0,3.4685159E0,0E0,0E0,0E0,0E0,0E0,0E0,0E0,0E0,0E0,0E0,0E0,0E0,0E0,0E0,0E0,0E0],"parents":[2147483647,0,0,1,1,2,2,3,3,4,4,5,5,6,6,7,7,8,8,9,9,10,10,11,11,12,12,13,13,14,14],"right_children":[2,4,6,8,10,12,14,16,18,20,22,24,26,28,30,-1,-1,-1,-1,-1,-1,-1,-1,-1,-1,-1,-1,-1,-1,-1,-1],"split_conditions":[4.585517E-1,1.6730144E2,-5.108473E-1,2.987474E0,1.673E2,1.4627545E2,9.190505E6,3.7973407E-1,1.0787232E0,5.108473E-1,1.435136E0,7.713624E-1,1.3206E2,1.0002236E-2,-3.662833E-2,1.4230155E-3,-3.860654E-3,1.8311977E-2,-6.696182E-3,-1.4474639E-2,3.680454E-2,9.4700735E-3,-3.8810181E-3,8.665078E-3,-2.1288529E-2,-1.9322183E-2,4.9876147E-3,-1.8134013E-2,-4.890426E-3,-1.4618388E-2,3.138931E-2],"split_indices":[1,27,41,40,25,51,11,0,28,35,41,37,9,47,57,0,0,0,0,0,0,0,0,0,0,0,0,0,0,0,0],"split_type":[0,0,0,0,0,0,0,0,0,0,0,0,0,0,0,0,0,0,0,0,0,0,0,0,0,0,0,0,0,0,0],"sum_hessian":[1.7684264E3,1.5893524E3,1.7907397E2,1.39499E3,1.9436235E2,8.149079E1,9.7583176E1,1.3269984E3,6.799156E1,1.6057924E1,1.7830443E2,1.8958067E1,6.2532726E1,9.3422165E1,4.1610146E0,7.8948846E2,5.3751E2,4.786717E1,2.0124392E1,1.8035905E0,1.42543335E1,1.2793003E2,5.03744E1,1.3870049E0,1.7571062E1,6.0801454E0,5.645258E1,7.546394E1,1.7958223E1,1.8547232E0,2.3062913E0],"tree_param":{"num_deleted":"0","num_feature":"65","num_nodes":"31","size_leaf_vector":"1"}},{"base_weights":[-5.7659573E-3,-1.96009E-1,6.1381584E-1,-2.994122E-1,4.2617027E-2,4.186013E-1,1.2879461E0,5.454261E-1,-3.084396E-1,-1.2747605E-2,9.516579E-1,1.0335405E0,3.0209255E-1,1.0632137E0,2.3760374E0,-1.3411817E-2,4.3711178E-2,-1.3214046E-2,-7.4965903E-3,1.2593996E-3,-1.5495627E-2,1.150134E-2,5.742093E-2,4.0902272E-2,7.305015E-3,6.8001345E-2,7.5800414E-3,3.865168E-2,7.2932977E-4,7.868639E-2,1.0079117E-2],"categories":[],"categories_nodes":[],"categories_segments":[],"categories_sizes":[],"default_left":[0,0,0,0,1,0,0,0,0,1,0,0,0,0,0,0,0,0,0,0,0,0,0,0,0,0,0,0,0,0,0],"id":1,"left_children":[1,3,5,7,9,11,13,15,17,19,21,23,25,27,29,-1,-1,-1,-1,-1,-1,-1,-1,-1,-1,-1,-1,-1,-1,-1,-1],"loss_changes":[1.3019913E2,2.0864784E1,3.3609863E1,4.665825E0,1.2914469E1,1.4210583E1,1.1604652E1,6.619169E0,4.40559E0,6.7110925E0,7.3222303E0,7.9748116E0,1.6111843E1,1.15966E1,3.6924782E0,0E0,0E0,0E0,0E0,0E0,0E0,0E0,0E0,0E0,0E0,0E0,0E0,0E0,0E0,0E0,0E0],"parents":[2147483647,0,0,1,1,2,2,3,3,4,4,5,5,6,6,7,7,8,8,9,9,10,10,11,11,12,12,13,13,14,14],"right_children":[2,4,6,8,10,12,14,16,18,20,22,24,26,28,30,-1,-1,-1,-1,-1,-1,-1,-1,-1,-1,-1,-1,-1,-1,-1,-1],"split_conditions":[3.510795E-1,2.658055E-1,5.2633107E-1,4.7823507E-1,1.753195E2,1.572212E2,1.6161E2,5.4758183E1,5.9713215E-1,-1.138769E0,1.7575E2,3.0671635E-1,1.2948785E2,1.5987E2,6.8141495E1,-1.3411817E-2,4.3711178E-2,-1.3214046E-2,-7.4965903E-3,1.2593996E-3,-1.5495627E-2,1.150134E-2,5.742093E-2,4.0902272E-2,7.305015E-3,6.8001345E-2,7.5800414E-3,3.865168E-2,7.2932977E-4,7.868639E-2,1.0079117E-2],"split_indices":[1,1,62,38,49,12,25,31,28,42,23,2,29,23,31,0,0,0,0,0,0,0,0,0,0,0,0,0,0,0,0],"split_type":[0,0,0,0,0,0,0,0,0,0,0,0,0,0,0,0,0,0,0,0,0,0,0,0,0,0,0,0,0,0,0],"sum_hessian":[1.102568E3,8.4407715E2,2.5849088E2,5.8871576E2,2.5536139E2,2.0170277E2,5.67881E1,5.595956E0,5.831198E2,2.4163097E2,1.3730423E1,3.087453E1,1.7082823E2,4.8705658E1,8.082442E0,2.9231138E0,2.6728423E0,1.7715042E2,4.0596942E2,2.1878035E2,2.2850613E1,9.511981E0,4.2184424E0,2.1268473E1,9.606057E0,3.0912E0,1.6773703E2,3.9832146E1,8.873512E0,6.9552E0,1.1272421E0],"tree_param":{"num_deleted":"0","num_feature":"65","num_nodes":"31","size_leaf_vector":"1"}},{"base_weights":[2.0736484E-3,-9.2570834E-2,1.5591696E-1,-4.9274337E-1,-5.570233E-2,2.1339458E-1,-3.5669453E-2,-5.328753E-1,2.181913E-2,7.09177E-3,-2.6817745E-1,6.7896456E-1,1.7927444E-1,8.5282564E-2,-3.3612978E-1,-2.054407E-2,-4.4316966E-3,2.298915E-3,-2.9062233E-3,-1.2755766E-2,4.3038153E-6,1.9190392E-3,2.4710521E-2,8.533957E-4,7.856097E-3,8.447894E-3,-8.762234E-3,-2.7771778E-2,-3.4196342E-3],"categories":[],"categories_nodes":[],"categories_segments":[],"categories_sizes":[],"default_left":[0,0,0,0,1,1,0,1,0,0,0,0,1,1,0,0,0,0,0,0,0,0,0,0,0,0,0,0,0],"id":2,"left_children":[1,3,5,7,9,11,13,15,-1,17,19,21,23,25,27,-1,-1,-1,-1,-1,-1,-1,-1,-1,-1,-1,-1,-1,-1],"loss_changes":[2.8434845E1,1.781105E1,8.198437E0,5.3754025E0,1.4787859E1,8.969503E0,6.297902E0,5.7036953E0,0E0,6.198767E0,1.0651861E1,3.3934326E0,6.6522408E0,9.253001E0,6.4059186E0,0E0,0E0,0E0,0E0,0E0,0E0,0E0,0E0,0E0,0E0,0E0,0E0,0E0,0E0],"parents":[2147483647,0,0,1,1,2,2,3,3,4,4,5,5,6,6,7,7,9,9,10,10,11,11,12,12,13,13,14,14],"right_children":[2,4,6,8,10,12,14,16,-1,18,20,22,24,26,28,-1,-1,-1,-1,-1,-1,-1,-1,-1,-1,-1,-1,-1,-1],"split_conditions":[3.7973407E-1,2.3456672E-1,1.628E2,3.1993308E0,1.5456677E2,1.4787172E1,6.1502205E1,1.6645134E2,2.181913E-2,1.4127839E-1,4.504443E6,5.650843E-1,-7.8513783E-1,1.9484232E1,9.472181E-1,-2.054407E-2,-4.4316966E-3,2.298915E-3,-2.9062233E-3,-1.2755766E-2,4.3038153E-6,1.9190392E-3,2.4710521E-2,8.533957E-4,7.856097E-3,8.447894E-3,-8.762234E-3,-2.7771778E-2,-3.4196342E-3],"split_indices":[0,0,10,28,54,52,52,53,0,55,11,38,40,56,35,0,0,0,0,0,0,0,0,0,0,0,0,0,0],"split_type":[0,0,0,0,0,0,0,0,0,0,0,0,0,0,0,0,0,0,0,0,0,0,0,0,0,0,0,0,0],"sum_hessian":[1.9508949E3,1.208081E3,7.4281384E2,1.00869865E2,1.1072112E3,5.7130383E2,1.7151004E2,9.820284E1,2.6670246E0,8.553816E2,2.5182964E2,3.771961E1,5.335842E2,1.2279456E2,4.871549E1,6.986564E1,2.8337204E1,5.127117E2,3.4266995E2,1.5849667E2,9.333297E1,7.459959E0,3.0259651E1,1.8928127E2,3.4430295E2,8.094039E1,4.1854168E1,1.246482E1,3.6250668E1],"tree_param":{"num_deleted":"0","num_feature":"65","num_nodes":"29","size_leaf_vector":"1"}},{"base_weights":[7.674476E-3,-9.438974E-2,1.5540425E-1,-4.3298837E-2,-3.0530587E-1,6.266121E-2,3.809557E-1,3.916407E-2,-1.9391342E-1,-3.2587063E-1,3.143541E-2,-1.3016319E-3,3.0029956E-1,7.86327E-1,2.3486888E-1,1.8054603E-2,2.4271508E-4,5.1913764E-3,-8.473527E-3,6.177149E-3,-1.1358529E-2,-2.9947183E-3,5.902486E-3,-1.1105183E-2,1.3412206E-2,2.810287E-2,3.6322515E-4,-7.0828036E-3,1.1017648E-2],"categories":[],"categories_nodes":[],"categories_segments":[],"categories_sizes":[],"default_left":[0,0,0,0,1,1,0,0,0,0,0,0,0,0,1,0,0,0,0,0,0,0,0,0,0,0,0,0,0],"id":3,"left_children":[1,3,5,7,9,11,13,15,17,19,-1,21,23,25,27,-1,-1,-1,-1,-1,-1,-1,-1,-1,-1,-1,-1,-1,-1],"loss_changes":[2.6807291E1,1.131783E1,1.5171738E1,1.0535373E1,6.0426826E0,7.8429985E0,1.2338171E1,9.5862875E0,9.797821E0,5.76009E0,0E0,7.9715986E0,1.0934066E1,6.463623E0,9.867493E0,0E0,0E0,0E0,0E0,0E0,0E0,0E0,0E0,0E0,0E0,0E0,0E0,0E0,0E0],"parents":[2147483647,0,0,1,1,2,2,3,3,4,4,5,5,6,6,7,7,8,8,9,9,11,11,12,12,13,13,14,14],"right_children":[2,4,6,8,10,12,14,16,18,20,-1,22,24,26,28,-1,-1,-1,-1,-1,-1,-1,-1,-1,-1,-1,-1,-1,-1],"split_conditions":[3.886574E-1,4.5899856E-1,2.1486834E-1,4.531847E6,4.775807E0,4.992345E1,-6.3701516E-1,5.4130897E-2,1.515866E2,-3.243115E-1,3.143541E-2,1.6372E2,4.044357E-1,3.8044678E1,1.391968E2,1.8054603E-2,2.4271508E-4,5.1913764E-3,-8.473527E-3,6.177149E-3,-1.1358529E-2,-2.9947183E-3,5.902486E-3,-1.1105183E-2,1.3412206E-2,2.810287E-2,3.6322515E-4,-7.0828036E-3,1.1017648E-2],"split_indices":[2,62,1,11,40,56,43,55,51,34,0,26,2,56,50,0,0,0,0,0,0,0,0,0,0,0,0,0,0],"split_type":[0,0,0,0,0,0,0,0,0,0,0,0,0,0,0,0,0,0,0,0,0,0,0,0,0,0,0,0,0],"sum_hessian":[1.7759437E3,1.0505181E3,7.254256E2,8.466392E2,2.0387889E2,5.1496027E2,2.1046538E2,5.475761E2,2.990631E2,2.0157462E2,2.3042858E0,4.0653232E2,1.0842791E2,5.4593407E1,1.5587198E2,2.7696775E1,5.1987933E2,5.7945057E1,2.4111807E2,1.7927965E1,1.8364664E2,2.7181268E2,1.3471965E2,1.9199842E1,8.9228065E1,4.5535625E1,9.057778E0,3.402937E1,1.21842606E2],"tree_param":{"num_deleted":"0","num_feature":"65","num_nodes":"29","size_leaf_vector":"1"}},{"base_weights":[-1.0660861E-2,1.3236471E0,-9.897866E-2,1.4636723E0,1.3441226E-1,-2.8996027E-1,1.396795E-1,1.9242798E0,1.0935655E0,-3.0450344E-1,3.519186E-2,-4.931981E-1,-2.5459665E-1,1.6568076E-2,3.234858E-1,3.539548E-2,7.5926945E-2,4.6011478E-2,7.564033E-3,-1.4846471E-2,9.881501E-3,-1.5253171E-2,1.01927975E-2,-1.1819374E-2,-5.8752443E-3,-1.5181622E-3,1.3378878E-2,4.4041905E-3,2.395811E-2],"categories":[],"categories_nodes":[],"categories_segments":[],"categories_sizes":[],"default_left":[0,0,0,0,0,0,0,1,0,0,0,0,0,1,1,0,0,0,0,0,0,0,0,0,0,0,0,0,0],"id":4,"left_children":[1,3,5,7,9,11,13,15,17,19,-1,21,23,25,27,-1,-1,-1,-1,-1,-1,-1,-1,-1,-1,-1,-1,-1,-1],"loss_changes":[1.3069884E2,1.126902E1,4.7448734E1,8.379761E0,4.1657257E0,4.0293617E0,1.0472323E1,8.792809E0,1.3100277E1,9.6751E-1,0E0,1.246933E0,3.9723969E0,8.051299E0,1.5469097E1,0E0,0E0,0E0,0E0,0E0,0E0,0E0,0E0,0E0,0E0,0E0,0E0,0E0,0E0],"parents":[2147483647,0,0,1,1,2,2,3,3,4,4,5,5,6,6,7,7,8,8,9,9,11,11,12,12,13,13,14,14],"right_children":[2,4,6,8,10,12,14,16,18,20,-1,22,24,26,28,-1,-1,-1,-1,-1,-1,-1,-1,-1,-1,-1,-1,-1,-1],"split_conditions":[2.4144566E-1,8.753787E6,2.63235E-1,2.047059E-1,6.153819E-1,1.402195E2,3.8451505E-1,8.609849E-2,5.5974656E-1,1.5937785E2,3.519186E-2,9.798499E6,6.0552925E-1,1.673616E2,-6.779033E-1,3.539548E-2,7.5926945E-2,4.6011478E-2,7.564033E-3,-1.4846471E-2,9.881501E-3,-1.5253171E-2,1.01927975E-2,-1.1819374E-2,-5.8752443E-3,-1.5181622E-3,1.3378878E-2,4.4041905E-3,2.395811E-2],"split_indices":[0,11,1,2,33,49,62,55,62,29,0,11,28,50,35,0,0,0,0,0,0,0,0,0,0,0,0,0,0],"split_type":[0,0,0,0,0,0,0,0,0,0,0,0,0,0,0,0,0,0,0,0,0,0,0,0,0,0,0,0,0],"sum_hessian":[1.10698E3,6.78539E1,1.0391261E3,6.0499664E1,7.354233E0,5.770989E2,4.6202722E2,2.5083427E1,3.5416237E1,5.666496E0,1.6877371E0,8.3614174E1,4.9348468E2,2.7735083E2,1.8467639E2,1.2584694E1,1.2498733E1,2.2712591E1,1.2703646E1,4.526357E0,1.1401384E0,8.249434E1,1.1198347E0,1.4464465E2,3.4884003E2,2.4059486E2,3.6755955E1,1.3557124E2,4.9105145E1],"tree_param":{"num_deleted":"0","num_feature":"65","num_nodes":"29","size_leaf_vector":"1"}},{"base_weights":[-8.666763E-3,-1.275551E-1,1.7935687E-1,3.793484E-1,-1.5558238E-1,1.9979593E-1,-1.9295557E-1,4.7504207E-1,-4.73907E-1,-5.858774E-1,-1.2281277E-1,1.6163833E-1,4.929655E-1,3.7742123E-1,-4.2323166E-1,-1.3447491E-2,1.7466594E-2,-2.4600888E-2,1.7154085E-2,4.1796397E-3,-1.9644579E-2,-2.7491513E-3,-1.2505271E-2,5.987938E-3,-3.7535846E-3,1.6512737E-2,-2.275692E-2,2.5927456E-2,-1.0604056E-2,-2.336717E-2,7.320786E-4],"categories":[],"categories_nodes":[],"categories_segments":[],"categories_sizes":[],"default_left":[0,0,1,0,0,0,0,0,0,0,1,0,0,0,0,0,0,0,0,0,0,0,0,0,0,0,0,0,0,0,0],"id":5,"left_children":[1,3,5,7,9,11,13,15,17,19,21,23,25,27,29,-1,-1,-1,-1,-1,-1,-1,-1,-1,-1,-1,-1,-1,-1,-1,-1],"loss_changes":[4.478333E1,1.7495321E1,5.9442196E0,5.4992914E0,1.6336899E1,8.155634E0,5.5311728E0,6.0577917E0,3.0076985E0,4.1952534E0,9.885241E0,7.131708E0,6.4792805E0,4.6787243E0,4.7325068E0,0E0,0E0,0E0,0E0,0E0,0E0,0E0,0E0,0E0,0E0,0E0,0E0,0E0,0E0,0E0,0E0],"parents":[2147483647,0,0,1,1,2,2,3,3,4,4,5,5,6,6,7,7,8,8,9,9,10,10,11,11,12,12,13,13,14,14],"right_children":[2,4,6,8,10,12,14,16,18,20,22,24,26,28,30,-1,-1,-1,-1,-1,-1,-1,-1,-1,-1,-1,-1,-1,-1,-1,-1],"split_conditions":[3.7973407E-1,-1.4644464E0,1.722034E2,8E-1,2.270062E-1,2.3869559E-1,1.6045E2,1.2633E2,4.44E0,4.7443563E-1,1.659352E2,2.1404752E-1,3.608353E-2,-1.6276146E0,2.1496313E0,-1.3447491E-2,1.7466594E-2,-2.4600888E-2,1.7154085E-2,4.1796397E-3,-1.9644579E-2,-2.7491513E-3,-1.2505271E-2,5.987938E-3,-3.7535846E-3,1.6512737E-2,-2.275692E-2,2.5927456E-2,-1.0604056E-2,-2.336717E-2,7.320786E-4],"split_indices":[0,32,50,4,0,1,9,8,21,30,50,1,47,33,35,0,0,0,0,0,0,0,0,0,0,0,0,0,0,0,0],"split_type":[0,0,0,0,0,0,0,0,0,0,0,0,0,0,0,0,0,0,0,0,0,0,0,0,0,0,0,0,0,0,0],"sum_hessian":[2.0013625E3,1.2262927E3,7.750698E2,6.3593887E1,1.1626989E3,7.351739E2,3.9895893E1,5.757953E1,6.014358E0,8.108605E1,1.0816128E3,6.5187964E2,8.329427E1,1.1290692E1,2.8605202E1,5.6577797E0,5.192175E1,4.680846E0,1.3335118E0,6.9507117E0,7.413534E1,9.791142E2,1.02498604E2,5.7594305E2,7.593659E1,8.0173615E1,3.1206605E0,6.667306E0,4.623387E0,1.5527535E1,1.3077666E1],"tree_param":{"num_deleted":"0","num_feature":"65","num_nodes":"31","size_leaf_vector":"1"}},{"base_weights":[6.0670637E-3,-9.532934E-2,1.5257274E-1,-1.1661208E-2,-2.610662E-1,4.9187433E-2,4.2493415E-1,3.0932024E-1,-5.5620786E-2,9.136474E-2,-3.3682352E-1,-1.5003336E-2,2.6604426E-1,2.7961117E-1,9.406493E-1,1.4896361E-2,-4.8089693E-3,-9.741341E-3,-5.276245E-4,1.0460911E-2,-9.165117E-3,2.6339002E-2,-1.067176E-2,-2.0619063E-3,1.1022113E-2,-2.1476613E-3,1.5545268E-2,3.400419E-3,2.1562874E-2,3.2554824E-2,-8.634903E-3],"categories":[],"categories_nodes":[],"categories_segments":[],"categories_sizes":[],"default_left":[0,0,0,0,0,0,0,0,0,1,0,1,1,1,0,0,0,0,0,0,0,0,0,0,0,0,0,0,0,0,0],"id":6,"left_children":[1,3,5,7,9,11,13,15,17,19,21,23,25,27,29,-1,-1,-1,-1,-1,-1,-1,-1,-1,-1,-1,-1,-1,-1,-1,-1],"loss_changes":[2.6225481E1,1.4465184E1,2.0311266E1,9.815232E0,9.374748E0,7.305503E0,1.4616913E1,7.4473753E0,6.25361E0,6.5104575E0,6.931404E0,8.359998E0,1.0240029E1,1.1332157E1,7.9860573E0,0E0,0E0,0E0,0E0,0E0,0E0,0E0,0E0,0E0,0E0,0E0,0E0,0E0,0E0,0E0,0E0],"parents":[2147483647,0,0,1,1,2,2,3,3,4,4,5,5,6,6,7,7,8,8,9,9,10,10,11,11,12,12,13,13,14,14],"right_children":[2,4,6,8,10,12,14,16,18,20,22,24,26,28,30,-1,-1,-1,-1,-1,-1,-1,-1,-1,-1,-1,-1,-1,-1,-1,-1],"split_conditions":[3.886574E-1,4.749053E6,2.1750866E-1,6.092502E-2,-9.631657E-1,1.4386438E0,1.9412196E0,7.672669E-2,2.6002064E-1,1.8481723E0,2.022E2,1.7640243E0,1.5945956E-1,1.6788054E2,1.8554263E-1,1.4896361E-2,-4.8089693E-3,-9.741341E-3,-5.276245E-4,1.0460911E-2,-9.165117E-3,2.6339002E-2,-1.067176E-2,-2.0619063E-3,1.1022113E-2,-2.1476613E-3,1.5545268E-2,3.400419E-3,2.1562874E-2,3.2554824E-2,-8.634903E-3],"split_indices":[2,11,1,55,41,28,40,34,2,40,18,40,35,53,55,0,0,0,0,0,0,0,0,0,0,0,0,0,0,0,0],"split_type":[0,0,0,0,0,0,0,0,0,0,0,0,0,0,0,0,0,0,0,0,0,0,0,0,0,0,0,0,0,0,0],"sum_hessian":[1.7634346E3,1.0423646E3,7.2107E2,6.933928E2,3.4897174E2,5.2352606E2,1.9754395E2,8.2796646E1,6.105962E2,6.1705475E1,2.8726627E2,4.0467184E2,1.188542E2,1.5531892E2,4.222502E1,5.9155525E1,2.3641123E1,7.468098E1,5.359152E2,3.750704E1,2.4198437E1,3.7049656E0,2.835613E2,3.5553998E2,4.9131866E1,5.1117733E1,6.7736465E1,1.13576614E2,4.1742306E1,3.788509E1,4.339932E0],"tree_param":{"num_deleted":"0","num_feature":"65","num_nodes":"31","size_leaf_vector":"1"}},{"base_weights":[-4.553039E-3,-1.822844E-1,5.8266395E-1,-2.8308567E-1,3.762155E-2,1.2359241E0,3.772179E-1,-4.898289E-1,-2.4826983E-1,8.929178E-3,5.425517E-2,1.4187965E0,3.0408752E-1,2.0356466E-1,7.565978E-1,3.7679619E-3,-1.5593753E-2,-1.517172E-2,-6.54994E-3,4.8194535E-2,-1.2485372E-4,4.8211385E-2,1.6862873E-3,-1.5263002E-2,3.196119E-2,5.6566104E-2,4.929004E-3,3.4553226E-2,7.5386954E-3],"categories":[],"categories_nodes":[],"categories_segments":[],"categories_sizes":[],"default_left":[0,0,0,0,1,0,0,0,0,0,0,0,0,0,0,0,0,0,0,0,0,0,0,0,0,0,0,0,0],"id":7,"left_children":[1,3,5,7,9,11,13,15,17,19,-1,21,23,25,27,-1,-1,-1,-1,-1,-1,-1,-1,-1,-1,-1,-1,-1,-1],"loss_changes":[1.1601517E2,1.8925879E1,3.4197197E1,4.0908165E0,1.3656401E1,1.0023705E1,1.2885323E1,1.6017189E0,3.7658768E0,5.5655437E0,0E0,1.2995537E1,7.558229E0,8.747423E0,1.204723E1,0E0,0E0,0E0,0E0,0E0,0E0,0E0,0E0,0E0,0E0,0E0,0E0,0E0,0E0],"parents":[2147483647,0,0,1,1,2,2,3,3,4,4,5,5,6,6,7,7,8,8,9,9,11,11,12,12,13,13,14,14],"right_children":[2,4,6,8,10,12,14,16,18,20,-1,22,24,26,28,-1,-1,-1,-1,-1,-1,-1,-1,-1,-1,-1,-1,-1,-1],"split_conditions":[3.510795E-1,2.63235E-1,2.3456672E-1,1.402195E2,1.76883E2,1.0512089E0,2.5125E2,8.113908E-2,1.3277955E-1,2.2845784E-1,5.425517E-2,8.753787E6,1.3820072E0,1.2948785E2,2.9389688E-1,3.7679619E-3,-1.5593753E-2,-1.517172E-2,-6.54994E-3,4.8194535E-2,-1.2485372E-4,4.8211385E-2,1.6862873E-3,-1.5263002E-2,3.196119E-2,5.6566104E-2,4.929004E-3,3.4553226E-2,7.5386954E-3],"split_indices":[1,1,0,49,49,32,18,55,1,37,0,11,33,29,0,0,0,0,0,0,0,0,0,0,0,0,0,0,0],"split_type":[0,0,0,0,0,0,0,0,0,0,0,0,0,0,0,0,0,0,0,0,0,0,0,0,0,0,0,0,0],"sum_hessian":[1.1095914E3,8.523136E2,2.5727786E2,5.842265E2,2.6808713E2,6.035387E1,1.9692398E2,8.232076E1,5.0190573E2,2.6480176E2,3.2853518E0,5.001573E1,1.033814E1,1.3614365E2,6.078034E1,3.6736379E0,7.8647125E1,5.0629364E1,4.5127637E2,1.1629605E0,2.636388E2,4.37869E1,6.228832E0,5.1601486E0,5.1779914E0,2.03304E0,1.3411061E2,3.3389053E1,2.7391283E1],"tree_param":{"num_deleted":"0","num_feature":"65","num_nodes":"29","size_leaf_vector":"1"}},{"base_weights":[1.0176542E-3,-1.3975719E-1,1.6417041E-1,-5.38645E-1,-1.0420487E-1,1.8964218E-1,-1.0069675E-1,2.539043E-1,-6.030515E-1,-4.1980907E-2,-2.8584966E-1,2.8742212E-1,1.055447E-1,2.074564E-1,-3.66351E-1,-2.0261047E-2,2.423806E-2,-2.5171898E-2,-8.590786E-3,-2.8576595E-3,8.583986E-3,-1.4518559E-2,-1.2547009E-3,1.8140016E-2,6.448277E-3,-3.226542E-3,5.9326007E-3,1.0822465E-2,-2.4351262E-2,-2.147124E-2,2.9813123E-4],"categories":[],"categories_nodes":[],"categories_segments":[],"categories_sizes":[],"default_left":[0,0,1,0,0,0,0,1,1,0,0,1,0,0,1,0,0,0,0,0,0,0,0,0,0,0,0,0,0,0,0],"id":8,"left_children":[1,3,5,7,9,11,13,15,17,19,21,23,25,27,29,-1,-1,-1,-1,-1,-1,-1,-1,-1,-1,-1,-1,-1,-1,-1,-1],"loss_changes":[4.569404E1,1.5089409E1,6.2360916E0,4.602154E0,1.1085269E1,6.8852425E0,6.747534E0,4.2805076E0,5.806761E0,1.2831117E1,1.2081972E1,8.798187E0,8.936429E0,6.28722E0,5.8081546E0,0E0,0E0,0E0,0E0,0E0,0E0,0E0,0E0,0E0,0E0,0E0,0E0,0E0,0E0,0E0,0E0],"parents":[2147483647,0,0,1,1,2,2,3,3,4,4,5,5,6,6,7,7,8,8,9,9,10,10,11,11,12,12,13,13,14,14],"right_children":[2,4,6,8,10,12,14,16,18,20,22,24,26,28,30,-1,-1,-1,-1,-1,-1,-1,-1,-1,-1,-1,-1,-1,-1,-1,-1],"split_conditions":[3.671185E-1,2.316306E-1,1.6104214E2,-6.0617585E-2,1.6192572E2,4.8845196E1,1.9159485E-1,-2.0764379E-1,1.4720074E2,7.475647E1,3.9573195E-3,1.2735634E2,9.228815E-2,1.7695E2,1.6513883E0,-2.0261047E-2,2.423806E-2,-2.5171898E-2,-8.590786E-3,-2.8576595E-3,8.583986E-3,-1.4518559E-2,-1.2547009E-3,1.8140016E-2,6.448277E-3,-3.226542E-3,5.9326007E-3,1.0822465E-2,-2.4351262E-2,-2.147124E-2,2.9813123E-4],"split_indices":[0,0,54,57,27,31,1,41,51,31,47,54,34,8,35,0,0,0,0,0,0,0,0,0,0,0,0,0,0,0,0],"split_type":[0,0,0,0,0,0,0,0,0,0,0,0,0,0,0,0,0,0,0,0,0,0,0,0,0,0,0,0,0,0,0],"sum_hessian":[1.9874834E3,1.066987E3,9.204964E2,8.6158615E1,9.8082837E2,8.399993E2,8.04971E1,6.254316E0,7.99043E1,7.314836E2,2.493448E2,3.8728552E2,4.527138E2,3.7368977E1,4.3128124E1,2.2542572E0,4.0000587E0,4.483899E1,3.506531E1,6.299165E2,1.0156711E2,1.3707948E2,1.1226532E2,7.06604E1,3.1662512E2,1.3667914E2,3.1603467E2,3.3044754E1,4.32422E0,2.1896646E1,2.1231476E1],"tree_param":{"num_deleted":"0","num_feature":"65","num_nodes":"31","size_leaf_vector":"1"}},{"base_weights":[3.708936E-3,3.6605526E-2,-3.0662328E-1,4.747575E-1,2.5619997E-2,-5.962454E-1,-2.1148159E-1,2.5536102E-1,3.8533747E-2,-8.10208E-3,1.811005E-1,-2.1574078E-2,-1.9310557E-3,4.569101E-1,-2.6134893E-1,-4.1493843E-3,2.1926373E-2,-1.4018054E-3,5.5089663E-3,1.8170055E-2,3.2533368E-3,2.7774025E-2,-1.0842361E-2,3.1129567E-2,-1.6744627E-2,-8.5332235E-3,2.7695457E-2],"categories":[],"categories_nodes":[],"categories_segments":[],"categories_sizes":[],"default_left":[0,0,0,0,0,0,0,0,0,1,0,0,0,1,1,0,0,0,0,0,0,0,0,0,0,0,0],"id":9,"left_children":[1,3,5,7,9,11,13,15,-1,17,19,-1,21,23,25,-1,-1,-1,-1,-1,-1,-1,-1,-1,-1,-1,-1],"loss_changes":[1.7869236E1,7.604932E0,4.496662E0,6.537924E0,8.101312E0,2.9882393E0,4.3801103E0,6.0274177E0,0E0,9.417253E0,8.429245E0,0E0,3.0081356E0,6.0253944E0,3.5337677E0,0E0,0E0,0E0,0E0,0E0,0E0,0E0,0E0,0E0,0E0,0E0,0E0],"parents":[2147483647,0,0,1,1,2,2,3,3,4,4,5,5,6,6,7,7,9,9,10,10,12,12,13,13,14,14],"right_children":[2,4,6,8,10,12,14,16,-1,18,20,-1,22,24,26,-1,-1,-1,-1,-1,-1,-1,-1,-1,-1,-1,-1],"split_conditions":[4.585517E-1,4.4346637E-1,-4.7182524E-1,1.6227E2,1.4270099E0,1.4822312E-1,2.6202452E-1,1.1583034E0,3.8533747E-2,1.6169088E0,7.574117E-1,-2.1574078E-2,2.66338E6,5.493738E-1,-1.2964532E-1,-4.1493843E-3,2.1926373E-2,-1.4018054E-3,5.5089663E-3,1.8170055E-2,3.2533368E-3,2.7774025E-2,-1.0842361E-2,3.1129567E-2,-1.6744627E-2,-8.5332235E-3,2.7695457E-2],"split_indices":[1,30,40,25,43,34,28,40,0,40,30,0,11,41,42,0,0,0,0,0,0,0,0,0,0,0,0],"split_type":[0,0,0,0,0,0,0,0,0,0,0,0,0,0,0,0,0,0,0,0,0,0,0,0,0,0,0],"sum_hessian":[1.7482639E3,1.5815E3,1.6676396E2,3.7649582E1,1.5438505E3,3.993385E1,1.2683012E2,3.0657898E1,6.991686E0,1.2694648E3,2.7438562E2,3.2917286E1,7.016563E0,8.238866E0,1.1859125E2,1.7160295E1,1.3497602E1,1.0572406E3,2.1222426E2,3.9022118E1,2.353635E2,1.5195628E0,5.497E0,5.2264423E0,3.012423E0,1.17068924E2,1.5223286E0],"tree_param":{"num_deleted":"0","num_feature":"65","num_nodes":"27","size_leaf_vector":"1"}},{"base_weights":[-8.2667643E-4,7.056238E-1,-1.4013304E-1,1.2280416E0,4.421913E-1,-2.804311E-1,8.6027436E-2,-1.2677967E-2,1.3014445E0,1.8481763E-1,9.8679066E-1,-4.823304E-1,-2.3466627E-1,5.6810744E-2,1.0058466E0,3.2761995E-2,6.5001175E-2,1.4216891E-2,-1.6366838E-3,-1.6472209E-3,3.4440357E-2,-1.5593095E-2,1.0944482E-2,2.4324063E-2,-7.4605406E-3,5.316356E-2,1.3060961E-3,6.700177E-2,2.0481783E-3],"categories":[],"categories_nodes":[],"categories_segments":[],"categories_sizes":[],"default_left":[0,0,0,0,0,0,0,0,0,0,0,0,0,0,0,0,0,0,0,0,0,0,0,0,0,0,0,0,0],"id":10,"left_children":[1,3,5,7,9,11,13,-1,15,17,19,21,23,25,27,-1,-1,-1,-1,-1,-1,-1,-1,-1,-1,-1,-1,-1,-1],"loss_changes":[1.0777734E2,2.4281898E1,2.9049442E1,7.808296E0,1.6844812E1,5.105335E0,9.375139E0,0E0,8.069099E0,5.8193645E0,6.5717506E0,3.4696407E0,6.9779816E0,7.6925583E0,1.2214459E1,0E0,0E0,0E0,0E0,0E0,0E0,0E0,0E0,0E0,0E0,0E0,0E0,0E0,0E0],"parents":[2147483647,0,0,1,1,2,2,3,3,4,4,5,5,6,6,8,8,9,9,10,10,11,11,12,12,13,13,14,14],"right_children":[2,4,6,8,10,12,14,-1,16,18,20,22,24,26,28,-1,-1,-1,-1,-1,-1,-1,-1,-1,-1,-1,-1,-1,-1],"split_conditions":[2.9389688E-1,2.3456672E-1,2.63235E-1,-1.5374912E0,2.5125E2,1.3991E2,4.2139575E-1,-1.2677967E-2,1.6777765E2,2.751162E6,1.5261377E2,5.5960555E-2,1.4026E2,3.002524E-1,-1.7799612E-2,3.2761995E-2,6.5001175E-2,1.4216891E-2,-1.6366838E-3,-1.6472209E-3,3.4440357E-2,-1.5593095E-2,1.0944482E-2,2.4324063E-2,-7.4605406E-3,5.316356E-2,1.3060961E-3,6.700177E-2,2.0481783E-3],"split_indices":[0,0,1,32,18,23,62,0,53,11,53,47,25,37,57,0,0,0,0,0,0,0,0,0,0,0,0,0,0],"split_type":[0,0,0,0,0,0,0,0,0,0,0,0,0,0,0,0,0,0,0,0,0,0,0,0,0,0,0,0,0],"sum_hessian":[1.0931481E3,1.7938509E2,9.13763E2,5.8905945E1,1.2047914E2,5.637822E2,3.4998077E2,2.3054333E0,5.660051E1,8.272383E1,3.7755318E1,1.0241622E2,4.61366E2,3.4023547E2,9.745313E0,4.7394096E1,9.206413E0,3.7027718E1,4.569611E1,5.1485367E0,3.260678E1,9.845162E1,3.9645982E0,5.3524365E0,4.5601358E2,1.5952445E0,3.3864023E2,3.6215703E0,6.123742E0],"tree_param":{"num_deleted":"0","num_feature":"65","num_nodes":"29","size_leaf_vector":"1"}},{"base_weights":[-1.32628605E-2,-1.2660754E-1,1.6383608E-1,-5.0890505E-1,-9.7744755E-2,2.7198365E-1,6.2214315E-2,-6.064294E-1,5.328738E-1,-7.3723656E-1,-8.282784E-2,4.1472015E-1,1.20609656E-1,-6.8401057E-1,1.0032374E-1,-2.3916988E-2,-4.233435E-3,2.5788212E-2,-1.6688546E-2,1.7383339E-2,-2.5037555E-2,-1.1240913E-3,-6.821214E-3,9.547503E-3,2.3422232E-2,8.648992E-5,1.5058379E-2,2.1424452E-2,-2.8474515E-2,-3.0116083E-3,6.604015E-3],"categories":[],"categories_nodes":[],"categories_segments":[],"categories_sizes":[],"default_left":[0,0,0,0,0,0,0,0,0,0,1,0,0,0,0,0,0,0,0,0,0,0,0,0,0,0,0,0,0,0,0],"id":11,"left_children":[1,3,5,7,9,11,13,15,17,19,21,23,25,27,29,-1,-1,-1,-1,-1,-1,-1,-1,-1,-1,-1,-1,-1,-1,-1,-1],"loss_changes":[3.948081E1,1.3182661E1,8.418955E0,8.851927E0,1.0587366E1,7.978054E0,1.1359407E1,6.744049E0,3.224757E0,3.7288303E0,7.150713E0,6.48954E0,8.157147E0,7.8765526E0,9.126596E0,0E0,0E0,0E0,0E0,0E0,0E0,0E0,0E0,0E0,0E0,0E0,0E0,0E0,0E0,0E0,0E0],"parents":[2147483647,0,0,1,1,2,2,3,3,4,4,5,5,6,6,7,7,8,8,9,9,10,10,11,11,12,12,13,13,14,14],"right_children":[2,4,6,8,10,12,14,16,18,20,22,24,26,28,30,-1,-1,-1,-1,-1,-1,-1,-1,-1,-1,-1,-1,-1,-1,-1,-1],"split_conditions":[3.7973407E-1,2.270062E-1,1.5265E2,2.2249806E0,1.0645813E0,5.009903E1,1.5315E2,5.813961E6,-3.1191176E-3,3.427346E-1,1.586646E2,2.2100377E-1,1.4944E2,1.3468722E-1,4.188618E-1,-2.3916988E-2,-4.233435E-3,2.5788212E-2,-1.6688546E-2,1.7383339E-2,-2.5037555E-2,-1.1240913E-3,-6.821214E-3,9.547503E-3,2.3422232E-2,8.648992E-5,1.5058379E-2,2.1424452E-2,-2.8474515E-2,-3.0116083E-3,6.604015E-3],"split_indices":[0,0,26,28,37,31,24,11,47,62,50,1,24,1,62,0,0,0,0,0,0,0,0,0,0,0,0,0,0,0,0],"split_type":[0,0,0,0,0,0,0,0,0,0,0,0,0,0,0,0,0,0,0,0,0,0,0,0,0,0,0,0,0,0,0],"sum_hessian":[1.9648062E3,1.1982207E3,7.665854E2,8.294562E1,1.1152751E3,3.7055652E2,3.9602887E2,7.622759E1,6.718026E0,2.431837E1,1.0909568E3,1.8982414E2,1.8073239E2,1.8418842E1,3.7761002E2,5.355423E1,2.2673363E1,5.32989E0,1.3881361E0,1.3332562E0,2.2985115E1,8.313429E2,2.5961386E2,1.5170863E2,3.81155E1,1.3886833E2,4.1864056E1,2.6661255E0,1.5752717E1,1.4121056E2,2.3639948E2],"tree_param":{"num_deleted":"0","num_feature":"65","num_nodes":"31","size_leaf_vector":"1"}},{"base_weights":[8.7330065E-4,-1.0760237E-1,1.5356624E-1,-6.3357554E-2,-3.195988E-1,1.0612403E0,1.360767E-1,4.3036286E-3,-1.977206E-1,-5.929893E-1,-2.0192002E-1,4.010862E-2,-1.4543644E-2,3.307099E-1,4.9054377E-2,-1.8655205E-3,5.5191596E-3,2.31492E-2,-6.9110887E-3,9.054165E-3,-1.8676069E-2,-1.4419883E-3,-1.3310493E-2,-3.0729135E-3,1.28039075E-2,4.871509E-3,-4.7435677E-3],"categories":[],"categories_nodes":[],"categories_segments":[],"categories_sizes":[],"default_left":[0,0,0,1,1,0,0,1,0,0,0,0,0,0,0,0,0,0,0,0,0,0,0,0,0,0,0],"id":12,"left_children":[1,3,5,7,9,11,13,15,17,19,21,-1,-1,23,25,-1,-1,-1,-1,-1,-1,-1,-1,-1,-1,-1,-1],"loss_changes":[2.92447E1,9.662235E0,1.1497227E1,7.776355E0,5.606745E0,6.494816E0,1.2189305E1,6.818265E0,9.244126E0,1.5902824E0,4.663511E0,0E0,0E0,9.302954E0,1.1745104E1,0E0,0E0,0E0,0E0,0E0,0E0,0E0,0E0,0E0,0E0,0E0,0E0],"parents":[2147483647,0,0,1,1,2,2,3,3,4,4,5,5,6,6,7,7,8,8,9,9,10,10,13,13,14,14],"right_children":[2,4,6,8,10,12,14,16,18,20,22,-1,-1,24,26,-1,-1,-1,-1,-1,-1,-1,-1,-1,-1,-1,-1],"split_conditions":[3.886574E-1,4.585517E-1,3.8951817E-1,5.877176E-1,1.4627545E2,6.400517E5,-5.9722537E-1,8.007079E-4,3.66E0,-1.6255437E-1,1.6540398E2,4.010862E-2,-1.4543644E-2,4.453463E-1,4.0243232E-1,-1.8655205E-3,5.5191596E-3,2.31492E-2,-6.9110887E-3,9.054165E-3,-1.8676069E-2,-1.4419883E-3,-1.3310493E-2,-3.0729135E-3,1.28039075E-2,4.871509E-3,-4.7435677E-3],"split_indices":[2,1,2,41,51,17,43,57,21,47,53,0,0,40,0,0,0,0,0,0,0,0,0,0,0,0,0],"split_type":[0,0,0,0,0,0,0,0,0,0,0,0,0,0,0,0,0,0,0,0,0,0,0,0,0,0,0],"sum_hessian":[1.7636167E3,1.031276E3,7.3234076E2,8.5428156E2,1.769944E2,1.2716181E1,7.196246E2,5.688126E2,2.8546893E2,5.2044926E1,1.24949486E2,1.0906402E1,1.8097792E0,2.2147525E2,4.9814935E2,4.156515E2,1.5316112E2,8.564081E0,2.7690485E2,1.3690577E0,5.0675865E1,7.708975E1,4.7859734E1,4.019927E1,1.8127597E2,3.2214417E2,1.7600517E2],"tree_param":{"num_deleted":"0","num_feature":"65","num_nodes":"27","size_leaf_vector":"1"}},{"base_weights":[3.8247625E-3,7.678428E-1,-1.2517856E-1,5.839333E-1,1.4836752E0,-2.6384467E-1,9.06966E-2,8.920885E-1,2.8963014E-1,1.724552E0,1.7116232E-1,-2.1310537E-1,-4.5233366E-1,5.440192E-2,7.852476E-2,-9.02125E-3,3.0404745E-2,5.211653E-3,3.1097664E-2,6.144913E-2,2.0642294E-2,4.3303207E-2,-1.4609306E-2,-1.0350722E-2,-4.04967E-3,-1.4478867E-2,8.486771E-3,5.1168285E-2,1.995099E-3],"categories":[],"categories_nodes":[],"categories_segments":[],"categories_sizes":[],"default_left":[0,0,0,1,1,0,0,0,0,0,0,0,0,0,0,0,0,0,0,0,0,0,0,0,0,0,0,0,0],"id":13,"left_children":[1,3,5,7,9,11,13,15,17,19,21,23,25,-1,27,-1,-1,-1,-1,-1,-1,-1,-1,-1,-1,-1,-1,-1,-1],"loss_changes":[1.0888586E2,2.0143326E1,2.8317873E1,1.14061165E1,9.8127365E0,5.410164E0,7.6247897E0,9.333557E0,5.6439304E0,7.618416E0,5.7837543E0,4.6477966E0,2.8367386E0,0E0,7.101623E0,0E0,0E0,0E0,0E0,0E0,0E0,0E0,0E0,0E0,0E0,0E0,0E0,0E0,0E0],"parents":[2147483647,0,0,1,1,2,2,3,3,4,4,5,5,6,6,7,7,8,8,9,9,10,10,11,11,12,12,14,14],"right_children":[2,4,6,8,10,12,14,16,18,20,22,24,26,-1,28,-1,-1,-1,-1,-1,-1,-1,-1,-1,-1,-1,-1,-1,-1],"split_conditions":[2.8260767E-1,5.873352E-1,2.658055E-1,1.46651E2,-6.648821E-1,3.165499E-1,1.296595E2,-1.3386409E0,7.911639E-3,1.592205E2,-2.118534E0,6.8740344E-1,9.990244E6,5.440192E-2,3.002524E-1,-9.02125E-3,3.0404745E-2,5.211653E-3,3.1097664E-2,6.144913E-2,2.0642294E-2,4.3303207E-2,-1.4609306E-2,-1.0350722E-2,-4.04967E-3,-1.4478867E-2,8.486771E-3,5.1168285E-2,1.995099E-3],"split_indices":[0,1,1,51,35,46,49,33,47,49,43,28,11,0,37,0,0,0,0,0,0,0,0,0,0,0,0,0,0],"split_type":[0,0,0,0,0,0,0,0,0,0,0,0,0,0,0,0,0,0,0,0,0,0,0,0,0,0,0,0,0],"sum_hessian":[1.1027823E3,1.5858942E2,9.441929E2,1.27617935E2,3.097148E1,5.747704E2,3.6942255E2,6.1349598E1,6.626834E1,2.5903625E1,5.0678535E0,4.545427E2,1.2022768E2,1.5536178E0,3.6786893E2,5.5309114E0,5.5818687E1,5.8433556E1,7.834782E0,1.8994352E1,6.9092746E0,1.320985E0,3.7468684E0,1.67783E2,2.8675967E2,1.15799675E2,4.4280043E0,1.664769E0,3.6620413E2],"tree_param":{"num_deleted":"0","num_feature":"65","num_nodes":"29","size_leaf_vector":"1"}},{"base_weights":[1.2038913E-2,-4.4720137E-1,3.7797365E-2,6.7152923E-1,-5.211603E-1,-5.290434E-2,1.0352179E-1,6.1567132E-3,2.4587879E-2,-6.703847E-1,-1.7212754E-1,-3.1631574E-2,-6.501392E-1,1.4993934E-1,-1.2286107E-1,-2.4160633E-2,1.23382425E-2,-2.6038982E-2,5.1428163E-3,-5.1516215E-3,1.0592915E-3,-2.7702112E-2,-3.4263139E-3,6.154045E-3,-4.5826673E-4,-9.951328E-3,3.8915928E-3],"categories":[],"categories_nodes":[],"categories_segments":[],"categories_sizes":[],"default_left":[0,0,0,0,0,1,0,0,0,0,0,0,0,0,0,0,0,0,0,0,0,0,0,0,0,0,0],"id":14,"left_children":[1,3,5,7,9,11,13,-1,-1,15,17,19,21,23,25,-1,-1,-1,-1,-1,-1,-1,-1,-1,-1,-1,-1],"loss_changes":[2.366258E1,9.140326E0,1.1294207E1,3.1683278E-1,5.104252E0,1.0096409E1,1.1560091E1,0E0,0E0,1.0529623E1,7.6454973E0,7.2266665E0,3.8980312E0,8.319023E0,9.930609E0,0E0,0E0,0E0,0E0,0E0,0E0,0E0,0E0,0E0,0E0,0E0,0E0],"parents":[2147483647,0,0,1,1,2,2,3,3,4,4,5,5,6,6,9,9,10,10,11,11,12,12,13,13,14,14],"right_children":[2,4,6,8,10,12,14,-1,-1,16,18,20,22,24,26,-1,-1,-1,-1,-1,-1,-1,-1,-1,-1,-1,-1],"split_conditions":[2.3456672E-1,1.3055E2,1.0335792E0,1.2963E2,5.813961E6,1.6592302E2,1.649E2,6.1567132E-3,2.4587879E-2,1.6610388E0,6.078908E5,3.2967022E-1,4.241271E6,1.4386438E0,1.7656478E0,-2.4160633E-2,1.23382425E-2,-2.6038982E-2,5.1428163E-3,-5.1516215E-3,1.0592915E-3,-2.7702112E-2,-3.4263139E-3,6.154045E-3,-4.5826673E-4,-9.951328E-3,3.8915928E-3],"split_indices":[0,8,30,8,11,54,10,0,0,43,17,0,11,28,30,0,0,0,0,0,0,0,0,0,0,0,0],"split_type":[0,0,0,0,0,0,0,0,0,0,0,0,0,0,0,0,0,0,0,0,0,0,0,0,0,0,0],"sum_hessian":[1.9979044E3,1.0524044E2,1.892664E3,6.0249577E0,9.9215485E1,7.953088E2,1.0973552E3,2.0270877E0,3.99787E0,6.8856224E1,3.0359264E1,7.689719E2,2.6336863E1,9.1091815E2,1.8643703E2,6.1444595E1,7.4116287E0,9.5302305E0,2.0829033E1,2.4813351E2,5.208384E2,1.6964064E1,9.372797E0,6.826236E2,2.2829457E2,1.01881584E2,8.455545E1],"tree_param":{"num_deleted":"0","num_feature":"65","num_nodes":"27","size_leaf_vector":"1"}},{"base_weights":[1.3830781E-2,-2.747696E-1,6.66318E-2,-3.9709342E-1,-9.663656E-2,-2.1829586E-2,1.5964122E-1,-4.2195955E-1,5.660604E-1,-2.736386E-3,-2.0798987E-2,-2.0956138E-2,-8.146221E-3,6.734521E-2,3.83994E-1,-1.62194E-2,-5.1032184E-3,-1.2368021E-2,3.171425E-2,-2.021521E-2,2.557179E-3,1.8538495E-3,-4.7677816E-3,8.27632E-4,1.1812073E-2,5.742281E-3,1.911775E-2],"categories":[],"categories_nodes":[],"categories_segments":[],"categories_sizes":[],"default_left":[0,1,0,1,0,0,0,1,0,0,0,0,0,0,0,0,0,0,0,0,0,0,0,0,0,0,0],"id":15,"left_children":[1,3,5,7,9,11,13,15,17,19,-1,-1,21,23,25,-1,-1,-1,-1,-1,-1,-1,-1,-1,-1,-1,-1],"loss_changes":[2.7099915E1,5.955065E0,1.2370934E1,4.1367435E0,6.346154E0,7.1361427E0,1.514926E1,4.6676254E0,2.6089206E0,5.89665E0,0E0,0E0,7.9930468E0,6.7428236E0,1.0286465E1,0E0,0E0,0E0,0E0,0E0,0E0,0E0,0E0,0E0,0E0,0E0,0E0],"parents":[2147483647,0,0,1,1,2,2,3,3,4,4,5,5,6,6,7,7,8,8,9,9,12,12,13,13,14,14],"right_children":[2,4,6,8,10,12,14,16,18,20,-1,-1,22,24,26,-1,-1,-1,-1,-1,-1,-1,-1,-1,-1,-1,-1],"split_conditions":[2.9389688E-1,3.70477E1,3.886574E-1,-3.9059454E-1,2.7903008E-1,-4.936163E-1,2.1584862E-1,1.5481573E2,2.4844784E-1,1.3206E2,-2.0798987E-2,-2.0956138E-2,3.7973407E-1,9.059971E6,1.029591E0,-1.62194E-2,-5.1032184E-3,-1.2368021E-2,3.171425E-2,-2.021521E-2,2.557179E-3,1.8538495E-3,-4.7677816E-3,8.27632E-4,1.1812073E-2,5.742281E-3,1.911775E-2],"split_indices":[0,56,2,42,34,46,1,54,0,9,0,0,0,11,41,0,0,0,0,0,0,0,0,0,0,0,0],"split_type":[0,0,0,0,0,0,0,0,0,0,0,0,0,0,0,0,0,0,0,0,0,0,0,0,0,0,0],"sum_hessian":[1.7761956E3,2.740556E2,1.50214E3,1.6175168E2,1.1230392E2,7.702856E2,7.318544E2,1.5822852E2,3.5231512E0,9.790124E1,1.4402678E1,1.427486E1,7.5601074E2,5.194565E2,2.123979E2,1.06767105E2,5.1461422E1,1.231085E0,2.292066E0,1.0574732E1,8.732651E1,5.1685223E2,2.3915851E2,4.6401907E2,5.543741E1,1.21649925E2,9.0747986E1],"tree_param":{"num_deleted":"0","num_feature":"65","num_nodes":"27","size_leaf_vector":"1"}},{"base_weights":[3.724776E-3,-1.3208559E-1,6.062182E-1,-2.6714832E-1,9.311244E-2,3.9030147E-1,1.0976206E0,-4.1413885E-1,-2.0442459E-1,5.9280273E-2,7.0983195E-1,2.0982352E-1,8.5362417E-1,1.1629201E0,-1.2871651E-2,-1.3108565E-2,2.3234742E-2,-1.0752756E-2,-3.7807818E-3,9.6530386E-4,2.8696876E-2,-1.3379788E-2,2.8886927E-2,4.4120718E-2,4.599995E-3,2.0469261E-2,6.1779648E-2,4.7745932E-2,2.559219E-2],"categories":[],"categories_nodes":[],"categories_segments":[],"categories_sizes":[],"default_left":[0,0,0,0,1,0,1,1,0,0,0,0,0,0,0,0,0,0,0,0,0,0,0,0,0,0,0,0,0],"id":16,"left_children":[1,3,5,7,9,11,13,15,17,19,21,23,25,27,-1,-1,-1,-1,-1,-1,-1,-1,-1,-1,-1,-1,-1,-1,-1],"loss_changes":[8.944195E1,2.7157026E1,2.0905731E1,5.0587845E0,6.9512196E0,1.1631678E1,6.5629272E0,4.8364983E0,4.6995735E0,7.7229986E0,5.501239E0,7.1090717E0,6.7061825E0,6.4248886E0,0E0,0E0,0E0,0E0,0E0,0E0,0E0,0E0,0E0,0E0,0E0,0E0,0E0,0E0,0E0],"parents":[2147483647,0,0,1,1,2,2,3,3,4,4,5,5,6,6,7,7,8,8,9,9,10,10,11,11,12,12,13,13],"right_children":[2,4,6,8,10,12,14,16,18,20,22,24,26,28,-1,-1,-1,-1,-1,-1,-1,-1,-1,-1,-1,-1,-1,-1,-1],"split_conditions":[3.8960436E-1,2.63235E-1,5.316324E-1,5.9713215E-1,1.8513336E2,2.5275E2,1.5662955E2,4.775807E0,-4.246663E-3,5.9589125E-2,5.343542E-1,1.3037143E2,1.6222825E-2,6.511163E-1,-1.2871651E-2,-1.3108565E-2,2.3234742E-2,-1.0752756E-2,-3.7807818E-3,9.6530386E-4,2.8696876E-2,-1.3379788E-2,2.8886927E-2,4.4120718E-2,4.599995E-3,2.0469261E-2,6.1779648E-2,4.7745932E-2,2.559219E-2],"split_indices":[1,1,1,28,53,18,51,35,47,47,30,27,47,28,0,0,0,0,0,0,0,0,0,0,0,0,0,0,0],"split_type":[0,0,0,0,0,0,0,0,0,0,0,0,0,0,0,0,0,0,0,0,0,0,0,0,0,0,0,0,0],"sum_hessian":[1.0911115E3,8.9103955E2,2.000719E2,5.5687E2,3.3416956E2,1.4024435E2,5.982755E1,1.648793E2,3.9199072E2,3.1783008E2,1.6339487E1,1.01974945E2,3.8269405E1,5.7602043E1,2.225507E0,1.6239487E2,2.4844463E0,1.310309E2,2.609598E2,3.095166E2,8.313456E0,2.7979712E0,1.3541515E1,3.2993317E0,9.867561E1,3.487936E1,3.3900433E0,2.2433418E1,3.5168625E1],"tree_param":{"num_deleted":"0","num_feature":"65","num_nodes":"29","size_leaf_vector":"1"}},{"base_weights":[1.570978E-2,-1.21445246E-1,1.7694835E-1,-4.9239656E-1,-8.241525E-2,2.02865E-1,-1.4294572E-1,-6.1867636E-1,1.104504E-1,-4.3172896E-1,-4.28344E-2,2.9442045E-1,1.1391559E-1,2.5602262E-2,-2.6363844E-1,1.2758481E-2,-2.0864563E-2,2.3633622E-2,-1.718724E-2,-3.3249967E-3,-1.8676892E-2,-1.6728201E-3,2.7426962E-2,1.3584938E-2,4.2432374E-3,2.188828E-3,1.6447145E-2,-1.0507745E-2,2.3859339E-2],"categories":[],"categories_nodes":[],"categories_segments":[],"categories_sizes":[],"default_left":[0,0,0,0,0,0,0,0,0,0,0,1,0,0,0,0,0,0,0,0,0,0,0,0,0,0,0,0,0],"id":17,"left_children":[1,3,5,7,9,11,13,15,17,19,21,23,25,-1,27,-1,-1,-1,-1,-1,-1,-1,-1,-1,-1,-1,-1,-1,-1],"loss_changes":[4.3758873E1,1.5440735E1,7.569044E0,7.8024254E0,1.3374726E1,6.8212967E0,8.491953E0,7.0434036E0,8.988356E0,5.9617577E0,1.082895E1,9.972397E0,7.583192E0,0E0,5.973164E0,0E0,0E0,0E0,0E0,0E0,0E0,0E0,0E0,0E0,0E0,0E0,0E0,0E0,0E0],"parents":[2147483647,0,0,1,1,2,2,3,3,4,4,5,5,6,6,7,7,8,8,9,9,10,10,11,11,12,12,14,14],"right_children":[2,4,6,8,10,12,14,16,18,20,22,24,26,-1,28,-1,-1,-1,-1,-1,-1,-1,-1,-1,-1,-1,-1,-1,-1],"split_conditions":[3.69742E-1,2.3456672E-1,4.522635E-1,1.0743256E0,6.092502E-2,4.914676E1,3.75E0,1.3055E2,1.3820072E0,7.9904336E-1,8.11651E-1,1.4741943E2,1.733E2,2.5602262E-2,4.9384087E-1,1.2758481E-2,-2.0864563E-2,2.3633622E-2,-1.718724E-2,-3.3249967E-3,-1.8676892E-2,-1.6728201E-3,2.7426962E-2,1.3584938E-2,4.2432374E-3,2.188828E-3,1.6447145E-2,-1.0507745E-2,2.3859339E-2],"split_indices":[0,0,2,32,55,31,21,8,33,40,34,54,26,0,2,0,0,0,0,0,0,0,0,0,0,0,0,0,0],"split_type":[0,0,0,0,0,0,0,0,0,0,0,0,0,0,0,0,0,0,0,0,0,0,0,0,0,0,0,0,0],"sum_hessian":[1.9767535E3,1.0682827E3,9.084708E2,1.0059409E2,9.676886E2,8.4072424E2,6.7746574E1,8.315017E1,1.7443924E1,9.74809E1,8.702077E2,4.1315485E2,4.275694E2,6.6638203E0,6.1082756E1,5.3875685E0,7.77626E1,8.683811E0,8.760112E0,3.694205E1,6.0538857E1,8.5954034E2,1.0667331E1,2.0201114E2,2.1114372E2,3.9179306E2,3.5776325E1,5.7082752E1,4.0000024E0],"tree_param":{"num_deleted":"0","num_feature":"65","num_nodes":"29","size_leaf_vector":"1"}},{"base_weights":[1.0756722E-2,-8.811131E-2,1.489252E-1,-6.6609895E-3,-2.2859865E-1,2.5665805E-2,3.453398E-1,-3.560786E-1,2.2667704E-2,1.431811E-1,-2.830423E-1,-6.1527632E-2,3.074377E-1,1.9842485E-1,6.456197E-1,-1.2409357E-2,2.7138982E-2,2.8691262E-3,-3.7685742E-3,-5.849358E-3,1.5453431E-2,-1.1167536E-3,-1.0946878E-2,1.9709969E-2,-3.236078E-3,3.9187532E-2,6.7871516E-3,1.215353E-2,-2.46279E-3,1.9283392E-3,2.4286E-2],"categories":[],"categories_nodes":[],"categories_segments":[],"categories_sizes":[],"default_left":[0,0,0,0,0,0,0,0,0,0,0,0,0,0,0,0,0,0,0,0,0,0,0,0,0,0,0,0,0,0,0],"id":18,"left_children":[1,3,5,7,9,11,13,15,17,19,21,23,25,27,29,-1,-1,-1,-1,-1,-1,-1,-1,-1,-1,-1,-1,-1,-1,-1,-1],"loss_changes":[2.4327133E1,1.1877436E1,1.797337E1,6.752921E0,7.751499E0,1.1257835E1,1.2502758E1,4.0773835E0,6.592365E0,6.3042617E0,6.6793003E0,1.1731017E1,8.485544E0,1.1263917E1,8.868755E0,0E0,0E0,0E0,0E0,0E0,0E0,0E0,0E0,0E0,0E0,0E0,0E0,0E0,0E0,0E0,0E0],"parents":[2147483647,0,0,1,1,2,2,3,3,4,4,5,5,6,6,7,7,8,8,9,9,10,10,11,11,12,12,13,13,14,14],"right_children":[2,4,6,8,10,12,14,16,18,20,22,24,26,28,30,-1,-1,-1,-1,-1,-1,-1,-1,-1,-1,-1,-1,-1,-1,-1,-1],"split_conditions":[3.886574E-1,4.531847E6,1.9772048E-1,-3.532655E-1,-1.30877E0,1.4386438E0,1.6085E2,1.7575E2,2.763676E-1,4.34E0,6.652741E-1,-3.212104E-2,1.2743307E0,3.7301643E1,7.059298E-1,-1.2409357E-2,2.7138982E-2,2.8691262E-3,-3.7685742E-3,-5.849358E-3,1.5453431E-2,-1.1167536E-3,-1.0946878E-2,1.9709969E-2,-3.236078E-3,3.9187532E-2,6.7871516E-3,1.215353E-2,-2.46279E-3,1.9283392E-3,2.4286E-2],"split_indices":[2,11,1,46,41,28,22,9,46,21,28,47,30,56,30,0,0,0,0,0,0,0,0,0,0,0,0,0,0,0,0],"split_type":[0,0,0,0,0,0,0,0,0,0,0,0,0,0,0,0,0,0,0,0,0,0,0,0,0,0,0,0,0,0,0],"sum_hessian":[1.7788843E3,1.037122E3,7.417622E2,6.57165E2,3.7995703E2,4.5644943E2,2.853128E2,5.0025677E1,6.071393E2,4.8325626E1,3.3163138E2,3.4917877E2,1.07270645E2,1.9269542E2,9.261737E1,4.8483707E1,1.5419703E0,4.071444E2,1.9999489E2,2.5561249E1,2.2764378E1,8.320641E1,2.4842497E2,2.0357567E1,3.288212E2,6.9307065E0,1.0033994E2,1.1069115E2,8.200427E1,2.0676735E1,7.1940636E1],"tree_param":{"num_deleted":"0","num_feature":"65","num_nodes":"31","size_leaf_vector":"1"}},{"base_weights":[3.8236172E-3,6.977293E-1,-1.5017422E-1,1.067685E0,4.2462012E-1,-2.0819513E-2,-2.9591277E-1,1.7170333E0,8.691645E-1,1.8167506E-1,9.396288E-1,-4.6349972E-2,5.9008205E-1,2.8440538E-1,-3.1409124E-1,-1.1955269E-2,5.9224248E-2,1.914857E-2,4.0428262E-2,1.326492E-2,-4.7461726E-3,5.1486682E-2,1.7681485E-2,-5.7800947E-4,-1.552146E-2,6.018455E-3,6.342633E-2,4.7834273E-2,8.0924353E-4,-7.495247E-3,-1.4348451E-2],"categories":[],"categories_nodes":[],"categories_segments":[],"categories_sizes":[],"default_left":[0,0,0,1,0,1,0,0,0,0,1,0,0,0,0,0,0,0,0,0,0,0,0,0,0,0,0,0,0,0,0],"id":19,"left_children":[1,3,5,7,9,11,13,15,17,19,21,23,25,27,29,-1,-1,-1,-1,-1,-1,-1,-1,-1,-1,-1,-1,-1,-1,-1,-1],"loss_changes":[1.17199295E2,1.9672852E1,1.6915016E1,9.327866E0,1.4375196E1,7.460614E0,4.540985E0,1.0918907E1,6.4645348E0,7.1733885E0,9.05891E0,5.8378687E0,1.096785E1,4.4566116E0,4.2019157E0,0E0,0E0,0E0,0E0,0E0,0E0,0E0,0E0,0E0,0E0,0E0,0E0,0E0,0E0,0E0,0E0],"parents":[2147483647,0,0,1,1,2,2,3,3,4,4,5,5,6,6,7,7,8,8,9,9,10,10,11,11,12,12,13,13,14,14],"right_children":[2,4,6,8,10,12,14,16,18,20,22,24,26,28,30,-1,-1,-1,-1,-1,-1,-1,-1,-1,-1,-1,-1,-1,-1,-1,-1],"split_conditions":[2.9389688E-1,2.4500395E-1,3.886574E-1,2.6223469E1,2.5125E2,1.5513405E2,3.74E0,5.092104E-1,2.0942786E-1,1.0335792E0,8.0685906E-2,6.199654E-1,3.832424E-1,3.390584E-1,1.9412196E0,-1.1955269E-2,5.9224248E-2,1.914857E-2,4.0428262E-2,1.326492E-2,-4.7461726E-3,5.1486682E-2,1.7681485E-2,-5.7800947E-4,-1.552146E-2,6.018455E-3,6.342633E-2,4.7834273E-2,8.0924353E-4,-7.495247E-3,-1.4348451E-2],"split_indices":[0,0,2,56,18,51,21,1,46,30,55,46,62,0,40,0,0,0,0,0,0,0,0,0,0,0,0,0,0,0,0],"split_type":[0,0,0,0,0,0,0,0,0,0,0,0,0,0,0,0,0,0,0,0,0,0,0,0,0,0,0,0,0,0,0],"sum_hessian":[1.0947753E3,1.981939E2,8.965814E2,8.2937195E1,1.152567E2,4.755952E2,4.209862E2,1.7627983E1,6.530921E1,7.923292E1,3.6023785E1,4.5740378E2,1.8191435E1,1.2342009E1,4.086442E2,1.8506315E0,1.5777351E1,4.5625954E1,1.9683256E1,4.4684906E1,3.454801E1,9.984744E0,2.6039042E1,4.3351862E2,2.3885168E1,1.5390312E1,2.8011227E0,1.1739485E0,1.116806E1,2.955239E2,1.131203E2],"tree_param":{"num_deleted":"0","num_feature":"65","num_nodes":"31","size_leaf_vector":"1"}},{"base_weights":[-5.340849E-3,-1.201699E-1,1.2780291E-1,-5.519168E-1,-8.23476E-2,8.3790824E-2,3.4323457E-1,-6.228874E-1,4.379581E-1,-7.776652E-1,-6.84914E-2,-7.136263E-2,1.6440986E-1,-5.387446E-1,3.871407E-1,5.1162117E-3,-2.0976957E-2,2.4484439E-2,-1.617358E-2,-2.2263536E-3,-2.7172657E-2,-3.0502593E-3,4.3458315E-3,-7.813479E-3,3.5678947E-3,1.323284E-2,3.8421552E-3,-2.550994E-2,1.6982675E-2,2.3408176E-2,7.822094E-3],"categories":[],"categories_nodes":[],"categories_segments":[],"categories_sizes":[],"default_left":[0,0,0,0,0,0,0,0,0,0,0,0,0,0,0,0,0,0,0,0,0,0,0,0,0,0,0,0,0,0,0],"id":20,"left_children":[1,3,5,7,9,11,13,15,17,19,21,23,25,27,29,-1,-1,-1,-1,-1,-1,-1,-1,-1,-1,-1,-1,-1,-1,-1,-1],"loss_changes":[3.0679716E1,1.7548481E1,8.782072E0,6.357153E0,9.502335E0,9.679916E0,6.3005295E0,5.039442E0,2.797991E0,1.6701937E0,6.907211E0,9.565897E0,5.0605516E0,3.193437E0,7.272352E0,0E0,0E0,0E0,0E0,0E0,0E0,0E0,0E0,0E0,0E0,0E0,0E0,0E0,0E0,0E0,0E0],"parents":[2147483647,0,0,1,1,2,2,3,3,4,4,5,5,6,6,7,7,8,8,9,9,10,10,11,11,12,12,13,13,14,14],"right_children":[2,4,6,8,10,12,14,16,18,20,22,24,26,28,30,-1,-1,-1,-1,-1,-1,-1,-1,-1,-1,-1,-1,-1,-1,-1,-1],"split_conditions":[3.69742E-1,2.270062E-1,2.4307245E-1,2.2249806E0,9.7936356E-1,4.0139085E-1,-2.1964781E0,4.7443563E-1,1.5566E2,3.330032E6,7.506598E1,1.2237121E0,1.403942E2,6.994725E1,2.470856E1,5.1162117E-3,-2.0976957E-2,2.4484439E-2,-1.617358E-2,-2.2263536E-3,-2.7172657E-2,-3.0502593E-3,4.3458315E-3,-7.813479E-3,3.5678947E-3,1.323284E-2,3.8421552E-3,-2.550994E-2,1.6982675E-2,2.3408176E-2,7.822094E-3],"split_indices":[0,0,1,28,37,0,43,30,25,11,31,30,50,31,56,0,0,0,0,0,0,0,0,0,0,0,0,0,0,0,0],"split_type":[0,0,0,0,0,0,0,0,0,0,0,0,0,0,0,0,0,0,0,0,0,0,0,0,0,0,0,0,0,0,0],"sum_hessian":[2.0046782E3,1.0764219E3,9.2825635E2,8.560753E1,9.908144E2,7.719401E2,1.5631624E2,8.022632E1,5.3812094E0,1.8282001E1,9.725324E2,2.6399313E2,5.0794696E2,6.8781743E0,1.4943806E2,6.9335914E0,7.3292725E1,3.9983168E0,1.382893E0,3.059424E0,1.5222578E1,8.420821E2,1.3045032E2,1.3223117E2,1.3176196E2,5.767319E1,4.5027377E2,5.544781E0,1.3333932E0,3.5100037E1,1.1433803E2],"tree_param":{"num_deleted":"0","num_feature":"65","num_nodes":"31","size_leaf_vector":"1"}},{"base_weights":[-1.5299273E-2,4.3578688E-2,-1.2326154E-1,2.0481943E-1,-3.2772023E-2,-3.505885E-1,-6.78791E-2,1.3477948E-1,6.9485646E-1,-5.9353884E-2,3.6317196E-1,-5.023887E-1,-2.2437261E-2,5.333048E-1,-9.034131E-2,2.0462725E-2,2.5412966E-3,4.769897E-3,3.648501E-2,-2.361382E-3,1.3746531E-2,-9.506924E-3,2.1862263E-2,-1.8499339E-2,-4.667827E-3,-5.0334637E-3,2.419775E-2,2.5314584E-2,-1.7207662E-2,-2.1512168E-3,-2.0606E-2],"categories":[],"categories_nodes":[],"categories_segments":[],"categories_sizes":[],"default_left":[0,0,0,0,1,0,0,0,0,0,0,0,0,0,0,0,0,0,0,0,0,0,0,0,0,0,0,0,0,0,0],"id":21,"left_children":[1,3,5,7,9,11,13,15,17,19,21,23,25,27,29,-1,-1,-1,-1,-1,-1,-1,-1,-1,-1,-1,-1,-1,-1,-1,-1],"loss_changes":[1.1175502E1,1.4014664E1,7.786927E0,1.24610815E1,8.157996E0,6.0308256E0,6.801494E0,8.746683E0,1.251787E1,7.3031607E0,1.2357118E1,3.1882114E0,4.8840537E0,6.7247753E0,5.3190002E0,0E0,0E0,0E0,0E0,0E0,0E0,0E0,0E0,0E0,0E0,0E0,0E0,0E0,0E0,0E0,0E0],"parents":[2147483647,0,0,1,1,2,2,3,3,4,4,5,5,6,6,7,7,8,8,9,9,10,10,11,11,12,12,13,13,14,14],"right_children":[2,4,6,8,10,12,14,16,18,20,22,24,26,28,30,-1,-1,-1,-1,-1,-1,-1,-1,-1,-1,-1,-1,-1,-1,-1,-1],"split_conditions":[2.9705533E-1,3.69742E-1,-6.005048E-1,1.6623E2,6.0500748E1,5.998094E1,1.9729277E1,5.470212E-1,3.8853234E-1,3.1993308E0,1.2856E2,1.7460648E0,6.051058E6,9.109546E-1,6.3821036E-1,2.0462725E-2,2.5412966E-3,4.769897E-3,3.648501E-2,-2.361382E-3,1.3746531E-2,-9.506924E-3,2.1862263E-2,-1.8499339E-2,-4.667827E-3,-5.0334637E-3,2.419775E-2,2.5314584E-2,-1.7207662E-2,-2.1512168E-3,-2.0606E-2],"split_indices":[1,0,40,10,56,31,52,30,62,28,26,43,11,28,34,0,0,0,0,0,0,0,0,0,0,0,0,0,0,0,0],"split_type":[0,0,0,0,0,0,0,0,0,0,0,0,0,0,0,0,0,0,0,0,0,0,0,0,0,0,0,0,0,0,0],"sum_hessian":[1.7562496E3,1.1368546E3,6.19395E2,3.6479086E2,7.720638E2,1.20294556E2,4.991005E2,3.2028784E2,4.4503014E1,7.2428845E2,4.7775307E1,8.188447E1,3.8410088E1,1.7157253E1,4.8194324E2,2.5786999E1,2.9450085E2,2.2588785E1,2.1914227E1,6.989918E2,2.5296633E1,1.674946E1,3.1025846E1,6.100685E1,2.0877619E1,3.335919E1,5.050897E0,1.3584178E1,3.5730746E0,4.6843076E2,1.3512492E1],"tree_param":{"num_deleted":"0","num_feature":"65","num_nodes":"31","size_leaf_vector":"1"}},{"base_weights":[-6.7663654E-3,5.2234596E-1,-1.3690989E-1,9.1978335E-1,3.0702963E-1,2.0907803E-2,-2.4204026E-1,1.0234641E0,-1.7132525E-1,2.3961453E-1,1.0957907E0,-7.100684E-2,2.5561613E-1,2.0934916E-1,-2.559415E-1,3.563064E-2,9.056664E-3,-1.565712E-2,2.110513E-2,1.4680718E-3,1.3560304E-2,4.020435E-2,-1.0696124E-2,4.8807293E-2,-2.8087506E-3,8.5427746E-4,1.6101476E-2,4.124276E-2,-4.1152253E-3,-1.0694085E-2,-5.689802E-3],"categories":[],"categories_nodes":[],"categories_segments":[],"categories_sizes":[],"default_left":[0,0,0,1,0,0,0,0,0,0,0,0,1,0,0,0,0,0,0,0,0,0,0,0,0,0,0,0,0,0,0],"id":22,"left_children":[1,3,5,7,9,11,13,15,17,19,21,23,25,27,29,-1,-1,-1,-1,-1,-1,-1,-1,-1,-1,-1,-1,-1,-1,-1,-1],"loss_changes":[7.54309E1,1.8223E1,1.4591066E1,8.714924E0,7.2755203E0,7.6207085E0,3.3649578E0,7.8273697E0,2.6389089E0,5.3189006E0,4.3397894E0,9.9076605E0,6.3305693E0,6.7778587E0,3.3466034E0,0E0,0E0,0E0,0E0,0E0,0E0,0E0,0E0,0E0,0E0,0E0,0E0,0E0,0E0,0E0,0E0],"parents":[2147483647,0,0,1,1,2,2,3,3,4,4,5,5,6,6,7,7,8,8,9,9,10,10,11,11,12,12,13,13,14,14],"right_children":[2,4,6,8,10,12,14,16,18,20,22,24,26,28,30,-1,-1,-1,-1,-1,-1,-1,-1,-1,-1,-1,-1,-1,-1,-1,-1],"split_conditions":[3.0355078E-1,2.4144566E-1,3.6268994E-1,6.1597977E1,1.6592302E2,1.5366371E2,1.2310848E2,1.0512089E0,8.734903E-2,5.0600777E1,1.6124039E0,-4.0010414E0,1.8632044E1,3.5483887E1,-4.0456536E-1,3.563064E-2,9.056664E-3,-1.565712E-2,2.110513E-2,1.4680718E-3,1.3560304E-2,4.020435E-2,-1.0696124E-2,4.8807293E-2,-2.8087506E-3,8.5427746E-4,1.6101476E-2,4.124276E-2,-4.1152253E-3,-1.0694085E-2,-5.689802E-3],"split_indices":[0,0,0,56,54,54,54,32,34,31,43,41,56,52,41,0,0,0,0,0,0,0,0,0,0,0,0,0,0,0,0],"split_type":[0,0,0,0,0,0,0,0,0,0,0,0,0,0,0,0,0,0,0,0,0,0,0,0,0,0,0,0,0,0,0],"sum_hessian":[1.093377E3,2.152483E2,8.781286E2,7.4486725E1,1.407616E2,3.5140863E2,5.2672E2,6.8079575E1,6.4071474E0,1.3087918E2,9.882405E0,2.5302026E2,9.838836E1,1.5316491E1,5.1140347E2,5.4931664E1,1.3147912E1,4.8621244E0,1.545023E0,6.9613686E1,6.1265495E1,8.525271E0,1.3571341E0,2.393771E0,2.506265E2,5.502621E1,4.336215E1,2.8303413E0,1.248615E1,2.014657E2,3.099378E2],"tree_param":{"num_deleted":"0","num_feature":"65","num_nodes":"31","size_leaf_vector":"1"}},{"base_weights":[-3.006144E-3,-1.1699797E-1,1.2557235E-1,-4.6617872E-1,-8.952498E-2,-5.5768424E-1,1.4034495E-1,-5.7088375E-1,6.677084E-1,-4.2702787E-2,-2.8885025E-1,2.110485E-2,-7.89143E-1,-1.1151084E-1,1.8031412E-1,-2.4633175E-2,-7.226466E-3,2.434434E-2,6.259482E-3,-3.922723E-3,1.8692064E-3,-4.748773E-5,-1.3611695E-2,1.6777335E-2,-2.803216E-2,2.5560688E-2,-5.1500336E-3,3.5544E-3,9.802255E-3],"categories":[],"categories_nodes":[],"categories_segments":[],"categories_sizes":[],"default_left":[0,0,0,0,1,0,0,1,0,0,0,0,0,0,0,0,0,0,0,0,0,0,0,0,0,0,0,0,0],"id":23,"left_children":[1,3,5,7,9,11,13,15,17,19,21,-1,23,25,27,-1,-1,-1,-1,-1,-1,-1,-1,-1,-1,-1,-1,-1,-1],"loss_changes":[2.9501394E1,1.0193124E1,9.625606E0,9.592003E0,9.230194E0,6.4573793E0,9.348434E0,5.711399E0,2.9395342E-1,7.4342394E0,8.9131975E0,0E0,3.9611006E0,7.538762E0,7.2058964E0,0E0,0E0,0E0,0E0,0E0,0E0,0E0,0E0,0E0,0E0,0E0,0E0,0E0,0E0],"parents":[2147483647,0,0,1,1,2,2,3,3,4,4,5,5,6,6,7,7,8,8,9,9,10,10,12,12,13,13,14,14],"right_children":[2,4,6,8,10,12,14,16,18,20,22,-1,24,26,28,-1,-1,-1,-1,-1,-1,-1,-1,-1,-1,-1,-1,-1,-1],"split_conditions":[3.668503E-1,2.270062E-1,4.4346637E-1,1.7923298E0,1.60395E2,3.9208656E1,-7.9904336E-1,1.56616E2,-2.532463E-2,3.3368534E-1,9.1572267E-1,2.110485E-2,1.2675E2,3.4456232E-1,1.4936475E-1,-2.4633175E-2,-7.226466E-3,2.434434E-2,6.259482E-3,-3.922723E-3,1.8692064E-3,-4.748773E-5,-1.3611695E-2,1.6777335E-2,-2.803216E-2,2.5560688E-2,-5.1500336E-3,3.5544E-3,9.802255E-3],"split_indices":[0,0,30,28,49,31,40,50,47,0,30,0,10,28,55,0,0,0,0,0,0,0,0,0,0,0,0,0,0],"split_type":[0,0,0,0,0,0,0,0,0,0,0,0,0,0,0,0,0,0,0,0,0,0,0,0,0,0,0,0,0],"sum_hessian":[2.010797E3,1.0659047E3,9.448924E2,7.658197E1,9.893227E2,1.9219248E1,9.256731E2,7.056262E1,6.019346E0,8.021169E2,1.872058E2,2.6640263E0,1.6555222E1,1.2653769E2,7.9913544E2,3.928601E1,3.1276615E1,3.9991736E0,2.0201728E0,4.3614624E2,3.6597064E2,6.863274E1,1.1857306E2,1.3328878E0,1.5222334E1,6.6624165E0,1.19875275E2,5.631396E2,2.3599585E2],"tree_param":{"num_deleted":"0","num_feature":"65","num_nodes":"29","size_leaf_vector":"1"}},{"base_weights":[6.7490935E-3,-8.463567E-2,1.3949965E-1,-9.401411E-2,3.809319E-2,1.0637883E0,1.1763577E-1,-3.4924183E-2,-2.71385E-1,-8.268741E-2,3.8685355E-2,1.7192663E-1,-1.3500938E-1,1.8959964E-2,-1.4911467E-3,-3.474308E-3,-1.3811957E-2,7.6911463E-3,-1.2540883E-2,2.683847E-3,1.0439346E-2,-6.069986E-3,2.7382726E-2],"categories":[],"categories_nodes":[],"categories_segments":[],"categories_sizes":[],"default_left":[0,1,0,0,0,0,0,0,0,0,0,0,1,0,0,0,0,0,0,0,0,0,0],"id":24,"left_children":[1,3,5,7,-1,9,11,13,15,17,-1,19,21,-1,-1,-1,-1,-1,-1,-1,-1,-1,-1],"loss_changes":[2.1244982E1,1.3295017E1,1.4303743E1,1.0796966E1,0E0,4.3442345E0,9.605776E0,7.6666985E0,7.518921E0,5.202884E-1,0E0,8.323919E0,8.940934E0,0E0,0E0,0E0,0E0,0E0,0E0,0E0,0E0,0E0,0E0],"parents":[2147483647,0,0,1,1,2,2,3,3,5,5,6,6,7,7,8,8,9,9,11,11,12,12],"right_children":[2,4,6,8,-1,10,12,14,16,18,-1,20,22,-1,-1,-1,-1,-1,-1,-1,-1,-1,-1],"split_conditions":[3.886574E-1,-2.6614532E-1,3.90963E-1,4.38026E-1,3.809319E-2,3.3074364E-1,7.2023125E1,1.9846518E-1,1.6572223E2,3.2895523E-1,3.8685355E-2,5.1646717E1,1.5921974E2,1.8959964E-2,-1.4911467E-3,-3.474308E-3,-1.3811957E-2,7.6911463E-3,-1.2540883E-2,2.683847E-3,1.0439346E-2,-6.069986E-3,2.7382726E-2],"split_indices":[2,42,62,62,0,0,31,1,53,0,0,31,54,0,0,0,0,0,0,0,0,0,0],"split_type":[0,0,0,0,0,0,0,0,0,0,0,0,0,0,0,0,0,0,0,0,0,0,0],"sum_hessian":[1.749269E3,1.0362693E3,7.1299976E2,1.0300673E3,6.2019906E0,1.5374912E1,6.976248E2,7.735584E2,2.5650888E2,2.6333764E0,1.2741536E1,5.744919E2,1.2313293E2,1.5866903E1,7.576915E2,1.4158487E2,1.1492403E2,1.4265286E0,1.2068478E0,3.9225992E2,1.8223196E2,1.1645696E2,6.675964E0],"tree_param":{"num_deleted":"0","num_feature":"65","num_nodes":"23","size_leaf_vector":"1"}},{"base_weights":[1.725432E-2,4.7474983E-1,-1.4696576E-1,8.9273816E-1,3.0333397E-1,-2.503149E-1,6.670796E-2,7.7003276E-1,5.7644177E-2,1.5661328E0,2.688198E-1,-2.9439762E-1,2.6247394E-3,-2.0285057E-2,5.321726E-1,3.1599913E-2,3.6671062E-3,8.6922655E-3,5.6128282E-2,4.9488265E-3,2.0969594E-2,-7.590986E-3,-1.5304661E-2,-5.9608375E-3,2.1173786E-2,1.6625205E-2,-2.360256E-3,3.4558615E-3,3.3906963E-2],"categories":[],"categories_nodes":[],"categories_segments":[],"categories_sizes":[],"default_left":[0,0,0,0,0,0,1,0,0,0,0,0,0,0,0,0,0,0,0,0,0,0,0,0,0,0,0,0,0],"id":25,"left_children":[1,3,5,7,9,11,13,15,-1,17,19,21,23,25,27,-1,-1,-1,-1,-1,-1,-1,-1,-1,-1,-1,-1,-1,-1],"loss_changes":[8.341601E1,2.074147E1,1.8060665E1,9.221634E0,8.709429E0,6.1438484E0,1.0828793E1,1.4077343E1,0E0,1.5456209E0,9.04887E0,4.0582085E0,1.1855646E1,7.6261673E0,1.0369984E1,0E0,0E0,0E0,0E0,0E0,0E0,0E0,0E0,0E0,0E0,0E0,0E0,0E0,0E0],"parents":[2147483647,0,0,1,1,2,2,3,3,4,4,5,5,6,6,7,7,9,9,10,10,11,11,12,12,13,13,14,14],"right_children":[2,4,6,8,10,12,14,16,-1,18,20,22,24,26,28,-1,-1,-1,-1,-1,-1,-1,-1,-1,-1,-1,-1,-1,-1],"split_conditions":[3.1916898E-1,2.4500395E-1,2.6186743E-1,1.6247714E2,1.2948785E2,7.247592E6,9.160254E-1,1.5888E2,5.7644177E-2,1.2688E2,1.7096667E2,5.118515E6,2.2177568E-1,-2.2624144E-2,3.60325E-1,3.1599913E-2,3.6671062E-3,8.6922655E-3,5.6128282E-2,4.9488265E-3,2.0969594E-2,-7.590986E-3,-1.5304661E-2,-5.9608375E-3,2.1173786E-2,1.6625205E-2,-2.360256E-3,3.4558615E-3,3.3906963E-2],"split_indices":[0,0,1,29,29,11,35,9,0,25,53,11,1,47,2,0,0,0,0,0,0,0,0,0,0,0,0,0,0],"split_type":[0,0,0,0,0,0,0,0,0,0,0,0,0,0,0,0,0,0,0,0,0,0,0,0,0,0,0,0,0],"sum_hessian":[1.1083611E3,2.9226324E2,8.1609784E2,8.3774826E1,2.0848842E2,5.499352E2,2.6616266E2,7.6409386E1,7.3654356E0,4.366089E0,2.0412233E2,4.6817667E2,8.175852E1,2.2505704E2,4.1105618E1,5.2725266E1,2.3684122E1,1.2176697E0,3.1484194E0,1.6553842E2,3.858391E1,3.9468164E2,7.349503E1,6.411859E1,1.763993E1,1.9981598E1,2.0507544E2,2.4922113E1,1.6183504E1],"tree_param":{"num_deleted":"0","num_feature":"65","num_nodes":"29","size_leaf_vector":"1"}},{"base_weights":[-4.0536735E-4,5.9156742E-2,-2.1058531E-1,-1.0647137E-2,1.5970223E-1,1.8085848E-1,-2.7947333E-1,4.359533E-2,-2.9473963E-1,-9.5072664E-2,2.540031E-1,3.5667145E-1,-5.1164204E-1,-2.0919861E-1,-6.331401E-1,5.4037286E-4,1.775625E-2,-6.0368824E-4,-1.4164497E-2,-4.7498667E-3,2.0068727E-2,9.470367E-3,-5.278454E-4,1.3784356E-2,-2.3001373E-2,-2.612149E-2,2.126217E-2,-8.038805E-3,7.7402988E-3,-2.4813471E-2,8.661528E-3],"categories":[],"categories_nodes":[],"categories_segments":[],"categories_sizes":[],"default_left":[0,0,0,0,0,0,1,0,0,0,1,1,0,0,0,0,0,0,0,0,0,0,0,0,0,0,0,0,0,0,0],"id":26,"left_children":[1,3,5,7,9,11,13,15,17,19,21,23,25,27,29,-1,-1,-1,-1,-1,-1,-1,-1,-1,-1,-1,-1,-1,-1,-1,-1],"loss_changes":[2.4618605E1,1.0756155E1,1.1759991E1,1.3964237E1,1.511108E1,8.168051E0,9.054613E0,1.0664648E1,7.0683575E0,8.339657E0,7.6873817E0,6.4616256E0,6.61665E0,8.576088E0,1.1107462E1,0E0,0E0,0E0,0E0,0E0,0E0,0E0,0E0,0E0,0E0,0E0,0E0,0E0,0E0,0E0,0E0],"parents":[2147483647,0,0,1,1,2,2,3,3,4,4,5,5,6,6,7,7,8,8,9,9,10,10,11,11,12,12,13,13,14,14],"right_children":[2,4,6,8,10,12,14,16,18,20,22,24,26,28,30,-1,-1,-1,-1,-1,-1,-1,-1,-1,-1,-1,-1,-1,-1,-1,-1],"split_conditions":[3.5626462E-1,4.188618E-1,-7.733936E-1,1.000001E1,-2.2944069E-1,1.8934773E0,4.3191567E-1,4.0010414E0,-3.3351976E-1,4.935579E-1,1.7640243E0,2.4511902E0,2.6073496E0,3.424869E-1,1.7537E2,5.4037286E-4,1.775625E-2,-6.0368824E-4,-1.4164497E-2,-4.7498667E-3,2.0068727E-2,9.470367E-3,-5.278454E-4,1.3784356E-2,-2.3001373E-2,-2.612149E-2,2.126217E-2,-8.038805E-3,7.7402988E-3,-2.4813471E-2,8.661528E-3],"split_indices":[1,62,32,41,46,40,35,41,32,62,40,35,28,34,25,0,0,0,0,0,0,0,0,0,0,0,0,0,0,0,0],"split_type":[0,0,0,0,0,0,0,0,0,0,0,0,0,0,0,0,0,0,0,0,0,0,0,0,0,0,0,0,0,0,0],"sum_hessian":[1.9645419E3,1.5313086E3,4.332333E2,9.0435364E2,6.2695496E2,6.458952E1,3.6864377E2,7.6007684E2,1.4427676E2,1.693662E2,4.5758878E2,5.1898434E1,1.2691093E1,3.088632E2,5.9780586E1,7.271793E2,3.289756E1,5.7062336E1,8.7214424E1,1.5714821E2,1.2217973E1,3.7277493E2,8.481384E1,4.808857E1,3.809865E0,1.0027276E1,2.6638174E0,2.7473572E2,3.4127472E1,4.947328E1,1.0307308E1],"tree_param":{"num_deleted":"0","num_feature":"65","num_nodes":"31","size_leaf_vector":"1"}},{"base_weights":[-1.7001921E-2,-1.0238355E-1,1.06295496E-1,-3.613465E-2,-2.1337591E-1,2.620272E-1,7.5179427E-3,4.3256757E-1,-6.1163113E-2,2.949967E-2,-2.861221E-1,1.467003E-1,6.680515E-1,1.2744665E-1,-1.6611359E-1,3.51287E-2,3.324636E-3,1.2103324E-2,-2.6076955E-3,1.1903469E-2,-5.8170464E-3,-5.3044623E-3,-1.571321E-2,-1.4251573E-3,1.0248061E-2,-1.0549672E-3,2.4937224E-2,2.1961419E-2,2.4318104E-3,-1.3969809E-2,-2.2791464E-4],"categories":[],"categories_nodes":[],"categories_segments":[],"categories_sizes":[],"default_left":[0,0,0,0,0,0,0,0,0,0,0,0,0,0,0,0,0,0,0,0,0,0,0,0,0,0,0,0,0,0,0],"id":27,"left_children":[1,3,5,7,9,11,13,15,17,19,21,23,25,27,29,-1,-1,-1,-1,-1,-1,-1,-1,-1,-1,-1,-1,-1,-1,-1,-1],"loss_changes":[1.9007872E1,7.835984E0,1.1363194E1,7.8768325E0,7.049448E0,1.3327576E1,9.456424E0,7.9590554E0,7.6488037E0,7.687823E0,7.875904E0,8.516534E0,7.2752724E0,7.472612E0,8.806624E0,0E0,0E0,0E0,0E0,0E0,0E0,0E0,0E0,0E0,0E0,0E0,0E0,0E0,0E0,0E0,0E0],"parents":[2147483647,0,0,1,1,2,2,3,3,4,4,5,5,6,6,7,7,8,8,9,9,10,10,11,11,12,12,13,13,14,14],"right_children":[2,4,6,8,10,12,14,16,18,20,22,24,26,28,30,-1,-1,-1,-1,-1,-1,-1,-1,-1,-1,-1,-1,-1,-1,-1,-1],"split_conditions":[3.886574E-1,4.531847E6,-2.7324733E-1,5.416119E-2,1.515866E2,1.64395E2,3.9697105E-1,1.393023E6,4.7443563E-1,8.0578935E-1,4.1742608E-1,5.131577E1,3.9545515E-1,2.2697914E1,4.2557612E-1,3.51287E-2,3.324636E-3,1.2103324E-2,-2.6076955E-3,1.1903469E-2,-5.8170464E-3,-5.3044623E-3,-1.571321E-2,-1.4251573E-3,1.0248061E-2,-1.0549672E-3,2.4937224E-2,2.1961419E-2,2.4318104E-3,-1.3969809E-2,-2.2791464E-4],"split_indices":[2,11,43,55,51,49,0,11,30,28,62,31,2,52,43,0,0,0,0,0,0,0,0,0,0,0,0,0,0,0,0],"split_type":[0,0,0,0,0,0,0,0,0,0,0,0,0,0,0,0,0,0,0,0,0,0,0,0,0,0,0,0,0,0,0],"sum_hessian":[1.8035393E3,1.0657163E3,7.3782306E2,6.68205E2,3.975113E2,2.85715E2,4.5210806E2,3.304758E1,6.351574E2,9.1757545E1,3.0575375E2,2.2357281E2,6.214218E1,2.6756485E2,1.8454321E2,9.228753E0,2.3818829E1,3.2596012E1,6.025614E2,3.440989E1,5.7347656E1,2.1062283E2,9.513093E1,1.1236523E2,1.1120758E2,1.1852368E1,5.0289814E1,1.801216E1,2.4955267E2,6.3192135E1,1.2135108E2],"tree_param":{"num_deleted":"0","num_feature":"65","num_nodes":"31","size_leaf_vector":"1"}},{"base_weights":[1.2336692E-3,-1.434068E-1,5.607454E-1,-2.4142109E-1,3.0794885E-2,8.959387E-1,3.4049994E-1,-4.5786265E-1,-1.9391696E-1,-1.6094662E-1,1.5044469E-1,1.1861331E0,5.8372915E-1,1.819055E-1,8.117324E-1,-1.4483849E-2,9.083296E-3,2.6231755E-2,-6.0326545E-3,-6.4886715E-3,3.3149857E-2,6.218268E-3,-1.0840572E-2,4.9042534E-2,1.6653579E-2,8.253064E-3,3.112295E-2,-1.4778756E-2,9.340658E-3,-8.735339E-3,3.067795E-2],"categories":[],"categories_nodes":[],"categories_segments":[],"categories_sizes":[],"default_left":[0,0,0,0,0,1,1,0,0,0,0,0,0,0,0,0,0,0,0,0,0,0,0,0,0,0,0,0,0,0,0],"id":28,"left_children":[1,3,5,7,9,11,13,15,17,19,21,23,25,27,29,-1,-1,-1,-1,-1,-1,-1,-1,-1,-1,-1,-1,-1,-1,-1,-1],"loss_changes":[8.878187E1,1.4891207E1,1.633097E1,5.648014E0,7.2452683E0,7.347763E0,1.0136077E1,2.0366402E0,3.6944828E0,8.746098E0,5.7271504E0,1.1837955E1,5.976288E0,9.2556095E0,8.288849E0,0E0,0E0,0E0,0E0,0E0,0E0,0E0,0E0,0E0,0E0,0E0,0E0,0E0,0E0,0E0,0E0],"parents":[2147483647,0,0,1,1,2,2,3,3,4,4,5,5,6,6,7,7,8,8,9,9,10,10,11,11,12,12,13,13,14,14],"right_children":[2,4,6,8,10,12,14,16,18,20,22,24,26,28,30,-1,-1,-1,-1,-1,-1,-1,-1,-1,-1,-1,-1,-1,-1,-1,-1],"split_conditions":[3.8960436E-1,2.665535E-1,2.4144566E-1,1.3991E2,1.53653E2,3.4114704E1,-6.779033E-1,1.877254E-1,1.24027504E2,3.8856542E-1,4.1219476E-1,1.5875E2,1.5736E2,-7.5027317E-1,-2.162175E0,-1.4483849E-2,9.083296E-3,2.6231755E-2,-6.0326545E-3,-6.4886715E-3,3.3149857E-2,6.218268E-3,-1.0840572E-2,4.9042534E-2,1.6653579E-2,8.253064E-3,3.112295E-2,-1.4778756E-2,9.340658E-3,-8.735339E-3,3.067795E-2],"split_indices":[1,1,0,23,51,56,35,47,54,0,34,9,22,32,41,0,0,0,0,0,0,0,0,0,0,0,0,0,0,0,0],"split_type":[0,0,0,0,0,0,0,0,0,0,0,0,0,0,0,0,0,0,0,0,0,0,0,0,0,0,0,0,0,0,0],"sum_hessian":[1.0950533E3,8.707085E2,2.2434485E2,5.569536E2,3.137549E2,8.774189E1,1.3660295E2,9.868408E1,4.5826953E2,1.20425385E2,1.9332953E2,4.40235E1,4.371839E1,1.0324247E2,3.3360485E1,9.590575E1,2.7783337E0,2.2494826E0,4.5602005E2,1.1617574E2,4.2496386E0,1.7454295E2,1.8786577E1,2.480077E1,1.922273E1,2.6975147E1,1.6743246E1,1.6171463E1,8.707101E1,5.293352E0,2.8067133E1],"tree_param":{"num_deleted":"0","num_feature":"65","num_nodes":"31","size_leaf_vector":"1"}},{"base_weights":[8.974578E-3,-8.7917745E-2,1.2989232E-1,-3.8679734E-1,-5.582213E-2,5.860813E-2,2.501059E-1,5.1668787E-1,-4.5218414E-1,-1.08462395E-2,-2.4129209E-1,8.6568676E-2,-5.506778E-1,5.014794E-1,1.6885395E-1,-1.6239936E-2,2.500074E-2,-1.767377E-2,-3.7717589E-3,9.65782E-4,-5.839174E-3,-5.129399E-3,-2.7041933E-2,3.0627748E-4,8.539291E-3,-2.4838481E-2,9.366458E-3,1.8714668E-2,-7.973926E-3,3.0911185E-3,1.689785E-2],"categories":[],"categories_nodes":[],"categories_segments":[],"categories_sizes":[],"default_left":[0,0,0,0,1,0,1,0,0,0,0,0,1,0,0,0,0,0,0,0,0,0,0,0,0,0,0,0,0,0,0],"id":29,"left_children":[1,3,5,7,9,11,13,15,17,19,21,23,25,27,29,-1,-1,-1,-1,-1,-1,-1,-1,-1,-1,-1,-1,-1,-1,-1,-1],"loss_changes":[2.3401337E1,1.0615845E1,7.5992002E0,6.5763454E0,8.360259E0,9.571913E0,6.6643143E0,3.0351503E0,4.425688E0,6.3971486E0,8.925184E0,8.094946E0,6.1600027E0,7.695112E0,6.4634256E0,0E0,0E0,0E0,0E0,0E0,0E0,0E0,0E0,0E0,0E0,0E0,0E0,0E0,0E0,0E0,0E0],"parents":[2147483647,0,0,1,1,2,2,3,3,4,4,5,5,6,6,7,7,8,8,9,9,10,10,11,11,12,12,13,13,14,14],"right_children":[2,4,6,8,10,12,14,16,18,20,22,24,26,28,30,-1,-1,-1,-1,-1,-1,-1,-1,-1,-1,-1,-1,-1,-1,-1,-1],"split_conditions":[3.7034473E-1,2.3456672E-1,4.1925046E-1,1.3055E2,1.60268E2,4.163371E-1,-2.856953E0,1.287E2,5.813961E6,2.878E2,3.8616413E-1,2.4307245E-1,5.9517445E1,6.8438775E-3,1.1104648E0,-1.6239936E-2,2.500074E-2,-1.767377E-2,-3.7717589E-3,9.65782E-4,-5.839174E-3,-5.129399E-3,-2.7041933E-2,3.0627748E-4,8.539291E-3,-2.4838481E-2,9.366458E-3,1.8714668E-2,-7.973926E-3,3.0911185E-3,1.689785E-2],"split_indices":[0,0,0,8,49,0,41,10,11,18,2,1,52,47,32,0,0,0,0,0,0,0,0,0,0,0,0,0,0,0,0],"split_type":[0,0,0,0,0,0,0,0,0,0,0,0,0,0,0,0,0,0,0,0,0,0,0,0,0,0,0,0,0,0,0],"sum_hessian":[1.9954081E3,1.1079067E3,8.8750134E2,1.063652E2,1.00154156E3,5.580667E2,3.2943463E2,6.712526E0,9.965267E1,8.069236E2,1.94618E2,5.3440063E2,2.3666092E1,7.920914E1,2.502255E2,1.3828546E0,5.3296714E0,6.963704E1,3.0015633E1,6.544866E2,1.5243697E2,1.7702132E2,1.7596668E1,3.864661E2,1.4793456E2,1.7941486E1,5.724605E0,6.847734E1,1.0731797E1,2.1552164E2,3.4703854E1],"tree_param":{"num_deleted":"0","num_feature":"65","num_nodes":"31","size_leaf_vector":"1"}},{"base_weights":[-6.248281E-3,-2.6241523E-1,3.9512586E-2,1.5164474E-1,-3.2360223E-1,3.420666E-2,1.0340599E0,-3.5653645E-1,7.5568944E-1,-1.1838353E-1,-4.3422723E-1,2.075864E-3,1.8309917E-1,7.4746944E-3,3.5016466E-2,2.7534995E-2,-1.5342568E-2,3.2164395E-2,-1.6191898E-2,-7.38251E-3,8.3841905E-3,1.786833E-2,-1.3581288E-2,-1.7183408E-2,4.139832E-4,3.946654E-3,2.8826222E-2],"categories":[],"categories_nodes":[],"categories_segments":[],"categories_sizes":[],"default_left":[0,0,0,1,0,1,0,0,0,0,0,0,0,0,0,0,0,0,0,0,0,0,0,0,0,0,0],"id":30,"left_children":[1,3,5,7,9,11,13,15,17,19,21,23,25,-1,-1,-1,-1,-1,-1,-1,-1,-1,-1,-1,-1,-1,-1],"loss_changes":[2.0990963E1,6.9248753E0,7.982435E0,1.120422E1,5.3238735E0,7.2348027E0,5.4829884E-1,4.422036E0,7.382349E0,4.3519936E0,3.1907196E0,8.397981E0,1.0634676E1,0E0,0E0,0E0,0E0,0E0,0E0,0E0,0E0,0E0,0E0,0E0,0E0,0E0,0E0],"parents":[2147483647,0,0,1,1,2,2,3,3,4,4,5,5,6,6,7,7,8,8,9,9,10,10,11,11,12,12],"right_children":[2,4,6,8,10,12,14,16,18,20,22,24,26,-1,-1,-1,-1,-1,-1,-1,-1,-1,-1,-1,-1,-1,-1],"split_conditions":[2.9389688E-1,-3.243115E-1,1.8254E2,6.779033E-1,1.4726295E2,5.001958E1,2.083919E6,8.85006E5,1.6007E2,6.3642925E1,1.34107E2,-2.3695393E0,9.239494E-1,7.4746944E-3,3.5016466E-2,2.7534995E-2,-1.5342568E-2,3.2164395E-2,-1.6191898E-2,-7.38251E-3,8.3841905E-3,1.786833E-2,-1.3581288E-2,-1.7183408E-2,4.139832E-4,3.946654E-3,2.8826222E-2],"split_indices":[0,34,8,40,51,56,11,11,23,31,50,32,32,0,0,0,0,0,0,0,0,0,0,0,0,0,0],"split_type":[0,0,0,0,0,0,0,0,0,0,0,0,0,0,0,0,0,0,0,0,0,0,0,0,0,0,0],"sum_hessian":[1.7887834E3,2.7039453E2,1.5183889E3,3.4622364E1,2.3577216E2,1.5113601E3,7.028736E0,1.902578E1,1.5596584E1,8.3304825E1,1.5246733E2,1.2439347E3,2.6742545E2,1.4358857E0,5.59285E0,1.5279387E0,1.749784E1,1.267305E1,2.9235344E0,6.3352142E1,1.9952682E1,2.137547E0,1.5032979E2,2.3905201E1,1.2200295E3,2.5190083E2,1.5524612E1],"tree_param":{"num_deleted":"0","num_feature":"65","num_nodes":"27","size_leaf_vector":"1"}},{"base_weights":[-1.3791866E-2,4.7860283E-1,-1.4906557E-1,7.895365E-1,2.884057E-1,-2.7002522E-1,5.928037E-2,1.3029311E0,5.615678E-1,5.864783E-1,1.1917264E-1,-4.041953E-1,-2.1493967E-1,2.6907723E-2,7.264759E-1,4.5001324E-2,-4.5235287E-3,1.2259001E-2,4.5455057E-2,3.3800248E-2,5.970323E-3,9.801512E-3,-2.750098E-3,1.5097426E-2,-1.30273085E-2,-1.3342087E-2,-4.909447E-3,4.115827E-2,3.9635313E-4,-3.3440192E-3,3.8004648E-2],"categories":[],"categories_nodes":[],"categories_segments":[],"categories_sizes":[],"default_left":[0,0,0,0,1,0,1,0,0,1,0,0,0,0,0,0,0,0,0,0,0,0,0,0,0,0,0,0,0,0,0],"id":31,"left_children":[1,3,5,7,9,11,13,15,17,19,21,23,25,27,29,-1,-1,-1,-1,-1,-1,-1,-1,-1,-1,-1,-1,-1,-1,-1,-1],"loss_changes":[7.4779625E1,1.4081753E1,2.2209562E1,9.949047E0,7.582713E0,4.032398E0,6.9848948E0,8.050186E0,8.853664E0,1.1221754E1,4.319275E0,4.610962E0,4.6095715E0,5.6985927E0,6.9185953E0,0E0,0E0,0E0,0E0,0E0,0E0,0E0,0E0,0E0,0E0,0E0,0E0,0E0,0E0,0E0,0E0],"parents":[2147483647,0,0,1,1,2,2,3,3,4,4,5,5,6,6,7,7,8,8,9,9,10,10,11,11,12,12,13,13,14,14],"right_children":[2,4,6,8,10,12,14,16,18,20,22,24,26,28,30,-1,-1,-1,-1,-1,-1,-1,-1,-1,-1,-1,-1,-1,-1,-1,-1],"split_conditions":[3.046242E-1,2.4500395E-1,2.63235E-1,-8.264522E-3,-1.8805845E-2,5.9713215E-1,1.8589192E2,1.7923298E0,1.6255E2,2.8463455E1,7.713624E-1,3.72E0,1.4119E2,1.29722E2,1.8632044E1,4.5001324E-2,-4.5235287E-3,1.2259001E-2,4.5455057E-2,3.3800248E-2,5.970323E-3,9.801512E-3,-2.750098E-3,1.5097426E-2,-1.30273085E-2,-1.3342087E-2,-4.909447E-3,4.115827E-2,3.9635313E-4,-3.3440192E-3,3.8004648E-2],"split_indices":[0,0,1,47,57,28,53,28,26,56,41,21,23,49,56,0,0,0,0,0,0,0,0,0,0,0,0,0,0,0,0],"split_type":[0,0,0,0,0,0,0,0,0,0,0,0,0,0,0,0,0,0,0,0,0,0,0,0,0,0,0,0,0,0,0],"sum_hessian":[1.1206104E3,2.4096448E2,8.796459E2,9.02587E1,1.5070576E2,5.563494E2,3.2329648E2,2.6304504E1,6.3954197E1,5.3684673E1,9.7021095E1,1.6008878E2,3.9626062E2,3.0932806E2,1.3968417E1,2.3135616E1,3.1688898E0,5.6346153E1,7.60804E0,2.162621E1,3.2058464E1,4.8616005E1,4.8405094E1,4.6263905E0,1.5546239E2,7.09078E1,3.2535284E2,2.1183715E0,3.0720972E2,5.787359E0,8.181058E0],"tree_param":{"num_deleted":"0","num_feature":"65","num_nodes":"31","size_leaf_vector":"1"}},{"base_weights":[1.4720968E-2,-1.0848613E-1,1.5813053E-1,-4.3722793E-1,-7.66391E-2,-2.7835053E-1,1.8013157E-1,-6.337339E-1,2.7812082E-2,-7.880109E-1,-6.2695E-2,-6.0953015E-1,2.9843062E-1,6.3469106E-1,1.6141494E-1,1.508839E-2,-2.1067753E-2,1.8586244E-2,-1.2041197E-2,-2.7721802E-2,4.6929168E-3,-6.5614064E-3,-1.1572355E-4,-2.4897587E-2,-2.0012222E-3,-2.2087628E-2,1.6147645E-2,2.166136E-2,-1.9040652E-2,6.502816E-3,-2.9715705E-3],"categories":[],"categories_nodes":[],"categories_segments":[],"categories_sizes":[],"default_left":[0,0,0,0,0,0,0,0,0,0,1,0,0,0,1,0,0,0,0,0,0,0,0,0,0,0,0,0,0,0,0],"id":32,"left_children":[1,3,5,7,9,11,13,15,17,19,21,23,25,27,29,-1,-1,-1,-1,-1,-1,-1,-1,-1,-1,-1,-1,-1,-1,-1,-1],"loss_changes":[3.4985355E1,1.111755E1,8.836517E0,8.59457E0,9.594744E0,8.643757E0,7.313469E0,5.4955044E0,7.57223E0,2.5351028E0,8.762535E0,3.3504982E0,4.57236E0,4.2428474E0,1.2109463E1,0E0,0E0,0E0,0E0,0E0,0E0,0E0,0E0,0E0,0E0,0E0,0E0,0E0,0E0,0E0,0E0],"parents":[2147483647,0,0,1,1,2,2,3,3,4,4,5,5,6,6,7,7,8,8,9,9,10,10,11,11,12,12,13,13,14,14],"right_children":[2,4,6,8,10,12,14,16,18,20,22,24,26,28,30,-1,-1,-1,-1,-1,-1,-1,-1,-1,-1,-1,-1,-1,-1,-1,-1],"split_conditions":[3.668503E-1,2.270062E-1,-4.7795285E-2,5.813961E6,-2.5889657E0,2.5975E2,1.2828E2,1.3683388E2,-9.827985E-2,1.6785E2,-1.1987096E0,3.7260346E0,1.5349E2,2.5737238E0,4.794858E1,1.508839E-2,-2.1067753E-2,1.8586244E-2,-1.2041197E-2,-2.7721802E-2,4.6929168E-3,-6.5614064E-3,-1.1572355E-4,-2.4897587E-2,-2.0012222E-3,-2.2087628E-2,1.6147645E-2,2.166136E-2,-1.9040652E-2,6.502816E-3,-2.9715705E-3],"split_indices":[0,0,47,11,43,18,10,53,34,9,41,40,9,43,56,0,0,0,0,0,0,0,0,0,0,0,0,0,0,0,0],"split_type":[0,0,0,0,0,0,0,0,0,0,0,0,0,0,0,0,0,0,0,0,0,0,0,0,0,0,0,0,0,0,0],"sum_hessian":[1.9780621E3,1.0641044E3,9.139578E2,9.285697E1,9.712474E2,4.3298695E1,8.706591E2,6.5019684E1,2.7837286E1,1.7604887E1,9.536425E2,2.7469385E1,1.5829311E1,3.3130405E1,8.3752875E2,3.3363795E0,6.1683304E1,1.1516141E1,1.6321144E1,1.54070425E1,2.1978443E0,2.6040735E2,6.9323517E2,1.9161001E1,8.308384E0,2.589093E0,1.3240218E1,3.1400702E1,1.7297038E0,6.9089185E2,1.4663689E2],"tree_param":{"num_deleted":"0","num_feature":"65","num_nodes":"31","size_leaf_vector":"1"}},{"base_weights":[1.3992176E-2,-7.4982435E-2,1.4231157E-1,4.4638116E-2,-1.7753056E-1,8.586466E-1,1.2140044E-1,1.1090303E-1,-3.7222674E-1,2.4310003E-1,-2.191386E-1,-1.6038947E-2,1.0758375E0,-3.8300323E-1,1.4353995E-1,-1.0039177E-2,4.5521325E-3,2.286109E-2,-1.3081551E-2,-1.3202229E-2,1.0937999E-2,-3.8955787E-3,-9.969073E-3,3.8654286E-2,-3.1405806E-3,2.6223518E-2,-1.4490786E-2,6.0116965E-3,-3.0663414E-3],"categories":[],"categories_nodes":[],"categories_segments":[],"categories_sizes":[],"default_left":[0,0,0,1,0,0,0,0,0,0,0,0,0,0,0,0,0,0,0,0,0,0,0,0,0,0,0,0,0],"id":33,"left_children":[1,3,5,7,9,11,13,15,17,19,21,-1,23,25,27,-1,-1,-1,-1,-1,-1,-1,-1,-1,-1,-1,-1,-1,-1],"loss_changes":[2.0315735E1,1.2899166E1,1.08092575E1,1.3462746E1,9.959686E0,6.7787266E0,7.9733133E0,7.692096E0,5.1733236E0,4.4289913E0,5.166483E0,0E0,4.6703014E0,4.205352E0,9.520459E0,0E0,0E0,0E0,0E0,0E0,0E0,0E0,0E0,0E0,0E0,0E0,0E0,0E0,0E0],"parents":[2147483647,0,0,1,1,2,2,3,3,4,4,5,5,6,6,7,7,8,8,9,9,10,10,12,12,13,13,14,14],"right_children":[2,4,6,8,10,12,14,16,18,20,22,-1,24,26,28,-1,-1,-1,-1,-1,-1,-1,-1,-1,-1,-1,-1,-1,-1],"split_conditions":[3.886574E-1,3.8451505E-1,3.8996136E-1,1.6873183E0,2.022E2,-1.48059E0,-3.1347272E0,1.3244E2,1.072025E6,1.233242E6,4.370918E6,-1.6038947E-2,2.9225E2,3.58024E-1,7.2023125E1,-1.0039177E-2,4.5521325E-3,2.286109E-2,-1.3081551E-2,-1.3202229E-2,1.0937999E-2,-3.8955787E-3,-9.969073E-3,3.8654286E-2,-3.1405806E-3,2.6223518E-2,-1.4490786E-2,6.0116965E-3,-3.0663414E-3],"split_indices":[2,62,2,41,18,43,41,24,11,11,11,0,18,0,31,0,0,0,0,0,0,0,0,0,0,0,0,0,0],"split_type":[0,0,0,0,0,0,0,0,0,0,0,0,0,0,0,0,0,0,0,0,0,0,0,0,0,0,0,0,0],"sum_hessian":[1.7774674E3,1.0498995E3,7.275679E2,4.8487097E2,5.650286E2,1.9500324E1,7.080675E2,4.1900055E2,6.587044E1,5.04247E1,5.1460394E2,2.4327402E0,1.7067585E1,2.908671E1,6.7898083E2,3.4573933E1,3.844266E2,2.9263005E0,6.2944138E1,7.2178574E0,4.3206844E1,2.888497E2,2.2575421E2,1.4385067E1,2.682518E0,1.5733376E0,2.7513372E1,5.5157007E2,1.2741075E2],"tree_param":{"num_deleted":"0","num_feature":"65","num_nodes":"29","size_leaf_vector":"1"}},{"base_weights":[1.3589341E-2,4.533028E-1,-1.4482199E-1,3.2709268E-1,8.566821E-1,-2.3463191E-1,3.5461172E-2,6.9701356E-1,1.4651595E-1,7.422137E-2,1.1305894E0,-3.389185E-1,-1.5256916E-1,-2.4921406E-2,6.747374E-1,3.9198067E-2,1.5239743E-2,1.2983322E-2,1.0109541E-5,-9.340462E-3,1.6920513E-2,1.8491287E-2,4.5933288E-2,-7.093429E-3,-1.4461755E-2,-9.827333E-3,-9.122019E-4,5.733251E-3,-4.682566E-3,-5.367358E-3,3.1403E-2],"categories":[],"categories_nodes":[],"categories_segments":[],"categories_sizes":[],"default_left":[0,0,0,0,0,0,1,0,0,0,1,0,0,0,0,0,0,0,0,0,0,0,0,0,0,0,0,0,0,0,0],"id":34,"left_children":[1,3,5,7,9,11,13,15,17,19,21,23,25,27,29,-1,-1,-1,-1,-1,-1,-1,-1,-1,-1,-1,-1,-1,-1,-1,-1],"loss_changes":[7.642354E1,1.4512989E1,1.3068932E1,1.4790184E1,1.4625126E1,4.557287E0,1.04040365E1,7.732086E0,6.321754E0,3.7383885E0,9.511475E0,3.352665E0,6.4725356E0,7.0239043E0,7.5739183E0,0E0,0E0,0E0,0E0,0E0,0E0,0E0,0E0,0E0,0E0,0E0,0E0,0E0,0E0,0E0,0E0],"parents":[2147483647,0,0,1,1,2,2,3,3,4,4,5,5,6,6,7,7,8,8,9,9,10,10,11,11,12,12,13,13,14,14],"right_children":[2,4,6,8,10,12,14,16,18,20,22,24,26,28,30,-1,-1,-1,-1,-1,-1,-1,-1,-1,-1,-1,-1,-1,-1,-1,-1],"split_conditions":[3.1916898E-1,1.6777765E2,2.6186743E-1,2.4765792E-1,7.374051E-1,-1.3374845E-3,1.5837718E0,2.6223469E1,5.0152326E-1,3.98399E6,-5.783051E-2,1.8934773E0,7.661576E-1,-3.450037E-2,3.6133125E-1,3.9198067E-2,1.5239743E-2,1.2983322E-2,1.0109541E-5,-9.340462E-3,1.6920513E-2,1.8491287E-2,4.5933288E-2,-7.093429E-3,-1.4461755E-2,-9.827333E-3,-9.122019E-4,5.733251E-3,-4.682566E-3,-5.367358E-3,3.1403E-2],"split_indices":[0,53,1,2,30,47,35,56,28,11,57,40,28,57,62,0,0,0,0,0,0,0,0,0,0,0,0,0,0,0,0],"split_type":[0,0,0,0,0,0,0,0,0,0,0,0,0,0,0,0,0,0,0,0,0,0,0,0,0,0,0,0,0,0,0],"sum_hessian":[1.0952205E3,2.8957242E2,8.05648E2,2.2194173E2,6.7630684E1,5.37557E2,2.6809103E2,7.1864204E1,1.5007751E2,1.7865614E1,4.9765068E1,2.3534584E2,3.0221115E2,2.4583208E2,2.2258953E1,1.5610037E1,5.625417E1,5.0068344E1,1.0000917E2,1.0200249E1,7.665366E0,2.2901546E1,2.6863522E1,1.387031E2,9.6642746E1,1.23543106E2,1.7866805E2,9.269865E1,1.5313342E2,6.9138036E0,1.534515E1],"tree_param":{"num_deleted":"0","num_feature":"65","num_nodes":"31","size_leaf_vector":"1"}},{"base_weights":[-9.256444E-3,-1.0351919E-1,1.3906394E-1,-3.8483998E-1,-7.873329E-2,1.0156135E-1,4.306345E-1,6.49901E-1,-4.5826402E-1,-3.1761616E-2,-2.4900462E-1,-5.684729E-4,2.0902498E-1,1.8545695E-1,6.819386E-1,6.0748947E-3,2.3683768E-2,-2.078013E-2,-6.581714E-3,-1.9847099E-2,-4.710289E-4,3.8748134E-3,-1.010259E-2,-2.286371E-2,8.805611E-4,7.152683E-3,-8.4685255E-3,9.799726E-3,-1.6413148E-2,-1.8433912E-2,2.2341028E-2],"categories":[],"categories_nodes":[],"categories_segments":[],"categories_sizes":[],"default_left":[0,0,0,0,1,0,0,0,0,0,0,0,0,0,0,0,0,0,0,0,0,0,0,0,0,0,0,0,0,0,0],"id":35,"left_children":[1,3,5,7,9,11,13,15,17,19,21,23,25,27,29,-1,-1,-1,-1,-1,-1,-1,-1,-1,-1,-1,-1,-1,-1,-1,-1],"loss_changes":[2.819554E1,8.567084E0,8.525427E0,7.863386E0,9.065031E0,7.6352553E0,5.3573036E0,2.779224E-1,5.087269E0,8.994896E0,8.177833E0,8.172593E0,4.9634066E0,4.98069E0,4.0033493E0,0E0,0E0,0E0,0E0,0E0,0E0,0E0,0E0,0E0,0E0,0E0,0E0,0E0,0E0,0E0,0E0],"parents":[2147483647,0,0,1,1,2,2,3,3,4,4,5,5,6,6,7,7,8,8,9,9,10,10,11,11,12,12,13,13,14,14],"right_children":[2,4,6,8,10,12,14,16,18,20,22,24,26,28,30,-1,-1,-1,-1,-1,-1,-1,-1,-1,-1,-1,-1,-1,-1,-1,-1],"split_conditions":[3.7973407E-1,2.3456672E-1,2.4307245E-1,1.3055E2,1.588046E2,4.210087E-1,3.3694258E-1,1.2963E2,1.553352E2,9.7936356E-1,-2.7769414E-1,1.3949574E2,3.1993308E0,1.6012E2,2.5339993E1,6.0748947E-3,2.3683768E-2,-2.078013E-2,-6.581714E-3,-1.9847099E-2,-4.710289E-4,3.8748134E-3,-1.010259E-2,-2.286371E-2,8.805611E-4,7.152683E-3,-8.4685255E-3,9.799726E-3,-1.6413148E-2,-1.8433912E-2,2.2341028E-2],"split_indices":[0,0,1,8,50,0,2,8,50,37,34,53,28,9,31,0,0,0,0,0,0,0,0,0,0,0,0,0,0,0,0],"split_type":[0,0,0,0,0,0,0,0,0,0,0,0,0,0,0,0,0,0,0,0,0,0,0,0,0,0,0,0,0,0,0],"sum_hessian":[2.014662E3,1.231991E3,7.826709E2,9.857983E1,1.1334113E3,6.9466907E2,8.800186E1,6.011424E0,9.25684E1,8.892782E2,2.44133E2,3.566836E2,3.3798544E2,4.542361E1,4.2578247E1,2.0120478E0,3.9993763E0,4.576217E1,4.680623E1,2.1114004E1,8.681642E2,4.5890194E1,1.9824281E2,1.2558759E1,3.4412485E2,3.193893E2,1.859615E1,3.8547672E1,6.8759384E0,1.560231E0,4.1018017E1],"tree_param":{"num_deleted":"0","num_feature":"65","num_nodes":"31","size_leaf_vector":"1"}},{"base_weights":[7.249674E-3,8.890971E-2,-1.4279611E-1,2.4877323E-1,1.5896937E-2,-2.11318E-1,8.321006E-2,4.2207107E-1,1.30298E-1,6.040289E-2,-2.992926E-1,1.4765769E-1,-2.5393304E-1,3.6594903E-1,-1.2234549E-1,1.070807E-2,3.8928527E-2,6.7385554E-4,1.4744319E-2,3.09913E-3,-6.295595E-3,-1.060045E-2,2.1057867E-2,-4.702528E-4,2.2571646E-2,2.061959E-2,-7.956481E-3,6.8836764E-4,3.0822529E-2,-1.5449083E-2,3.808922E-3],"categories":[],"categories_nodes":[],"categories_segments":[],"categories_sizes":[],"default_left":[0,0,1,0,0,0,0,0,0,0,0,0,0,0,0,0,0,0,0,0,0,0,0,0,0,0,0,0,0,0,0],"id":36,"left_children":[1,3,5,7,9,11,13,15,17,19,21,23,25,27,29,-1,-1,-1,-1,-1,-1,-1,-1,-1,-1,-1,-1,-1,-1,-1,-1],"loss_changes":[2.1487623E1,1.3250723E1,9.589311E0,7.2535667E0,1.096847E1,7.297228E0,8.443621E0,7.7544594E0,8.279974E0,7.9622536E0,5.484626E0,5.048265E0,4.6912937E0,1.3835843E1,8.329506E0,0E0,0E0,0E0,0E0,0E0,0E0,0E0,0E0,0E0,0E0,0E0,0E0,0E0,0E0,0E0,0E0],"parents":[2147483647,0,0,1,1,2,2,3,3,4,4,5,5,6,6,7,7,8,8,9,9,10,10,11,11,12,12,13,13,14,14],"right_children":[2,4,6,8,10,12,14,16,18,20,22,24,26,28,30,-1,-1,-1,-1,-1,-1,-1,-1,-1,-1,-1,-1,-1,-1,-1,-1],"split_conditions":[2.942929E-1,3.69742E-1,1.5456677E2,2.9326E6,2.4307245E-1,-1.4083086E0,1.621E2,1.0369153E0,2.5150448E-1,1.3045996E0,3.9308768E-2,5.065026E-1,3.66E0,1.605E2,1.671E2,1.070807E-2,3.8928527E-2,6.7385554E-4,1.4744319E-2,3.09913E-3,-6.295595E-3,-1.060045E-2,2.1057867E-2,-4.702528E-4,2.2571646E-2,2.061959E-2,-7.956481E-3,6.8836764E-4,3.0822529E-2,-1.5449083E-2,3.808922E-3],"split_indices":[1,0,54,11,1,41,22,28,34,33,47,46,21,9,8,0,0,0,0,0,0,0,0,0,0,0,0,0,0,0,0],"split_type":[0,0,0,0,0,0,0,0,0,0,0,0,0,0,0,0,0,0,0,0,0,0,0,0,0,0,0,0,0,0,0],"sum_hessian":[1.7516626E3,1.1345884E3,6.170742E2,3.549682E2,7.796202E2,4.735619E2,1.4351231E2,1.4309526E2,2.1187292E2,6.838643E2,9.575586E1,4.999072E1,4.2357117E2,6.0085373E1,8.342694E1,1.3449715E2,8.59811E0,1.6397702E2,4.7895905E1,5.9071045E2,9.315382E1,9.1464775E1,4.2910843E0,4.012686E1,9.863859E0,4.3075647E0,4.192636E2,4.024901E1,1.9836367E1,3.1986916E1,5.1440025E1],"tree_param":{"num_deleted":"0","num_feature":"65","num_nodes":"31","size_leaf_vector":"1"}},{"base_weights":[-2.9264303E-2,4.863446E-1,-1.4644653E-1,1.0050335E0,3.7938103E-1,-2.595529E-1,3.5018686E-2,1.5073327E0,5.8837426E-1,1.5176308E-1,8.1473136E-1,-4.7172824E-1,-2.2420958E-1,8.031601E-3,8.9351875E-1,5.2796945E-2,1.38194645E-2,-9.2296535E-3,2.6983099E-2,2.1754184E-3,2.4599947E-2,1.2430845E-2,3.3681028E-2,-1.4630143E-2,6.6672442E-3,-7.3291524E-3,4.2483103E-3,4.797766E-2,-1.5574563E-4,-1.7851966E-3,5.4561686E-2],"categories":[],"categories_nodes":[],"categories_segments":[],"categories_sizes":[],"default_left":[0,0,0,0,0,0,0,0,0,0,0,0,0,0,0,0,0,0,0,0,0,0,0,0,0,0,0,0,0,0,0],"id":37,"left_children":[1,3,5,7,9,11,13,15,17,19,21,23,25,27,29,-1,-1,-1,-1,-1,-1,-1,-1,-1,-1,-1,-1,-1,-1,-1,-1],"loss_changes":[6.68107E1,1.0980221E1,1.8498018E1,6.3134384E0,1.6858873E1,4.056492E0,8.026768E0,3.1437035E0,5.9752555E0,5.96535E0,6.761612E0,9.752445E-1,3.5462856E0,7.1033835E0,9.418773E0,0E0,0E0,0E0,0E0,0E0,0E0,0E0,0E0,0E0,0E0,0E0,0E0,0E0,0E0,0E0,0E0],"parents":[2147483647,0,0,1,1,2,2,3,3,4,4,5,5,6,6,7,7,8,8,9,9,10,10,11,11,12,12,13,13,14,14],"right_children":[2,4,6,8,10,12,14,16,18,20,22,24,26,28,30,-1,-1,-1,-1,-1,-1,-1,-1,-1,-1,-1,-1,-1,-1,-1,-1],"split_conditions":[2.9389688E-1,2.047059E-1,2.658055E-1,8.5E-1,2.5125E2,1.40527E2,4.2139575E-1,2.9877344E-1,3.1535452E1,7.870815E1,1.4744489E2,1.5187E2,1.1559759E7,3.002524E-1,-7.008173E-1,5.2796945E-2,1.38194645E-2,-9.2296535E-3,2.6983099E-2,2.1754184E-3,2.4599947E-2,1.2430845E-2,3.3681028E-2,-1.4630143E-2,6.6672442E-3,-7.3291524E-3,4.2483103E-3,4.797766E-2,-1.5574563E-4,-1.7851966E-3,5.4561686E-2],"split_indices":[0,2,1,3,18,49,62,46,31,31,54,26,11,37,43,0,0,0,0,0,0,0,0,0,0,0,0,0,0,0,0],"split_type":[0,0,0,0,0,0,0,0,0,0,0,0,0,0,0,0,0,0,0,0,0,0,0,0,0,0,0,0,0,0,0],"sum_hessian":[1.1035887E3,2.037826E2,8.9980615E2,3.3403923E1,1.7037868E2,5.540434E2,3.457628E2,1.395861E1,1.9445314E1,1.12767876E2,5.7610794E1,7.7349075E1,4.766943E2,3.3620352E2,9.559256E0,1.0696205E1,3.2624052E0,5.0137978E0,1.4431517E1,1.01803085E2,1.0964787E1,2.6067589E1,3.1543207E1,7.5902565E1,1.4465084E0,4.521866E2,2.45077E1,1.782314E0,3.344212E2,5.169741E0,4.389515E0],"tree_param":{"num_deleted":"0","num_feature":"65","num_nodes":"31","size_leaf_vector":"1"}},{"base_weights":[1.0869191E-2,-9.041951E-2,1.6716641E-1,-5.8775324E-1,-6.69047E-2,2.826971E-1,8.930135E-2,2.594192E-1,-6.6429025E-1,-9.287872E-3,-2.3079571E-1,-1.2557511E-1,3.4059924E-1,-7.5243384E-1,1.1392908E-1,-1.65298E-2,2.2539753E-2,1.7169263E-2,-2.130083E-2,-1.15323225E-2,6.592832E-4,-1.993595E-2,-4.890845E-3,1.38155455E-2,-1.0515836E-2,1.603499E-2,4.6007037E-3,-2.8283656E-2,1.6631408E-2,4.1234978E-3,-2.1726282E-2],"categories":[],"categories_nodes":[],"categories_segments":[],"categories_sizes":[],"default_left":[0,0,0,0,0,0,0,0,0,0,0,0,0,1,0,0,0,0,0,0,0,0,0,0,0,0,0,0,0,0,0],"id":38,"left_children":[1,3,5,7,9,11,13,15,17,19,21,23,25,27,29,-1,-1,-1,-1,-1,-1,-1,-1,-1,-1,-1,-1,-1,-1,-1,-1],"loss_changes":[3.133819E1,1.4008383E1,6.9768333E0,3.6803265E0,1.0839225E1,7.4403E0,9.755142E0,2.4877286E0,3.2286663E0,9.983054E0,8.668253E0,5.3821945E0,9.877895E0,3.8537679E0,9.050651E0,0E0,0E0,0E0,0E0,0E0,0E0,0E0,0E0,0E0,0E0,0E0,0E0,0E0,0E0,0E0,0E0],"parents":[2147483647,0,0,1,1,2,2,3,3,4,4,5,5,6,6,7,7,8,8,9,9,10,10,11,11,12,12,13,13,14,14],"right_children":[2,4,6,8,10,12,14,16,18,20,22,24,26,28,30,-1,-1,-1,-1,-1,-1,-1,-1,-1,-1,-1,-1,-1,-1,-1,-1],"split_conditions":[3.7973407E-1,5.4264013E-2,1.5051E2,1.435136E0,1.617E2,-1.0645813E0,1.5062E2,3.2113707E-1,1.4879E2,2.270062E-1,1.8546084E-2,2.2182808E1,5.009903E1,4.0010414E0,1.583229E2,-1.65298E-2,2.2539753E-2,1.7169263E-2,-2.130083E-2,-1.15323225E-2,6.592832E-4,-1.993595E-2,-4.890845E-3,1.38155455E-2,-1.0515836E-2,1.603499E-2,4.6007037E-3,-2.8283656E-2,1.6631408E-2,4.1234978E-3,-2.1726282E-2],"split_indices":[0,55,26,35,24,40,22,0,8,0,57,31,31,40,12,0,0,0,0,0,0,0,0,0,0,0,0,0,0,0,0],"split_type":[0,0,0,0,0,0,0,0,0,0,0,0,0,0,0,0,0,0,0,0,0,0,0,0,0,0,0,0,0,0,0],"sum_hessian":[1.9775734E3,1.2002019E3,7.773715E2,5.310234E1,1.1470995E3,3.1192642E2,4.6544513E2,4.2019825E0,4.890036E1,8.495071E2,2.975924E2,3.8598293E1,2.7332812E2,1.2390937E1,4.5305417E2,1.541783E0,2.6601994E0,1.3335094E0,4.756685E1,6.448492E1,7.8502216E2,3.9023335E1,2.585691E2,1.0415225E1,2.8183067E1,1.3336566E2,1.3996248E2,1.1058658E1,1.3322797E0,4.4150027E2,1.1553914E1],"tree_param":{"num_deleted":"0","num_feature":"65","num_nodes":"31","size_leaf_vector":"1"}},{"base_weights":[-3.756164E-3,2.2760727E-2,-2.5832644E-1,3.507102E-2,-5.638238E-1,-1.0960379E-1,-4.7599676E-1,4.5615292E-1,2.0017162E-2,1.0676183E-1,-6.599291E-1,-3.51008E-1,1.2159539E-1,-5.4120827E-1,3.3022103E-1,-1.8524766E-2,1.7221559E-2,1.6296087E-3,-3.760392E-3,2.7132634E-2,-1.5807161E-2,2.2778735E-3,-2.15358E-2,-2.0494996E-2,-4.2749057E-3,1.1448854E-2,-1.4071911E-2,-1.0472648E-3,-1.8335998E-2,-1.5005442E-2,3.1556427E-2],"categories":[],"categories_nodes":[],"categories_segments":[],"categories_sizes":[],"default_left":[0,1,0,0,0,0,0,0,0,0,0,0,0,0,0,0,0,0,0,0,0,0,0,0,0,0,0,0,0,0,0],"id":39,"left_children":[1,3,5,7,9,11,13,15,17,19,21,23,25,27,29,-1,-1,-1,-1,-1,-1,-1,-1,-1,-1,-1,-1,-1,-1,-1,-1],"loss_changes":[1.1693677E1,1.1349585E1,5.2380714E0,9.73816E0,2.1526937E0,5.533732E0,3.650424E0,7.0670776E0,7.414956E0,2.95869E0,1.2651129E0,3.2538786E0,8.011669E0,2.1570053E0,3.8595934E0,0E0,0E0,0E0,0E0,0E0,0E0,0E0,0E0,0E0,0E0,0E0,0E0,0E0,0E0,0E0,0E0],"parents":[2147483647,0,0,1,1,2,2,3,3,4,4,5,5,6,6,7,7,8,8,9,9,10,10,11,11,12,12,13,13,14,14],"right_children":[2,4,6,8,10,12,14,16,18,20,22,24,26,28,30,-1,-1,-1,-1,-1,-1,-1,-1,-1,-1,-1,-1,-1,-1,-1,-1],"split_conditions":[4.585517E-1,4.775807E0,1.6540398E2,4.7443563E-1,-3.6290887E-1,1.5272E2,3.1502374E-2,1.5261377E2,4.186818E-1,1.4438E2,-6.192772E-1,8.434382E-1,1.2314311E0,-1.5327729E0,7.374051E-1,-1.8524766E-2,1.7221559E-2,1.6296087E-3,-3.760392E-3,2.7132634E-2,-1.5807161E-2,2.2778735E-3,-2.15358E-2,-2.0494996E-2,-4.2749057E-3,1.1448854E-2,-1.4071911E-2,-1.0472648E-3,-1.8335998E-2,-1.5005442E-2,3.1556427E-2],"split_indices":[1,41,53,30,47,25,47,53,0,8,34,30,30,43,30,0,0,0,0,0,0,0,0,0,0,0,0,0,0,0,0],"split_type":[0,0,0,0,0,0,0,0,0,0,0,0,0,0,0,0,0,0,0,0,0,0,0,0,0,0,0,0,0,0,0],"sum_hessian":[1.7304199E3,1.5680022E3,1.6241776E2,1.5366927E3,3.1309427E1,9.7383965E1,6.503379E1,5.20298E1,1.484663E3,3.9107587E0,2.7398668E1,4.738706E1,4.999691E1,6.0471233E1,4.5625553E0,4.728881E0,4.730092E1,1.2017083E3,2.829547E2,1.5421816E0,2.368577E0,1.9768898E0,2.542178E1,1.7397081E1,2.9989977E1,3.4959953E1,1.5036954E1,7.526375E0,5.294486E1,2.2641435E0,2.2984118E0],"tree_param":{"num_deleted":"0","num_feature":"65","num_nodes":"31","size_leaf_vector":"1"}},{"base_weights":[-1.1343969E-3,-2.4621476E-1,2.3553105E-1,-3.6136284E-1,-1.763959E-1,6.737296E-1,1.4598888E-1,-3.736101E-1,2.1460759E-2,-1.9936068E-1,1.035051E0,1.169052E0,5.249942E-1,8.6025715E-2,4.3359149E-1,-1.7192738E-2,-9.248599E-3,2.4318215E-3,-8.481542E-3,5.4094438E-2,-1.1878337E-2,3.6979073E-3,4.518727E-2,-1.6302444E-2,1.8222755E-2,1.8004375E-2,1.180494E-3,6.4183753E-3,2.4379095E-2],"categories":[],"categories_nodes":[],"categories_segments":[],"categories_sizes":[],"default_left":[0,0,0,1,0,0,1,0,0,0,0,0,0,0,0,0,0,0,0,0,0,0,0,0,0,0,0,0,0],"id":40,"left_children":[1,3,5,7,9,11,13,15,-1,17,19,21,23,25,27,-1,-1,-1,-1,-1,-1,-1,-1,-1,-1,-1,-1,-1,-1],"loss_changes":[6.2673565E1,4.2038765E0,2.1470741E1,2.8969612E0,9.454298E0,6.237232E0,7.856285E0,2.4012241E0,0E0,7.66819E0,7.6887417E0,7.0997334E0,6.7885036E0,9.095195E0,6.379959E0,0E0,0E0,0E0,0E0,0E0,0E0,0E0,0E0,0E0,0E0,0E0,0E0,0E0,0E0],"parents":[2147483647,0,0,1,1,2,2,3,3,4,4,5,5,6,6,7,7,9,9,10,10,11,11,12,12,13,13,14,14],"right_children":[2,4,6,8,10,12,14,16,-1,18,20,22,24,26,28,-1,-1,-1,-1,-1,-1,-1,-1,-1,-1,-1,-1,-1,-1],"split_conditions":[2.63235E-1,-1.503621E-1,2.4500395E-1,5E0,1.5036153E7,2.6223469E1,8.561373E-1,5.9713215E-1,2.1460759E-2,5.5006063E-3,4.3389392E-1,1.5793838E1,6.0725E-2,1.3320572E2,1.6555E2,-1.7192738E-2,-9.248599E-3,2.4318215E-3,-8.481542E-3,5.4094438E-2,-1.1878337E-2,3.6979073E-3,4.518727E-2,-1.6302444E-2,1.8222755E-2,1.8004375E-2,1.180494E-3,6.4183753E-3,2.4379095E-2],"split_indices":[1,34,0,40,11,56,35,28,0,34,62,56,55,29,10,0,0,0,0,0,0,0,0,0,0,0,0,0,0],"split_type":[0,0,0,0,0,0,0,0,0,0,0,0,0,0,0,0,0,0,0,0,0,0,0,0,0,0,0,0,0],"sum_hessian":[1.0785405E3,5.2983075E2,5.4870984E2,1.984173E2,3.3141345E2,9.199306E1,4.5671677E2,1.9683142E2,1.5858668E0,3.2606778E2,5.345666E0,1.9660198E1,7.233286E1,3.789975E2,7.771927E1,4.6637924E1,1.501935E2,7.472248E1,2.5134529E2,3.309307E0,2.0363588E0,5.1263847E0,1.4533813E1,4.7804046E0,6.755246E1,3.055761E1,3.484399E2,5.019636E1,2.752291E1],"tree_param":{"num_deleted":"0","num_feature":"65","num_nodes":"29","size_leaf_vector":"1"}},{"base_weights":[-1.4190684E-2,2.8677886E-2,-2.2376192E-1,3.7774295E-2,-5.261299E-1,-2.8338066E-1,4.9093843E-1,7.210668E-2,-1.195842E-1,-6.854669E-1,3.9274344E-1,-3.3308885E-1,2.3740363E-1,-2.021877E-2,6.572918E-1,2.5340475E-4,5.5568833E-3,-2.1981595E-3,-2.778042E-2,-2.7374301E-2,7.697084E-3,1.7048161E-2,4.2563444E-3,-2.3878226E-2,-8.465669E-3,-1.5707053E-2,1.6529527E-2,2.3283258E-2,-1.823641E-2],"categories":[],"categories_nodes":[],"categories_segments":[],"categories_sizes":[],"default_left":[0,1,0,1,0,0,0,0,0,0,0,0,0,0,1,0,0,0,0,0,0,0,0,0,0,0,0,0,0],"id":41,"left_children":[1,3,5,7,9,11,13,15,17,19,21,23,25,-1,27,-1,-1,-1,-1,-1,-1,-1,-1,-1,-1,-1,-1,-1,-1],"loss_changes":[1.7638187E1,8.246995E0,1.4344778E1,8.678627E0,4.1291227E0,8.061562E0,5.4882617E0,9.489939E0,1.0680895E1,5.116745E0,1.1892533E-1,6.416809E0,6.8391323E0,0E0,3.9725704E0,0E0,0E0,0E0,0E0,0E0,0E0,0E0,0E0,0E0,0E0,0E0,0E0,0E0,0E0],"parents":[2147483647,0,0,1,1,2,2,3,3,4,4,5,5,6,6,7,7,8,8,9,9,10,10,11,11,12,12,14,14],"right_children":[2,4,6,8,10,12,14,16,18,20,22,24,26,-1,28,-1,-1,-1,-1,-1,-1,-1,-1,-1,-1,-1,-1,-1,-1],"split_conditions":[3.8960436E-1,1.6760283E2,4.3693045E-1,4.9654324E1,1E0,8.753787E6,6.3642925E1,4.188618E-1,1.0926774E0,3.5097084E1,1.3830721E-1,3.0247626E-1,-4.246663E-3,-2.021877E-2,7.9398796E1,2.5340475E-4,5.5568833E-3,-2.1981595E-3,-2.778042E-2,-2.7374301E-2,7.697084E-3,1.7048161E-2,4.2563444E-3,-2.3878226E-2,-8.465669E-3,-1.5707053E-2,1.6529527E-2,2.3283258E-2,-1.823641E-2],"split_indices":[1,54,34,56,61,11,31,62,33,52,1,28,47,0,52,0,0,0,0,0,0,0,0,0,0,0,0,0,0],"split_type":[0,0,0,0,0,0,0,0,0,0,0,0,0,0,0,0,0,0,0,0,0,0,0,0,0,0,0,0,0],"sum_hessian":[1.9615704E3,1.6291791E3,3.3239142E2,1.6038154E3,2.5363611E1,3.0735596E2,2.503547E1,1.3170122E3,2.868032E2,2.1831875E1,3.5317373E0,2.8090442E2,2.6451546E1,2.7471383E0,2.2288332E1,8.4344055E2,4.7357166E2,2.722586E2,1.45446E1,1.7617764E1,4.214111E0,1.3334705E0,2.1982667E0,2.6380342E1,2.5452408E2,7.5237846E0,1.8927761E1,2.0728228E1,1.5601027E0],"tree_param":{"num_deleted":"0","num_feature":"65","num_nodes":"29","size_leaf_vector":"1"}},{"base_weights":[9.292852E-3,-9.01975E-2,1.456695E-1,-3.6066983E-2,-3.1329536E-1,1.0316201E-1,5.057858E-1,4.723053E-1,-5.909754E-2,-3.9620122E-1,1.02162845E-1,-2.8077902E-3,2.6602098E-1,1.091917E0,3.1173506E-1,-1.0316457E-2,1.848876E-2,-2.6027872E-3,9.957803E-3,2.2699768E-2,-1.2648451E-2,3.1203743E-2,-3.1530769E-3,-3.6879634E-3,7.1689608E-3,5.6749554E-3,2.8791105E-2,3.6469754E-2,-1.2352996E-2,-1.1379736E-2,1.3926037E-2],"categories":[],"categories_nodes":[],"categories_segments":[],"categories_sizes":[],"default_left":[0,0,0,0,1,0,0,0,0,0,0,0,1,0,0,0,0,0,0,0,0,0,0,0,0,0,0,0,0,0,0],"id":42,"left_children":[1,3,5,7,9,11,13,15,17,19,21,23,25,27,29,-1,-1,-1,-1,-1,-1,-1,-1,-1,-1,-1,-1,-1,-1,-1,-1],"loss_changes":[2.389785E1,1.22877865E1,1.1320027E1,9.6369E0,6.885391E0,1.1490051E1,8.551449E0,4.4050775E0,8.530945E0,5.178829E0,6.6908393E0,1.1771298E1,1.3809851E1,4.044256E0,6.511816E0,0E0,0E0,0E0,0E0,0E0,0E0,0E0,0E0,0E0,0E0,0E0,0E0,0E0,0E0,0E0,0E0],"parents":[2147483647,0,0,1,1,2,2,3,3,4,4,5,5,6,6,7,7,8,8,9,9,10,10,11,11,12,12,13,13,14,14],"right_children":[2,4,6,8,10,12,14,16,18,20,22,24,26,28,30,-1,-1,-1,-1,-1,-1,-1,-1,-1,-1,-1,-1,-1,-1,-1,-1],"split_conditions":[3.886574E-1,4.5899856E-1,4.5612398E-1,4.7443563E-1,-2.162175E0,1.9772048E-1,5.2067506E-1,-6.1376905E-1,1.6310834E0,4.9796727E-2,8.131943E-2,1.3158019E0,1.609402E2,1.5355E2,-7.5027317E-1,-1.0316457E-2,1.848876E-2,-2.6027872E-3,9.957803E-3,2.2699768E-2,-1.2648451E-2,3.1203743E-2,-3.1530769E-3,-3.6879634E-3,7.1689608E-3,5.6749554E-3,2.8791105E-2,3.6469754E-2,-1.2352996E-2,-1.1379736E-2,1.3926037E-2],"split_indices":[2,62,46,30,42,1,46,32,43,55,55,43,50,8,32,0,0,0,0,0,0,0,0,0,0,0,0,0,0,0,0],"split_type":[0,0,0,0,0,0,0,0,0,0,0,0,0,0,0,0,0,0,0,0,0,0,0,0,0,0,0,0,0,0,0],"sum_hessian":[1.7593496E3,1.0174394E3,7.4191016E2,8.19713E2,1.9772636E2,6.647328E2,7.717742E1,3.4680233E1,7.8503284E2,1.6487204E2,3.2854324E1,4.0329666E2,2.614361E2,1.8045113E1,5.9132313E1,4.992427E0,2.9687805E1,7.338935E2,5.1139328E1,2.935462E0,1.6193658E2,5.2187943E0,2.7635532E1,2.6975912E2,1.3353754E2,2.3650543E2,2.4930662E1,1.685003E1,1.1950805E0,1.0419147E1,4.8713165E1],"tree_param":{"num_deleted":"0","num_feature":"65","num_nodes":"31","size_leaf_vector":"1"}},{"base_weights":[1.4037593E-2,3.642144E-1,-1.2999327E-1,9.928594E-1,2.7805436E-1,7.349428E-3,-2.608947E-1,4.8903357E-2,7.470949E-1,2.3699847E-1,1.3891027E0,-4.9643693E-3,5.8501072E-2,-5.115378E-1,-2.1046872E-1,3.690327E-2,6.0547837E-3,5.518231E-3,2.5518795E-2,1.0076345E-2,6.1206598E-2,-1.3371838E-3,1.4761713E-2,-1.6529355E-2,8.2645034E-5,-1.0768221E-2,-3.8745073E-3],"categories":[],"categories_nodes":[],"categories_segments":[],"categories_sizes":[],"default_left":[0,0,0,0,0,0,0,0,0,0,0,1,0,0,0,0,0,0,0,0,0,0,0,0,0,0,0],"id":43,"left_children":[1,3,5,7,9,11,13,-1,15,17,19,21,-1,23,25,-1,-1,-1,-1,-1,-1,-1,-1,-1,-1,-1,-1],"loss_changes":[5.5920372E1,1.7225231E1,1.4127116E1,4.820923E0,1.2696541E1,9.204725E0,4.9769707E0,0E0,7.566702E0,8.848551E0,6.1521072E0,7.5608735E0,0E0,1.3541012E0,4.0178022E0,0E0,0E0,0E0,0E0,0E0,0E0,0E0,0E0,0E0,0E0,0E0,0E0],"parents":[2147483647,0,0,1,1,2,2,3,3,4,4,5,5,6,6,8,8,9,9,10,10,11,11,13,13,14,14],"right_children":[2,4,6,8,10,12,14,-1,16,18,20,22,-1,24,26,-1,-1,-1,-1,-1,-1,-1,-1,-1,-1,-1,-1],"split_conditions":[3.269195E-1,2.047059E-1,3.8996136E-1,-1.1044742E0,1.5040553E0,4.8897612E-1,1.3991E2,4.8903357E-2,7.4032225E-2,2.9225E2,7.318635E-2,1.750235E2,5.8501072E-2,1.7005708E0,6.797499E-1,3.690327E-2,6.0547837E-3,5.518231E-3,2.5518795E-2,1.0076345E-2,6.1206598E-2,-1.3371838E-3,1.4761713E-2,-1.6529355E-2,8.2645034E-5,-1.0768221E-2,-3.8745073E-3],"split_indices":[2,2,2,43,33,47,23,0,46,18,57,49,0,28,28,0,0,0,0,0,0,0,0,0,0,0,0],"split_type":[0,0,0,0,0,0,0,0,0,0,0,0,0,0,0,0,0,0,0,0,0,0,0,0,0,0,0],"sum_hessian":[1.1067946E3,3.2211642E2,7.8467816E2,3.75583E1,2.8455814E2,3.833785E2,4.0129965E2,8.885614E0,2.8672686E1,2.755878E2,8.970317E0,3.8195493E2,1.4235924E0,6.568197E1,3.3561768E2,1.4538296E1,1.413439E1,2.5485178E2,2.0736034E1,4.006077E0,4.96424E0,3.5460614E2,2.73488E1,6.0937393E1,4.744578E0,1.1756057E2,2.1805711E2],"tree_param":{"num_deleted":"0","num_feature":"65","num_nodes":"27","size_leaf_vector":"1"}},{"base_weights":[-7.2468293E-4,-8.1510864E-2,1.2658559E-1,-3.386178E-1,-5.5973914E-2,1.8252006E-1,-5.478966E-2,6.522095E-1,-4.0371248E-1,-6.119385E-1,-4.2790346E-2,5.4218113E-1,1.3088068E-1,-7.229363E-1,3.2771364E-2,6.1549987E-3,2.3720128E-2,-1.6664237E-2,2.1084116E-3,3.049818E-4,-2.7363336E-2,-1.6278071E-2,-9.4741007E-4,1.8915432E-2,-1.3542785E-2,2.516366E-3,1.1690816E-2,1.0764921E-2,-2.8932884E-2,7.079516E-3,-5.1468527E-3],"categories":[],"categories_nodes":[],"categories_segments":[],"categories_sizes":[],"default_left":[0,0,0,0,0,1,0,0,1,0,0,0,0,0,0,0,0,0,0,0,0,0,0,0,0,0,0,0,0,0,0],"id":44,"left_children":[1,3,5,7,9,11,13,15,17,19,21,23,25,27,29,-1,-1,-1,-1,-1,-1,-1,-1,-1,-1,-1,-1,-1,-1,-1,-1],"loss_changes":[2.0032042E1,7.8046055E0,7.681072E0,7.1942854E0,7.927265E0,1.0666676E1,1.0495344E1,2.7150202E-1,7.3370514E0,4.68896E0,5.92784E0,6.6275196E0,6.133274E0,5.775262E0,6.6513352E0,0E0,0E0,0E0,0E0,0E0,0E0,0E0,0E0,0E0,0E0,0E0,0E0,0E0,0E0,0E0,0E0],"parents":[2147483647,0,0,1,1,2,2,3,3,4,4,5,5,6,6,7,7,8,8,9,9,10,10,11,11,12,12,13,13,14,14],"right_children":[2,4,6,8,10,12,14,16,18,20,22,24,26,28,30,-1,-1,-1,-1,-1,-1,-1,-1,-1,-1,-1,-1,-1,-1,-1,-1],"split_conditions":[3.7973407E-1,2.4144566E-1,1.628E2,1.3055E2,-2.5123296E0,1.362732E2,1.638E2,1.2963E2,1.6645134E2,2.4652777E1,9.3150866E-1,1.658E2,2.3729578E-1,1.6054358E2,1.8893618E1,6.1549987E-3,2.3720128E-2,-1.6664237E-2,2.1084116E-3,3.049818E-4,-2.7363336E-2,-1.6278071E-2,-9.4741007E-4,1.8915432E-2,-1.3542785E-2,2.516366E-3,1.1690816E-2,1.0764921E-2,-2.8932884E-2,7.079516E-3,-5.1468527E-3],"split_indices":[0,0,10,8,43,50,10,8,53,56,37,26,1,29,56,0,0,0,0,0,0,0,0,0,0,0,0,0,0,0,0],"split_type":[0,0,0,0,0,0,0,0,0,0,0,0,0,0,0,0,0,0,0,0,0,0,0,0,0,0,0,0,0,0,0],"sum_hessian":[1.9457087E3,1.1905753E3,7.551334E2,1.064611E2,1.0841143E3,5.771418E2,1.7799161E2,6.0070114E0,1.0045409E2,2.4060064E1,1.0600542E3,7.126834E1,5.0587344E2,1.9782455E1,1.5820915E2,2.0074449E0,3.999567E0,7.5961105E1,2.4492983E1,8.145254E0,1.591481E1,2.2213957E1,1.0378402E3,6.578535E1,5.4829936E0,4.292445E2,7.662894E1,3.5215993E0,1.6260857E1,7.924443E1,7.896473E1],"tree_param":{"num_deleted":"0","num_feature":"65","num_nodes":"31","size_leaf_vector":"1"}},{"base_weights":[8.051785E-3,-8.899299E-2,1.4252384E-1,-1.5187467E-2,-2.3219772E-1,3.5106823E-1,6.093135E-2,-8.3657734E-2,1.7308845E-1,7.343135E-1,-2.5945115E-1,1.6708277E-1,5.8928216E-1,1.4730527E-1,-1.7234965E-1,1.7099917E-2,-3.1134048E-3,2.3291925E-2,2.3738858E-3,-1.234434E-2,2.8436525E-2,5.3758365E-3,-9.336153E-3,-1.4029348E-3,1.873529E-2,2.4992641E-2,5.118306E-3,7.6956726E-3,-6.10147E-4,-7.4886284E-3,1.2827472E-2],"categories":[],"categories_nodes":[],"categories_segments":[],"categories_sizes":[],"default_left":[0,0,0,1,0,0,0,0,0,0,0,0,0,1,0,0,0,0,0,0,0,0,0,0,0,0,0,0,0,0,0],"id":45,"left_children":[1,3,5,7,9,11,13,15,17,19,21,23,25,27,29,-1,-1,-1,-1,-1,-1,-1,-1,-1,-1,-1,-1,-1,-1,-1,-1],"loss_changes":[2.2870558E1,1.0755924E1,1.2478244E1,8.68827E0,9.30838E0,8.946461E0,1.0688898E1,6.5578322E0,1.0128605E1,2.7769246E0,7.7152176E0,1.1555876E1,8.9973755E0,7.086626E0,6.7572765E0,0E0,0E0,0E0,0E0,0E0,0E0,0E0,0E0,0E0,0E0,0E0,0E0,0E0,0E0,0E0,0E0],"parents":[2147483647,0,0,1,1,2,2,3,3,4,4,5,5,6,6,7,7,8,8,9,9,10,10,11,11,12,12,13,13,14,14],"right_children":[2,4,6,8,10,12,14,16,18,20,22,24,26,28,30,-1,-1,-1,-1,-1,-1,-1,-1,-1,-1,-1,-1,-1,-1,-1,-1],"split_conditions":[3.886574E-1,4.749053E6,-7.410699E-1,1.5457903E2,2.022E2,5.131577E1,4.1229254E-1,5.86627E-2,1.5494983E2,5.502982E-1,-1.435136E0,1.64365E2,1.6873183E0,4.8490974E-1,1.7923298E0,1.7099917E-2,-3.1134048E-3,2.3291925E-2,2.3738858E-3,-1.234434E-2,2.8436525E-2,5.3758365E-3,-9.336153E-3,-1.4029348E-3,1.873529E-2,2.4992641E-2,5.118306E-3,7.6956726E-3,-6.10147E-4,-7.4886284E-3,1.2827472E-2],"split_indices":[2,11,43,54,18,31,0,55,54,30,41,49,41,35,28,0,0,0,0,0,0,0,0,0,0,0,0,0,0,0,0],"split_type":[0,0,0,0,0,0,0,0,0,0,0,0,0,0,0,0,0,0,0,0,0,0,0,0,0,0,0,0,0,0,0],"sum_hessian":[1.7505868E3,1.0169908E3,7.33596E2,6.718405E2,3.4515027E2,2.0537357E2,5.282225E2,4.9307843E2,1.7876208E2,8.754058E0,3.363962E2,1.1683613E2,8.853744E1,3.857605E2,1.4246196E2,1.3909732E1,4.791687E2,2.3109983E1,1.556521E2,1.2297701E0,7.524288E0,3.5241447E1,3.0115475E2,8.022751E1,3.6608627E1,5.532823E1,3.320921E1,2.3326305E2,1.5249744E2,1.2672383E2,1.5738124E1],"tree_param":{"num_deleted":"0","num_feature":"65","num_nodes":"31","size_leaf_vector":"1"}},{"base_weights":[1.1984415E-2,-1.3435063E-1,4.2020613E-1,2.8869887E-3,-2.8014007E-1,7.043612E-1,2.554653E-1,-1.7037269E-2,6.305932E-1,-2.9552573E-1,4.2105246E-1,1.0803667E0,5.140221E-1,1.8661802E-1,9.589919E-1,-3.7127922E-3,3.2032887E-3,4.413275E-2,-9.4319265E-3,-1.46609945E-2,-7.3195416E-3,-3.8009144E-3,5.4939214E-2,5.1765386E-2,2.265889E-2,-6.5844646E-3,1.9366082E-2,1.0781072E-3,1.463917E-2,4.493399E-2,1.1002483E-2],"categories":[],"categories_nodes":[],"categories_segments":[],"categories_sizes":[],"default_left":[0,0,0,0,1,1,0,0,0,0,0,0,0,0,0,0,0,0,0,0,0,0,0,0,0,0,0,0,0,0,0],"id":46,"left_children":[1,3,5,7,9,11,13,15,17,19,21,23,25,27,29,-1,-1,-1,-1,-1,-1,-1,-1,-1,-1,-1,-1,-1,-1,-1,-1],"loss_changes":[6.561339E1,1.6179024E1,1.3387451E1,5.232288E0,4.3544445E0,7.0162697E0,8.783252E0,5.373123E0,1.0685272E1,3.7066116E0,