{"learner":{"attributes":{"best_iteration":"466","best_score":"0.6806550686222378","scikit_learn":"{\"_estimator_type\": \"classifier\"}"},"feature_names":[],"feature_types":[],"gradient_booster":{"model":{"cats":{"enc":[],"feature_segments":[],"sorted_idx":[]},"gbtree_model_param":{"num_parallel_tree":"1","num_trees":"1491"},"iteration_indptr":[0,3,6,9,12,15,18,21,24,27,30,33,36,39,42,45,48,51,54,57,60,63,66,69,72,75,78,81,84,87,90,93,96,99,102,105,108,111,114,117,120,123,126,129,132,135,138,141,144,147,150,153,156,159,162,165,168,171,174,177,180,183,186,189,192,195,198,201,204,207,210,213,216,219,222,225,228,231,234,237,240,243,246,249,252,255,258,261,264,267,270,273,276,279,282,285,288,291,294,297,300,303,306,309,312,315,318,321,324,327,330,333,336,339,342,345,348,351,354,357,360,363,366,369,372,375,378,381,384,387,390,393,396,399,402,405,408,411,414,417,420,423,426,429,432,435,438,441,444,447,450,453,456,459,462,465,468,471,474,477,480,483,486,489,492,495,498,501,504,507,510,513,516,519,522,525,528,531,534,537,540,543,546,549,552,555,558,561,564,567,570,573,576,579,582,585,588,591,594,597,600,603,606,609,612,615,618,621,624,627,630,633,636,639,642,645,648,651,654,657,660,663,666,669,672,675,678,681,684,687,690,693,696,699,702,705,708,711,714,717,720,723,726,729,732,735,738,741,744,747,750,753,756,759,762,765,768,771,774,777,780,783,786,789,792,795,798,801,804,807,810,813,816,819,822,825,828,831,834,837,840,843,846,849,852,855,858,861,864,867,870,873,876,879,882,885,888,891,894,897,900,903,906,909,912,915,918,921,924,927,930,933,936,939,942,945,948,951,954,957,960,963,966,969,972,975,978,981,984,987,990,993,996,999,1002,1005,1008,1011,1014,1017,1020,1023,1026,1029,1032,1035,1038,1041,1044,1047,1050,1053,1056,1059,1062,1065,1068,1071,1074,1077,1080,1083,1086,1089,1092,1095,1098,1101,1104,1107,1110,1113,1116,1119,1122,1125,1128,1131,1134,1137,1140,1143,1146,1149,1152,1155,1158,1161,1164,1167,1170,1173,1176,1179,1182,1185,1188,1191,1194,1197,1200,1203,1206,1209,1212,1215,1218,1221,1224,1227,1230,1233,1236,1239,1242,1245,1248,1251,1254,1257,1260,1263,1266,1269,1272,1275,1278,1281,1284,1287,1290,1293,1296,1299,1302,1305,1308,1311,1314,1317,1320,1323,1326,1329,1332,1335,1338,1341,1344,1347,1350,1353,1356,1359,1362,1365,1368,1371,1374,1377,1380,1383,1386,1389,1392,1395,1398,1401,1404,1407,1410,1413,1416,1419,1422,1425,1428,1431,1434,1437,1440,1443,1446,1449,1452,1455,1458,1461,1464,1467,1470,1473,1476,1479,1482,1485,1488,1491],"tree_info":[0,1,2,0,1,2,0,1,2,0,1,2,0,1,2,0,1,2,0,1,2,0,1,2,0,1,2,0,1,2,0,1,2,0,1,2,0,1,2,0,1,2,0,1,2,0,1,2,0,1,2,0,1,2,0,1,2,0,1,2,0,1,2,0,1,2,0,1,2,0,1,2,0,1,2,0,1,2,0,1,2,0,1,2,0,1,2,0,1,2,0,1,2,0,1,2,0,1,2,0,1,2,0,1,2,0,1,2,0,1,2,0,1,2,0,1,2,0,1,2,0,1,2,0,1,2,0,1,2,0,1,2,0,1,2,0,1,2,0,1,2,0,1,2,0,1,2,0,1,2,0,1,2,0,1,2,0,1,2,0,1,2,0,1,2,0,1,2,0,1,2,0,1,2,0,1,2,0,1,2,0,1,2,0,1,2,0,1,2,0,1,2,0,1,2,0,1,2,0,1,2,0,1,2,0,1,2,0,1,2,0,1,2,0,1,2,0,1,2,0,1,2,0,1,2,0,1,2,0,1,2,0,1,2,0,1,2,0,1,2,0,1,2,0,1,2,0,1,2,0,1,2,0,1,2,0,1,2,0,1,2,0,1,2,0,1,2,0,1,2,0,1,2,0,1,2,0,1,2,0,1,2,0,1,2,0,1,2,0,1,2,0,1,2,0,1,2,0,1,2,0,1,2,0,1,2,0,1,2,0,1,2,0,1,2,0,1,2,0,1,2,0,1,2,0,1,2,0,1,2,0,1,2,0,1,2,0,1,2,0,1,2,0,1,2,0,1,2,0,1,2,0,1,2,0,1,2,0,1,2,0,1,2,0,1,2,0,1,2,0,1,2,0,1,2,0,1,2,0,1,2,0,1,2,0,1,2,0,1,2,0,1,2,0,1,2,0,1,2,0,1,2,0,1,2,0,1,2,0,1,2,0,1,2,0,1,2,0,1,2,0,1,2,0,1,2,0,1,2,0,1,2,0,1,2,0,1,2,0,1,2,0,1,2,0,1,2,0,1,2,0,1,2,0,1,2,0,1,2,0,1,2,0,1,2,0,1,2,0,1,2,0,1,2,0,1,2,0,1,2,0,1,2,0,1,2,0,1,2,0,1,2,0,1,2,0,1,2,0,1,2,0,1,2,0,1,2,0,1,2,0,1,2,0,1,2,0,1,2,0,1,2,0,1,2,0,1,2,0,1,2,0,1,2,0,1,2,0,1,2,0,1,2,0,1,2,0,1,2,0,1,2,0,1,2,0,1,2,0,1,2,0,1,2,0,1,2,0,1,2,0,1,2,0,1,2,0,1,2,0,1,2,0,1,2,0,1,2,0,1,2,0,1,2,0,1,2,0,1,2,0,1,2,0,1,2,0,1,2,0,1,2,0,1,2,0,1,2,0,1,2,0,1,2,0,1,2,0,1,2,0,1,2,0,1,2,0,1,2,0,1,2,0,1,2,0,1,2,0,1,2,0,1,2,0,1,2,0,1,2,0,1,2,0,1,2,0,1,2,0,1,2,0,1,2,0,1,2,0,1,2,0,1,2,0,1,2,0,1,2,0,1,2,0,1,2,0,1,2,0,1,2,0,1,2,0,1,2,0,1,2,0,1,2,0,1,2,0,1,2,0,1,2,0,1,2,0,1,2,0,1,2,0,1,2,0,1,2,0,1,2,0,1,2,0,1,2,0,1,2,0,1,2,0,1,2,0,1,2,0,1,2,0,1,2,0,1,2,0,1,2,0,1,2,0,1,2,0,1,2,0,1,2,0,1,2,0,1,2,0,1,2,0,1,2,0,1,2,0,1,2,0,1,2,0,1,2,0,1,2,0,1,2,0,1,2,0,1,2,0,1,2,0,1,2,0,1,2,0,1,2,0,1,2,0,1,2,0,1,2,0,1,2,0,1,2,0,1,2,0,1,2,0,1,2,0,1,2,0,1,2,0,1,2,0,1,2,0,1,2,0,1,2,0,1,2,0,1,2,0,1,2,0,1,2,0,1,2,0,1,2,0,1,2,0,1,2,0,1,2,0,1,2,0,1,2,0,1,2,0,1,2,0,1,2,0,1,2,0,1,2,0,1,2,0,1,2,0,1,2,0,1,2,0,1,2,0,1,2,0,1,2,0,1,2,0,1,2,0,1,2,0,1,2,0,1,2,0,1,2,0,1,2,0,1,2,0,1,2,0,1,2,0,1,2,0,1,2,0,1,2,0,1,2,0,1,2,0,1,2,0,1,2,0,1,2,0,1,2,0,1,2,0,1,2,0,1,2,0,1,2,0,1,2,0,1,2,0,1,2,0,1,2,0,1,2,0,1,2,0,1,2,0,1,2,0,1,2,0,1,2,0,1,2,0,1,2,0,1,2,0,1,2,0,1,2,0,1,2,0,1,2,0,1,2,0,1,2,0,1,2,0,1,2,0,1,2,0,1,2,0,1,2,0,1,2,0,1,2,0,1,2,0,1,2,0,1,2,0,1,2,0,1,2,0,1,2,0,1,2,0,1,2,0,1,2,0,1,2,0,1,2,0,1,2,0,1,2,0,1,2,0,1,2,0,1,2,0,1,2,0,1,2,0,1,2,0,1,2,0,1,2,0,1,2,0,1,2,0,1,2,0,1,2,0,1,2,0,1,2,0,1,2,0,1,2,0,1,2,0,1,2,0,1,2,0,1,2,0,1,2,0,1,2,0,1,2,0,1,2,0,1,2,0,1,2,0,1,2,0,1,2,0,1,2,0,1,2,0,1,2,0,1,2,0,1,2,0,1,2,0,1,2,0,1,2,0,1,2,0,1,2,0,1,2,0,1,2,0,1,2,0,1,2,0,1,2,0,1,2,0,1,2,0,1,2,0,1,2,0,1,2,0,1,2,0,1,2,0,1,2,0,1,2,0,1,2,0,1,2,0,1,2,0,1,2,0,1,2,0,1,2,0,1,2,0,1,2,0,1,2,0,1,2,0,1,2,0,1,2,0,1,2,0,1,2,0,1,2,0,1,2,0,1,2,0,1,2,0,1,2,0,1,2,0,1,2,0,1,2,0,1,2,0,1,2,0,1,2,0,1,2,0,1,2,0,1,2,0,1,2,0,1,2,0,1,2,0,1,2,0,1,2,0,1,2,0,1,2,0,1,2,0,1,2,0,1,2,0,1,2,0,1,2,0,1,2,0,1,2,0,1,2,0,1,2,0,1,2,0,1,2,0,1,2,0,1,2,0,1,2,0,1,2,0,1,2,0,1,2,0,1,2,0,1,2,0,1,2,0,1,2,0,1,2,0,1,2,0,1,2,0,1,2,0,1,2,0,1,2,0,1,2,0,1,2,0,1,2,0,1,2,0,1,2,0,1,2,0,1,2],"trees":[{"base_weights":[7.4196034E-3,8.13257E-2,-5.5278933E-1,4.30902E-2,4.978746E-1,-4.1035652E-2,-6.451955E-1,6.448118E-2,-2.135758E-2,-1.8474676E-2,5.924518E-1,-1.958808E-2,4.3582425E-1,-1.9935656E-1,-2.2183798E-2,1.0212043E-3,1.7717915E-2,1.9772379E-2,-1.6676093E-2,-5.1462236E-3,3.306882E-2,-2.0414773E-2,1.8145563E-2],"categories":[],"categories_nodes":[],"categories_segments":[],"categories_sizes":[],"default_left":[0,0,0,0,0,0,0,0,0,0,0,0,0,0,0,0,0,0,0,0,0,0,0],"id":0,"left_children":[1,3,5,7,9,11,13,15,-1,-1,17,-1,19,21,-1,-1,-1,-1,-1,-1,-1,-1,-1],"loss_changes":[3.637133E1,1.2337869E1,4.815359E0,1.1542621E1,7.226763E0,5.165675E0,3.4946098E0,1.1081176E1,0E0,0E0,4.999565E0,0E0,4.237468E0,6.7936273E0,0E0,0E0,0E0,0E0,0E0,0E0,0E0,0E0,0E0],"parents":[2147483647,0,0,1,1,2,2,3,3,4,4,5,5,6,6,7,7,10,10,12,12,13,13],"right_children":[2,4,6,8,10,12,14,16,-1,-1,18,-1,20,22,-1,-1,-1,-1,-1,-1,-1,-1,-1],"split_conditions":[3.5516724E-1,1.9220667E0,-2.1367338E-3,3.4855008E-3,-9.405763E-3,-6.2867963E-1,-4.264147E-3,4.520409E-1,-2.135758E-2,-1.8474676E-2,2.8270192E0,-1.958808E-2,2.9426968E-1,8E-1,-2.2183798E-2,1.0212043E-3,1.7717915E-2,1.9772379E-2,-1.6676093E-2,-5.1462236E-3,3.306882E-2,-2.0414773E-2,1.8145563E-2],"split_indices":[1,45,7,7,8,43,8,54,0,0,32,0,0,4,0,0,0,0,0,0,0,0,0],"split_type":[0,0,0,0,0,0,0,0,0,0,0,0,0,0,0,0,0,0,0,0,0,0,0],"sum_hessian":[8.7638806E2,7.7500024E2,1.0138782E2,7.1085364E2,6.414664E1,1.572812E1,8.56597E1,6.9215796E2,1.8695665E1,4.5896564E0,5.9556976E1,6.7269483E0,9.001172E0,1.5493859E1,7.016584E1,6.553067E2,3.6851295E1,5.6693573E1,2.8634045E0,5.097944E0,3.903228E0,9.7903805E0,5.703479E0],"tree_param":{"num_deleted":"0","num_feature":"57","num_nodes":"23","size_leaf_vector":"1"}},{"base_weights":[-1.0738558E-2,-2.2048134E-1,4.8425144E-1,-3.002821E-1,-1.1206766E-2,1.2896025E0,3.730314E-1,-3.0667815E-1,2.7693586E-2,9.397651E-1,-5.4675337E-2,4.3269046E-2,5.042513E-1,4.5036834E-1,-1.8472132E-1,-9.577503E-3,8.742013E-3,-7.7114734E-3,3.774245E-2,-2.9728655E-3,1.8763494E-2,3.4773532E-2,-1.5676867E-2,1.5058529E-2,-1.1170167E-2,3.0938605E-2,-9.661546E-3],"categories":[],"categories_nodes":[],"categories_segments":[],"categories_sizes":[],"default_left":[0,0,0,1,0,0,1,1,0,0,0,0,0,0,0,0,0,0,0,0,0,0,0,0,0,0,0],"id":1,"left_children":[1,3,5,7,9,11,13,15,-1,17,19,-1,21,23,25,-1,-1,-1,-1,-1,-1,-1,-1,-1,-1,-1,-1],"loss_changes":[9.2302956E1,1.0424686E1,2.3220345E1,3.820057E0,7.219877E0,3.0744667E0,1.0172791E1,3.4796638E0,0E0,3.2321377E0,5.1005898E0,0E0,5.1096635E0,8.916916E0,5.207184E0,0E0,0E0,0E0,0E0,0E0,0E0,0E0,0E0,0E0,0E0,0E0,0E0],"parents":[2147483647,0,0,1,1,2,2,3,3,4,4,5,5,6,6,7,7,9,9,10,10,12,12,13,13,14,14],"right_children":[2,4,6,8,10,12,14,16,-1,18,20,-1,22,24,26,-1,-1,-1,-1,-1,-1,-1,-1,-1,-1,-1,-1],"split_conditions":[2.8123617E-1,2.493906E-1,2.3123777E-1,4.3406987E0,-4.2326644E-1,2.8553328E-1,3.6190447E-1,4.3406987E0,2.7693586E-2,2.566288E6,1.9034923E0,4.3269046E-2,5.1127654E-1,2.3945928E0,2.8270367E-1,-9.577503E-3,8.742013E-3,-7.7114734E-3,3.774245E-2,-2.9728655E-3,1.8763494E-2,3.4773532E-2,-1.5676867E-2,1.5058529E-2,-1.1170167E-2,3.0938605E-2,-9.661546E-3],"split_indices":[1,1,0,37,48,2,39,42,0,13,34,0,1,30,0,0,0,0,0,0,0,0,0,0,0,0,0],"split_type":[0,0,0,0,0,0,0,0,0,0,0,0,0,0,0,0,0,0,0,0,0,0,0,0,0,0,0],"sum_hessian":[8.870339E2,6.2342413E2,2.6360974E2,4.510098E2,1.7241432E2,3.0701715E1,2.3290804E2,4.4940955E2,1.6002336E0,6.6351967E0,1.6577911E2,2.5003649E1,5.6980658E0,2.0471515E2,2.8192888E1,4.406138E2,8.795752E0,1.4344375E0,5.200759E0,1.5641751E2,9.361606E0,3.4004962E0,2.2975693E0,1.9300394E2,1.17112055E1,2.2003212E0,2.5992567E1],"tree_param":{"num_deleted":"0","num_feature":"57","num_nodes":"27","size_leaf_vector":"1"}},{"base_weights":[-5.1271718E-2,6.6891015E-2,-3.7293917E-1,-3.3687122E-2,3.873853E-1,-4.2153287E-1,6.7295176E-1,2.6043472E-1,-1.2076574E-1,1.0110172E0,2.5312978E-1,-2.320413E-1,-5.458509E-1,-1.5085242E-2,1.0104009E0,1.5866915E-2,-5.1749405E-3,-5.8304463E-3,9.03451E-3,-1.4561993E-2,3.4302447E-2,-6.07471E-3,1.21694105E-2,-1.9362383E-2,-6.517405E-4,-8.640488E-3,-1.987301E-2,3.7875205E-2,6.3856835E-3],"categories":[],"categories_nodes":[],"categories_segments":[],"categories_sizes":[],"default_left":[0,0,0,0,0,0,0,0,0,0,0,0,0,0,0,0,0,0,0,0,0,0,0,0,0,0,0,0,0],"id":2,"left_children":[1,3,5,7,9,11,13,15,17,19,21,23,25,-1,27,-1,-1,-1,-1,-1,-1,-1,-1,-1,-1,-1,-1,-1,-1],"loss_changes":[3.259695E1,2.0242779E1,1.1992298E1,1.2289012E1,1.2301636E1,5.0739098E0,4.7192287E0,1.2834595E1,1.1543829E1,5.7527122E0,8.750942E0,7.740624E0,3.7940445E0,0E0,1.4562273E0,0E0,0E0,0E0,0E0,0E0,0E0,0E0,0E0,0E0,0E0,0E0,0E0,0E0,0E0],"parents":[2147483647,0,0,1,1,2,2,3,3,4,4,5,5,6,6,7,7,8,8,9,9,10,10,11,11,12,12,14,14],"right_children":[2,4,6,8,10,12,14,16,18,20,22,24,26,-1,28,-1,-1,-1,-1,-1,-1,-1,-1,-1,-1,-1,-1,-1,-1],"split_conditions":[2.885962E-1,4.5722755E-4,2.3945928E0,1.8814486E-1,9.998679E-6,3.650745E-1,3.567342E-1,2.1017668E0,5.2950806E-3,3.592557E-1,-2.6652687E-3,3.5277355E-1,-4.9259607E-3,-1.5085242E-2,1.48E2,1.5866915E-2,-5.1749405E-3,-5.8304463E-3,9.03451E-3,-1.4561993E-2,3.4302447E-2,-6.07471E-3,1.21694105E-2,-1.9362383E-2,-6.517405E-4,-8.640488E-3,-1.987301E-2,3.7875205E-2,6.3856835E-3],"split_indices":[1,7,30,1,44,54,54,42,8,2,49,54,49,0,10,0,0,0,0,0,0,0,0,0,0,0,0,0,0],"split_type":[0,0,0,0,0,0,0,0,0,0,0,0,0,0,0,0,0,0,0,0,0,0,0,0,0,0,0,0,0],"sum_hessian":[8.559527E2,6.265757E2,2.2937703E2,4.775918E2,1.4898389E2,2.1976343E2,9.613588E0,1.0864278E2,3.68949E2,2.5234818E1,1.2374907E2,8.819652E1,1.3156691E2,2.0345087E0,7.5790796E0,6.69224E1,4.1720375E1,3.1461865E2,5.4330368E1,1.8344812E0,2.3400335E1,3.0953363E1,9.279571E1,2.9043522E1,5.9153E1,4.2046757E1,8.952016E1,5.3157616E0,2.2633178E0],"tree_param":{"num_deleted":"0","num_feature":"57","num_nodes":"29","size_leaf_vector":"1"}},{"base_weights":[6.7936694E-3,-4.9897093E-1,6.59492E-2,-6.2803453E-1,1.3267447E-1,8.15023E-1,4.133683E-2,-8.7901294E-2,-2.19865E-2,8.2640237E-1,-3.9712697E-1,9.839125E-1,-1.600177E-2,-2.7322086E-2,3.0081907E-1,-1.973888E-2,2.1776194E-2,3.5442725E-2,-1.2969308E-2,-1.98352E-2,2.489768E-2,-1.2310212E-2,3.2413322E-2,1.3708299E-3,-7.6977154E-3,-1.97048E-2,1.0473345E-2],"categories":[],"categories_nodes":[],"categories_segments":[],"categories_sizes":[],"default_left":[0,0,0,0,0,0,0,0,0,0,0,0,0,0,0,0,0,0,0,0,0,0,0,0,0,0,0],"id":3,"left_children":[1,3,5,7,9,11,13,15,-1,17,19,21,-1,23,25,-1,-1,-1,-1,-1,-1,-1,-1,-1,-1,-1,-1],"loss_changes":[2.662267E1,7.679598E0,1.4651915E1,4.327154E0,6.442087E0,6.283352E0,1.3766716E1,6.852591E0,0E0,3.8746033E0,3.8234177E0,3.5151196E0,0E0,1.0250066E1,7.7060204E0,0E0,0E0,0E0,0E0,0E0,0E0,0E0,0E0,0E0,0E0,0E0,0E0],"parents":[2147483647,0,0,1,1,2,2,3,3,4,4,5,5,6,6,7,7,9,9,10,10,11,11,13,13,14,14],"right_children":[2,4,6,8,10,12,14,16,-1,18,20,22,-1,24,26,-1,-1,-1,-1,-1,-1,-1,-1,-1,-1,-1,-1],"split_conditions":[2.9426968E-1,3.4471574E-1,-4.7624446E-3,-4.264147E-3,-2.4007171E-1,-3.9093807E-1,1.2187403E0,1E0,-2.19865E-2,3.9542025E-1,6.2048844E5,3.8037357E-1,-1.600177E-2,2.6299106E-3,-1.15141915E-2,-1.973888E-2,2.1776194E-2,3.5442725E-2,-1.2969308E-2,-1.98352E-2,2.489768E-2,-1.2310212E-2,3.2413322E-2,1.3708299E-3,-7.6977154E-3,-1.97048E-2,1.0473345E-2],"split_indices":[0,36,7,8,48,45,45,56,0,1,19,54,0,8,8,0,0,0,0,0,0,0,0,0,0,0,0],"split_type":[0,0,0,0,0,0,0,0,0,0,0,0,0,0,0,0,0,0,0,0,0,0,0,0,0,0,0],"sum_hessian":[8.877316E2,9.2180145E1,7.9555145E2,7.65454E1,1.5634744E1,2.428633E1,7.7126514E2,1.274213E1,6.3803272E1,6.5275993E0,9.107145E0,2.1823275E1,2.4630542E0,6.1059625E2,1.6066888E2,7.605693E0,5.136437E0,5.1394205E0,1.3881786E0,7.8739367E0,1.2332085E0,1.2026064E0,2.0620668E1,4.63715E2,1.4688126E2,7.1083546E0,1.5356053E2],"tree_param":{"num_deleted":"0","num_feature":"57","num_nodes":"27","size_leaf_vector":"1"}},{"base_weights":[4.0249564E-3,-2.079056E-1,5.0153196E-1,-8.868159E-2,-3.5332522E-1,9.404047E-1,3.0997473E-1,2.4649516E-1,-1.459454E-1,-4.0177825E-1,-4.6861265E-2,4.1243905E-1,1.1600039E0,4.0063736E-1,-2.4490178E-1,3.286739E-2,1.2560167E-3,-5.280872E-3,1.63365E-2,1.3296788E-2,-1.26414625E-2,-5.5663763E-3,3.450365E-2,-1.1077429E-2,2.1695891E-2,1.4843007E-2,3.9260123E-2,2.8823273E-2,1.0477954E-2,-1.0270463E-2,2.6339937E-2],"categories":[],"categories_nodes":[],"categories_segments":[],"categories_sizes":[],"default_left":[0,0,0,0,0,1,1,1,1,0,0,0,0,0,0,0,0,0,0,0,0,0,0,0,0,0,0,0,0,0,0],"id":4,"left_children":[1,3,5,7,9,11,13,15,17,19,21,23,25,27,29,-1,-1,-1,-1,-1,-1,-1,-1,-1,-1,-1,-1,-1,-1,-1,-1],"loss_changes":[9.269582E1,1.0657948E1,2.1787529E1,6.564058E0,4.1006317E0,8.716682E0,9.370649E0,8.641654E0,6.143151E0,4.152767E0,6.6884217E0,6.3031893E0,4.8374176E0,4.2343693E0,3.2011166E0,0E0,0E0,0E0,0E0,0E0,0E0,0E0,0E0,0E0,0E0,0E0,0E0,0E0,0E0,0E0,0E0],"parents":[2147483647,0,0,1,1,2,2,3,3,4,4,5,5,6,6,7,7,8,8,9,9,10,10,11,11,12,12,13,13,14,14],"right_children":[2,4,6,8,10,12,14,16,18,20,22,24,26,28,30,-1,-1,-1,-1,-1,-1,-1,-1,-1,-1,-1,-1,-1,-1,-1,-1],"split_conditions":[2.8123617E-1,3.96101E-1,2.8483942E-1,4.21E0,7.883952E-3,-3.4972212E0,2.6614532E-1,5.877176E-1,2.856953E0,-2.7401338E0,1.592043E2,-3.4838752E-3,-7.6582795E-1,3.85E0,9.382669E6,3.286739E-2,1.2560167E-3,-5.280872E-3,1.63365E-2,1.3296788E-2,-1.26414625E-2,-5.5663763E-3,3.450365E-2,-1.1077429E-2,2.1695891E-2,1.4843007E-2,3.9260123E-2,2.8823273E-2,1.0477954E-2,-1.0270463E-2,2.6339937E-2],"split_indices":[1,0,0,23,49,43,39,43,42,43,14,8,34,23,13,0,0,0,0,0,0,0,0,0,0,0,0,0,0,0,0],"split_type":[0,0,0,0,0,0,0,0,0,0,0,0,0,0,0,0,0,0,0,0,0,0,0,0,0,0,0,0,0,0,0],"sum_hessian":[8.771699E2,6.1554083E2,2.616291E2,3.391195E2,2.7642136E2,7.8308624E1,1.8332048E2,4.900116E1,2.9011832E2,2.3841592E2,3.8005424E1,2.3848833E1,5.445979E1,1.5781299E2,2.5507486E1,8.670348E0,4.033081E1,2.7872006E2,1.1398272E1,4.915805E0,2.3350012E2,3.481651E1,3.1889153E0,6.7305136E0,1.7118319E1,1.0738123E1,4.372167E1,1.177053E1,1.4604247E2,2.411028E1,1.3972073E0],"tree_param":{"num_deleted":"0","num_feature":"57","num_nodes":"31","size_leaf_vector":"1"}},{"base_weights":[-1.4745698E-2,1.04794614E-1,-3.3563897E-1,-3.9825507E-2,2.9903963E-1,-3.806404E-1,2.82784E-1,6.5413857E-1,-9.933534E-2,2.2993945E-1,9.0784425E-1,4.2367262E-1,-4.1154215E-1,7.6950467E-1,-1.8955566E-2,-1.9222794E-2,3.0220026E-2,-8.465027E-3,2.1071795E-3,3.197368E-3,1.6153159E-2,-1.6651846E-2,3.2943588E-2,-1.4892461E-2,2.293589E-2,2.4633972E-2,-1.2895928E-2,3.384733E-2,-1.543024E-2],"categories":[],"categories_nodes":[],"categories_segments":[],"categories_sizes":[],"default_left":[0,0,0,0,1,0,0,0,0,0,0,0,0,0,0,0,0,0,0,0,0,0,0,0,0,0,0,0,0],"id":5,"left_children":[1,3,5,7,9,11,13,15,17,19,21,23,25,27,-1,-1,-1,-1,-1,-1,-1,-1,-1,-1,-1,-1,-1,-1,-1],"loss_changes":[3.404127E1,1.8177631E1,6.8104477E0,1.5409575E1,1.1406216E1,5.7651215E0,8.014538E0,1.4127265E1,1.065666E1,9.429843E0,8.348867E0,3.1441104E0,5.256748E0,5.8714566E0,0E0,0E0,0E0,0E0,0E0,0E0,0E0,0E0,0E0,0E0,0E0,0E0,0E0,0E0,0E0],"parents":[2147483647,0,0,1,1,2,2,3,3,4,4,5,5,6,6,7,7,8,8,9,9,10,10,11,11,12,12,13,13],"right_children":[2,4,6,8,10,12,14,16,18,20,22,24,26,28,-1,-1,-1,-1,-1,-1,-1,-1,-1,-1,-1,-1,-1,-1,-1],"split_conditions":[2.8741854E-1,-3.9751444E-4,1.8871943E0,1.3247E2,2.5388646E0,1.407086E2,5.9547344E5,-2.9430857E-3,1.0608281E0,4.0543923E-1,-1.5009129E-2,1.0394946E0,3.4710643E-1,6.4755424E1,-1.8955566E-2,-1.9222794E-2,3.0220026E-2,-8.465027E-3,2.1071795E-3,3.197368E-3,1.6153159E-2,-1.6651846E-2,3.2943588E-2,-1.4892461E-2,2.293589E-2,2.4633972E-2,-1.2895928E-2,3.384733E-2,-1.543024E-2],"split_indices":[1,7,30,28,43,16,19,8,32,0,49,32,40,33,0,0,0,0,0,0,0,0,0,0,0,0,0,0,0],"split_type":[0,0,0,0,0,0,0,0,0,0,0,0,0,0,0,0,0,0,0,0,0,0,0,0,0,0,0,0,0],"sum_hessian":[8.8550616E2,6.456571E2,2.3984908E2,3.7056067E2,2.7509644E2,2.2393805E2,1.5911033E1,2.847793E1,3.4208273E2,2.4829256E2,2.6803867E1,7.8151245E0,2.1612292E2,1.0488362E1,5.422671E0,5.9284945E0,2.2549435E1,1.6428728E2,1.7779546E2,1.7832906E2,6.996352E1,2.8643734E0,2.3939493E1,1.9892081E0,5.8259163E0,2.5236058E0,2.1359932E2,8.29244E0,2.1959217E0],"tree_param":{"num_deleted":"0","num_feature":"57","num_nodes":"29","size_leaf_vector":"1"}},{"base_weights":[-2.3002446E-2,3.7861742E-2,-5.275857E-1,1.9397055E-1,-5.3468414E-2,-5.8044815E-1,2.3888541E-2,6.5331566E-1,1.3652503E-1,6.968983E-2,-2.1203054E-1,1.9168518E-2,-6.3201547E-1,-1.6374573E-2,2.347626E-2,2.083204E-3,1.7507153E-2,4.9262834E-3,-1.0702846E-2,-8.1707E-3,2.0723281E-2,-1.8121377E-2,2.8666155E-2,-6.0254517E-3,-2.1794513E-2],"categories":[],"categories_nodes":[],"categories_segments":[],"categories_sizes":[],"default_left":[0,1,0,0,0,0,0,0,0,0,1,0,0,0,0,0,0,0,0,0,0,0,0,0,0],"id":6,"left_children":[1,3,5,7,9,11,-1,13,15,17,19,21,23,-1,-1,-1,-1,-1,-1,-1,-1,-1,-1,-1,-1],"loss_changes":[2.7139826E1,1.125872E1,7.1189384E0,7.6005287E0,9.750155E0,2.8582153E0,0E0,5.4058685E0,7.7655396E0,1.1398923E1,1.2071187E1,5.3971753E0,3.307541E0,0E0,0E0,0E0,0E0,0E0,0E0,0E0,0E0,0E0,0E0,0E0,0E0],"parents":[2147483647,0,0,1,1,2,2,3,3,4,4,5,5,7,7,8,8,9,9,10,10,11,11,12,12],"right_children":[2,4,6,8,10,12,-1,14,16,18,20,22,24,-1,-1,-1,-1,-1,-1,-1,-1,-1,-1,-1,-1],"split_conditions":[3.5516724E-1,-9.7936356E-1,8.8343445E1,-5.493738E-1,-3.0097883E-4,-2.7367545E-3,2.3888541E-2,1.5509227E1,1.6637E2,3.1580771E-3,1.6217656E0,1.4083086E0,-4.264147E-3,-1.6374573E-2,2.347626E-2,2.083204E-3,1.7507153E-2,4.9262834E-3,-1.0702846E-2,-8.1707E-3,2.0723281E-2,-1.8121377E-2,2.8666155E-2,-6.0254517E-3,-2.1794513E-2],"split_indices":[1,43,33,42,7,7,0,33,10,8,39,43,8,0,0,0,0,0,0,0,0,0,0,0,0],"split_type":[0,0,0,0,0,0,0,0,0,0,0,0,0,0,0,0,0,0,0,0,0,0,0,0,0],"sum_hessian":[8.82065E2,7.8794586E2,9.411919E1,2.904174E2,4.9752847E2,9.104527E1,3.07391E0,3.1129255E1,2.5928812E2,2.8034198E2,2.171865E2,7.259634E0,8.378564E1,2.7147186E0,2.8414537E1,2.264603E2,3.2827835E1,2.2998297E2,5.0359E1,2.0423753E2,1.2948958E1,4.5717483E0,2.6878858E0,1.5619961E1,6.816568E1],"tree_param":{"num_deleted":"0","num_feature":"57","num_nodes":"25","size_leaf_vector":"1"}},{"base_weights":[3.7514032E-3,-1.2927955E-1,1.2160786E-1,-5.846121E-2,-3.5066998E-1,-3.162181E-1,1.5673618E-1,8.458816E-1,-7.766737E-2,-3.69099E-1,2.2043137E-2,-5.346127E-1,7.370555E-2,3.79302E-2,1.3702458E-1,-1.2298822E-2,3.61333E-2,-3.3191077E-3,1.206547E-2,-1.2861033E-2,1.4373154E-3,-1.7483894E-2,1.555081E-3,2.9908989E-2,-5.210633E-3,-3.562289E-3,5.7688653E-3],"categories":[],"categories_nodes":[],"categories_segments":[],"categories_sizes":[],"default_left":[0,0,0,0,1,0,0,0,0,1,0,0,0,0,0,0,0,0,0,0,0,0,0,0,0,0,0],"id":7,"left_children":[1,3,5,7,9,11,13,15,17,19,-1,21,23,-1,25,-1,-1,-1,-1,-1,-1,-1,-1,-1,-1,-1,-1],"loss_changes":[1.3876227E1,6.498164E0,7.266995E0,5.557875E0,2.2828503E0,3.03576E0,9.32581E0,3.492725E0,4.9574795E0,2.4948444E0,0E0,6.7094326E-1,3.2592235E0,0E0,6.081731E0,0E0,0E0,0E0,0E0,0E0,0E0,0E0,0E0,0E0,0E0,0E0,0E0],"parents":[2147483647,0,0,1,1,2,2,3,3,4,4,5,5,6,6,7,7,8,8,9,9,11,11,12,12,14,14],"right_children":[2,4,6,8,10,12,14,16,18,20,-1,22,24,-1,26,-1,-1,-1,-1,-1,-1,-1,-1,-1,-1,-1,-1],"split_conditions":[5.9547344E5,1.9192091E0,1.4089E2,-2.987474E0,4.3406987E0,5.557671E1,1.427E2,-3.6924633E-3,7.5572525E1,6.648821E-1,2.2043137E-2,1.6875007E0,-7.747604E-4,3.79302E-2,1.513543E2,-1.2298822E-2,3.61333E-2,-3.3191077E-3,1.206547E-2,-1.2861033E-2,1.4373154E-3,-1.7483894E-2,1.555081E-3,2.9908989E-2,-5.210633E-3,-3.562289E-3,5.7688653E-3],"split_indices":[19,32,25,42,42,33,27,7,33,37,0,30,8,0,29,0,0,0,0,0,0,0,0,0,0,0,0],"split_type":[0,0,0,0,0,0,0,0,0,0,0,0,0,0,0,0,0,0,0,0,0,0,0,0,0,0,0],"sum_hessian":[8.8304205E2,4.1477087E2,4.682712E2,3.1520667E2,9.956421E1,3.4186153E1,4.3408505E2,5.6599417E0,3.0954672E2,9.855093E1,1.0132786E0,2.1675003E1,1.251115E1,6.4861007E0,4.2759897E2,1.2252444E0,4.4346976E0,2.9036566E2,1.9181036E1,8.6202225E1,1.2348702E1,2.003511E1,1.6398939E0,2.0036678E0,1.0507483E1,7.577946E1,3.518195E2],"tree_param":{"num_deleted":"0","num_feature":"57","num_nodes":"27","size_leaf_vector":"1"}},{"base_weights":[3.8899336E-2,-2.7429992E-1,1.992888E-1,-3.3240464E-1,4.4030157E-1,4.0487412E-2,3.15701E-1,-1.5485804E-1,-4.6468747E-1,-3.0360773E-1,7.3094743E-1,7.854708E-1,-6.026763E-3,3.770875E-2,4.3406764E-1,-6.950318E-3,1.8516162E-2,-7.4104643E-3,-1.823077E-2,-1.8542157E-2,1.9348636E-2,2.6587091E-2,-1.3682899E-2,3.201567E-2,-1.5603985E-2,-6.3244794E-3,4.355406E-3,2.7227007E-2,-3.3266612E-3,9.432574E-3,2.445402E-2],"categories":[],"categories_nodes":[],"categories_segments":[],"categories_sizes":[],"default_left":[0,0,0,0,0,0,1,0,1,0,0,0,0,0,0,0,0,0,0,0,0,0,0,0,0,0,0,0,0,0,0],"id":8,"left_children":[1,3,5,7,9,11,13,15,17,19,21,23,25,27,29,-1,-1,-1,-1,-1,-1,-1,-1,-1,-1,-1,-1,-1,-1,-1,-1],"loss_changes":[4.400706E1,1.2467533E1,1.0694838E1,6.3867035E0,5.139495E0,8.534343E0,1.0976097E1,7.1954985E0,4.739689E0,2.5153418E0,3.4729815E0,5.8784637E0,7.2355294E0,1.3137557E1,1.0422165E1,0E0,0E0,0E0,0E0,0E0,0E0,0E0,0E0,0E0,0E0,0E0,0E0,0E0,0E0,0E0,0E0],"parents":[2147483647,0,0,1,1,2,2,3,3,4,4,5,5,6,6,7,7,8,8,9,9,10,10,11,11,12,12,13,13,14,14],"right_children":[2,4,6,8,10,12,14,16,18,20,22,24,26,28,30,-1,-1,-1,-1,-1,-1,-1,-1,-1,-1,-1,-1,-1,-1,-1,-1],"split_conditions":[3.473917E-1,6.799074E-3,3.863969E-1,-1.5626646E-3,1.575517E2,1.33E2,-1.1782756E0,4.1460565E-1,-1.029591E0,1.3170502E-2,1.5741928E2,8E-1,-1.3374845E-3,5.6954425E5,7.253617E-1,-6.950318E-3,1.8516162E-2,-7.4104643E-3,-1.823077E-2,-1.8542157E-2,1.9348636E-2,2.6587091E-2,-1.3682899E-2,3.201567E-2,-1.5603985E-2,-6.3244794E-3,4.355406E-3,2.7227007E-2,-3.3266612E-3,9.432574E-3,2.445402E-2],"split_indices":[0,8,0,49,14,11,42,2,42,8,31,4,49,19,35,0,0,0,0,0,0,0,0,0,0,0,0,0,0,0,0],"split_type":[0,0,0,0,0,0,0,0,0,0,0,0,0,0,0,0,0,0,0,0,0,0,0,0,0,0,0,0,0,0,0],"sum_hessian":[8.739556E2,2.9574048E2,5.7821515E2,2.739965E2,2.1743994E1,2.451485E2,3.3306662E2,1.179106E2,1.560859E2,6.096185E0,1.5647808E1,1.3473098E1,2.316754E2,9.985911E1,2.3320752E2,1.0787692E2,1.0033675E1,6.2967907E1,9.3118E1,4.8400426E0,1.2561429E0,1.4061671E1,1.5861375E0,1.1232089E1,2.2410088E0,9.823511E1,1.3344029E2,1.38246975E1,8.603441E1,1.7887032E2,5.43372E1],"tree_param":{"num_deleted":"0","num_feature":"57","num_nodes":"31","size_leaf_vector":"1"}},{"base_weights":[2.9983694E-2,1.0003048E-1,-5.5540717E-1,3.964792E-2,3.396309E-1,2.0935653E-2,-5.818874E-1,6.8318985E-2,-2.1508282E-2,4.732824E-1,-2.6346004E-1,2.039411E-2,-6.089786E-1,5.648744E-3,-2.5405746E-3,2.5869293E-2,8.038712E-3,1.5776118E-2,-2.1409165E-2,-1.982858E-2,-2.999122E-3],"categories":[],"categories_nodes":[],"categories_segments":[],"categories_sizes":[],"default_left":[0,0,0,0,0,0,0,0,0,0,0,0,0,0,0,0,0,0,0,0,0],"id":9,"left_children":[1,3,5,7,9,-1,11,13,-1,15,17,-1,19,-1,-1,-1,-1,-1,-1,-1,-1],"loss_changes":[3.6729523E1,1.1555588E1,3.5832253E0,1.3928154E1,1.30879345E1,0E0,3.637226E0,1.1348683E1,0E0,1.0313408E1,1.0970696E1,0E0,2.3901634E0,0E0,0E0,0E0,0E0,0E0,0E0,0E0,0E0],"parents":[2147483647,0,0,1,1,2,2,3,3,4,4,6,6,7,7,9,9,10,10,12,12],"right_children":[2,4,6,8,10,-1,12,14,-1,16,18,-1,20,-1,-1,-1,-1,-1,-1,-1,-1],"split_conditions":[3.5337257E-1,1.648E2,3.763863E-1,1.6357E2,3.947247E-1,2.0935653E-2,-3.2520196E0,2.4817924E-1,-2.1508282E-2,1.6675E2,-3.432352E-1,2.039411E-2,1.7351105E0,5.648744E-3,-2.5405746E-3,2.5869293E-2,8.038712E-3,1.5776118E-2,-2.1409165E-2,-1.982858E-2,-2.999122E-3],"split_indices":[1,27,39,10,2,0,45,1,0,28,48,0,45,0,0,0,0,0,0,0,0],"split_type":[0,0,0,0,0,0,0,0,0,0,0,0,0,0,0,0,0,0,0,0,0],"sum_hessian":[8.9338336E2,7.9864777E2,9.47356E1,6.3882153E2,1.5982625E2,1.4356393E0,9.329996E1,6.163737E2,2.2447832E1,1.3100856E2,2.8817686E1,1.4547814E0,9.184518E1,3.4535052E2,2.7102316E2,4.4152897E1,8.6855675E1,1.0405261E1,1.8412424E1,8.306502E1,8.780162E0],"tree_param":{"num_deleted":"0","num_feature":"57","num_nodes":"21","size_leaf_vector":"1"}},{"base_weights":[1.0497832E-2,8.292088E-1,-1.02394685E-1,-1.9877769E-1,9.0953106E-1,-2.0869957E-1,1.6823438E-1,3.3271065E-1,-4.833895E-1,-2.640602E-1,9.648805E-1,1.2714978E-1,-2.567384E-1,-1.375996E-1,3.551462E-1,-1.2224622E-2,2.4983823E-2,-1.7778685E-2,-2.8408035E-3,4.0957825E-3,-1.5913926E-2,3.2786522E-3,3.1195024E-2,-8.306448E-3,9.878097E-3,-4.5946785E-3,-1.0899409E-2,-5.5861645E-3,3.125975E-2,8.342584E-3,2.752606E-2],"categories":[],"categories_nodes":[],"categories_segments":[],"categories_sizes":[],"default_left":[0,0,0,0,0,0,0,0,0,0,0,0,0,0,0,0,0,0,0,0,0,0,0,0,0,0,0,0,0,0,0],"id":10,"left_children":[1,3,5,7,9,11,13,15,17,19,21,23,25,27,29,-1,-1,-1,-1,-1,-1,-1,-1,-1,-1,-1,-1,-1,-1,-1,-1],"loss_changes":[8.033084E1,8.877174E0,2.2011724E1,1.4395797E0,6.6120224E0,8.888542E0,1.2395779E1,1.6498932E0,1.9494402E-1,6.265991E-1,5.8936768E0,5.755074E0,5.249256E0,4.932884E0,5.566799E0,0E0,0E0,0E0,0E0,0E0,0E0,0E0,0E0,0E0,0E0,0E0,0E0,0E0,0E0,0E0,0E0],"parents":[2147483647,0,0,1,1,2,2,3,3,4,4,5,5,6,6,7,7,8,8,9,9,10,10,11,11,12,12,13,13,14,14],"right_children":[2,4,6,8,10,12,14,16,18,20,22,24,26,28,30,-1,-1,-1,-1,-1,-1,-1,-1,-1,-1,-1,-1,-1,-1,-1,-1],"split_conditions":[3.0095357E-1,2.0651026E-1,2.699448E-1,-4.6351724E-4,-3.6235368E-3,2.1525E2,5.9502156E5,4.28E0,5.6353086E-1,-4.159021E-3,3.6167502E-1,1.5231E2,3.96101E-1,1.0124402E7,7.650622E6,-1.2224622E-2,2.4983823E-2,-1.7778685E-2,-2.8408035E-3,4.0957825E-3,-1.5913926E-2,3.2786522E-3,3.1195024E-2,-8.306448E-3,9.878097E-3,-4.5946785E-3,-1.0899409E-2,-5.5861645E-3,3.125975E-2,8.342584E-3,2.752606E-2],"split_indices":[0,30,1,8,7,20,19,23,34,7,54,12,0,13,13,0,0,0,0,0,0,0,0,0,0,0,0,0,0,0,0],"split_type":[0,0,0,0,0,0,0,0,0,0,0,0,0,0,0,0,0,0,0,0,0,0,0,0,0,0,0,0,0,0,0],"sum_hessian":[8.6721497E2,1.0432095E2,7.6289404E2,7.453553E0,9.68674E1,5.4790295E2,2.1499107E2,2.5404606E0,4.9130926E0,4.192919E0,9.2674484E1,6.835716E1,4.795458E2,8.165201E1,1.3333907E2,1.098975E0,1.4414856E0,3.4257321E0,1.4873605E0,1.8694248E0,2.323494E0,7.6627407E0,8.501174E1,2.2670235E1,4.5686928E1,2.4442334E2,2.3512247E2,7.922945E1,2.4225607E0,1.1858474E2,1.4754325E1],"tree_param":{"num_deleted":"0","num_feature":"57","num_nodes":"31","size_leaf_vector":"1"}},{"base_weights":[-1.3722189E-2,-1.6283667E-1,2.0014861E-1,8.0359656E-1,-1.9284777E-1,1.1016425E0,1.4785028E-1,-1.5848558E-2,1.0811635E0,-2.3043433E-1,2.745817E-1,1.9464508E-1,1.2104876E0,3.8711984E-2,4.3137577E-1,6.2558665E-3,3.721557E-2,-1.27403075E-2,-3.5928518E-3,1.2473862E-2,-1.8386975E-2,2.2473928E-2,-1.246994E-2,9.719359E-3,3.895309E-2,2.6380893E-2,-6.3330546E-4,2.9518113E-2,7.319899E-3],"categories":[],"categories_nodes":[],"categories_segments":[],"categories_sizes":[],"default_left":[0,0,0,0,0,0,0,0,0,0,0,0,0,0,0,0,0,0,0,0,0,0,0,0,0,0,0,0,0],"id":11,"left_children":[1,3,5,7,9,11,13,-1,15,17,19,21,23,25,27,-1,-1,-1,-1,-1,-1,-1,-1,-1,-1,-1,-1,-1,-1],"loss_changes":[2.8038067E1,1.51777525E1,1.6866268E1,6.409828E0,8.903444E0,1.7042809E0,1.0582848E1,0E0,1.6044359E0,9.972523E0,5.0052915E0,1.4271411E0,9.3230057E-1,1.2512288E1,9.607424E0,0E0,0E0,0E0,0E0,0E0,0E0,0E0,0E0,0E0,0E0,0E0,0E0,0E0,0E0],"parents":[2147483647,0,0,1,1,2,2,3,3,4,4,5,5,6,6,8,8,9,9,10,10,11,11,12,12,13,13,14,14],"right_children":[2,4,6,8,10,12,14,-1,16,18,20,22,24,26,28,-1,-1,-1,-1,-1,-1,-1,-1,-1,-1,-1,-1,-1,-1],"split_conditions":[3.8439634E-1,1.2826E2,1.3268E2,-5.1135715E-4,1.8465644E0,3.7384027E-1,6.6663384E-1,-1.5848558E-2,-1.3570802E0,3.2552746E-1,1.3412093E0,1.0892614E0,-1.029591E0,-1.9700676E0,9.679057E-1,6.2558665E-3,3.721557E-2,-1.27403075E-2,-3.5928518E-3,1.2473862E-2,-1.8386975E-2,2.2473928E-2,-1.246994E-2,9.719359E-3,3.895309E-2,2.6380893E-2,-6.3330546E-4,2.9518113E-2,7.319899E-3],"split_indices":[0,25,27,8,30,2,35,0,42,0,35,30,37,35,32,0,0,0,0,0,0,0,0,0,0,0,0,0,0],"split_type":[0,0,0,0,0,0,0,0,0,0,0,0,0,0,0,0,0,0,0,0,0,0,0,0,0,0,0,0,0],"sum_hessian":[8.771559E2,5.169605E2,3.6019537E2,1.4793567E1,5.0216696E2,1.8650051E1,3.4154532E2,2.3955326E0,1.2398034E1,4.6526175E2,3.6905228E1,2.2970655E0,1.6352985E1,2.4743571E2,9.410961E1,2.2709327E0,1.0127102E1,1.6784247E2,2.9741928E2,3.2297604E1,4.607623E0,1.0843965E0,1.212669E0,1.8986471E0,1.4454338E1,1.5528054E1,2.3190765E2,2.2755373E1,7.135424E1],"tree_param":{"num_deleted":"0","num_feature":"57","num_nodes":"29","size_leaf_vector":"1"}},{"base_weights":[-6.4818775E-3,5.5579763E-2,-4.9687517E-1,2.3307227E-1,-3.9779495E-2,-1.8498125E-2,-6.133039E-1,-3.294112E-1,3.1432623E-1,6.081609E-2,-2.2659577E-1,-4.5103776E-1,5.7300615E-1,-6.4550006E-1,2.8629914E-1,1.7780414E-2,-1.599053E-2,6.3098203E-3,1.882216E-2,-1.766848E-2,3.1918755E-3,4.4877524E-3,-1.1582428E-2,-2.008902E-2,2.4685148E-2,2.8559605E-2,-1.4727533E-2,3.2901375E-3,-2.0388382E-2,-1.17159635E-2,2.4229039E-2],"categories":[],"categories_nodes":[],"categories_segments":[],"categories_sizes":[],"default_left":[0,1,0,0,0,1,1,0,1,0,0,0,0,0,0,0,0,0,0,0,0,0,0,0,0,0,0,0,0,0,0],"id":12,"left_children":[1,3,5,7,9,11,13,15,17,19,21,23,25,27,29,-1,-1,-1,-1,-1,-1,-1,-1,-1,-1,-1,-1,-1,-1,-1,-1],"loss_changes":[2.653818E1,1.3111545E1,5.4444065E0,1.2475208E1,9.493309E0,5.42786E0,2.4656868E0,6.8222637E0,7.585888E0,9.796292E0,1.066279E1,3.9566898E0,4.0859995E0,2.04101E0,1.51997E0,0E0,0E0,0E0,0E0,0E0,0E0,0E0,0E0,0E0,0E0,0E0,0E0,0E0,0E0,0E0,0E0],"parents":[2147483647,0,0,1,1,2,2,3,3,4,4,5,5,6,6,7,7,8,8,9,9,10,10,11,11,12,12,13,13,14,14],"right_children":[2,4,6,8,10,12,14,16,18,20,22,24,26,28,30,-1,-1,-1,-1,-1,-1,-1,-1,-1,-1,-1,-1,-1,-1,-1,-1],"split_conditions":[3.5516724E-1,-1.0469253E0,-4.147497E-3,3.587244E-1,1.18975E-3,4.5864314E-1,5E0,-1.0940284E-2,4.3191567E-1,-8.793657E-3,-1.2271777E0,5.8392607E-2,1.676E2,-8.8502035E-2,6.2048844E5,1.7780414E-2,-1.599053E-2,6.3098203E-3,1.882216E-2,-1.766848E-2,3.1918755E-3,4.4877524E-3,-1.1582428E-2,-2.008902E-2,2.4685148E-2,2.8559605E-2,-1.4727533E-2,3.2901375E-3,-2.0388382E-2,-1.17159635E-2,2.4229039E-2],"split_indices":[1,42,8,2,8,37,42,49,37,8,45,49,24,49,19,0,0,0,0,0,0,0,0,0,0,0,0,0,0,0,0],"split_type":[0,0,0,0,0,0,0,0,0,0,0,0,0,0,0,0,0,0,0,0,0,0,0,0,0,0,0,0,0,0,0],"sum_hessian":[8.7006635E2,7.7311194E2,9.695439E1,2.69691E2,5.0342093E2,1.9204931E1,7.774946E1,3.3655502E1,2.360355E2,3.276595E2,1.7576144E2,1.1230247E1,7.9746842E0,7.533571E1,2.4137504E0,5.7416835E0,2.791382E1,1.7843472E2,5.760079E1,2.0696589E1,3.069629E2,5.2347702E1,1.2341374E2,9.990259E0,1.2399877E0,5.957701E0,2.016983E0,3.160266E0,7.2175446E1,1.159419E0,1.2543315E0],"tree_param":{"num_deleted":"0","num_feature":"57","num_nodes":"31","size_leaf_vector":"1"}},{"base_weights":[-2.5518675E-4,4.8188323E-1,-1.1060835E-1,1.0469095E0,3.261098E-1,1.9443367E-1,-2.18674E-1,-1.9325148E-1,1.2242225E0,8.2492715E-1,2.0799813E-1,-1.4510167E-1,3.4984612E-1,-8.2342E-2,-2.8015402E-1,-1.7371653E-2,2.0946305E-2,1.1044723E-2,3.8879335E-2,3.5804875E-2,-5.4559456E-3,-1.2561069E-2,7.87294E-3,3.0704352E-4,-1.4206473E-2,7.7580507E-3,2.5307942E-2,1.1838078E-2,-4.676704E-3,9.247771E-4,-9.386925E-3],"categories":[],"categories_nodes":[],"categories_segments":[],"categories_sizes":[],"default_left":[0,0,0,0,0,0,0,0,0,0,0,0,0,0,0,0,0,0,0,0,0,0,0,0,0,0,0,0,0,0,0],"id":13,"left_children":[1,3,5,7,9,11,13,15,17,19,21,23,25,27,29,-1,-1,-1,-1,-1,-1,-1,-1,-1,-1,-1,-1,-1,-1,-1,-1],"loss_changes":[4.7098827E1,1.41703E1,2.3788454E1,7.9723663E0,7.52855E0,1.0022146E1,4.439186E0,2.2148337E0,1.4218903E0,9.3769E0,3.7604036E0,3.0681734E0,5.6352205E0,5.91541E0,3.7415638E0,0E0,0E0,0E0,0E0,0E0,0E0,0E0,0E0,0E0,0E0,0E0,0E0,0E0,0E0,0E0,0E0],"parents":[2147483647,0,0,1,1,2,2,3,3,4,4,5,5,6,6,7,7,8,8,9,9,10,10,11,11,12,12,13,13,14,14],"right_children":[2,4,6,8,10,12,14,16,18,20,22,24,26,28,30,-1,-1,-1,-1,-1,-1,-1,-1,-1,-1,-1,-1,-1,-1,-1,-1],"split_conditions":[3.4736952E-1,2.7972162E-1,3.8521257E-1,1.535853E2,-1.8264176E-1,5.901926E5,4.0233326E-1,1.557E2,2.0480495E1,8E-1,-5.4669714E-1,3.7190088E-3,7.154326E1,2.1525E2,-1.1782756E0,-1.7371653E-2,2.0946305E-2,1.1044723E-2,3.8879335E-2,3.5804875E-2,-5.4559456E-3,-1.2561069E-2,7.87294E-3,3.0704352E-4,-1.4206473E-2,7.7580507E-3,2.5307942E-2,1.1838078E-2,-4.676704E-3,9.247771E-4,-9.386925E-3],"split_indices":[2,2,54,14,48,19,54,27,33,4,36,49,33,20,37,0,0,0,0,0,0,0,0,0,0,0,0,0,0,0,0],"split_type":[0,0,0,0,0,0,0,0,0,0,0,0,0,0,0,0,0,0,0,0,0,0,0,0,0,0,0,0,0,0,0],"sum_hessian":[8.83223E2,1.6387563E2,7.193474E2,3.417917E1,1.2969646E2,1.8796643E2,5.31381E2,4.2642574E0,2.9914911E1,2.3684813E1,1.06011635E2,5.9041847E1,1.2892459E2,1.658804E2,3.6550058E2,3.22081E0,1.0434477E0,2.787683E0,2.712723E1,1.7202015E1,6.4827976E0,7.937188E0,9.807445E1,4.074207E1,1.829978E1,1.1010174E2,1.8822844E1,2.1579103E1,1.443013E2,3.4823578E1,3.30677E2],"tree_param":{"num_deleted":"0","num_feature":"57","num_nodes":"31","size_leaf_vector":"1"}},{"base_weights":[8.392983E-4,1.5269302E-1,-2.2762083E-1,4.0188685E-2,3.5253546E-1,-3.157636E-1,1.8463305E-1,-1.8086722E-1,1.8035606E-1,7.102058E-1,2.2574203E-1,3.224621E-2,-3.3552852E-1,3.1737503E-1,-1.9749956E-2,-1.3685677E-2,1.4759889E-3,8.0188684E-4,1.2898155E-2,2.9115973E-2,-5.3878466E-4,1.4280626E-2,-3.4210659E-3,-1.25303995E-2,-2.0018737E-3,-1.22880535E-2,1.3757228E-2],"categories":[],"categories_nodes":[],"categories_segments":[],"categories_sizes":[],"default_left":[0,0,0,0,0,0,0,0,0,0,0,0,0,0,0,0,0,0,0,0,0,0,0,0,0,0,0],"id":14,"left_children":[1,3,5,7,9,11,13,15,17,19,21,-1,23,25,-1,-1,-1,-1,-1,-1,-1,-1,-1,-1,-1,-1,-1],"loss_changes":[3.0480335E1,1.1851891E1,1.2805664E1,1.0530423E1,8.454914E0,8.3146E0,7.194022E0,8.381588E0,7.957501E0,9.353895E0,1.2105862E1,0E0,6.28965E0,5.793101E0,0E0,0E0,0E0,0E0,0E0,0E0,0E0,0E0,0E0,0E0,0E0,0E0,0E0],"parents":[2147483647,0,0,1,1,2,2,3,3,4,4,5,5,6,6,7,7,8,8,9,9,10,10,12,12,13,13],"right_children":[2,4,6,8,10,12,14,16,18,20,22,-1,24,26,-1,-1,-1,-1,-1,-1,-1,-1,-1,-1,-1,-1,-1],"split_conditions":[2.617032E-1,-1.1023505E-4,4.1395505E-3,3.918788E-1,1.4068E2,-6.0194554E0,1.6634644E2,-1.6166878E-1,2.9307514E-1,2.6347044E0,4.1873798E-1,3.224621E-2,3.510356E-1,4.21E0,-1.9749956E-2,-1.3685677E-2,1.4759889E-3,8.0188684E-4,1.2898155E-2,2.9115973E-2,-5.3878466E-4,1.4280626E-2,-3.4210659E-3,-1.25303995E-2,-2.0018737E-3,-1.22880535E-2,1.3757228E-2],"split_indices":[1,7,8,0,11,34,31,34,35,42,45,0,0,23,0,0,0,0,0,0,0,0,0,0,0,0,0],"split_type":[0,0,0,0,0,0,0,0,0,0,0,0,0,0,0,0,0,0,0,0,0,0,0,0,0,0,0],"sum_hessian":[8.765834E2,5.2677576E2,3.4980765E2,3.378046E2,1.8897115E2,2.8838333E2,6.1424316E1,1.3096742E2,2.0683717E2,4.8253117E1,1.4071803E2,3.2932215E0,2.850901E2,5.36064E1,7.817918E0,5.9172535E1,7.179489E1,1.287155E2,7.812168E1,3.530011E1,1.2953005E1,8.080005E1,5.9917988E1,2.1793126E2,6.715884E1,8.40933E0,4.519707E1],"tree_param":{"num_deleted":"0","num_feature":"57","num_nodes":"27","size_leaf_vector":"1"}},{"base_weights":[4.1793915E-3,-3.326431E-1,8.686741E-2,-6.094567E-1,-1.287558E-1,2.0273618E-1,-7.0791066E-2,-1.656587E-1,-2.153314E-2,-3.4067E-1,2.4176346E-1,1.5184665E-1,9.1480225E-1,3.181146E-1,-1.9046228E-1,1.4177296E-2,-1.975945E-2,-2.1327848E-2,-1.0696876E-4,2.3975655E-2,5.3750227E-5,6.408174E-3,-1.27611505E-2,-1.4167571E-2,3.0762244E-2,-6.7197424E-3,1.6890131E-2,-2.1287762E-3,-1.4499288E-2],"categories":[],"categories_nodes":[],"categories_segments":[],"categories_sizes":[],"default_left":[0,1,0,0,0,0,0,0,0,0,0,0,0,0,1,0,0,0,0,0,0,0,0,0,0,0,0,0,0],"id":15,"left_children":[1,3,5,7,9,11,13,15,-1,17,19,21,23,25,27,-1,-1,-1,-1,-1,-1,-1,-1,-1,-1,-1,-1,-1,-1],"loss_changes":[2.4454437E1,9.689354E0,1.2891844E1,3.396864E0,8.0072565E0,1.4594036E1,1.3992924E1,5.2349815E0,0E0,8.063402E0,4.9890885E0,1.366066E1,4.6141853E0,9.527252E0,7.998803E0,0E0,0E0,0E0,0E0,0E0,0E0,0E0,0E0,0E0,0E0,0E0,0E0,0E0,0E0],"parents":[2147483647,0,0,1,1,2,2,3,3,4,4,5,5,6,6,7,7,9,9,10,10,11,11,12,12,13,13,14,14],"right_children":[2,4,6,8,10,12,14,16,-1,18,20,22,24,26,28,-1,-1,-1,-1,-1,-1,-1,-1,-1,-1,-1,-1,-1,-1],"split_conditions":[3.5184613E-1,4.3191567E-1,-2.8010292E-4,-4.4556735E-3,9.160254E-1,4.3873426E-1,3.6584768E-1,5.751776E-1,-2.153314E-2,-2.4234713E-3,-1.9841776E-3,5.2950806E-3,1.308E2,1.541E2,3.6190447E-1,1.4177296E-2,-1.975945E-2,-2.1327848E-2,-1.0696876E-4,2.3975655E-2,5.3750227E-5,6.408174E-3,-1.27611505E-2,-1.4167571E-2,3.0762244E-2,-6.7197424E-3,1.6890131E-2,-2.1287762E-3,-1.4499288E-2],"split_indices":[2,42,7,8,43,2,2,30,0,49,7,8,25,10,42,0,0,0,0,0,0,0,0,0,0,0,0,0,0],"split_type":[0,0,0,0,0,0,0,0,0,0,0,0,0,0,0,0,0,0,0,0,0,0,0,0,0,0,0,0,0],"sum_hessian":[8.760019E2,1.7206935E2,7.039325E2,7.21388E1,9.993055E1,4.0557513E2,2.983574E2,1.4648572E1,5.749023E1,6.3622795E1,3.630776E1,3.7965536E2,2.5919748E1,6.98151E1,2.2854228E2,6.401917E0,8.246655E0,2.979193E1,3.3830864E1,1.0225299E1,2.608246E1,3.4352957E2,3.6125813E1,1.6727632E0,2.4246984E1,2.1750944E1,4.8064156E1,1.6319084E2,6.535145E1],"tree_param":{"num_deleted":"0","num_feature":"57","num_nodes":"29","size_leaf_vector":"1"}},{"base_weights":[4.8943246E-3,-2.0079535E-1,4.9413586E-1,-4.1922625E-2,-3.0472222E-1,9.772989E-1,3.0004162E-1,-7.7233955E-2,8.2951105E-1,-1.0674941E-1,-3.7503004E-1,1.2217275E0,7.289519E-1,3.8116805E-2,2.4543756E-1,2.5068635E-2,-3.004893E-3,3.6974955E-2,3.2837994E-3,-1.7228132E-2,-1.0836836E-3,4.5845127E-3,-1.1738814E-2,3.8518384E-2,-7.1610897E-3,2.833774E-2,3.5395303E-3,1.1526386E-3,1.270863E-2],"categories":[],"categories_nodes":[],"categories_segments":[],"categories_sizes":[],"default_left":[0,0,0,0,0,0,0,0,0,0,0,0,0,0,0,0,0,0,0,0,0,0,0,0,0,0,0,0,0],"id":16,"left_children":[1,3,5,7,9,11,13,15,17,19,21,23,25,-1,27,-1,-1,-1,-1,-1,-1,-1,-1,-1,-1,-1,-1,-1,-1],"loss_changes":[8.760889E1,1.0107288E1,2.3871635E1,7.55835E0,5.1152496E0,3.5653229E0,9.506603E0,5.001993E0,2.6419148E0,3.230413E0,2.4027138E0,3.5335732E0,5.0122337E0,0E0,6.499588E0,0E0,0E0,0E0,0E0,0E0,0E0,0E0,0E0,0E0,0E0,0E0,0E0,0E0,0E0],"parents":[2147483647,0,0,1,1,2,2,3,3,4,4,5,5,6,6,7,7,8,8,9,9,10,10,11,11,12,12,14,14],"right_children":[2,4,6,8,10,12,14,16,18,20,22,24,26,-1,28,-1,-1,-1,-1,-1,-1,-1,-1,-1,-1,-1,-1,-1,-1],"split_conditions":[2.8123617E-1,4.01467E-1,2.8483942E-1,2.3252456E0,8.985958E-1,-2.5626516E-4,-6.261424E-1,-4.9747486E-2,2.8417327E0,1.3252E2,-4.6309233E-1,2.1937263E0,7.142866E1,3.8116805E-2,-1.7766531E-1,2.5068635E-2,-3.004893E-3,3.6974955E-2,3.2837994E-3,-1.7228132E-2,-1.0836836E-3,4.5845127E-3,-1.1738814E-2,3.8518384E-2,-7.1610897E-3,2.833774E-2,3.5395303E-3,1.1526386E-3,1.270863E-2],"split_indices":[1,54,0,35,32,7,44,49,35,27,48,30,33,0,34,0,0,0,0,0,0,0,0,0,0,0,0,0,0],"split_type":[0,0,0,0,0,0,0,0,0,0,0,0,0,0,0,0,0,0,0,0,0,0,0,0,0,0,0,0,0],"sum_hessian":[8.6860144E2,6.119229E2,2.566785E2,2.4254637E2,3.6937656E2,7.24047E1,1.842738E2,2.3397678E2,8.569594E0,9.746181E1,2.7191473E2,3.4514915E1,3.7889782E1,8.629351E0,1.7564445E2,4.864577E0,2.291122E2,5.0382047E0,3.5313895E0,1.1855011E1,8.56068E1,7.8767138E0,2.6403802E2,3.3220474E1,1.2944443E0,2.7601753E1,1.028803E1,8.181091E1,9.383354E1],"tree_param":{"num_deleted":"0","num_feature":"57","num_nodes":"29","size_leaf_vector":"1"}},{"base_weights":[-4.228097E-3,-1.8592983E-1,2.8896716E-1,3.743579E-1,-2.3145258E-1,-1.4326277E-1,3.6056384E-1,6.5783316E-1,-4.584231E-1,-3.737346E-1,-7.664639E-2,1.7305714E-1,-2.1197489E-2,-2.0947E-2,4.5169735E-1,6.6764327E-3,3.499847E-2,1.9456321E-2,-2.0045742E-2,-1.3155404E-2,-1.2561047E-4,-3.931266E-3,2.331644E-2,1.8436538E-2,-1.5351253E-2,2.2406915E-2,-7.4626203E-3,7.2038798E-3,1.9983618E-2],"categories":[],"categories_nodes":[],"categories_segments":[],"categories_sizes":[],"default_left":[0,0,0,0,0,0,0,0,0,0,1,0,0,0,0,0,0,0,0,0,0,0,0,0,0,0,0,0,0],"id":17,"left_children":[1,3,5,7,9,11,13,15,17,19,21,23,-1,25,27,-1,-1,-1,-1,-1,-1,-1,-1,-1,-1,-1,-1,-1,-1],"loss_changes":[4.642322E1,1.38082485E1,1.0369621E1,9.935154E0,1.0944147E1,8.692472E0,9.964352E0,6.573736E0,2.976597E0,6.2061844E0,1.1241711E1,9.868949E0,0E0,1.0009808E1,1.0326511E1,0E0,0E0,0E0,0E0,0E0,0E0,0E0,0E0,0E0,0E0,0E0,0E0,0E0,0E0],"parents":[2147483647,0,0,1,1,2,2,3,3,4,4,5,5,6,6,7,7,8,8,9,9,10,10,11,11,13,13,14,14],"right_children":[2,4,6,8,10,12,14,16,18,20,22,24,-1,26,28,-1,-1,-1,-1,-1,-1,-1,-1,-1,-1,-1,-1,-1,-1],"split_conditions":[3.8784546E-1,1.3091E2,-2.298442E-1,4.67E0,3.4793398E-1,1.9932196E-1,-1.1782756E0,3.3351856E-1,-1.9700676E0,3.6563317E-3,2.5388646E0,4.33E0,-2.1197489E-2,1.3268E2,1.1878273E0,6.6764327E-3,3.499847E-2,1.9456321E-2,-2.0045742E-2,-1.3155404E-2,-1.2561047E-4,-3.931266E-3,2.331644E-2,1.8436538E-2,-1.5351253E-2,2.2406915E-2,-7.4626203E-3,7.2038798E-3,1.9983618E-2],"split_indices":[0,25,48,23,0,1,43,0,35,8,43,23,0,27,32,0,0,0,0,0,0,0,0,0,0,0,0,0,0],"split_type":[0,0,0,0,0,0,0,0,0,0,0,0,0,0,0,0,0,0,0,0,0,0,0,0,0,0,0,0,0],"sum_hessian":[8.6939484E2,5.36979E2,3.3241586E2,3.98077E1,4.971713E2,4.7095978E1,2.853199E2,2.9855192E1,9.952508E0,2.5832822E2,2.388431E2,3.0603855E1,1.6492123E1,5.5162804E1,2.3015707E2,1.686439E1,1.2990803E1,1.2522982E0,8.700211E0,2.1964034E2,3.8687878E1,2.2533453E2,1.3508563E1,1.8669477E1,1.1934378E1,1.2100003E1,4.30628E1,1.169169E2,1.1324017E2],"tree_param":{"num_deleted":"0","num_feature":"57","num_nodes":"29","size_leaf_vector":"1"}},{"base_weights":[-4.8560163E-4,5.9801947E-2,-5.113936E-1,1.6057986E-1,-8.60019E-2,-5.7893777E-1,-4.4176422E-2,1.17006995E-1,6.3326323E-1,-1.9336973E-1,2.5232536E-1,1.718341E-2,-6.092441E-1,5.073693E-1,-1.8464394E-2,8.37741E-3,-1.143731E-3,-1.7412478E-2,2.277011E-2,1.5025175E-2,-7.1924757E-3,3.6688792E-3,2.5290154E-2,-1.9201582E-2,8.570429E-3,-1.3483419E-2,2.6454693E-2],"categories":[],"categories_nodes":[],"categories_segments":[],"categories_sizes":[],"default_left":[0,0,0,0,0,0,0,0,0,0,0,0,1,1,0,0,0,0,0,0,0,0,0,0,0,0,0],"id":18,"left_children":[1,3,5,7,9,11,13,15,17,19,21,-1,23,25,-1,-1,-1,-1,-1,-1,-1,-1,-1,-1,-1,-1,-1],"loss_changes":[2.7889723E1,1.191444E1,2.990364E0,9.796567E0,1.209651E1,3.260519E0,4.4569836E0,1.1085417E1,6.5788536E0,8.24434E0,6.0667667E0,0E0,2.4371204E0,2.9905505E0,0E0,0E0,0E0,0E0,0E0,0E0,0E0,0E0,0E0,0E0,0E0,0E0,0E0],"parents":[2147483647,0,0,1,1,2,2,3,3,4,4,5,5,6,6,7,7,8,8,9,9,10,10,12,12,13,13],"right_children":[2,4,6,8,10,12,14,16,18,20,22,-1,24,26,-1,-1,-1,-1,-1,-1,-1,-1,-1,-1,-1,-1,-1],"split_conditions":[3.5516724E-1,-2.8010292E-4,1.6450902E0,4.4585493E-1,1.2926068E0,3.763863E-1,1.8166088E0,1.0549991E0,7.7381015E-1,3.5277355E-1,4.3252116E-1,1.718341E-2,5E0,-3.6190447E-1,-1.8464394E-2,8.37741E-3,-1.143731E-3,-1.7412478E-2,2.277011E-2,1.5025175E-2,-7.1924757E-3,3.6688792E-3,2.5290154E-2,-1.9201582E-2,8.570429E-3,-1.3483419E-2,2.6454693E-2],"split_indices":[1,7,45,54,45,39,45,32,32,54,54,0,42,42,0,0,0,0,0,0,0,0,0,0,0,0,0],"split_type":[0,0,0,0,0,0,0,0,0,0,0,0,0,0,0,0,0,0,0,0,0,0,0,0,0,0,0],"sum_hessian":[9.0347675E2,8.089079E2,9.4568825E1,4.782475E2,3.306604E2,8.241519E1,1.2153629E1,4.390249E2,3.922262E1,2.5132964E2,7.9330765E1,1.654135E0,8.0761055E1,6.2406816E0,5.9129477E0,2.1420464E2,2.2482025E2,3.3426387E0,3.5879982E1,1.5125909E1,2.3620374E2,6.6007286E1,1.3323481E1,7.8348625E1,2.4124312E0,1.699019E0,4.5416627E0],"tree_param":{"num_deleted":"0","num_feature":"57","num_nodes":"27","size_leaf_vector":"1"}},{"base_weights":[-7.0509304E-5,-1.0538796E-1,8.4675056E-1,-2.7646875E-1,1.1157468E-1,3.3215076E-1,9.5734096E-1,-3.860857E-1,-1.7571132E-1,2.1455957E-1,-1.202711E-1,-2.0043725E-1,7.571355E-1,1.0023885E0,-1.3736416E-1,-9.454091E-4,-1.2538106E-2,1.9213419E-3,-7.989529E-3,3.8272087E-3,1.611501E-2,2.0256486E-2,-5.651855E-3,2.0153498E-2,-1.1985559E-2,-1.2263821E-2,2.804577E-2,3.2764714E-2,1.0798716E-2,3.0166232E-3,-1.2129191E-2],"categories":[],"categories_nodes":[],"categories_segments":[],"categories_sizes":[],"default_left":[0,0,0,0,0,1,0,0,0,0,0,0,0,0,0,0,0,0,0,0,0,0,0,0,0,0,0,0,0,0,0],"id":19,"left_children":[1,3,5,7,9,11,13,15,17,19,21,23,25,27,29,-1,-1,-1,-1,-1,-1,-1,-1,-1,-1,-1,-1,-1,-1,-1,-1],"loss_changes":[7.837296E1,2.9041113E1,5.2137604E0,4.761753E0,8.270149E0,4.3900986E0,4.0569763E0,2.3426113E0,5.0065084E0,6.6509104E0,5.917202E0,1.8487637E0,2.5836186E0,4.016083E0,2.9601115E-1,0E0,0E0,0E0,0E0,0E0,0E0,0E0,0E0,0E0,0E0,0E0,0E0,0E0,0E0,0E0,0E0],"parents":[2147483647,0,0,1,1,2,2,3,3,4,4,5,5,6,6,7,7,8,8,9,9,10,10,11,11,12,12,13,13,14,14],"right_children":[2,4,6,8,10,12,14,16,18,20,22,24,26,28,30,-1,-1,-1,-1,-1,-1,-1,-1,-1,-1,-1,-1,-1,-1,-1,-1],"split_conditions":[3.5516724E-1,2.493906E-1,-4.147497E-3,1.5182E2,1.0813544E0,-1.0469253E0,2.3945928E0,-1.7640243E0,3.9091685E-1,8.080005E-1,3.89E0,2.072867E-1,3.604555E-1,4.526943E-3,1.6106E2,-9.454091E-4,-1.2538106E-2,1.9213419E-3,-7.989529E-3,3.8272087E-3,1.611501E-2,2.0256486E-2,-5.651855E-3,2.0153498E-2,-1.1985559E-2,-1.2263821E-2,2.804577E-2,3.2764714E-2,1.0798716E-2,3.0166232E-3,-1.2129191E-2],"split_indices":[1,1,8,28,30,43,30,37,0,30,23,0,1,8,24,0,0,0,0,0,0,0,0,0,0,0,0,0,0,0,0],"split_type":[0,0,0,0,0,0,0,0,0,0,0,0,0,0,0,0,0,0,0,0,0,0,0,0,0,0,0,0,0,0,0],"sum_hessian":[8.767675E2,7.805657E2,9.620186E1,4.3627612E2,3.4428955E2,1.7725397E1,7.8476456E1,2.0759532E2,2.2868079E2,2.38447E2,1.0584256E2,8.101287E0,9.62411E0,7.545576E1,3.020701E0,1.7275156E1,1.9032018E2,6.279919E1,1.6588159E2,1.8890675E2,4.954024E1,7.646186E0,9.819637E1,1.0642319E0,7.037055E0,1.1009985E0,8.523112E0,6.5590576E1,9.865183E0,1.9267515E0,1.0939494E0],"tree_param":{"num_deleted":"0","num_feature":"57","num_nodes":"31","size_leaf_vector":"1"}},{"base_weights":[6.8936693E-3,-1.585493E-1,2.3363139E-1,-2.3059103E-1,2.593359E-1,1.6066247E-1,5.696468E-1,3.6811873E-1,-2.6190594E-1,3.7677398E-1,-3.2844076E-1,7.5536525E-1,1.1065202E-1,-1.836707E-2,6.510523E-1,1.898488E-2,-1.8119456E-2,-1.3057651E-2,-4.721558E-3,-1.8723842E-2,1.4164251E-2,1.9563945E-2,-2.017635E-2,3.0688927E-2,-7.1142553E-3,1.2589795E-2,1.489857E-3,2.1908121E-2,-1.7750584E-2],"categories":[],"categories_nodes":[],"categories_segments":[],"categories_sizes":[],"default_left":[0,0,0,0,0,0,0,1,0,0,0,0,0,0,1,0,0,0,0,0,0,0,0,0,0,0,0,0,0],"id":20,"left_children":[1,3,5,7,9,11,13,15,17,19,21,23,25,-1,27,-1,-1,-1,-1,-1,-1,-1,-1,-1,-1,-1,-1,-1,-1],"loss_changes":[3.337817E1,1.5547613E1,9.111605E0,8.333355E0,5.3780713E0,9.129577E0,6.8039474E0,6.108391E0,7.5065937E0,6.3950434E0,4.8959923E0,6.579054E0,5.3865447E0,0E0,6.611662E0,0E0,0E0,0E0,0E0,0E0,0E0,0E0,0E0,0E0,0E0,0E0,0E0,0E0,0E0],"parents":[2147483647,0,0,1,1,2,2,3,3,4,4,5,5,6,6,7,7,8,8,9,9,10,10,11,11,12,12,14,14],"right_children":[2,4,6,8,10,12,14,16,18,20,22,24,26,-1,28,-1,-1,-1,-1,-1,-1,-1,-1,-1,-1,-1,-1,-1,-1],"split_conditions":[3.8439634E-1,5.2950806E-3,1.0892402E0,2.149759E-1,8.7241185E-1,1.3268E2,1.4379E2,-5.6216156E-1,3.24589E-1,5.85144E-1,5.3760856E-1,5.147907E6,-1.2472894E0,-1.836707E-2,1.435136E0,1.898488E-2,-1.8119456E-2,-1.3057651E-2,-4.721558E-3,-1.8723842E-2,1.4164251E-2,1.9563945E-2,-2.017635E-2,3.0688927E-2,-7.1142553E-3,1.2589795E-2,1.489857E-3,2.1908121E-2,-1.7750584E-2],"split_indices":[0,8,34,30,35,27,10,37,0,30,30,13,35,0,37,0,0,0,0,0,0,0,0,0,0,0,0,0,0],"split_type":[0,0,0,0,0,0,0,0,0,0,0,0,0,0,0,0,0,0,0,0,0,0,0,0,0,0,0,0,0],"sum_hessian":[8.8780853E2,5.1345685E2,3.7435162E2,4.3833746E2,7.511942E1,3.0877612E2,6.557552E1,2.1252657E1,4.170848E2,6.2909134E1,1.2210294E1,2.2857723E1,2.859184E2,3.805451E0,6.177007E1,1.6978333E1,4.274325E0,1.5569612E2,2.6138867E2,4.9903235E0,5.7918808E1,2.9392736E0,9.27102E0,1.7979433E1,4.8782883E0,4.6161144E1,2.3975725E2,5.845615E1,3.31392E0],"tree_param":{"num_deleted":"0","num_feature":"57","num_nodes":"29","size_leaf_vector":"1"}},{"base_weights":[-9.68872E-3,5.2143704E-2,-5.294809E-1,4.6590315E-3,4.9871412E-1,-5.5652636E-1,2.1491397E-2,7.3223245E-1,-1.7310519E-2,-1.8589776E-2,5.7963187E-1,-1.3682355E-1,-6.62856E-1,-1.7766029E-2,3.1543788E-2,1.04323146E-4,-1.7976575E-2,-1.840554E-2,1.994776E-2,1.6881032E-2,-1.424222E-2,2.0421023E-2,-2.099165E-2],"categories":[],"categories_nodes":[],"categories_segments":[],"categories_sizes":[],"default_left":[0,0,0,0,0,0,0,1,0,0,0,0,0,0,0,0,0,0,0,0,0,0,0],"id":21,"left_children":[1,3,5,7,9,11,-1,13,15,-1,17,19,21,-1,-1,-1,-1,-1,-1,-1,-1,-1,-1],"loss_changes":[2.813799E1,1.6591888E1,3.5346928E0,1.1335248E1,7.164791E0,3.9996223E0,0E0,9.4105625E0,8.331424E0,0E0,7.5974274E0,4.944412E0,4.0855827E0,0E0,0E0,0E0,0E0,0E0,0E0,0E0,0E0,0E0,0E0],"parents":[2147483647,0,0,1,1,2,2,3,3,4,4,5,5,7,7,8,8,10,10,11,11,12,12],"right_children":[2,4,6,8,10,12,-1,14,16,-1,18,20,22,-1,-1,-1,-1,-1,-1,-1,-1,-1,-1],"split_conditions":[3.5516724E-1,1.8864449E0,9.2156715E1,-4.9963766E-3,-6.7498064E-1,-4.147497E-3,2.1491397E-2,-2.2845784E-1,1.1559759E7,-1.8589776E-2,1.2677E2,5.535601E-1,-3.2520196E0,-1.7766029E-2,3.1543788E-2,1.04323146E-4,-1.7976575E-2,-1.840554E-2,1.994776E-2,1.6881032E-2,-1.424222E-2,2.0421023E-2,-2.099165E-2],"split_indices":[1,45,33,7,48,8,0,37,13,0,28,30,45,0,0,0,0,0,0,0,0,0,0],"split_type":[0,0,0,0,0,0,0,0,0,0,0,0,0,0,0,0,0,0,0,0,0,0,0],"sum_hessian":[8.736227E2,7.8155206E2,9.207066E1,7.0734875E2,7.420329E1,9.065598E1,1.4146855E0,1.9785217E1,6.8756354E2,4.5573773E0,6.964591E1,1.8786993E1,7.186899E1,3.676552E0,1.6108665E1,6.648081E2,2.2755413E1,4.233365E0,6.541255E1,5.902657E0,1.2884336E1,1.4529339E0,7.041605E1],"tree_param":{"num_deleted":"0","num_feature":"57","num_nodes":"23","size_leaf_vector":"1"}},{"base_weights":[-1.48747E-2,-2.2619192E-1,3.4655237E-1,-3.4004894E-1,-1.1876127E-1,7.701528E-1,2.0709795E-1,-3.868364E-1,-9.802521E-2,-1.5790038E-1,5.923727E-1,1.9537537E-1,9.095589E-1,1.6893518E-1,1.0135611E0,-2.8951059E-3,-1.2740594E-2,-1.5043276E-2,3.1315964E-3,-3.080836E-4,-8.540756E-3,2.7928375E-2,-1.142234E-2,1.8610895E-2,-9.5499195E-3,3.2173768E-2,1.49023915E-2,-1.1498602E-3,9.1470145E-3,-8.333928E-3,3.7289552E-2],"categories":[],"categories_nodes":[],"categories_segments":[],"categories_sizes":[],"default_left":[0,0,0,0,0,0,0,0,0,1,0,0,0,0,0,0,0,0,0,0,0,0,0,0,0,0,0,0,0,0,0],"id":22,"left_children":[1,3,5,7,9,11,13,15,17,19,21,23,25,27,29,-1,-1,-1,-1,-1,-1,-1,-1,-1,-1,-1,-1,-1,-1,-1,-1],"loss_changes":[6.765629E1,6.7966423E0,1.9148495E1,3.0288334E0,8.140994E0,6.279331E0,7.4388247E0,2.4492874E0,3.7443008E0,5.141601E0,5.3932095E0,3.9096408E0,3.8101692E0,6.6987715E0,3.596013E0,0E0,0E0,0E0,0E0,0E0,0E0,0E0,0E0,0E0,0E0,0E0,0E0,0E0,0E0,0E0,0E0],"parents":[2147483647,0,0,1,1,2,2,3,3,4,4,5,5,6,6,7,7,8,8,9,9,10,10,11,11,12,12,13,13,14,14],"right_children":[2,4,6,8,10,12,14,16,18,20,22,24,26,28,30,-1,-1,-1,-1,-1,-1,-1,-1,-1,-1,-1,-1,-1,-1,-1,-1],"split_conditions":[2.686759E-1,2.1848163E-1,2.8483942E-1,2.8330788E-3,1.869985E0,-3.4838752E-3,1.0664694E7,1.035188E6,1.3977E2,-1.6873183E0,3.96101E-1,3.4972212E0,2.7079627E-1,5.9502156E5,-7.637293E-3,-2.8951059E-3,-1.2740594E-2,-1.5043276E-2,3.1315964E-3,-3.080836E-4,-8.540756E-3,2.7928375E-2,-1.142234E-2,1.8610895E-2,-9.5499195E-3,3.2173768E-2,1.49023915E-2,-1.1498602E-3,9.1470145E-3,-8.333928E-3,3.7289552E-2],"split_indices":[1,1,0,8,35,8,13,13,11,37,0,43,48,19,8,0,0,0,0,0,0,0,0,0,0,0,0,0,0,0,0],"split_type":[0,0,0,0,0,0,0,0,0,0,0,0,0,0,0,0,0,0,0,0,0,0,0,0,0,0,0,0,0,0,0],"sum_hessian":[8.838082E2,5.579583E2,3.2584988E2,2.698262E2,2.8813214E2,7.958462E1,2.4626527E2,2.2561287E2,4.4213318E1,2.7383868E2,1.4293462E1,1.6003391E1,6.3581226E1,2.3629309E2,9.972185E0,2.6429813E1,1.9918306E2,1.4278391E1,2.9934927E1,1.2702124E2,1.4681743E2,1.06361885E1,3.6572728E0,8.644332E0,7.3590593E0,4.444488E1,1.9136345E1,9.388859E1,1.424045E2,1.4725873E0,8.499598E0],"tree_param":{"num_deleted":"0","num_feature":"57","num_nodes":"31","size_leaf_vector":"1"}},{"base_weights":[1.3066156E-2,-8.5820936E-2,3.0466968E-1,-1.7520872E-1,2.2070915E-1,4.5073873E-1,-6.350482E-2,3.9482248E-1,-2.0438373E-1,3.229573E-1,-1.8727069E-1,1.1199417E0,3.777805E-1,1.317059E-1,-2.1270227E-2,-5.728671E-3,2.1730859E-2,-1.0715697E-2,-2.4584327E-3,6.6227545E-3,2.3198938E-2,-2.0885667E-2,8.16521E-3,9.496311E-3,3.627289E-2,1.769248E-2,2.4388684E-3,-5.282203E-3,1.5848737E-2],"categories":[],"categories_nodes":[],"categories_segments":[],"categories_sizes":[],"default_left":[0,0,0,0,0,0,0,0,0,1,0,0,0,0,0,0,0,0,0,0,0,0,0,0,0,0,0,0,0],"id":23,"left_children":[1,3,5,7,9,11,13,15,17,19,21,23,25,27,-1,-1,-1,-1,-1,-1,-1,-1,-1,-1,-1,-1,-1,-1,-1],"loss_changes":[2.598616E1,1.8480743E1,1.2301096E1,8.756311E0,6.4180145E0,7.559883E0,8.371741E0,5.1072116E0,9.2676525E0,5.4547977E0,7.47861E0,7.320957E-1,9.312357E0,6.35295E0,0E0,0E0,0E0,0E0,0E0,0E0,0E0,0E0,0E0,0E0,0E0,0E0,0E0,0E0,0E0],"parents":[2147483647,0,0,1,1,2,2,3,3,4,4,5,5,6,6,7,7,8,8,9,9,10,10,11,11,12,12,13,13],"right_children":[2,4,6,8,10,12,14,16,18,20,22,24,26,28,-1,-1,-1,-1,-1,-1,-1,-1,-1,-1,-1,-1,-1,-1,-1],"split_conditions":[4.061629E-1,3.6563317E-3,1.3783943E-3,-1.6513883E0,1.6133E2,3.8E0,4.025157E-1,-1.2518694E-3,3.4676176E-1,1.6873183E0,4.44E0,3.6256933E-1,6.058839E5,4.269649E-1,-2.1270227E-2,-5.728671E-3,2.1730859E-2,-1.0715697E-2,-2.4584327E-3,6.6227545E-3,2.3198938E-2,-2.0885667E-2,8.16521E-3,9.496311E-3,3.627289E-2,1.769248E-2,2.4388684E-3,-5.282203E-3,1.5848737E-2],"split_indices":[0,8,8,37,27,23,2,8,0,43,23,2,19,0,0,0,0,0,0,0,0,0,0,0,0,0,0,0,0],"split_type":[0,0,0,0,0,0,0,0,0,0,0,0,0,0,0,0,0,0,0,0,0,0,0,0,0,0,0,0,0],"sum_hessian":[8.9926953E2,6.720672E2,2.2720229E2,5.206639E2,1.5140332E2,1.6250574E2,6.469655E1,2.4740606E1,4.9592328E2,1.2122918E2,3.017414E1,1.4564414E1,1.4794133E2,5.028538E1,1.4411167E1,9.058702E0,1.5681904E1,2.1974867E2,2.7617462E2,1.0002095E2,2.1208225E1,1.4071788E1,1.6102352E1,1.9093364E0,1.2655077E1,8.568942E1,6.2251907E1,2.8625734E1,2.1659647E1],"tree_param":{"num_deleted":"0","num_feature":"57","num_nodes":"29","size_leaf_vector":"1"}},{"base_weights":[3.0197645E-2,9.027797E-2,-4.7000778E-1,4.512466E-2,4.84411E-1,-1.03739975E-2,-5.870022E-1,1.118547E-3,2.722156E-1,5.960531E-1,-2.1926892E-1,-4.4218647E-1,5.789318E-1,-2.3715882E-2,-2.0785388E-2,4.2823073E-3,-5.385784E-3,1.9648464E-2,-6.0683507E-3,2.2314876E-2,-2.3898988E-3,-2.0081919E-2,2.7783083E-2,-1.9597895E-2,1.6545981E-2,3.273191E-2,-1.5433098E-2,-1.8088603E-2,1.6373547E-2],"categories":[],"categories_nodes":[],"categories_segments":[],"categories_sizes":[],"default_left":[0,0,0,0,0,0,0,0,0,0,0,0,0,0,0,0,0,0,0,0,0,0,0,0,0,0,0,0,0],"id":24,"left_children":[1,3,5,7,9,11,13,15,17,19,21,23,25,27,-1,-1,-1,-1,-1,-1,-1,-1,-1,-1,-1,-1,-1,-1,-1],"loss_changes":[2.6370846E1,1.3912304E1,5.054352E0,7.031028E0,6.4451942E0,5.3737016E0,4.454712E0,1.51300535E1,2.087322E1,7.013191E0,6.6712084E0,2.9137065E0,5.565955E0,4.583829E0,0E0,0E0,0E0,0E0,0E0,0E0,0E0,0E0,0E0,0E0,0E0,0E0,0E0,0E0,0E0],"parents":[2147483647,0,0,1,1,2,2,3,3,4,4,5,5,6,6,7,7,8,8,9,9,10,10,11,11,12,12,13,13],"right_children":[2,4,6,8,10,12,14,16,18,20,22,24,26,28,-1,-1,-1,-1,-1,-1,-1,-1,-1,-1,-1,-1,-1,-1,-1],"split_conditions":[3.5516724E-1,1.7351105E0,-4.147497E-3,1.658E2,4.102275E-1,-5.361943E-3,-2.1367338E-3,2.4750398E-1,3.6968163E-1,2.5195605E-1,1.5481362E0,3.045E2,9.319312E-1,-6.5192026E-1,-2.0785388E-2,4.2823073E-3,-5.385784E-3,1.9648464E-2,-6.0683507E-3,2.2314876E-2,-2.3898988E-3,-2.0081919E-2,2.7783083E-2,-1.9597895E-2,1.6545981E-2,3.273191E-2,-1.5433098E-2,-1.8088603E-2,1.6373547E-2],"split_indices":[1,45,8,12,0,8,7,1,2,34,34,20,32,43,0,0,0,0,0,0,0,0,0,0,0,0,0,0,0],"split_type":[0,0,0,0,0,0,0,0,0,0,0,0,0,0,0,0,0,0,0,0,0,0,0,0,0,0,0,0,0],"sum_hessian":[8.750806E2,7.81976E2,9.310464E1,7.025983E2,7.937771E1,1.9111265E1,7.399337E1,5.893901E2,1.13208206E2,6.864052E1,1.0737193E1,1.11735325E1,7.9377317E0,1.1898008E1,6.209536E1,3.3049362E2,2.5889648E2,6.24527E1,5.0755505E1,5.6240234E1,1.2400285E1,8.006299E0,2.7308936E0,9.498547E0,1.6749861E0,5.4071436E0,2.5305884E0,5.869459E0,6.0285497E0],"tree_param":{"num_deleted":"0","num_feature":"57","num_nodes":"29","size_leaf_vector":"1"}},{"base_weights":[-7.291022E-3,-1.0646992E-1,7.3507416E-1,-2.686548E-1,1.02361456E-1,7.983764E-1,-4.9017662E-1,-2.766646E-1,3.017298E-2,-7.36458E-2,2.2819522E-1,3.717097E-1,9.5644456E-1,-1.8110303E-2,-2.8583754E-3,-4.586736E-3,-1.07255895E-2,-3.5543449E-3,2.5443794E-2,1.03420345E-2,5.297437E-4,2.644461E-2,3.2629094E-3,2.9516835E-2,-1.267932E-2],"categories":[],"categories_nodes":[],"categories_segments":[],"categories_sizes":[],"default_left":[0,0,0,1,0,0,0,0,0,0,0,0,0,0,0,0,0,0,0,0,0,0,0,0,0],"id":25,"left_children":[1,3,5,7,9,11,13,15,-1,17,19,21,23,-1,-1,-1,-1,-1,-1,-1,-1,-1,-1,-1,-1],"loss_changes":[6.5904594E1,2.6769276E1,8.573547E0,4.8176003E0,7.6769953E0,6.435356E0,2.025392E-1,4.3757133E0,0E0,6.0903497E0,4.9483023E0,3.771973E0,3.1731339E0,0E0,0E0,0E0,0E0,0E0,0E0,0E0,0E0,0E0,0E0,0E0,0E0],"parents":[2147483647,0,0,1,1,2,2,3,3,4,4,5,5,6,6,7,7,9,9,10,10,11,11,12,12],"right_children":[2,4,6,8,10,12,14,16,-1,18,20,22,24,-1,-1,-1,-1,-1,-1,-1,-1,-1,-1,-1,-1],"split_conditions":[3.5516724E-1,2.493906E-1,2.3945928E0,4.3406987E0,-1.2964532E-1,-2.7616697E-3,-5.972297E-4,3.96101E-1,3.017298E-2,1.8490926E0,1.4000252E0,2.8553328E-1,1.527236E-2,-1.8110303E-2,-2.8583754E-3,-4.586736E-3,-1.07255895E-2,-3.5543449E-3,2.5443794E-2,1.03420345E-2,5.297437E-4,2.644461E-2,3.2629094E-3,2.9516835E-2,-1.267932E-2],"split_indices":[1,1,30,37,43,8,8,0,0,34,32,2,8,0,0,0,0,0,0,0,0,0,0,0,0],"split_type":[0,0,0,0,0,0,0,0,0,0,0,0,0,0,0,0,0,0,0,0,0,0,0,0,0],"sum_hessian":[8.930519E2,7.885582E2,1.04493645E2,4.4368915E2,3.4486908E2,9.969151E1,4.802136E0,4.4169598E2,1.9931856E0,1.4394452E2,2.0092456E2,2.785507E1,7.183644E1,3.3193939E0,1.4827421E0,1.7567001E2,2.6602594E2,1.3809924E2,5.8452845E0,1.2892363E2,7.200093E1,8.67819E0,1.917688E1,7.0715454E1,1.1209896E0],"tree_param":{"num_deleted":"0","num_feature":"57","num_nodes":"25","size_leaf_vector":"1"}},{"base_weights":[9.031747E-3,-1.06403746E-1,1.276469E-1,1.7739674E-1,-2.1908861E-1,8.518778E-2,9.513544E-1,8.9491494E-2,1.1434072E0,6.122268E-2,-3.49764E-1,3.6863987E-3,4.718778E-1,1.0869443E0,3.1917787E-1,-8.655672E-3,9.286314E-3,1.0956926E-2,3.79805E-2,-1.6572556E-2,5.4050637E-3,-1.14527065E-2,1.5893104E-2,4.1379444E-3,-9.075382E-3,2.6234196E-2,6.2923804E-3,8.778529E-3,3.5108127E-2,-1.3504069E-2,2.3455441E-2],"categories":[],"categories_nodes":[],"categories_segments":[],"categories_sizes":[],"default_left":[0,0,0,0,0,0,0,0,0,0,1,0,0,0,0,0,0,0,0,0,0,0,0,0,0,0,0,0,0,0,0],"id":26,"left_children":[1,3,5,7,9,11,13,15,17,19,21,23,25,27,29,-1,-1,-1,-1,-1,-1,-1,-1,-1,-1,-1,-1,-1,-1,-1,-1],"loss_changes":[1.20070915E1,1.425263E1,1.5044013E1,1.0671283E1,1.169115E1,1.2994299E1,1.4617786E0,9.852844E0,5.391712E-1,7.555272E0,6.3207226E0,1.4083052E1,7.391281E0,7.800369E-1,2.182253E0,0E0,0E0,0E0,0E0,0E0,0E0,0E0,0E0,0E0,0E0,0E0,0E0,0E0,0E0,0E0,0E0],"parents":[2147483647,0,0,1,1,2,2,3,3,4,4,5,5,6,6,7,7,8,8,9,9,10,10,11,11,12,12,13,13,14,14],"right_children":[2,4,6,8,10,12,14,16,18,20,22,24,26,28,30,-1,-1,-1,-1,-1,-1,-1,-1,-1,-1,-1,-1,-1,-1,-1,-1],"split_conditions":[4.0181816E-1,1.4775E2,2.8781642E-3,1.4683E2,-2.2845784E-1,9.511039E-1,1.2926068E0,-5.972297E-4,-4.3191567E-1,-1.4590639E-2,4.0010414E0,5.560825E-1,7.713624E-1,-1.540733E-3,2.152711E0,-8.655672E-3,9.286314E-3,1.0956926E-2,3.79805E-2,-1.6572556E-2,5.4050637E-3,-1.14527065E-2,1.5893104E-2,4.1379444E-3,-9.075382E-3,2.6234196E-2,6.2923804E-3,8.778529E-3,3.5108127E-2,-1.3504069E-2,2.3455441E-2],"split_indices":[54,12,7,12,43,34,45,8,42,49,43,45,42,8,45,0,0,0,0,0,0,0,0,0,0,0,0,0,0,0,0],"split_type":[0,0,0,0,0,0,0,0,0,0,0,0,0,0,0,0,0,0,0,0,0,0,0,0,0,0,0,0,0,0,0],"sum_hessian":[8.7492474E2,4.434576E2,4.3146713E2,1.25871605E2,3.17586E2,4.1136612E2,2.0101E1,1.1637438E2,9.497225E0,1.0114713E2,2.1643886E2,3.405905E2,7.0775604E1,1.5958776E1,4.142224E0,4.2704273E1,7.3670105E1,1.8342774E0,7.6629477E0,1.5830995E1,8.531614E1,2.0938835E2,7.050509E0,2.3716237E2,1.03428154E2,2.698881E1,4.3786797E1,1.9435191E0,1.4015257E1,1.5657823E0,2.5764418E0],"tree_param":{"num_deleted":"0","num_feature":"57","num_nodes":"31","size_leaf_vector":"1"}},{"base_weights":[-3.9654565E-3,5.6815784E-2,-5.4641163E-1,-5.6891626E-1,7.203887E-2,3.6084298E-2,-6.2507147E-1,-2.1156255E-2,2.2865236E-2,9.01209E-2,-4.2126215E-1,7.4026203E-1,-1.8106617E-2,-6.581303E-1,2.183635E-2,-2.2299218E-3,4.6421248E-3,4.2235726E-3,-2.0926978E-2,7.41577E-3,3.0903034E-2,5.127695E-3,-2.0725446E-2],"categories":[],"categories_nodes":[],"categories_segments":[],"categories_sizes":[],"default_left":[0,0,0,0,0,0,0,0,0,0,0,0,0,0,0,0,0,0,0,0,0,0,0],"id":27,"left_children":[1,3,5,7,9,11,13,-1,-1,15,17,19,-1,21,-1,-1,-1,-1,-1,-1,-1,-1,-1],"loss_changes":[2.9982502E1,7.8310204E0,4.220848E0,4.0816107E0,7.1673365E0,5.7827497E0,4.092127E0,0E0,0E0,8.213198E0,4.5144486E0,6.154063E-1,0E0,2.271244E0,0E0,0E0,0E0,0E0,0E0,0E0,0E0,0E0,0E0],"parents":[2147483647,0,0,1,1,2,2,3,3,4,4,5,5,6,6,9,9,10,10,11,11,13,13],"right_children":[2,4,6,8,10,12,14,-1,-1,16,18,20,-1,22,-1,-1,-1,-1,-1,-1,-1,-1,-1],"split_conditions":[3.5516724E-1,1.2826E2,-2.7367545E-3,2.7070081E0,3.069635E-3,1.575517E2,9.2156715E1,-2.1156255E-2,2.2865236E-2,3.8197413E-1,3.836462E-1,-2.8908069E-3,-1.8106617E-2,-9.405763E-3,2.183635E-2,-2.2299218E-3,4.6421248E-3,4.2235726E-3,-2.0926978E-2,7.41577E-3,3.0903034E-2,5.127695E-3,-2.0725446E-2],"split_indices":[1,25,7,45,7,14,33,0,0,54,54,7,0,8,0,0,0,0,0,0,0,0,0],"split_type":[0,0,0,0,0,0,0,0,0,0,0,0,0,0,0,0,0,0,0,0,0,0,0],"sum_hessian":[9.0743054E2,8.168028E2,9.0627716E1,1.8535713E1,7.982671E2,1.08466625E1,7.978105E1,1.7240623E1,1.2950894E0,7.708295E2,2.743758E1,5.087985E0,5.7586775E0,7.837944E1,1.4016148E0,2.1739667E2,5.5343286E2,9.204521E0,1.823306E1,2.5695565E0,2.5184286E0,2.8153749E0,7.5564064E1],"tree_param":{"num_deleted":"0","num_feature":"57","num_nodes":"23","size_leaf_vector":"1"}},{"base_weights":[1.1782979E-2,-1.7538823E-1,4.6102643E-1,-2.9333436E-1,-3.7596732E-2,7.941838E-1,2.9777935E-1,-3.0112565E-1,2.7453713E-2,8.8158333E-1,-5.8986783E-2,2.7142727E-1,9.0921843E-1,3.7937915E-1,-3.6351088E-1,-2.1553286E-3,-1.0086811E-2,3.6416113E-2,-1.2047794E-2,-2.7599647E-3,1.5963713E-2,3.008176E-2,-2.8334751E-3,3.3458557E-2,1.3936378E-2,-4.0560012E-4,1.3409692E-2,1.2287904E-2,-1.6037934E-2],"categories":[],"categories_nodes":[],"categories_segments":[],"categories_sizes":[],"default_left":[0,0,0,0,0,0,0,0,0,0,0,0,0,0,1,0,0,0,0,0,0,0,0,0,0,0,0,0,0],"id":28,"left_children":[1,3,5,7,9,11,13,15,-1,17,19,21,23,25,27,-1,-1,-1,-1,-1,-1,-1,-1,-1,-1,-1,-1,-1,-1],"loss_changes":[7.2871025E1,9.931894E0,1.3625172E1,3.377861E0,5.6222095E0,4.7574615E0,9.454535E0,2.6166801E0,0E0,3.2613544E0,5.4699273E0,4.492104E0,5.6929054E0,4.1016808E0,2.7949283E0,0E0,0E0,0E0,0E0,0E0,0E0,0E0,0E0,0E0,0E0,0E0,0E0,0E0,0E0],"parents":[2147483647,0,0,1,1,2,2,3,3,4,4,5,5,6,6,7,7,9,9,10,10,11,11,12,12,13,13,14,14],"right_children":[2,4,6,8,10,12,14,16,-1,18,20,22,24,26,28,-1,-1,-1,-1,-1,-1,-1,-1,-1,-1,-1,-1,-1,-1],"split_conditions":[2.838432E-1,2.3183122E-1,2.8483942E-1,1.8068E2,-4.1435428E-2,-3.4838752E-3,4.63E0,7.365342E-1,2.7453713E-2,2.7675584E-1,1.9034923E0,-7.047753E-4,2.7079627E-1,-1.1196501E0,7.307355E-1,-2.1553286E-3,-1.0086811E-2,3.6416113E-2,-1.2047794E-2,-2.7599647E-3,1.5963713E-2,3.008176E-2,-2.8334751E-3,3.3458557E-2,1.3936378E-2,-4.0560012E-4,1.3409692E-2,1.2287904E-2,-1.6037934E-2],"split_indices":[1,1,0,24,49,8,23,32,0,1,34,7,48,43,39,0,0,0,0,0,0,0,0,0,0,0,0,0,0],"split_type":[0,0,0,0,0,0,0,0,0,0,0,0,0,0,0,0,0,0,0,0,0,0,0,0,0,0,0,0,0],"sum_hessian":[8.6466907E2,6.10798E2,2.5387111E2,3.2848987E2,2.8230807E2,8.221678E1,1.7165433E2,3.2713156E2,1.3582951E0,5.5055876E0,2.768025E2,1.5434893E1,6.678189E1,1.5317912E2,1.8475206E1,4.3836926E1,2.8329465E2,4.4160366E0,1.0895512E0,2.6296112E2,1.3841357E1,4.5666523E0,1.086824E1,4.4603813E1,2.217808E1,2.2606735E1,1.3057239E2,3.0950787E0,1.5380128E1],"tree_param":{"num_deleted":"0","num_feature":"57","num_nodes":"29","size_leaf_vector":"1"}},{"base_weights":[-1.9845013E-2,-3.6805817E-1,5.8432445E-2,-4.141659E-1,7.599469E-1,2.0802589E-1,-4.3284968E-2,-4.839148E-1,9.417651E-3,2.9486455E-2,6.519569E-3,8.843208E-2,5.7483524E-1,-1.5741281E-1,2.9002678E-1,1.9671386E-2,-1.5423192E-2,-9.072874E-3,2.7339881E-2,2.150404E-2,6.6679E-4,-1.908699E-2,2.1593818E-2,-1.2597344E-2,-1.589419E-3,2.1511152E-2,2.9863196E-3],"categories":[],"categories_nodes":[],"categories_segments":[],"categories_sizes":[],"default_left":[0,0,0,0,0,1,0,0,0,0,0,0,0,0,0,0,0,0,0,0,0,0,0,0,0,0,0],"id":29,"left_children":[1,3,5,7,9,11,13,15,17,-1,-1,19,21,23,25,-1,-1,-1,-1,-1,-1,-1,-1,-1,-1,-1,-1],"loss_changes":[2.4240171E1,8.803524E0,1.1060684E1,4.6564198E0,6.0443544E-1,1.2852675E1,1.652328E1,4.9893265E0,6.8126383E0,0E0,0E0,9.261356E0,1.3122534E1,8.841176E0,8.944038E0,0E0,0E0,0E0,0E0,0E0,0E0,0E0,0E0,0E0,0E0,0E0,0E0],"parents":[2147483647,0,0,1,1,2,2,3,3,4,4,5,5,6,6,7,7,8,8,11,11,12,12,13,13,14,14],"right_children":[2,4,6,8,10,12,14,16,18,-1,-1,20,22,24,26,-1,-1,-1,-1,-1,-1,-1,-1,-1,-1,-1,-1],"split_conditions":[3.188798E-1,2.465272E0,1.509E2,3.6563317E-3,1.0385585E0,4.5864314E-1,4.1164035E-1,1.2677E2,2.82E2,2.9486455E-2,6.519569E-3,1.288E2,3.6793172E-1,4.23E0,1.557889E2,1.9671386E-2,-1.5423192E-2,-9.072874E-3,2.7339881E-2,2.150404E-2,6.6679E-4,-1.908699E-2,2.1593818E-2,-1.2597344E-2,-1.589419E-3,2.1511152E-2,2.9863196E-3],"split_indices":[0,30,10,8,34,43,0,28,20,0,0,28,54,23,14,0,0,0,0,0,0,0,0,0,0,0,0],"split_type":[0,0,0,0,0,0,0,0,0,0,0,0,0,0,0,0,0,0,0,0,0,0,0,0,0,0,0],"sum_hessian":[8.875223E2,1.6221507E2,7.253072E2,1.5645282E2,5.7622514E0,2.9314316E2,4.3216403E2,1.3421074E2,2.2242075E1,3.5091887E0,2.2530627E0,2.2200287E2,7.1140305E1,3.2232562E2,1.098384E2,2.9291E0,1.3128165E2,1.7021402E1,5.2206736E0,2.0224266E1,2.0177861E2,7.2425785E0,6.3897724E1,9.0877304E1,2.3144832E2,3.302988E1,7.680852E1],"tree_param":{"num_deleted":"0","num_feature":"57","num_nodes":"27","size_leaf_vector":"1"}},{"base_weights":[1.3825926E-2,-5.0030303E-1,6.678084E-2,-6.148978E-1,1.415909E-1,4.6769705E-2,9.475368E-1,-2.0601343E-2,-2.1349426E-1,6.767804E-1,-1.7759202E-2,1.4749895E-1,-1.0415423E-1,3.676789E-2,-5.205569E-2,1.4401229E-2,-1.8563684E-2,-1.261447E-2,2.9294228E-2,5.4128263E-3,-1.2359542E-2,-1.1241304E-3,-1.5893312E-2,2.2591436E-2,-1.6655782E-2],"categories":[],"categories_nodes":[],"categories_segments":[],"categories_sizes":[],"default_left":[0,0,0,0,0,0,0,0,0,0,0,0,0,0,0,0,0,0,0,0,0,0,0,0,0],"id":30,"left_children":[1,3,5,7,9,11,13,-1,15,17,-1,19,21,-1,23,-1,-1,-1,-1,-1,-1,-1,-1,-1,-1],"loss_changes":[2.4455208E1,6.257223E0,1.4304707E1,1.9105034E0,5.708328E0,1.2133203E1,5.076439E0,0E0,3.7490253E0,3.1344721E0,0E0,8.888958E0,9.052153E0,0E0,2.3965569E0,0E0,0E0,0E0,0E0,0E0,0E0,0E0,0E0,0E0,0E0],"parents":[2147483647,0,0,1,1,2,2,3,3,4,4,5,5,6,6,8,8,9,9,11,11,12,12,14,14],"right_children":[2,4,6,8,10,12,14,-1,16,18,-1,20,22,-1,24,-1,-1,-1,-1,-1,-1,-1,-1,-1,-1],"split_conditions":[2.9288104E-1,3.779162E-1,2.6164372E0,1.6450902E0,4.7474974E-1,-2.8010292E-4,2.4068667E-1,-2.0601343E-2,-4.264147E-3,2.355E2,-1.7759202E-2,1.869985E0,3.4396124E-1,3.676789E-2,2.9426968E-1,1.4401229E-2,-1.8563684E-2,-1.261447E-2,2.9294228E-2,5.4128263E-3,-1.2359542E-2,-1.1241304E-3,-1.5893312E-2,2.2591436E-2,-1.6655782E-2],"split_indices":[0,36,45,45,34,7,1,0,8,20,0,35,48,0,0,0,0,0,0,0,0,0,0,0,0],"split_type":[0,0,0,0,0,0,0,0,0,0,0,0,0,0,0,0,0,0,0,0,0,0,0,0,0],"sum_hessian":[8.960141E2,8.288193E1,8.1313214E2,7.036246E1,1.2519477E1,7.960976E2,1.7034565E1,5.9081608E1,1.12808485E1,7.2832294E0,5.2362475E0,4.7745712E2,3.1864044E2,1.3150387E1,3.884177E0,4.092832E0,7.1880164E0,1.4760307E0,5.807199E0,4.5155804E2,2.5899097E1,2.7642102E2,4.2219414E1,1.3027899E0,2.581387E0],"tree_param":{"num_deleted":"0","num_feature":"57","num_nodes":"25","size_leaf_vector":"1"}},{"base_weights":[7.587465E-3,-1.9881119E-1,3.482752E-1,-6.784452E-2,-2.81489E-1,7.6272863E-1,2.111913E-1,-1.0238177E-1,9.1312134E-1,-3.3128425E-1,-7.936849E-3,9.510932E-1,5.088134E-1,2.4249274E-1,-5.080415E-1,-1.1301286E-3,-1.165635E-2,3.549076E-2,-6.645293E-3,-2.6695933E-3,-1.1362939E-2,-6.4148204E-3,7.348315E-3,-2.2405027E-3,2.9840365E-2,3.258172E-2,6.1684055E-3,9.863432E-3,1.2754246E-3,-1.9614473E-2,3.568482E-3],"categories":[],"categories_nodes":[],"categories_segments":[],"categories_sizes":[],"default_left":[0,0,0,0,0,0,1,0,0,0,0,0,0,0,0,0,0,0,0,0,0,0,0,0,0,0,0,0,0,0,0],"id":31,"left_children":[1,3,5,7,9,11,13,15,17,19,21,23,25,27,29,-1,-1,-1,-1,-1,-1,-1,-1,-1,-1,-1,-1,-1,-1,-1,-1],"loss_changes":[6.2314655E1,5.9566936E0,1.8833488E1,7.3738985E0,4.601368E0,3.4721146E0,5.810234E0,3.8459632E0,2.5310545E0,3.2556038E0,2.81577E0,2.1459045E0,6.318494E0,4.1749144E0,1.0702174E0,0E0,0E0,0E0,0E0,0E0,0E0,0E0,0E0,0E0,0E0,0E0,0E0,0E0,0E0,0E0,0E0],"parents":[2147483647,0,0,1,1,2,2,3,3,4,4,5,5,6,6,7,7,8,8,9,9,10,10,11,11,12,12,13,13,14,14],"right_children":[2,4,6,8,10,12,14,16,18,20,22,24,26,28,30,-1,-1,-1,-1,-1,-1,-1,-1,-1,-1,-1,-1,-1,-1,-1,-1],"split_conditions":[2.686759E-1,3.850094E-1,2.8483942E-1,1.9446002E0,7.883952E-3,1.3570802E0,1.5687168E0,1.7211525E0,3.0000534E0,7.9224646E-1,5.9547344E5,1.719336E-1,1.1009256E0,1.0813544E0,6.662727E6,-1.1301286E-3,-1.165635E-2,3.549076E-2,-6.645293E-3,-2.6695933E-3,-1.1362939E-2,-6.4148204E-3,7.348315E-3,-2.2405027E-3,2.9840365E-2,3.258172E-2,6.1684055E-3,9.863432E-3,1.2754246E-3,-1.9614473E-2,3.568482E-3],"split_indices":[1,0,0,34,49,43,39,32,35,32,19,30,37,30,13,0,0,0,0,0,0,0,0,0,0,0,0,0,0,0,0],"split_type":[0,0,0,0,0,0,0,0,0,0,0,0,0,0,0,0,0,0,0,0,0,0,0,0,0,0,0,0,0,0,0],"sum_hessian":[8.842053E2,5.5088153E2,3.333238E2,2.13889E2,3.3699252E2,8.1712845E1,2.5161093E2,2.0747981E2,6.409193E0,2.8491742E2,5.2075108E1,4.533546E1,3.6377384E1,2.4175256E2,9.858372E0,1.7013777E2,3.734204E1,5.143108E0,1.2660854E0,4.71549E1,2.3776251E2,2.8789606E1,2.3285501E1,1.8187275E0,4.3516735E1,1.1638172E1,2.473921E1,1.6843208E2,7.332048E1,7.963977E0,1.8943949E0],"tree_param":{"num_deleted":"0","num_feature":"57","num_nodes":"31","size_leaf_vector":"1"}},{"base_weights":[1.1528878E-2,-2.869982E-1,9.009527E-2,-3.2701278E-1,9.4481426E-1,6.9542396E-1,6.605823E-2,-3.8214043E-1,3.878757E-1,3.2250732E-2,1.1713811E-2,-1.5996931E-2,8.530758E-1,-3.7144445E-2,1.9719793E-1,1.774807E-2,-1.282951E-2,-1.7487012E-2,2.6534265E-2,-2.3953335E-3,3.0884646E-2,1.1813454E-3,-1.2277456E-2,-2.0817071E-2,6.9273445E-3],"categories":[],"categories_nodes":[],"categories_segments":[],"categories_sizes":[],"default_left":[0,0,0,0,0,0,0,0,0,0,0,0,0,0,0,0,0,0,0,0,0,0,0,0,0],"id":32,"left_children":[1,3,5,7,9,11,13,15,17,-1,-1,-1,19,21,23,-1,-1,-1,-1,-1,-1,-1,-1,-1,-1],"loss_changes":[2.0567678E1,9.315065E0,1.0053602E1,7.1517735E0,1.3755798E-2,5.5695086E0,9.057585E0,7.586691E0,6.8882694E0,0E0,0E0,0E0,3.9969902E0,1.0695571E1,9.012228E0,0E0,0E0,0E0,0E0,0E0,0E0,0E0,0E0,0E0,0E0],"parents":[2147483647,0,0,1,1,2,2,3,3,4,4,5,5,6,6,7,7,8,8,12,12,13,13,14,14],"right_children":[2,4,6,8,10,12,14,16,18,-1,-1,-1,20,22,24,-1,-1,-1,-1,-1,-1,-1,-1,-1,-1],"split_conditions":[3.2552746E-1,1.527236E-2,1.293E2,2.0735319E0,1.1114248E0,-3.432352E-1,-3.9751444E-4,2.0651026E-1,1.000001E1,3.2250732E-2,1.1713811E-2,-1.5996931E-2,-1.7618285E0,4.3809903E-1,1.3213E2,1.774807E-2,-1.282951E-2,-1.7487012E-2,2.6534265E-2,-2.3953335E-3,3.0884646E-2,1.1813454E-3,-1.2277456E-2,-2.0817071E-2,6.9273445E-3],"split_indices":[0,8,12,30,30,48,7,30,42,0,0,0,45,48,24,0,0,0,0,0,0,0,0,0,0],"split_type":[0,0,0,0,0,0,0,0,0,0,0,0,0,0,0,0,0,0,0,0,0,0,0,0,0],"sum_hessian":[8.748271E2,1.8171507E2,6.93112E2,1.7670934E2,5.0057487E0,2.5404892E1,6.6770715E2,1.6449033E2,1.2218996E1,3.2930236E0,1.7127249E0,2.6181426E0,2.2786749E1,3.7405484E2,2.9365228E2,6.808759E0,1.5768158E2,4.076427E0,8.14257E0,3.710729E0,1.9076021E1,3.1099365E2,6.3061188E1,9.991069E0,2.836612E2],"tree_param":{"num_deleted":"0","num_feature":"57","num_nodes":"25","size_leaf_vector":"1"}},{"base_weights":[1.365423E-2,6.6406585E-2,-4.3103418E-1,1.6067809E-1,-5.4020908E-2,-4.8082763E-1,2.2707855E-2,-4.9543768E-1,1.9799183E-1,3.3266628E-1,-1.2019352E-1,-6.538791E-2,-6.0270953E-1,2.5476402E-2,-2.133669E-2,1.5148142E-3,1.1143952E-2,-2.119953E-3,2.075985E-2,-2.1492543E-2,-2.0736658E-3,-1.0273147E-2,1.9332033E-2,3.7058687E-4,-2.028791E-2],"categories":[],"categories_nodes":[],"categories_segments":[],"categories_sizes":[],"default_left":[0,0,0,0,0,0,0,0,0,0,0,0,0,0,0,0,0,0,0,0,0,0,0,0,0],"id":33,"left_children":[1,3,5,7,9,11,-1,13,15,17,19,21,23,-1,-1,-1,-1,-1,-1,-1,-1,-1,-1,-1,-1],"loss_changes":[2.0990686E1,9.087465E0,5.977318E0,1.1085876E1,9.043968E0,4.603279E0,0E0,7.694258E0,1.0865223E1,7.539234E0,9.121975E0,4.531168E0,3.2100182E0,0E0,0E0,0E0,0E0,0E0,0E0,0E0,0E0,0E0,0E0,0E0,0E0],"parents":[2147483647,0,0,1,1,2,2,3,3,4,4,5,5,7,7,8,8,9,9,10,10,11,11,12,12],"right_children":[2,4,6,8,10,12,-1,14,16,18,20,22,24,-1,-1,-1,-1,-1,-1,-1,-1,-1,-1,-1,-1],"split_conditions":[3.5516724E-1,-3.9751444E-4,8.8343445E1,1.3115E2,-3.1271085E-1,-4.147497E-3,2.2707855E-2,-3.5837314E-1,3.8445014E-1,-1.2976283E-1,-2.3391189E-1,7.021324E-3,-2.7367545E-3,2.5476402E-2,-2.133669E-2,1.5148142E-3,1.1143952E-2,-2.119953E-3,2.075985E-2,-2.1492543E-2,-2.0736658E-3,-1.0273147E-2,1.9332033E-2,3.7058687E-4,-2.028791E-2],"split_indices":[1,7,33,25,36,8,0,48,2,48,36,49,7,0,0,0,0,0,0,0,0,0,0,0,0],"split_type":[0,0,0,0,0,0,0,0,0,0,0,0,0,0,0,0,0,0,0,0,0,0,0,0,0],"sum_hessian":[8.92586E2,7.9868994E2,9.389607E1,4.4780823E2,3.508817E2,9.069005E1,3.2060227E0,2.3436092E1,4.2437213E2,5.0682938E1,3.001988E2,2.0919956E1,6.977009E1,2.8349357E0,2.0601156E1,2.3005539E2,1.9431674E2,2.4257856E1,2.6425081E1,2.2657644E1,2.7754114E2,1.541903E1,5.5009255E0,7.5413213E0,6.2228767E1],"tree_param":{"num_deleted":"0","num_feature":"57","num_nodes":"25","size_leaf_vector":"1"}},{"base_weights":[1.2479011E-2,-2.0036295E-1,2.9208395E-1,-2.0794514E-1,3.0485911E-2,1.6854106E-1,6.0610706E-1,-8.235095E-2,-2.7450266E-1,2.1332559E-1,-3.7119555E-1,6.9166553E-1,3.288119E-2,-3.1949948E-3,3.186456E-2,-8.9814775E-3,2.3829245E-3,8.009085E-3,-7.2095743E-3,-1.3864016E-2,2.1161417E-2,2.3340067E-2,1.1772856E-3,2.4336051E-2,-5.6083216E-3],"categories":[],"categories_nodes":[],"categories_segments":[],"categories_sizes":[],"default_left":[0,1,0,0,0,1,0,1,0,1,0,0,0,0,0,0,0,0,0,0,0,0,0,0,0],"id":34,"left_children":[1,3,5,7,-1,9,11,13,15,17,19,21,23,-1,-1,-1,-1,-1,-1,-1,-1,-1,-1,-1,-1],"loss_changes":[5.1589207E1,4.751787E0,1.4432777E1,4.0735607E0,0E0,6.611891E0,5.1463203E0,4.843734E0,2.8403816E0,6.152584E0,2.3889396E0,5.1323814E0,2.6732416E0,0E0,0E0,0E0,0E0,0E0,0E0,0E0,0E0,0E0,0E0,0E0,0E0],"parents":[2147483647,0,0,1,1,2,2,3,3,5,5,6,6,7,7,8,8,9,9,10,10,11,11,12,12],"right_children":[2,4,6,8,-1,10,12,14,16,18,20,22,24,-1,-1,-1,-1,-1,-1,-1,-1,-1,-1,-1,-1],"split_conditions":[2.6070127E-1,4.3406987E0,3.5516724E-1,3.850094E-1,3.0485911E-2,4.8902383E-1,8.461992E6,4.0010414E0,9.990244E6,2.2267315E0,8.428155E1,3.9549196E-1,2.4472189E-1,-3.1949948E-3,3.186456E-2,-8.9814775E-3,2.3829245E-3,8.009085E-3,-7.2095743E-3,-1.3864016E-2,2.1161417E-2,2.3340067E-2,1.1772856E-3,2.4336051E-2,-5.6083216E-3],"split_indices":[1,37,1,0,0,40,13,42,13,43,33,36,0,0,0,0,0,0,0,0,0,0,0,0,0],"split_type":[0,0,0,0,0,0,0,0,0,0,0,0,0,0,0,0,0,0,0,0,0,0,0,0,0],"sum_hessian":[8.6489215E2,4.9123544E2,3.7365674E2,4.8901672E2,2.2187173E0,2.692609E2,1.0439584E2,1.7016057E2,3.1885614E2,2.4918922E2,2.0071661E1,9.065784E1,1.37380085E1,1.6753261E2,2.627972E0,2.9805814E2,2.0798016E1,2.2320636E2,2.5982872E1,1.903455E1,1.0371106E0,7.989292E1,1.0764913E1,2.433096E0,1.1304913E1],"tree_param":{"num_deleted":"0","num_feature":"57","num_nodes":"25","size_leaf_vector":"1"}},{"base_weights":[-1.7921843E-2,7.9564326E-2,-3.1493813E-1,-3.9647467E-2,2.8847936E-1,-3.8083097E-1,3.7832424E-1,-4.951305E-1,9.127337E-3,-4.7828704E-2,3.9087576E-1,5.657179E-1,-4.0813038E-1,7.7379537E-1,-3.3154264E-1,1.9261694E-2,-1.7887611E-2,-5.115578E-3,4.847604E-3,2.091871E-2,-8.103513E-3,3.2894723E-2,9.917877E-3,-1.2884275E-2,2.964754E-2,-1.2838601E-2,2.1987224E-2,2.7627032E-2,-1.1682188E-2,1.7651454E-2,-1.8341914E-2],"categories":[],"categories_nodes":[],"categories_segments":[],"categories_sizes":[],"default_left":[0,0,0,0,0,0,0,0,0,0,0,0,0,0,0,0,0,0,0,0,0,0,0,0,0,0,0,0,0,0,0],"id":35,"left_children":[1,3,5,7,9,11,13,15,17,19,21,23,25,27,29,-1,-1,-1,-1,-1,-1,-1,-1,-1,-1,-1,-1,-1,-1,-1,-1],"loss_changes":[2.5832108E1,1.6743557E1,1.0214365E1,9.526986E0,8.428316E0,5.4457474E0,5.7689962E0,5.15259E0,1.0658568E1,9.77674E0,7.604828E0,2.9795642E0,4.7635803E0,2.567771E0,2.3486211E0,0E0,0E0,0E0,0E0,0E0,0E0,0E0,0E0,0E0,0E0,0E0,0E0,0E0,0E0,0E0,0E0],"parents":[2147483647,0,0,1,1,2,2,3,3,4,4,5,5,6,6,7,7,8,8,9,9,10,10,11,11,12,12,13,13,14,14],"right_children":[2,4,6,8,10,12,14,16,18,20,22,24,26,28,30,-1,-1,-1,-1,-1,-1,-1,-1,-1,-1,-1,-1,-1,-1,-1,-1],"split_conditions":[2.885962E-1,-1.1023505E-4,1.8871943E0,-1.074918E0,3.2860096E1,1.407086E2,5.9547344E5,1.2715E2,1.0659201E0,3.002524E-1,-1.3718332E0,4.3437647E-4,1.2399657E-2,8.253486E1,1.429E2,1.9261694E-2,-1.7887611E-2,-5.115578E-3,4.847604E-3,2.091871E-2,-8.103513E-3,3.2894723E-2,9.917877E-3,-1.2884275E-2,2.964754E-2,-1.2838601E-2,2.1987224E-2,2.7627032E-2,-1.1682188E-2,1.7651454E-2,-1.8341914E-2],"split_indices":[1,7,30,42,33,16,19,27,32,37,34,7,8,33,28,0,0,0,0,0,0,0,0,0,0,0,0,0,0,0,0],"split_type":[0,0,0,0,0,0,0,0,0,0,0,0,0,0,0,0,0,0,0,0,0,0,0,0,0,0,0,0,0,0,0],"sum_hessian":[8.90282E2,6.708341E2,2.1944788E2,4.2762915E2,2.4320494E2,2.0081187E2,1.8635998E1,4.047765E1,3.8715152E2,5.688995E1,1.8631499E2,5.0763803E0,1.9573549E2,1.1910519E1,6.725479E0,2.8686628E0,3.7608986E1,1.7767473E2,2.0947679E2,1.2581021E1,4.430893E1,1.3311004E1,1.7300398E2,1.5080465E0,3.5683339E0,1.9300735E2,2.7281363E0,1.07582655E1,1.1522529E0,1.3115985E0,5.4138803E0],"tree_param":{"num_deleted":"0","num_feature":"57","num_nodes":"31","size_leaf_vector":"1"}},{"base_weights":[1.31078875E-2,6.796874E-2,-5.1810575E-1,3.314112E-2,4.5838392E-1,-6.0259575E-1,1.2217369E-2,3.5388982E-1,-3.0662764E-3,-1.7978404E-2,5.316425E-1,1.666044E-2,-6.383746E-1,5.848719E-1,-1.7527835E-2,2.2854466E-2,2.5846402E-3,-1.2948659E-3,8.661226E-3,-1.7580595E-2,1.8417522E-2,-2.0295884E-2,1.1532416E-2,2.6155807E-2,-1.1492884E-2],"categories":[],"categories_nodes":[],"categories_segments":[],"categories_sizes":[],"default_left":[0,0,0,0,0,0,0,0,0,0,0,0,0,1,0,0,0,0,0,0,0,0,0,0,0],"id":36,"left_children":[1,3,5,7,9,11,13,15,17,-1,19,-1,21,23,-1,-1,-1,-1,-1,-1,-1,-1,-1,-1,-1],"loss_changes":[2.574368E1,1.0868875E1,3.7125435E0,8.548391E0,5.392213E0,3.3104649E0,4.5581284E0,8.088652E0,7.7609E0,0E0,6.039732E0,0E0,2.979082E0,2.2223217E0,0E0,0E0,0E0,0E0,0E0,0E0,0E0,0E0,0E0,0E0,0E0],"parents":[2147483647,0,0,1,1,2,2,3,3,4,4,5,5,6,6,7,7,8,8,10,10,12,12,13,13],"right_children":[2,4,6,8,10,12,14,16,18,-1,20,-1,22,24,-1,-1,-1,-1,-1,-1,-1,-1,-1,-1,-1],"split_conditions":[3.5516724E-1,1.9220667E0,1.6450902E0,-3.054496E-3,-6.32506E-1,3.763863E-1,1.8166088E0,1.1127264E0,1.684E2,-1.7978404E-2,1.253E2,1.666044E-2,7.288764E-2,1.8491998E-1,-1.7527835E-2,2.2854466E-2,2.5846402E-3,-1.2948659E-3,8.661226E-3,-1.7580595E-2,1.8417522E-2,-2.0295884E-2,1.1532416E-2,2.6155807E-2,-1.1492884E-2],"split_indices":[1,45,45,7,48,39,45,32,11,0,27,0,49,43,0,0,0,0,0,0,0,0,0,0,0],"split_type":[0,0,0,0,0,0,0,0,0,0,0,0,0,0,0,0,0,0,0,0,0,0,0,0,0],"sum_hessian":[8.8115405E2,7.9946204E2,8.169203E1,7.349817E2,6.448034E1,7.0348045E1,1.1343984E1,7.366198E1,6.613197E2,3.7117617E0,6.0768574E1,1.6732578E0,6.867479E1,5.7975006E0,5.5464835E0,2.8457798E1,4.520418E1,5.821693E2,7.915036E1,3.74685E0,5.7021725E1,6.6531395E1,2.1433918E0,4.548288E0,1.2492127E0],"tree_param":{"num_deleted":"0","num_feature":"57","num_nodes":"25","size_leaf_vector":"1"}},{"base_weights":[-8.639889E-3,5.99771E-1,-9.8120354E-2,6.522428E-1,-4.8739567E-1,4.7622092E-2,-2.6537338E-1,1.4107338E-1,8.0752134E-1,-1.757094E-2,-3.927642E-3,2.4910279E-2,8.246177E-1,-3.1017712E-1,-3.853104E-2,1.9728065E-2,-6.4442917E-3,-3.7246612E-3,2.7502747E-2,3.9129034E-3,-3.8082928E-3,-4.2565134E-3,3.587255E-2,-3.3758138E-3,-1.113276E-2,-3.649631E-3,3.594232E-2],"categories":[],"categories_nodes":[],"categories_segments":[],"categories_sizes":[],"default_left":[0,0,0,0,0,0,0,0,0,0,0,0,0,0,0,0,0,0,0,0,0,0,0,0,0,0,0],"id":37,"left_children":[1,3,5,7,9,11,13,15,17,-1,-1,19,21,23,25,-1,-1,-1,-1,-1,-1,-1,-1,-1,-1,-1,-1],"loss_changes":[4.805527E1,6.774235E0,1.876855E1,8.489796E0,1.2598109E-1,7.250206E0,3.6309605E0,5.006549E0,8.553692E0,0E0,0E0,6.4474597E0,4.355713E0,3.5602589E0,6.339944E0,0E0,0E0,0E0,0E0,0E0,0E0,0E0,0E0,0E0,0E0,0E0,0E0],"parents":[2147483647,0,0,1,1,2,2,3,3,4,4,5,5,6,6,7,7,8,8,11,11,12,12,13,13,14,14],"right_children":[2,4,6,8,10,12,14,16,18,-1,-1,20,22,24,26,-1,-1,-1,-1,-1,-1,-1,-1,-1,-1,-1,-1],"split_conditions":[3.0095357E-1,2.3945928E0,4.01467E-1,-3.4838752E-3,5.327329E-1,1.1559759E7,3.1580771E-3,-5.200687E-3,2.0651026E-1,-1.757094E-2,-3.927642E-3,9.1104525E-1,2.5232248E1,-3.2066847E-3,1.6799286E2,1.9728065E-2,-6.4442917E-3,-3.7246612E-3,2.7502747E-2,3.9129034E-3,-3.8082928E-3,-4.2565134E-3,3.587255E-2,-3.3758138E-3,-1.113276E-2,-3.649631E-3,3.594232E-2],"split_indices":[0,30,54,8,1,13,8,8,30,0,0,30,33,8,31,0,0,0,0,0,0,0,0,0,0,0,0],"split_type":[0,0,0,0,0,0,0,0,0,0,0,0,0,0,0,0,0,0,0,0,0,0,0,0,0,0,0],"sum_hessian":[8.8062445E2,1.1217849E2,7.68446E2,1.0739514E2,4.7833443E0,4.1101086E2,3.574351E2,2.5467123E1,8.1928024E1,3.2453628E0,1.5379815E0,4.0034085E2,1.0670022E1,2.9817502E2,5.9260067E1,1.0042961E1,1.5424161E1,8.583463E0,7.334456E1,2.3628928E2,1.6405157E2,3.1318383E0,7.538184E0,7.0917366E1,2.2725766E2,5.6372406E1,2.8876626E0],"tree_param":{"num_deleted":"0","num_feature":"57","num_nodes":"27","size_leaf_vector":"1"}},{"base_weights":[2.4156163E-2,-3.2946053E-1,1.1258701E-1,-3.816381E-2,-5.081925E-1,3.1981626E-1,-2.5248624E-2,-1.9443054E-2,9.59668E-2,3.840098E-1,-5.451043E-1,2.1280278E-1,6.5134543E-1,2.619445E-1,-1.2204362E-1,-1.8855901E-2,7.0007723E-3,-1.3412555E-2,2.9058505E-2,-1.8085737E-2,2.1755109E-3,8.298322E-3,-1.1522419E-2,-1.787345E-2,2.2695696E-2,1.7390875E-2,-4.5952186E-4,-1.0520151E-2,3.8590992E-4],"categories":[],"categories_nodes":[],"categories_segments":[],"categories_sizes":[],"default_left":[0,0,0,0,0,1,0,0,0,0,1,0,0,0,0,0,0,0,0,0,0,0,0,0,0,0,0,0,0],"id":38,"left_children":[1,3,5,7,9,11,13,-1,15,17,19,21,23,25,27,-1,-1,-1,-1,-1,-1,-1,-1,-1,-1,-1,-1,-1,-1],"loss_changes":[2.73493E1,9.09075E0,1.9986427E1,5.59416E0,3.7779636E0,9.77614E0,1.1734543E1,0E0,5.7508116E0,2.8097363E0,3.7701283E0,8.209098E0,9.332125E0,9.385927E0,9.736815E0,0E0,0E0,0E0,0E0,0E0,0E0,0E0,0E0,0E0,0E0,0E0,0E0,0E0,0E0],"parents":[2147483647,0,0,1,1,2,2,3,3,4,4,5,5,6,6,8,8,9,9,10,10,11,11,12,12,13,13,14,14],"right_children":[2,4,6,8,10,12,14,-1,16,18,20,22,24,26,28,-1,-1,-1,-1,-1,-1,-1,-1,-1,-1,-1,-1,-1,-1],"split_conditions":[3.2552746E-1,-2.2766911E-3,1.509E2,2.3123777E-1,1.2735E2,4.5864314E-1,1.9932196E-1,-1.9443054E-2,-1.06130704E-1,4.1729343E-1,1.138769E0,7.5572525E1,3.656228E-1,9.472181E-1,1.5936E2,-1.8855901E-2,7.0007723E-3,-1.3412555E-2,2.9058505E-2,-1.8085737E-2,2.1755109E-3,8.298322E-3,-1.1522419E-2,-1.787345E-2,2.2695696E-2,1.7390875E-2,-4.5952186E-4,-1.0520151E-2,3.8590992E-4],"split_indices":[0,49,10,0,25,43,1,0,48,2,39,33,54,42,11,0,0,0,0,0,0,0,0,0,0,0,0,0,0],"split_type":[0,0,0,0,0,0,0,0,0,0,0,0,0,0,0,0,0,0,0,0,0,0,0,0,0,0,0,0,0],"sum_hessian":[8.724141E2,1.7397968E2,6.9843445E2,6.661854E1,1.07361145E2,2.7846115E2,4.199733E2,1.131833E1,5.530021E1,3.8916607E0,1.0346948E2,2.117521E2,6.670906E1,1.0543598E2,3.1453732E2,8.245474E0,4.7054737E1,1.7041821E0,2.1874785E0,9.464332E1,8.826161E0,1.9178636E2,1.9965744E1,4.8256183E0,6.1883446E1,4.8622353E1,5.6813625E1,1.1613068E2,1.9840663E2],"tree_param":{"num_deleted":"0","num_feature":"57","num_nodes":"29","size_leaf_vector":"1"}},{"base_weights":[5.540645E-3,6.1024625E-2,-4.904017E-1,8.693509E-2,-6.2103957E-1,-5.4696584E-1,2.0660799E-2,5.624203E-2,6.8490386E-1,-2.1444304E-2,2.2571767E-2,-5.76392E-1,1.3026995E-2,2.4177404E-3,-1.1022157E-2,2.4259415E-2,-1.7020088E-2,-1.736816E-3,-1.908805E-2],"categories":[],"categories_nodes":[],"categories_segments":[],"categories_sizes":[],"default_left":[0,1,0,0,0,0,0,0,0,0,0,0,0,0,0,0,0,0,0],"id":39,"left_children":[1,3,5,7,9,11,-1,13,15,-1,-1,17,-1,-1,-1,-1,-1,-1,-1],"loss_changes":[2.3655954E1,1.3716668E1,6.1459255E0,1.3647364E1,4.1975317E0,2.6496258E0,0E0,7.3574066E0,6.0863075E0,0E0,0E0,2.481287E0,0E0,0E0,0E0,0E0,0E0,0E0,0E0],"parents":[2147483647,0,0,1,1,2,2,3,3,4,4,5,5,7,7,8,8,11,11],"right_children":[2,4,6,8,10,12,-1,14,16,-1,-1,18,-1,-1,-1,-1,-1,-1,-1],"split_conditions":[3.5337257E-1,3.1347272E0,8.8343445E1,4.3873426E-1,8.8343445E1,7.288764E-2,2.0660799E-2,1.869985E0,1.5313E2,-2.1444304E-2,2.2571767E-2,-2.847498E-3,1.3026995E-2,2.4177404E-3,-1.1022157E-2,2.4259415E-2,-1.7020088E-2,-1.736816E-3,-1.908805E-2],"split_indices":[1,43,33,2,33,49,0,35,10,0,0,7,0,0,0,0,0,0,0],"split_type":[0,0,0,0,0,0,0,0,0,0,0,0,0,0,0,0,0,0,0],"sum_hessian":[8.57602E2,7.720996E2,8.5502365E1,7.446829E2,2.7416698E1,8.209994E1,3.4024277E0,7.09366E2,3.53169E1,2.6113363E1,1.3033357E0,8.011001E1,1.989934E0,6.7157666E2,3.7789406E1,3.2463203E1,2.8536942E0,8.497031E0,7.1612976E1],"tree_param":{"num_deleted":"0","num_feature":"57","num_nodes":"19","size_leaf_vector":"1"}},{"base_weights":[-1.6768329E-4,-1.7834756E-1,3.1712654E-1,-5.158128E-2,-3.1091183E-1,5.816126E-1,1.7135297E-1,-9.481579E-2,9.2359936E-1,6.116304E-1,-3.3389673E-1,6.3020426E-1,-3.033044E-1,2.4867895E-1,-2.6444227E-1,-3.2668E-3,3.141218E-2,3.7030123E-2,-2.134532E-3,3.5624754E-2,-5.316018E-3,-1.1523378E-2,3.471508E-3,-2.4989054E-3,2.0540826E-2,5.0215563E-3,-1.7495936E-2,3.543802E-2,6.305862E-3,-1.0400217E-2,2.5120094E-2],"categories":[],"categories_nodes":[],"categories_segments":[],"categories_sizes":[],"default_left":[0,0,0,0,0,0,0,1,0,0,0,0,0,0,0,0,0,0,0,0,0,0,0,0,0,0,0,0,0,0,0],"id":40,"left_children":[1,3,5,7,9,11,13,15,17,19,21,23,25,27,29,-1,-1,-1,-1,-1,-1,-1,-1,-1,-1,-1,-1,-1,-1,-1,-1],"loss_changes":[4.8804783E1,9.273895E0,1.1869427E1,1.2052481E1,5.930084E0,4.9163017E0,6.8577504E0,4.4968176E0,3.8405895E0,3.352664E0,6.0075283E0,4.1195908E0,9.401262E-1,5.9137115E0,3.086061E0,0E0,0E0,0E0,0E0,0E0,0E0,0E0,0E0,0E0,0E0,0E0,0E0,0E0,0E0,0E0,0E0],"parents":[2147483647,0,0,1,1,2,2,3,3,4,4,5,5,6,6,7,7,8,8,9,9,10,10,11,11,12,12,13,13,14,14],"right_children":[2,4,6,8,10,12,14,16,18,20,22,24,26,28,30,-1,-1,-1,-1,-1,-1,-1,-1,-1,-1,-1,-1,-1,-1,-1,-1],"split_conditions":[2.7156985E-1,3.96101E-1,3.0095357E-1,1.8786789E0,-2.7401338E0,2.3945928E0,4.56E0,4.0010414E0,3.8890162E-1,-2.4234713E-3,8.155365E-3,2.0651026E-1,1E-1,-1.5842603E0,2.670675E-1,-3.2668E-3,3.141218E-2,3.7030123E-2,-2.134532E-3,3.5624754E-2,-5.316018E-3,-1.1523378E-2,3.471508E-3,-2.4989054E-3,2.0540826E-2,5.0215563E-3,-1.7495936E-2,3.543802E-2,6.305862E-3,-1.0400217E-2,2.5120094E-2],"split_indices":[1,0,0,34,43,30,23,42,0,49,49,30,3,34,36,0,0,0,0,0,0,0,0,0,0,0,0,0,0,0,0],"split_type":[0,0,0,0,0,0,0,0,0,0,0,0,0,0,0,0,0,0,0,0,0,0,0,0,0,0,0,0,0,0,0],"sum_hessian":[8.6125946E2,5.518181E2,3.094413E2,2.827878E2,2.6903033E2,1.08888435E2,2.0055287E2,2.7164713E2,1.1140672E1,5.9173145E0,2.63113E2,1.0349335E2,5.395087E0,1.7069475E2,2.9858116E1,2.692326E2,2.4145427E0,8.305397E0,2.8352745E0,3.1282508E0,2.7890635E0,2.3681012E2,2.6302889E1,7.3054776E0,9.6187874E1,2.1617298E0,3.2333572E0,5.5878005E0,1.6510695E2,2.8422169E1,1.4359475E0],"tree_param":{"num_deleted":"0","num_feature":"57","num_nodes":"31","size_leaf_vector":"1"}},{"base_weights":[-1.884408E-2,-1.5208638E-1,1.9312519E-1,-2.3334432E-1,1.3853201E-1,-2.7394232E-1,2.5845072E-1,-3.4794247E-1,-8.054558E-2,2.4347878E-1,-3.5932446E-1,-5.011582E-1,4.1158792E-1,3.6763337E-1,2.3800153E-2,-2.8454207E-3,-1.5589817E-2,2.1510299E-3,-8.203581E-3,-1.9384392E-2,9.430805E-3,-2.0578412E-2,7.705046E-3,1.9260854E-2,-1.9286707E-2,2.1650013E-2,-1.5790531E-2,5.7032052E-3,1.6760489E-2,1.0067744E-2,-1.4355205E-2],"categories":[],"categories_nodes":[],"categories_segments":[],"categories_sizes":[],"default_left":[0,0,0,0,0,0,0,0,0,0,0,0,0,0,0,0,0,0,0,0,0,0,0,0,0,0,0,0,0,0,0],"id":41,"left_children":[1,3,5,7,9,11,13,15,17,19,21,23,25,27,29,-1,-1,-1,-1,-1,-1,-1,-1,-1,-1,-1,-1,-1,-1,-1,-1],"loss_changes":[2.4232983E1,1.2471835E1,1.0176416E1,7.1868515E0,6.134153E0,6.612065E0,7.4487095E0,1.0170427E1,5.244015E0,6.267842E0,4.3123193E0,5.4904184E0,3.516982E0,6.6289463E0,1.4804245E1,0E0,0E0,0E0,0E0,0E0,0E0,0E0,0E0,0E0,0E0,0E0,0E0,0E0,0E0,0E0,0E0],"parents":[2147483647,0,0,1,1,2,2,3,3,4,4,5,5,6,6,7,7,8,8,9,9,10,10,11,11,12,12,13,13,14,14],"right_children":[2,4,6,8,10,12,14,16,18,20,22,24,26,28,30,-1,-1,-1,-1,-1,-1,-1,-1,-1,-1,-1,-1,-1,-1,-1,-1],"split_conditions":[3.8784546E-1,3.6563317E-3,-2.8908069E-3,3.481961E-1,5E0,4.2091554E-1,2.5388646E0,-2.2397288E-3,7.307355E-1,3.4763874E1,2.5842744E-1,-2.5388646E0,3.9603072E-1,-2.1833107E-1,-2.7862343E-1,-2.8454207E-3,-1.5589817E-2,2.1510299E-3,-8.203581E-3,-1.9384392E-2,9.430805E-3,-2.0578412E-2,7.705046E-3,1.9260854E-2,-1.9286707E-2,2.1650013E-2,-1.5790531E-2,5.7032052E-3,1.6760489E-2,1.0067744E-2,-1.4355205E-2],"split_indices":[0,8,7,0,43,0,42,49,43,33,48,43,48,45,45,0,0,0,0,0,0,0,0,0,0,0,0,0,0,0,0],"split_type":[0,0,0,0,0,0,0,0,0,0,0,0,0,0,0,0,0,0,0,0,0,0,0,0,0,0,0,0,0,0,0],"sum_hessian":[8.559691E2,5.257618E2,3.302074E2,4.1103262E2,1.14729126E2,4.0125168E1,2.900822E2,2.3414679E2,1.7688583E2,9.517702E1,1.9552107E1,3.0338545E1,9.786624E0,1.9758119E2,9.250104E1,9.5274376E1,1.3887242E2,9.921302E1,7.7672806E1,6.424751E0,8.8752266E1,1.2704342E1,6.847765E0,2.9571123E0,2.7381433E1,7.528359E0,2.2582653E0,1.0344934E2,9.413184E1,5.7278873E1,3.5222168E1],"tree_param":{"num_deleted":"0","num_feature":"57","num_nodes":"31","size_leaf_vector":"1"}},{"base_weights":[3.6529822E-3,5.1541205E-2,-4.3101904E-1,-4.1580354E-3,2.6699352E-1,-4.8380357E-1,2.0410389E-2,2.287804E-1,-9.091072E-2,6.5878636E-1,1.4240707E-1,-5.118815E-1,1.7757758E-2,1.3309063E-2,-1.0797832E-5,1.833568E-2,-3.6823843E-3,2.3431247E-2,-1.7177327E-2,1.1252238E-2,-5.300078E-3,1.7689703E-2,-1.6232401E-2],"categories":[],"categories_nodes":[],"categories_segments":[],"categories_sizes":[],"default_left":[0,0,0,0,0,0,0,0,0,0,0,0,0,0,0,0,0,0,0,0,0,0,0],"id":42,"left_children":[1,3,5,7,9,11,-1,13,15,17,19,21,-1,-1,-1,-1,-1,-1,-1,-1,-1,-1,-1],"loss_changes":[1.8525133E1,9.620436E0,5.5101833E0,1.2911548E1,7.9442024E0,2.8672886E0,0E0,8.536397E0,1.0480033E1,6.3867397E0,9.436531E0,2.9974613E0,0E0,0E0,0E0,0E0,0E0,0E0,0E0,0E0,0E0,0E0,0E0],"parents":[2147483647,0,0,1,1,2,2,3,3,4,4,5,5,7,7,8,8,9,9,10,10,11,11],"right_children":[2,4,6,8,10,12,-1,14,16,18,20,22,-1,-1,-1,-1,-1,-1,-1,-1,-1,-1,-1],"split_conditions":[3.5516724E-1,1.648E2,8.8343445E1,-5.3656614E-1,1.6592143E2,7.288764E-2,2.0410389E-2,-6.189217E-5,-4.7624446E-3,3.9356005E-1,-9.455301E-2,-3.2520196E0,1.7757758E-2,1.3309063E-2,-1.0797832E-5,1.833568E-2,-3.6823843E-3,2.3431247E-2,-1.7177327E-2,1.1252238E-2,-5.300078E-3,1.7689703E-2,-1.6232401E-2],"split_indices":[1,27,33,42,31,49,0,7,7,2,48,45,0,0,0,0,0,0,0,0,0,0,0],"split_type":[0,0,0,0,0,0,0,0,0,0,0,0,0,0,0,0,0,0,0,0,0,0,0],"sum_hessian":[8.878936E2,8.0057495E2,8.7318665E1,6.369022E2,1.6367276E2,8.389856E1,3.4201024E0,1.723881E2,4.645141E2,3.8454693E1,1.2521807E2,8.227523E1,1.6233351E0,8.848419E1,8.390391E1,1.935954E1,4.4515457E2,3.531425E1,3.1404421E0,7.231276E1,5.2905304E1,1.6289027E0,8.0646324E1],"tree_param":{"num_deleted":"0","num_feature":"57","num_nodes":"23","size_leaf_vector":"1"}},{"base_weights":[-8.9646615E-3,6.218033E-1,-1.0577421E-1,2.1394566E-1,7.3359627E-1,2.0749945E-2,-2.6853174E-1,6.368335E-1,-9.07771E-2,7.858979E-1,-1.1303693E-1,-7.865794E-2,1.7148899E-1,-3.099139E-1,-7.003907E-2,2.095446E-3,2.953338E-2,-7.920905E-3,2.3565238E-2,2.5777815E-2,8.624501E-3,-1.3909001E-2,2.0586424E-2,-3.3072256E-3,2.082457E-2,1.4654628E-2,1.0957699E-3,1.7665623E-2,-9.681135E-3,-3.7895124E-3,3.1701744E-2],"categories":[],"categories_nodes":[],"categories_segments":[],"categories_sizes":[],"default_left":[0,0,0,0,0,1,0,0,1,0,0,0,0,0,0,0,0,0,0,0,0,0,0,0,0,0,0,0,0,0,0],"id":43,"left_children":[1,3,5,7,9,11,13,15,17,19,21,23,25,27,29,-1,-1,-1,-1,-1,-1,-1,-1,-1,-1,-1,-1,-1,-1,-1,-1],"loss_changes":[5.4193413E1,5.227337E0,1.5847895E1,3.5134244E0,4.174656E0,6.513312E0,2.742733E0,2.1692696E0,2.7064548E0,2.9351807E0,2.067473E0,6.4731073E0,7.370469E0,3.388132E0,3.8971186E0,0E0,0E0,0E0,0E0,0E0,0E0,0E0,0E0,0E0,0E0,0E0,0E0,0E0,0E0,0E0,0E0],"parents":[2147483647,0,0,1,1,2,2,3,3,4,4,5,5,6,6,7,7,8,8,9,9,10,10,11,11,12,12,13,13,14,14],"right_children":[2,4,6,8,10,12,14,16,18,20,22,24,26,28,30,-1,-1,-1,-1,-1,-1,-1,-1,-1,-1,-1,-1,-1,-1,-1,-1],"split_conditions":[3.0193326E-1,-3.4838752E-3,3.850094E-1,-5.200687E-3,5.6876403E-1,9.128709E-2,3.1580771E-3,-5.3217584E-1,3.3194155E-1,1.2451121E0,1.2481958E-3,1.9034923E0,3.6040783E-1,3.440665E-1,7.3697925E-1,2.095446E-3,2.953338E-2,-7.920905E-3,2.3565238E-2,2.5777815E-2,8.624501E-3,-1.3909001E-2,2.0586424E-2,-3.3072256E-3,2.082457E-2,1.4654628E-2,1.0957699E-3,1.7665623E-2,-9.681135E-3,-3.7895124E-3,3.1701744E-2],"split_indices":[0,8,0,8,36,43,8,35,43,34,7,34,2,2,36,0,0,0,0,0,0,0,0,0,0,0,0,0,0,0,0],"split_type":[0,0,0,0,0,0,0,0,0,0,0,0,0,0,0,0,0,0,0,0,0,0,0,0,0,0,0,0,0,0,0],"sum_hessian":[8.854031E2,1.17087845E2,7.6831525E2,2.5816072E1,9.127177E1,4.327654E2,3.3554987E2,1.035531E1,1.5460761E1,8.602898E1,5.2427917E0,2.6107346E2,1.7169194E2,2.7719775E2,5.8352093E1,4.3922E0,5.9631104E0,1.3491924E1,1.9688367E0,7.435983E1,1.1669149E1,3.9361084E0,1.3066833E0,2.516466E2,9.4268465E0,5.0487858E1,1.2120408E2,3.25757E0,2.739402E2,5.6421906E1,1.9301876E0],"tree_param":{"num_deleted":"0","num_feature":"57","num_nodes":"31","size_leaf_vector":"1"}},{"base_weights":[-1.8588055E-2,-2.666119E-1,8.533891E-2,-3.581949E-1,1.6927688E-1,2.4684499E-1,-1.9464543E-2,-1.5410997E-1,-5.182744E-1,-5.621343E-2,6.819973E-1,-8.478628E-2,3.7640265E-1,-9.800246E-2,2.7465287E-1,1.3433696E-2,-7.3042484E-3,-1.6630229E-2,1.919139E-2,5.5652377E-3,-1.9454213E-2,2.827593E-2,-1.5035539E-2,-8.765795E-3,1.6993918E-2,1.4738967E-2,-4.353486E-3,-3.7424266E-3,3.0118141E-2,2.55289E-2,-1.2920434E-3],"categories":[],"categories_nodes":[],"categories_segments":[],"categories_sizes":[],"default_left":[0,0,0,0,0,0,0,0,1,0,0,0,0,0,0,0,0,0,0,0,0,0,0,0,0,0,0,0,0,0,0],"id":44,"left_children":[1,3,5,7,9,11,13,15,17,19,21,23,25,27,29,-1,-1,-1,-1,-1,-1,-1,-1,-1,-1,-1,-1,-1,-1,-1,-1],"loss_changes":[2.2245895E1,1.023328E1,1.0301571E1,6.810274E0,5.2321067E0,1.0320991E1,8.570272E0,5.1722527E0,5.2732544E0,4.7194147E0,4.725824E0,9.362602E0,1.0400663E1,8.749844E0,1.4357391E1,0E0,0E0,0E0,0E0,0E0,0E0,0E0,0E0,0E0,0E0,0E0,0E0,0E0,0E0,0E0,0E0],"parents":[2147483647,0,0,1,1,2,2,3,3,4,4,5,5,6,6,7,7,8,8,9,9,10,10,11,11,12,12,13,13,14,14],"right_children":[2,4,6,8,10,12,14,16,18,20,22,24,26,28,30,-1,-1,-1,-1,-1,-1,-1,-1,-1,-1,-1,-1,-1,-1,-1,-1],"split_conditions":[3.442776E-1,4.1395505E-3,1.5108643E2,-1.5626646E-3,6.565349E1,-1.4925356E-3,1.1112629E0,2.5520036E-1,4.3406987E0,6.648821E-1,7.4416924E-1,1.4527786E2,1.2926068E0,5.881121E0,2.0137927E-1,1.3433696E-2,-7.3042484E-3,-1.6630229E-2,1.919139E-2,5.5652377E-3,-1.9454213E-2,2.827593E-2,-1.5035539E-2,-8.765795E-3,1.6993918E-2,1.4738967E-2,-4.353486E-3,-3.7424266E-3,3.0118141E-2,2.55289E-2,-1.2920434E-3],"split_indices":[0,8,31,49,33,7,34,1,43,43,42,31,45,32,1,0,0,0,0,0,0,0,0,0,0,0,0,0,0,0,0],"split_type":[0,0,0,0,0,0,0,0,0,0,0,0,0,0,0,0,0,0,0,0,0,0,0,0,0,0,0,0,0,0,0],"sum_hessian":[8.611519E2,2.5382587E2,6.0732605E2,2.0990231E2,4.3923557E1,2.3847372E2,3.688523E2,9.313171E1,1.167706E2,3.1125275E1,1.2798283E1,6.7089355E1,1.7138437E2,2.9164215E2,7.721016E1,1.1521325E1,8.161038E1,1.1374908E2,3.0215218E0,2.2591644E1,8.533629E0,1.0655386E1,2.1428964E0,5.1302216E1,1.5787136E1,1.4049069E2,3.0893684E1,2.8559723E2,6.044912E0,2.6842508E1,5.0367653E1],"tree_param":{"num_deleted":"0","num_feature":"57","num_nodes":"31","size_leaf_vector":"1"}},{"base_weights":[1.7148571E-2,7.080762E-2,-4.7857562E-1,-5.873407E-1,9.035749E-2,-5.0768805E-1,2.4495807E-2,-2.1075388E-2,8.1310265E-2,3.9450202E-2,2.8807712E-1,-1.43461E-1,-6.22622E-1,2.35605E-2,-1.46314185E-2,4.788954E-3,-4.009313E-3,1.9171031E-2,4.2475224E-3,2.468919E-2,-1.4063694E-2,-1.9927055E-2,1.1344266E-2],"categories":[],"categories_nodes":[],"categories_segments":[],"categories_sizes":[],"default_left":[0,0,0,0,0,0,0,0,0,0,0,0,1,0,0,0,0,0,0,0,0,0,0],"id":45,"left_children":[1,3,5,7,9,11,-1,-1,13,15,17,19,21,-1,-1,-1,-1,-1,-1,-1,-1,-1,-1],"loss_changes":[2.3072271E1,1.0119723E1,3.6088734E0,1.80548E0,7.645127E0,3.4051685E0,0E0,0E0,2.078497E0,1.2629519E1,7.9089766E0,7.0897694E0,2.8812141E0,0E0,0E0,0E0,0E0,0E0,0E0,0E0,0E0,0E0,0E0],"parents":[2147483647,0,0,1,1,2,2,3,3,4,4,5,5,8,8,9,9,10,10,11,11,12,12],"right_children":[2,4,6,8,10,12,-1,-1,14,16,18,20,22,-1,-1,-1,-1,-1,-1,-1,-1,-1,-1],"split_conditions":[3.5516724E-1,-2.162175E0,9.2156715E1,2.7675584E-1,1.648E2,4.6653926E-1,2.4495807E-2,-2.1075388E-2,2.7741158E-1,2.4906422E-1,-2.2735156E-1,-4.264147E-3,5E0,2.35605E-2,-1.46314185E-2,4.788954E-3,-4.009313E-3,1.9171031E-2,4.2475224E-3,2.468919E-2,-1.4063694E-2,-1.9927055E-2,1.1344266E-2],"split_indices":[1,37,33,1,27,30,0,0,1,1,48,8,42,0,0,0,0,0,0,0,0,0,0],"split_type":[0,0,0,0,0,0,0,0,0,0,0,0,0,0,0,0,0,0,0,0,0,0,0],"sum_hessian":[8.651018E2,7.813795E2,8.372229E1,2.1702986E1,7.596765E2,8.247631E1,1.245978E0,1.8470823E1,3.2321625E0,6.050838E2,1.5459268E2,2.0322454E1,6.215386E1,1.2747614E0,1.957401E0,3.57172E2,2.4791182E2,4.453552E1,1.1005717E2,4.7329397E0,1.5589516E1,5.999544E1,2.1584194E0],"tree_param":{"num_deleted":"0","num_feature":"57","num_nodes":"23","size_leaf_vector":"1"}},{"base_weights":[1.7284619E-2,-1.5828857E-1,3.8145283E-1,-2.7016163E-1,-5.2411575E-2,9.629099E-1,2.947587E-1,-2.805469E-1,2.989488E-2,4.291258E-2,-2.3753819E-1,-1.2715335E-2,3.059241E-2,8.409413E-1,2.2355974E-1,-9.114182E-3,3.8319498E-3,-7.9690036E-4,1.1357176E-2,-1.1668296E-2,-4.1126937E-4,9.231855E-3,3.54852E-2,1.0392437E-2,-2.1243745E-3],"categories":[],"categories_nodes":[],"categories_segments":[],"categories_sizes":[],"default_left":[0,0,0,0,0,0,0,0,0,0,0,0,0,0,0,0,0,0,0,0,0,0,0,0,0],"id":46,"left_children":[1,3,5,7,9,11,13,15,-1,17,19,-1,-1,21,23,-1,-1,-1,-1,-1,-1,-1,-1,-1,-1],"loss_changes":[5.516021E1,6.8812647E0,1.3861855E1,3.9999313E0,5.310132E0,3.2673264E0,9.364706E0,2.710085E0,0E0,4.6530337E0,3.4592657E0,0E0,0E0,4.734543E0,7.9331694E0,0E0,0E0,0E0,0E0,0E0,0E0,0E0,0E0,0E0,0E0],"parents":[2147483647,0,0,1,1,2,2,3,3,4,4,5,5,6,6,7,7,9,9,10,10,13,13,14,14],"right_children":[2,4,6,8,10,12,14,16,-1,18,20,-1,-1,22,24,-1,-1,-1,-1,-1,-1,-1,-1,-1,-1],"split_conditions":[2.7953368E-1,2.2568488E-1,2.8553328E-1,1.8068E2,1.0179545E0,1.4595044E5,4.06E0,9.382669E6,2.989488E-2,7.9304785E-1,3.741614E-1,-1.2715335E-2,3.059241E-2,1.5145E2,1.0813544E0,-9.114182E-3,3.8319498E-3,-7.9690036E-4,1.1357176E-2,-1.1668296E-2,-4.1126937E-4,9.231855E-3,3.54852E-2,1.0392437E-2,-2.1243745E-3],"split_indices":[1,1,2,24,30,17,23,13,0,30,2,0,0,12,30,0,0,0,0,0,0,0,0,0,0],"split_type":[0,0,0,0,0,0,0,0,0,0,0,0,0,0,0,0,0,0,0,0,0,0,0,0,0],"sum_hessian":[8.607674E2,5.811487E2,2.796187E2,2.8181848E2,2.9933017E2,3.4969757E1,2.4464896E2,2.8029886E2,1.519651E0,1.9809607E2,1.0123411E2,1.1225983E0,3.3847157E1,2.696713E1,2.1768182E2,2.654333E2,1.4865544E1,1.6488792E2,3.3208145E1,5.9946655E1,4.1287453E1,1.1278167E1,1.5688964E1,1.5345946E2,6.422237E1],"tree_param":{"num_deleted":"0","num_feature":"57","num_nodes":"25","size_leaf_vector":"1"}},{"base_weights":[8.012636E-3,-8.89214E-2,2.8325653E-1,-1.6173875E-1,1.7963289E-1,4.1495702E-1,-4.900073E-2,-2.616429E-1,8.434281E-4,3.2305253E-1,-2.9058534E-1,2.5165713E-1,7.1913314E-1,1.7548813E-1,-5.1567954E-1,2.5803998E-2,-8.517942E-3,8.467942E-3,-6.2526553E-3,4.475343E-3,1.942236E-2,-1.8082073E-2,1.1915251E-2,1.8283116E-2,-1.5052223E-3,7.6846876E-3,2.7814934E-2,-2.0005591E-2,1.1021736E-2,-2.1717638E-2,7.072417E-3],"categories":[],