{"learner":{"attributes":{"best_iteration":"499","best_score":"0.7839007246084222","scikit_learn":"{\"_estimator_type\": \"classifier\"}"},"feature_names":[],"feature_types":[],"gradient_booster":{"model":{"cats":{"enc":[],"feature_segments":[],"sorted_idx":[]},"gbtree_model_param":{"num_parallel_tree":"1","num_trees":"1500"},"iteration_indptr":[0,3,6,9,12,15,18,21,24,27,30,33,36,39,42,45,48,51,54,57,60,63,66,69,72,75,78,81,84,87,90,93,96,99,102,105,108,111,114,117,120,123,126,129,132,135,138,141,144,147,150,153,156,159,162,165,168,171,174,177,180,183,186,189,192,195,198,201,204,207,210,213,216,219,222,225,228,231,234,237,240,243,246,249,252,255,258,261,264,267,270,273,276,279,282,285,288,291,294,297,300,303,306,309,312,315,318,321,324,327,330,333,336,339,342,345,348,351,354,357,360,363,366,369,372,375,378,381,384,387,390,393,396,399,402,405,408,411,414,417,420,423,426,429,432,435,438,441,444,447,450,453,456,459,462,465,468,471,474,477,480,483,486,489,492,495,498,501,504,507,510,513,516,519,522,525,528,531,534,537,540,543,546,549,552,555,558,561,564,567,570,573,576,579,582,585,588,591,594,597,600,603,606,609,612,615,618,621,624,627,630,633,636,639,642,645,648,651,654,657,660,663,666,669,672,675,678,681,684,687,690,693,696,699,702,705,708,711,714,717,720,723,726,729,732,735,738,741,744,747,750,753,756,759,762,765,768,771,774,777,780,783,786,789,792,795,798,801,804,807,810,813,816,819,822,825,828,831,834,837,840,843,846,849,852,855,858,861,864,867,870,873,876,879,882,885,888,891,894,897,900,903,906,909,912,915,918,921,924,927,930,933,936,939,942,945,948,951,954,957,960,963,966,969,972,975,978,981,984,987,990,993,996,999,1002,1005,1008,1011,1014,1017,1020,1023,1026,1029,1032,1035,1038,1041,1044,1047,1050,1053,1056,1059,1062,1065,1068,1071,1074,1077,1080,1083,1086,1089,1092,1095,1098,1101,1104,1107,1110,1113,1116,1119,1122,1125,1128,1131,1134,1137,1140,1143,1146,1149,1152,1155,1158,1161,1164,1167,1170,1173,1176,1179,1182,1185,1188,1191,1194,1197,1200,1203,1206,1209,1212,1215,1218,1221,1224,1227,1230,1233,1236,1239,1242,1245,1248,1251,1254,1257,1260,1263,1266,1269,1272,1275,1278,1281,1284,1287,1290,1293,1296,1299,1302,1305,1308,1311,1314,1317,1320,1323,1326,1329,1332,1335,1338,1341,1344,1347,1350,1353,1356,1359,1362,1365,1368,1371,1374,1377,1380,1383,1386,1389,1392,1395,1398,1401,1404,1407,1410,1413,1416,1419,1422,1425,1428,1431,1434,1437,1440,1443,1446,1449,1452,1455,1458,1461,1464,1467,1470,1473,1476,1479,1482,1485,1488,1491,1494,1497,1500],"tree_info":[0,1,2,0,1,2,0,1,2,0,1,2,0,1,2,0,1,2,0,1,2,0,1,2,0,1,2,0,1,2,0,1,2,0,1,2,0,1,2,0,1,2,0,1,2,0,1,2,0,1,2,0,1,2,0,1,2,0,1,2,0,1,2,0,1,2,0,1,2,0,1,2,0,1,2,0,1,2,0,1,2,0,1,2,0,1,2,0,1,2,0,1,2,0,1,2,0,1,2,0,1,2,0,1,2,0,1,2,0,1,2,0,1,2,0,1,2,0,1,2,0,1,2,0,1,2,0,1,2,0,1,2,0,1,2,0,1,2,0,1,2,0,1,2,0,1,2,0,1,2,0,1,2,0,1,2,0,1,2,0,1,2,0,1,2,0,1,2,0,1,2,0,1,2,0,1,2,0,1,2,0,1,2,0,1,2,0,1,2,0,1,2,0,1,2,0,1,2,0,1,2,0,1,2,0,1,2,0,1,2,0,1,2,0,1,2,0,1,2,0,1,2,0,1,2,0,1,2,0,1,2,0,1,2,0,1,2,0,1,2,0,1,2,0,1,2,0,1,2,0,1,2,0,1,2,0,1,2,0,1,2,0,1,2,0,1,2,0,1,2,0,1,2,0,1,2,0,1,2,0,1,2,0,1,2,0,1,2,0,1,2,0,1,2,0,1,2,0,1,2,0,1,2,0,1,2,0,1,2,0,1,2,0,1,2,0,1,2,0,1,2,0,1,2,0,1,2,0,1,2,0,1,2,0,1,2,0,1,2,0,1,2,0,1,2,0,1,2,0,1,2,0,1,2,0,1,2,0,1,2,0,1,2,0,1,2,0,1,2,0,1,2,0,1,2,0,1,2,0,1,2,0,1,2,0,1,2,0,1,2,0,1,2,0,1,2,0,1,2,0,1,2,0,1,2,0,1,2,0,1,2,0,1,2,0,1,2,0,1,2,0,1,2,0,1,2,0,1,2,0,1,2,0,1,2,0,1,2,0,1,2,0,1,2,0,1,2,0,1,2,0,1,2,0,1,2,0,1,2,0,1,2,0,1,2,0,1,2,0,1,2,0,1,2,0,1,2,0,1,2,0,1,2,0,1,2,0,1,2,0,1,2,0,1,2,0,1,2,0,1,2,0,1,2,0,1,2,0,1,2,0,1,2,0,1,2,0,1,2,0,1,2,0,1,2,0,1,2,0,1,2,0,1,2,0,1,2,0,1,2,0,1,2,0,1,2,0,1,2,0,1,2,0,1,2,0,1,2,0,1,2,0,1,2,0,1,2,0,1,2,0,1,2,0,1,2,0,1,2,0,1,2,0,1,2,0,1,2,0,1,2,0,1,2,0,1,2,0,1,2,0,1,2,0,1,2,0,1,2,0,1,2,0,1,2,0,1,2,0,1,2,0,1,2,0,1,2,0,1,2,0,1,2,0,1,2,0,1,2,0,1,2,0,1,2,0,1,2,0,1,2,0,1,2,0,1,2,0,1,2,0,1,2,0,1,2,0,1,2,0,1,2,0,1,2,0,1,2,0,1,2,0,1,2,0,1,2,0,1,2,0,1,2,0,1,2,0,1,2,0,1,2,0,1,2,0,1,2,0,1,2,0,1,2,0,1,2,0,1,2,0,1,2,0,1,2,0,1,2,0,1,2,0,1,2,0,1,2,0,1,2,0,1,2,0,1,2,0,1,2,0,1,2,0,1,2,0,1,2,0,1,2,0,1,2,0,1,2,0,1,2,0,1,2,0,1,2,0,1,2,0,1,2,0,1,2,0,1,2,0,1,2,0,1,2,0,1,2,0,1,2,0,1,2,0,1,2,0,1,2,0,1,2,0,1,2,0,1,2,0,1,2,0,1,2,0,1,2,0,1,2,0,1,2,0,1,2,0,1,2,0,1,2,0,1,2,0,1,2,0,1,2,0,1,2,0,1,2,0,1,2,0,1,2,0,1,2,0,1,2,0,1,2,0,1,2,0,1,2,0,1,2,0,1,2,0,1,2,0,1,2,0,1,2,0,1,2,0,1,2,0,1,2,0,1,2,0,1,2,0,1,2,0,1,2,0,1,2,0,1,2,0,1,2,0,1,2,0,1,2,0,1,2,0,1,2,0,1,2,0,1,2,0,1,2,0,1,2,0,1,2,0,1,2,0,1,2,0,1,2,0,1,2,0,1,2,0,1,2,0,1,2,0,1,2,0,1,2,0,1,2,0,1,2,0,1,2,0,1,2,0,1,2,0,1,2,0,1,2,0,1,2,0,1,2,0,1,2,0,1,2,0,1,2,0,1,2,0,1,2,0,1,2,0,1,2,0,1,2,0,1,2,0,1,2,0,1,2,0,1,2,0,1,2,0,1,2,0,1,2,0,1,2,0,1,2,0,1,2,0,1,2,0,1,2,0,1,2,0,1,2,0,1,2,0,1,2,0,1,2,0,1,2,0,1,2,0,1,2,0,1,2,0,1,2,0,1,2,0,1,2,0,1,2,0,1,2,0,1,2,0,1,2,0,1,2,0,1,2,0,1,2,0,1,2,0,1,2,0,1,2,0,1,2,0,1,2,0,1,2,0,1,2,0,1,2,0,1,2,0,1,2,0,1,2,0,1,2,0,1,2,0,1,2,0,1,2,0,1,2,0,1,2,0,1,2,0,1,2,0,1,2,0,1,2,0,1,2,0,1,2,0,1,2,0,1,2,0,1,2,0,1,2,0,1,2,0,1,2,0,1,2,0,1,2,0,1,2,0,1,2,0,1,2,0,1,2,0,1,2,0,1,2,0,1,2,0,1,2,0,1,2,0,1,2,0,1,2,0,1,2,0,1,2,0,1,2,0,1,2,0,1,2,0,1,2,0,1,2,0,1,2,0,1,2,0,1,2,0,1,2,0,1,2,0,1,2,0,1,2,0,1,2,0,1,2,0,1,2,0,1,2,0,1,2,0,1,2,0,1,2,0,1,2,0,1,2,0,1,2,0,1,2,0,1,2,0,1,2,0,1,2,0,1,2,0,1,2,0,1,2,0,1,2,0,1,2,0,1,2,0,1,2,0,1,2,0,1,2,0,1,2,0,1,2,0,1,2,0,1,2,0,1,2,0,1,2,0,1,2,0,1,2,0,1,2,0,1,2,0,1,2,0,1,2,0,1,2,0,1,2,0,1,2,0,1,2,0,1,2,0,1,2,0,1,2,0,1,2,0,1,2,0,1,2,0,1,2,0,1,2,0,1,2,0,1,2,0,1,2,0,1,2,0,1,2,0,1,2,0,1,2,0,1,2,0,1,2,0,1,2,0,1,2,0,1,2,0,1,2,0,1,2,0,1,2,0,1,2,0,1,2,0,1,2,0,1,2,0,1,2,0,1,2,0,1,2,0,1,2],"trees":[{"base_weights":[1.2428646E-2,6.293816E-2,-4.976866E-1,-5.328831E-1,9.460866E-2,-5.9189016E-1,6.0975647E-1,-5.9665346E-1,2.638892E-2,4.9382836E-1,5.255005E-2,2.905439E-2,-6.2788343E-1,-1.6579548E-2,9.902891E-1,-2.2116238E-2,-4.4456893E-3,-8.208464E-3,2.247362E-2,-3.8308665E-4,9.731889E-3,-5.1937187E-3,-2.2301603E-2,-1.3125758E-2,3.820259E-2],"categories":[],"categories_nodes":[],"categories_segments":[],"categories_sizes":[],"default_left":[0,0,1,0,0,0,0,0,0,0,0,0,0,0,0,0,0,0,0,0,0,0,0,0,0],"id":0,"left_children":[1,3,5,7,9,11,13,15,-1,17,19,-1,21,-1,23,-1,-1,-1,-1,-1,-1,-1,-1,-1,-1],"loss_changes":[4.492188E1,2.9981577E1,1.6748436E1,7.7496758E0,2.5277065E1,8.767117E0,6.2122703E0,4.765705E0,0E0,2.8322159E1,2.4232727E1,0E0,7.3618393E0,0E0,4.602416E0,0E0,0E0,0E0,0E0,0E0,0E0,0E0,0E0,0E0,0E0],"parents":[2147483647,0,0,1,1,2,2,3,3,4,4,5,5,6,6,7,7,9,9,10,10,12,12,14,14],"right_children":[2,4,6,8,10,12,14,16,-1,18,20,-1,22,-1,24,-1,-1,-1,-1,-1,-1,-1,-1,-1,-1],"split_conditions":[3.535201E-1,-1.7640243E0,9.4944626E-2,4.4868535E-1,3.259592E-1,-3.2520196E0,4.35E0,2.6313967E-1,2.638892E-2,-1.7651948E-3,1.6485E2,2.905439E-2,-3.1905618E-2,-1.6579548E-2,9.715372E-4,-2.2116238E-2,-4.4456893E-3,-8.208464E-3,2.247362E-2,-3.8308665E-4,9.731889E-3,-5.1937187E-3,-2.2301603E-2,-1.3125758E-2,3.820259E-2],"split_indices":[1,35,57,62,0,43,21,1,0,47,25,0,57,0,47,0,0,0,0,0,0,0,0,0,0],"split_type":[0,0,0,0,0,0,0,0,0,0,0,0,0,0,0,0,0,0,0,0,0,0,0,0,0],"sum_hessian":[1.7412621E3,1.5851807E3,1.5608144E2,7.920781E1,1.5059728E3,1.4427441E2,1.1807026E1,7.633895E1,2.868859E0,1.4251176E2,1.363461E3,2.6688309E0,1.4160558E2,2.8003929E0,9.006634E0,5.7632362E1,1.8706589E1,3.5555443E1,1.06956314E2,1.1000842E3,2.633768E2,2.91875E1,1.1241808E2,1.4001964E0,7.6064367E0],"tree_param":{"num_deleted":"0","num_feature":"65","num_nodes":"25","size_leaf_vector":"1"}},{"base_weights":[-1.4857046E-2,-2.1147062E-1,5.830541E-1,-2.1813759E-1,5.7275057E-2,2.0031722E0,4.433006E-1,-8.0573805E-2,-3.0393654E-1,-2.6246134E-2,8.4856614E-2,-5.826255E-2,5.9271485E-1,-3.4798111E-3,2.6594914E-2,-9.456939E-3,8.2756635E-3,-1.1837578E-2,1.3554305E-2,-4.5400294E-3,5.7275057E-2,2.1049468E-2,-5.04121E-3],"categories":[],"categories_nodes":[],"categories_segments":[],"categories_sizes":[],"default_left":[0,1,0,0,0,1,1,1,0,0,0,0,0,0,0,0,0,0,0,0,0,0,0],"id":1,"left_children":[1,3,5,7,-1,9,11,13,15,17,-1,19,21,-1,-1,-1,-1,-1,-1,-1,-1,-1,-1],"loss_changes":[1.3198459E2,1.2361015E1,5.425325E1,9.926338E0,0E0,4.1293777E1,1.9086597E1,1.1242464E1,3.4848938E0,1.6055515E0,0E0,1.1140487E1,1.6358109E1,0E0,0E0,0E0,0E0,0E0,0E0,0E0,0E0,0E0,0E0],"parents":[2147483647,0,0,1,1,2,2,3,3,5,5,6,6,7,7,8,8,9,9,11,11,12,12],"right_children":[2,4,6,8,-1,10,12,14,16,18,-1,20,22,-1,-1,-1,-1,-1,-1,-1,-1,-1,-1],"split_conditions":[2.8094012E-1,4.0756884E0,2.803006E-1,4.01467E-1,5.7275057E-2,1.8345808E1,1.46255665E1,7.824077E1,2.6371044E-1,4.21E0,8.4856614E-2,7.3684135E1,1.9562801E0,-3.4798111E-3,2.6594914E-2,-9.456939E-3,8.2756635E-3,-1.1837578E-2,1.3554305E-2,-4.5400294E-3,5.7275057E-2,2.1049468E-2,-5.04121E-3],"split_indices":[1,35,2,62,0,52,56,52,1,21,0,31,28,0,0,0,0,0,0,0,0,0,0],"split_type":[0,0,0,0,0,0,0,0,0,0,0,0,0,0,0,0,0,0,0,0,0,0,0],"sum_hessian":[1.1206754E3,8.438388E2,2.7683664E2,8.420885E2,1.7502676E0,2.3608017E1,2.532286E2,3.242111E2,5.1787744E2,7.105494E0,1.6502523E1,5.8261803E1,1.9496681E2,3.1360507E2,1.06060295E1,5.0842914E2,9.448287E0,4.1119003E0,2.9935937E0,5.6511536E1,1.7502676E0,1.7061394E2,2.4352867E1],"tree_param":{"num_deleted":"0","num_feature":"65","num_nodes":"23","size_leaf_vector":"1"}},{"base_weights":[-5.424435E-2,-3.4888178E-1,6.334966E-2,-7.189913E-3,-6.178142E-1,7.506977E-1,3.7166003E-2,-2.8627703E-2,8.752883E-2,-8.3420366E-1,-3.024039E-1,-2.2903461E-2,8.721231E-1,9.383368E-2,-3.334786E-1,-2.8209077E-2,5.1584532E-3,-1.0412223E-2,-2.831597E-2,2.2435142E-2,-1.2586067E-2,2.8473157E-2,1.5147799E-2,1.4616662E-2,2.4157362E-4,-1.4049405E-2,1.5311803E-2],"categories":[],"categories_nodes":[],"categories_segments":[],"categories_sizes":[],"default_left":[0,0,0,0,0,0,0,0,0,0,0,0,0,0,0,0,0,0,0,0,0,0,0,0,0,0,0],"id":2,"left_children":[1,3,5,7,9,11,13,-1,15,17,19,-1,21,23,25,-1,-1,-1,-1,-1,-1,-1,-1,-1,-1,-1,-1],"loss_changes":[6.578465E1,4.976361E1,2.4402473E1,2.1571562E1,2.0431435E1,9.814606E0,2.7518398E1,0E0,1.91362E1,9.243668E0,1.5676112E1,0E0,8.361511E-1,3.8327988E1,2.001118E1,0E0,0E0,0E0,0E0,0E0,0E0,0E0,0E0,0E0,0E0,0E0,0E0],"parents":[2147483647,0,0,1,1,2,2,3,3,4,4,5,5,6,6,8,8,9,9,10,10,12,12,13,13,14,14],"right_children":[2,4,6,8,10,12,14,-1,16,18,20,-1,22,24,26,-1,-1,-1,-1,-1,-1,-1,-1,-1,-1,-1,-1],"split_conditions":[3.4695795E-1,-2.1842264E-3,1.3011E2,3.530718E-1,8.657626E-1,-2.891818E-2,4.6035716E-1,-2.8627703E-2,2.4464162E-1,1.095834E6,-2.013411E0,-2.2903461E-2,1.1617604E0,1.3270053E2,1.5207639E0,-2.8209077E-2,5.1584532E-3,-1.0412223E-2,-2.831597E-2,2.2435142E-2,-1.2586067E-2,2.8473157E-2,1.5147799E-2,1.4616662E-2,2.4157362E-4,-1.4049405E-2,1.5311803E-2],"split_indices":[0,47,23,62,28,47,46,0,0,11,33,0,28,54,28,0,0,0,0,0,0,0,0,0,0,0,0],"split_type":[0,0,0,0,0,0,0,0,0,0,0,0,0,0,0,0,0,0,0,0,0,0,0,0,0,0,0],"sum_hessian":[1.8970408E3,5.405928E2,1.356448E3,2.3854117E2,3.020516E2,4.876062E1,1.3076874E3,2.0863008E1,2.1767816E2,1.7817117E2,1.2388044E2,3.2274685E0,4.5533154E1,1.1349172E3,1.7277013E2,1.575222E1,2.0192593E2,3.3504738E1,1.4466643E2,1.1889609E1,1.1199083E2,3.6331566E1,9.201586E0,2.0233577E2,9.3258154E2,1.493516E2,2.3418537E1],"tree_param":{"num_deleted":"0","num_feature":"65","num_nodes":"27","size_leaf_vector":"1"}},{"base_weights":[9.884985E-3,3.8993265E-2,-5.4836994E-1,-2.1435848E-2,2.905558E-1,-2.206906E-2,5.378206E-1,9.659863E-1,-3.6059298E-2,2.0293252E-1,8.960239E-1,-1.75307E-2,1.0038911E0,3.8903162E-2,-1.7213907E-2,-1.8682905E-2,-3.8565302E-4,-2.1553004E-2,8.6455485E-3,-1.8051324E-2,3.2469194E-2,3.682685E-2,1.5812254E-2],"categories":[],"categories_nodes":[],"categories_segments":[],"categories_sizes":[],"default_left":[0,0,1,0,0,0,1,0,0,0,0,0,0,0,0,0,0,0,0,0,0,0,0],"id":3,"left_children":[1,3,5,7,9,-1,11,13,15,17,19,-1,21,-1,-1,-1,-1,-1,-1,-1,-1,-1,-1],"loss_changes":[2.8763275E1,2.5575914E1,1.8238667E1,1.963172E1,1.7105932E1,0E0,7.635463E0,1.08503685E1,1.8211994E1,2.2668379E1,1.2063362E1,0E0,4.0778542E-1,0E0,0E0,0E0,0E0,0E0,0E0,0E0,0E0,0E0,0E0],"parents":[2147483647,0,0,1,1,2,2,3,3,4,4,6,6,7,7,8,8,9,9,10,10,12,12],"right_children":[2,4,6,8,10,-1,12,14,16,18,20,-1,22,-1,-1,-1,-1,-1,-1,-1,-1,-1,-1],"split_conditions":[4.00168E-1,1.2772701E0,5.3737892E1,1.2951931E-1,4.29117E-1,-2.206906E-2,5.108473E-1,1.933224E7,1.3032E2,1.3872E2,1.5570515E-1,-1.75307E-2,-5.9725247E-2,3.8903162E-2,-1.7213907E-2,-1.8682905E-2,-3.8565302E-4,-2.1553004E-2,8.6455485E-3,-1.8051324E-2,3.2469194E-2,3.682685E-2,1.5812254E-2],"split_indices":[1,43,56,1,2,0,40,11,23,25,1,0,43,0,0,0,0,0,0,0,0,0,0],"split_type":[0,0,0,0,0,0,0,0,0,0,0,0,0,0,0,0,0,0,0,0,0,0,0],"sum_hessian":[1.7677493E3,1.681028E3,8.672127E1,1.3561703E3,3.2485773E2,7.424393E1,1.2477338E1,1.8841984E1,1.3373282E3,2.8495435E2,3.9903397E1,3.586993E0,8.890345E0,1.5639936E1,3.202047E0,4.9896126E1,1.2874321E3,2.3504309E1,2.6145004E2,4.167343E0,3.5736053E1,4.979842E0,3.9105024E0],"tree_param":{"num_deleted":"0","num_feature":"65","num_nodes":"23","size_leaf_vector":"1"}},{"base_weights":[-2.2561551E-4,1.13566E0,-1.1159496E-1,2.1672182E0,7.86543E-1,-2.5018975E-1,2.0173989E-1,7.901194E-2,8.128179E-2,4.3679932E-1,1.420809E0,9.8333424E-1,-2.575573E-1,-9.126789E-3,3.9267647E-1,1.4259855E-2,-1.2040266E-2,-2.762628E-3,2.8951421E-2,-1.3382972E-2,5.8895934E-2,-6.5821847E-3,5.5864636E-2,-8.085325E-3,1.4694211E-2,-1.5094819E-3,5.960146E-2,8.395465E-3,3.287229E-2],"categories":[],"categories_nodes":[],"categories_segments":[],"categories_sizes":[],"default_left":[0,0,0,0,0,0,0,0,0,0,0,0,1,0,0,0,0,0,0,0,0,0,0,0,0,0,0,0,0],"id":4,"left_children":[1,3,5,7,9,11,13,-1,15,17,19,21,23,25,27,-1,-1,-1,-1,-1,-1,-1,-1,-1,-1,-1,-1,-1,-1],"loss_changes":[1.3977484E2,3.3826103E1,4.374861E1,2.3507927E1,1.6079292E1,6.5977325E0,1.24504175E1,0E0,1.2343264E0,1.4049324E1,2.7520512E1,5.009085E0,6.3387184E0,1.225699E1,1.2564852E1,0E0,0E0,0E0,0E0,0E0,0E0,0E0,0E0,0E0,0E0,0E0,0E0,0E0,0E0],"parents":[2147483647,0,0,1,1,2,2,3,3,4,4,5,5,6,6,8,8,9,9,10,10,11,11,12,12,13,13,14,14],"right_children":[2,4,6,8,10,12,14,-1,16,18,20,22,24,26,28,-1,-1,-1,-1,-1,-1,-1,-1,-1,-1,-1,-1,-1,-1],"split_conditions":[3.0159143E-1,2.3123777E-1,2.5942034E-1,4.2926148E-2,1.747428E-3,-6.753351E-1,5.9547344E5,7.901194E-2,1.57772E2,3.083014E-1,1.609764E-1,1.8478264E1,4.3406987E0,5.9018946E-1,6.34796E6,1.4259855E-2,-1.2040266E-2,-2.762628E-3,2.8951421E-2,-1.3382972E-2,5.8895934E-2,-6.5821847E-3,5.5864636E-2,-8.085325E-3,1.4694211E-2,-1.5094819E-3,5.960146E-2,8.395465E-3,3.287229E-2],"split_indices":[0,0,1,47,47,46,17,0,12,2,28,31,40,46,11,0,0,0,0,0,0,0,0,0,0,0,0,0,0],"split_type":[0,0,0,0,0,0,0,0,0,0,0,0,0,0,0,0,0,0,0,0,0,0,0,0,0,0,0,0,0],"sum_hessian":[1.102913E3,9.7659584E1,1.00525336E3,2.3377344E1,7.428224E1,6.9710864E2,3.081447E2,1.8890034E1,4.4873104E0,4.8968792E1,2.5313448E1,3.3524575E0,6.937562E2,1.468826E2,1.6126212E2,2.4786718E0,2.0086384E0,2.4882187E1,2.4086605E1,5.7386127E0,1.9574835E1,1.7321724E0,1.6202852E0,6.834641E2,1.0292125E1,1.4486768E2,2.014923E0,1.4016635E2,2.109576E1],"tree_param":{"num_deleted":"0","num_feature":"65","num_nodes":"29","size_leaf_vector":"1"}},{"base_weights":[-1.4778633E-2,-2.8191212E-1,9.194606E-2,-2.080114E-2,-4.8669323E-1,4.9631648E-2,6.067113E-1,1.077412E-1,-2.8754149E-2,-7.144215E-1,-1.4466938E-1,1.6094401E-1,-1.5665746E-1,7.2050846E-1,-2.625785E-2,-1.9770062E-2,6.056856E-3,1.8528474E-2,-2.3407837E-2,2.189371E-3,-2.851253E-2,-2.025902E-2,5.586343E-3,-1.0422827E-2,3.1040716E-3,2.5658298E-2,-9.8576E-3],"categories":[],"categories_nodes":[],"categories_segments":[],"categories_sizes":[],"default_left":[0,0,1,1,0,1,0,0,0,0,0,0,0,0,0,0,0,0,0,0,0,0,0,0,0,0,0],"id":5,"left_children":[1,3,5,7,9,11,13,15,-1,17,19,21,23,25,-1,-1,-1,-1,-1,-1,-1,-1,-1,-1,-1,-1,-1],"loss_changes":[5.660326E1,3.0294628E1,3.0872782E1,3.025513E1,2.4633682E1,3.015346E1,1.8789345E1,1.6080227E1,0E0,1.718016E1,2.2551067E1,1.8143202E1,2.2880798E1,1.4496498E1,0E0,0E0,0E0,0E0,0E0,0E0,0E0,0E0,0E0,0E0,0E0,0E0,0E0],"parents":[2147483647,0,0,1,1,2,2,3,3,4,4,5,5,6,6,7,7,9,9,10,10,11,11,12,12,13,13],"right_children":[2,4,6,8,10,12,14,16,-1,18,20,22,24,26,-1,-1,-1,-1,-1,-1,-1,-1,-1,-1,-1,-1,-1],"split_conditions":[3.4695795E-1,-1.8979727E-3,2.5388646E0,1.587498E2,8.657626E-1,-6.8346504E-3,4.37E0,3.6035633E-1,-2.8754149E-2,-2.162175E0,6.563103E-1,-4.0530004E-2,3.917103E-1,4.0414364E1,-2.625785E-2,-1.9770062E-2,6.056856E-3,1.8528474E-2,-2.3407837E-2,2.189371E-3,-2.851253E-2,-2.025902E-2,5.586343E-3,-1.0422827E-2,3.1040716E-3,2.5658298E-2,-9.8576E-3],"split_indices":[0,47,41,50,28,57,21,62,0,35,33,47,32,56,0,0,0,0,0,0,0,0,0,0,0,0,0],"split_type":[0,0,0,0,0,0,0,0,0,0,0,0,0,0,0,0,0,0,0,0,0,0,0,0,0,0,0],"sum_hessian":[1.9834915E3,5.657555E2,1.417736E3,2.491599E2,3.165956E2,1.3110613E3,1.0667463E2,2.1989963E2,2.9260262E1,1.8939966E2,1.2719596E2,8.5170575E2,4.5935553E2,9.9544655E1,7.1299763E0,2.3393713E1,1.9650592E2,8.525971E0,1.8087369E2,1.00860886E2,2.6335077E1,2.4225279E1,8.2748047E2,2.6481293E2,1.9454262E2,8.837644E1,1.1168212E1],"tree_param":{"num_deleted":"0","num_feature":"65","num_nodes":"27","size_leaf_vector":"1"}},{"base_weights":[-2.8556386E-2,1.1696896E-2,-4.74573E-1,1.6085781E-1,-7.575444E-2,-6.432649E-1,2.6674303E-1,7.75698E-2,7.5434387E-1,-1.4503975E-1,3.0856693E-1,2.0061014E-2,-6.877945E-1,-1.980303E-2,6.8902695E-1,2.5081089E-2,1.7029676E-4,-2.006746E-2,2.8234746E-2,-6.5011685E-3,1.0342051E-2,1.3125225E-2,-1.4274921E-2,-2.2038618E-2,-1.3950383E-3,-1.7567366E-2,3.076624E-2],"categories":[],"categories_nodes":[],"categories_segments":[],"categories_sizes":[],"default_left":[0,1,1,1,0,0,0,0,0,0,0,0,1,0,0,0,0,0,0,0,0,0,0,0,0,0,0],"id":6,"left_children":[1,3,5,7,9,11,13,15,17,19,21,-1,23,-1,25,-1,-1,-1,-1,-1,-1,-1,-1,-1,-1,-1,-1],"loss_changes":[3.1919771E1,2.129294E1,1.857611E1,2.9762218E1,2.744825E1,7.4812202E0,1.140943E1,2.8904087E1,2.0339596E1,3.070372E1,1.6139084E1,0E0,3.4712029E0,0E0,9.057824E0,0E0,0E0,0E0,0E0,0E0,0E0,0E0,0E0,0E0,0E0,0E0,0E0],"parents":[2147483647,0,0,1,1,2,2,3,3,4,4,5,5,6,6,7,7,8,8,9,9,10,10,12,12,14,14],"right_children":[2,4,6,8,10,12,14,16,18,20,22,-1,24,-1,26,-1,-1,-1,-1,-1,-1,-1,-1,-1,-1,-1,-1],"split_conditions":[3.535201E-1,-9.7936356E-1,4.510453E1,5.9809437E1,1.6036151E2,1.34325E2,-5.228545E-1,8E-1,3.517837E-1,2.8885132E-1,3.947247E-1,2.0061014E-2,3.7260346E0,-1.980303E-2,2.803006E-1,2.5081089E-2,1.7029676E-4,-2.006746E-2,2.8234746E-2,-6.5011685E-3,1.0342051E-2,1.3125225E-2,-1.4274921E-2,-2.2038618E-2,-1.3950383E-3,-1.7567366E-2,3.076624E-2],"split_indices":[1,41,56,56,54,50,41,4,2,1,2,0,41,0,2,0,0,0,0,0,0,0,0,0,0,0,0],"split_type":[0,0,0,0,0,0,0,0,0,0,0,0,0,0,0,0,0,0,0,0,0,0,0,0,0,0,0],"sum_hessian":[1.7765917E3,1.6304191E3,1.4617258E2,6.022888E2,1.0281302E3,1.19183716E2,2.6988867E1,5.29159E2,7.312985E1,8.716179E2,1.5651233E2,3.452304E0,1.1573141E2,8.271378E0,1.8717487E1,4.4894768E1,4.842642E2,8.185716E0,6.494413E1,7.608454E2,1.1077251E2,1.347965E2,2.1715832E1,1.0772032E2,8.011085E0,3.7549274E0,1.4962561E1],"tree_param":{"num_deleted":"0","num_feature":"65","num_nodes":"27","size_leaf_vector":"1"}},{"base_weights":[3.0609835E-3,1.2377691E0,-1.1053754E-1,7.255367E-2,9.600822E-1,-2.3581861E-1,1.5601653E-1,1.4682173E0,4.2566472E-1,-3.530521E-1,-1.4617328E-1,1.3855441E-1,5.825311E-2,1.883873E-2,6.4840406E-2,6.0328614E-2,7.617643E-3,2.5882958E-2,-1.1140534E-2,-7.870438E-3,-3.3466978E-4,1.8090902E-2,2.2761342E-3],"categories":[],"categories_nodes":[],"categories_segments":[],"categories_sizes":[],"default_left":[0,0,0,0,0,1,0,0,0,0,0,0,0,0,0,0,0,0,0,0,0,0,0],"id":7,"left_children":[1,3,5,-1,7,9,11,13,15,17,19,21,-1,-1,-1,-1,-1,-1,-1,-1,-1,-1,-1],"loss_changes":[1.551327E2,2.8230072E1,3.386067E1,0E0,2.0312202E1,7.19384E0,9.848148E0,2.142305E1,1.010403E1,6.951168E0,6.151903E0,9.340292E0,0E0,0E0,0E0,0E0,0E0,0E0,0E0,0E0,0E0,0E0,0E0],"parents":[2147483647,0,0,1,1,2,2,4,4,5,5,6,6,7,7,8,8,9,9,10,10,11,11],"right_children":[2,4,6,-1,8,10,12,14,16,18,20,22,-1,-1,-1,-1,-1,-1,-1,-1,-1,-1,-1],"split_conditions":[3.0159143E-1,2.114006E-1,2.5895005E-1,7.255367E-2,1.2380905E0,1.430678E2,3.7578902E-1,3.083014E-1,-1.0512817E0,-2.7401338E0,1.6422084E2,4.06E0,5.825311E-2,1.883873E-2,6.4840406E-2,6.0328614E-2,7.617643E-3,2.5882958E-2,-1.1140534E-2,-7.870438E-3,-3.3466978E-4,1.8090902E-2,2.2761342E-3],"split_indices":[0,0,1,0,30,50,1,2,43,41,53,21,0,0,0,0,0,0,0,0,0,0,0],"split_type":[0,0,0,0,0,0,0,0,0,0,0,0,0,0,0,0,0,0,0,0,0,0,0],"sum_hessian":[1.1040533E3,9.2185745E1,1.01186755E3,1.6085047E1,7.61007E1,6.884226E2,3.23445E2,3.8113903E1,3.79868E1,2.9703598E2,3.913866E2,3.2137994E2,2.0650494E0,1.8089968E1,2.0023933E1,2.6662955E0,3.5320507E1,3.720072E0,2.9331592E2,2.0986615E2,1.8152045E2,3.7189537E1,2.841904E2],"tree_param":{"num_deleted":"0","num_feature":"65","num_nodes":"23","size_leaf_vector":"1"}},{"base_weights":[4.5346912E-2,-2.6477593E-1,1.7265347E-1,1.08649954E-1,-4.1065776E-1,2.1998219E-1,-1.7781714E-1,3.2805827E-1,-3.952678E-1,-4.4398848E-4,-5.97243E-1,2.9259846E-1,1.0999459E-2,-2.9239299E-2,1.1328916E-1,2.1299109E-2,-4.51857E-3,1.7205441E-2,-2.283439E-2,5.230665E-3,-2.787587E-2,-1.9739218E-2,1.9398063E-2,1.2518933E-2,4.487426E-3,-6.9480045E-3,1.2125667E-2,1.2693631E-2,-1.141837E-2],"categories":[],"categories_nodes":[],"categories_segments":[],"categories_sizes":[],"default_left":[0,1,0,0,0,0,0,1,0,1,1,0,0,0,0,0,0,0,0,0,0,0,0,0,0,0,0,0,0],"id":8,"left_children":[1,3,5,7,9,11,13,15,17,19,21,23,25,-1,27,-1,-1,-1,-1,-1,-1,-1,-1,-1,-1,-1,-1,-1,-1],"loss_changes":[7.824942E1,3.1470573E1,2.3343204E1,1.8134382E1,3.1766197E1,1.8787544E1,3.90119E1,2.0946661E1,1.8106058E1,2.1389912E1,2.1975037E1,1.6325142E1,3.0650265E1,0E0,1.909473E1,0E0,0E0,0E0,0E0,0E0,0E0,0E0,0E0,0E0,0E0,0E0,0E0,0E0,0E0],"parents":[2147483647,0,0,1,1,2,2,3,3,4,4,5,5,6,6,7,7,8,8,9,9,10,10,11,11,12,12,14,14],"right_children":[2,4,6,8,10,12,14,16,18,20,22,24,26,-1,28,-1,-1,-1,-1,-1,-1,-1,-1,-1,-1,-1,-1,-1,-1],"split_conditions":[3.4776628E-1,1.2735634E2,1.6823E2,4.325865E6,-5.491848E-3,1.3777044E0,1.7145E2,1.5349405E2,-9.6148676E-1,1.586638E2,4.3406987E0,4.7645958E1,3.917103E-1,-2.9239299E-2,2.457899E-1,2.1299109E-2,-4.51857E-3,1.7205441E-2,-2.283439E-2,5.230665E-3,-2.787587E-2,-1.9739218E-2,1.9398063E-2,1.2518933E-2,4.487426E-3,-6.9480045E-3,1.2125667E-2,1.2693631E-2,-1.141837E-2],"split_indices":[0,54,9,11,47,6,10,51,43,50,41,31,32,0,1,0,0,0,0,0,0,0,0,0,0,0,0,0,0],"split_type":[0,0,0,0,0,0,0,0,0,0,0,0,0,0,0,0,0,0,0,0,0,0,0,0,0,0,0,0,0],"sum_hessian":[1.9798099E3,5.758765E2,1.4039335E3,1.6184462E2,4.140319E2,1.2372266E3,1.6670694E2,1.1299501E2,4.8849606E1,1.2975769E2,2.842742E2,9.178846E2,3.1934198E2,4.3978745E1,1.22728195E2,6.258136E1,5.041365E1,1.3235861E1,3.5613747E1,1.0988804E2,1.9869658E1,2.714897E2,1.2784512E1,4.893205E2,4.285641E2,1.9774402E2,1.2159796E2,7.550565E1,4.7222538E1],"tree_param":{"num_deleted":"0","num_feature":"65","num_nodes":"29","size_leaf_vector":"1"}},{"base_weights":[2.6519809E-2,7.1124695E-2,-4.975787E-1,2.3383744E-2,4.0708822E-1,-5.660541E-1,6.952627E-1,-3.2228205E-2,3.2259005E-1,5.906338E-1,-2.4814832E-1,2.9798055E-2,-6.048995E-1,-1.4718888E-2,3.469098E-2,1.3112849E-2,-2.198085E-3,3.2905817E-2,4.7885654E-3,-1.9720659E-2,1.9726017E-2,-2.1711288E-2,2.112174E-2,2.8890546E-2,-1.9351304E-2],"categories":[],"categories_nodes":[],"categories_segments":[],"categories_sizes":[],"default_left":[0,0,1,0,0,0,0,0,0,0,0,0,0,0,0,0,0,0,0,0,0,0,0,0,0],"id":9,"left_children":[1,3,5,7,9,11,13,15,17,19,21,-1,23,-1,-1,-1,-1,-1,-1,-1,-1,-1,-1,-1,-1],"loss_changes":[4.2007965E1,2.654327E1,1.1906052E1,2.4147148E1,2.4911362E1,8.708179E0,4.99689E0,2.3610754E1,2.8524742E1,1.3887035E1,2.1232857E1,0E0,8.880096E0,0E0,0E0,0E0,0E0,0E0,0E0,0E0,0E0,0E0,0E0,0E0,0E0],"parents":[2147483647,0,0,1,1,2,2,3,3,4,4,5,5,6,6,7,7,8,8,9,9,10,10,12,12],"right_children":[2,4,6,8,10,12,14,16,18,20,22,-1,24,-1,-1,-1,-1,-1,-1,-1,-1,-1,-1,-1,-1],"split_conditions":[3.535201E-1,1.6326913E0,8.115797E1,1.6633E2,4.102275E-1,3.763863E-1,1.6278E2,-2.164051E0,1.6692E2,1.2699E2,1.4338965E2,2.9798055E-2,-3.2520196E0,-1.4718888E-2,3.469098E-2,1.3112849E-2,-2.198085E-3,3.2905817E-2,4.7885654E-3,-1.9720659E-2,1.9726017E-2,-2.1711288E-2,2.112174E-2,2.8890546E-2,-1.9351304E-2],"split_indices":[1,43,52,24,0,37,8,43,25,25,54,0,43,0,0,0,0,0,0,0,0,0,0,0,0],"split_type":[0,0,0,0,0,0,0,0,0,0,0,0,0,0,0,0,0,0,0,0,0,0,0,0,0],"sum_hessian":[1.7944371E3,1.6544913E3,1.3994588E2,1.4495741E3,2.049172E2,1.3284532E2,7.1005664E0,1.2231295E3,2.2644455E2,1.6015343E2,4.476377E1,2.6317663E0,1.3021355E2,1.9699923E0,5.130574E0,9.758275E1,1.1255468E3,3.8378624E1,1.8806593E2,7.699379E0,1.5245406E2,3.0013878E1,1.4749893E1,2.6767745E0,1.2753677E2],"tree_param":{"num_deleted":"0","num_feature":"65","num_nodes":"25","size_leaf_vector":"1"}},{"base_weights":[1.0773902E-2,1.0977196E0,-9.9586375E-2,6.681577E-2,8.9439404E-1,-1.9555207E-1,1.9073822E-1,1.4166037E0,5.2546585E-1,1.4023718E-1,-2.4557976E-1,1.2109703E-2,6.7535514E-1,2.1934757E-2,7.2456084E-2,2.8640311E-2,1.6873346E-3,8.851791E-3,-1.2137151E-2,-7.555872E-3,4.8559077E-2,2.2993848E-2,-1.4293932E-3,1.54267745E-2,6.966443E-2],"categories":[],"categories_nodes":[],"categories_segments":[],"categories_sizes":[],"default_left":[0,0,0,0,0,0,1,0,0,0,1,0,0,0,0,0,0,0,0,0,0,0,0,0,0],"id":10,"left_children":[1,3,5,-1,7,9,11,13,15,17,19,21,23,-1,-1,-1,-1,-1,-1,-1,-1,-1,-1,-1,-1],"loss_changes":[1.2979651E2,2.0912163E1,2.7407906E1,0E0,1.5860947E1,1.24458885E1,2.1162563E1,2.225476E1,1.0438525E1,8.25383E0,7.943199E0,8.137458E0,1.627844E1,0E0,0E0,0E0,0E0,0E0,0E0,0E0,0E0,0E0,0E0,0E0,0E0],"parents":[2147483647,0,0,1,1,2,2,4,4,5,5,6,6,7,7,8,8,9,9,10,10,11,11,12,12],"right_children":[2,4,6,-1,8,10,12,14,16,18,20,22,24,-1,-1,-1,-1,-1,-1,-1,-1,-1,-1,-1,-1],"split_conditions":[3.0159143E-1,1.9582996E-1,2.7063558E-1,6.681577E-2,-1.6017482E-2,1.474761E2,1.554894E2,4.005208E-1,1.1009256E0,4.264298E-1,4.0756884E0,3.182474E1,7.468254E6,2.1934757E-2,7.2456084E-2,2.8640311E-2,1.6873346E-3,8.851791E-3,-1.2137151E-2,-7.555872E-3,4.8559077E-2,2.2993848E-2,-1.4293932E-3,1.54267745E-2,6.966443E-2],"split_indices":[0,0,1,0,46,51,50,62,41,0,35,52,11,0,0,0,0,0,0,0,0,0,0,0,0],"split_type":[0,0,0,0,0,0,0,0,0,0,0,0,0,0,0,0,0,0,0,0,0,0,0,0,0],"sum_hessian":[1.0801263E3,9.873474E1,9.813916E2,1.3544002E1,8.519074E1,7.378309E2,2.4356075E2,3.4093033E1,5.1097706E1,9.543847E1,6.423924E2,1.787127E2,6.4848045E1,2.1243523E1,1.284951E1,2.614629E1,2.4951416E1,7.467571E1,2.0762754E1,6.4109674E2,1.295677E0,1.2249574E1,1.6646313E2,6.026383E1,4.5842133E0],"tree_param":{"num_deleted":"0","num_feature":"65","num_nodes":"25","size_leaf_vector":"1"}},{"base_weights":[-1.564655E-2,-1.6629317E-1,1.2933427E-1,1.5538847E-1,-2.558733E-1,1.7500257E-1,-4.758937E-1,-7.928315E-3,6.495619E-1,3.989004E-2,-3.4839776E-1,2.1409827E-1,-5.384941E-1,-5.266448E-2,-2.8954184E-2,-2.7894842E-2,2.8080842E-3,2.2963773E-2,-2.3151929E-2,1.1677056E-2,-7.6789316E-3,-1.1565519E-2,1.5032332E-2,2.6550423E-2,5.1312046E-3,2.4593683E-2,-2.8945634E-2,8.457059E-3,-2.7445663E-2],"categories":[],"categories_nodes":[],"categories_segments":[],"categories_sizes":[],"default_left":[0,0,1,0,1,1,0,0,0,0,1,0,0,0,0,0,0,0,0,0,0,0,0,0,0,0,0,0,0],"id":11,"left_children":[1,3,5,7,9,11,13,15,17,19,21,23,25,27,-1,-1,-1,-1,-1,-1,-1,-1,-1,-1,-1,-1,-1,-1,-1],"loss_changes":[4.303502E1,2.7883997E1,2.7837357E1,1.7041746E1,2.0706894E1,2.6180485E1,1.4592945E1,1.5030164E1,9.229876E0,1.8815731E1,1.8358543E1,2.5460762E1,2.9066742E1,1.1501118E1,0E0,0E0,0E0,0E0,0E0,0E0,0E0,0E0,0E0,0E0,0E0,0E0,0E0,0E0,0E0],"parents":[2147483647,0,0,1,1,2,2,3,3,4,4,5,5,6,6,7,7,8,8,9,9,10,10,11,11,12,12,13,13],"right_children":[2,4,6,8,10,12,14,16,18,20,22,24,26,28,-1,-1,-1,-1,-1,-1,-1,-1,-1,-1,-1,-1,-1,-1,-1],"split_conditions":[3.7649924E-1,1.3867E2,1.710835E2,1.5380827E2,1.448335E2,5.9809437E1,3.227018E1,3.0505304E1,1.619942E0,4.8366005E1,4.0010414E0,1.32345E2,1.272E2,1.724462E2,-2.8954184E-2,-2.7894842E-2,2.8080842E-3,2.2963773E-2,-2.3151929E-2,1.1677056E-2,-7.6789316E-3,-1.1565519E-2,1.5032332E-2,2.6550423E-2,5.1312046E-3,2.4593683E-2,-2.8945634E-2,8.457059E-3,-2.7445663E-2],"split_indices":[0,24,49,53,49,56,31,31,43,31,41,29,10,50,0,0,0,0,0,0,0,0,0,0,0,0,0,0,0],"split_type":[0,0,0,0,0,0,0,0,0,0,0,0,0,0,0,0,0,0,0,0,0,0,0,0,0,0,0,0,0],"sum_hessian":[1.9684045E3,9.6526764E2,1.00313696E3,2.1009244E2,7.5517523E2,9.3341565E2,6.97213E1,1.5864622E2,5.144621E1,1.8008504E2,5.750902E2,8.855901E2,4.7825535E1,3.7976673E1,3.1744627E1,1.4929423E1,1.437168E2,4.7994038E1,3.4521687E0,8.243275E1,9.765228E1,5.515359E2,2.3554295E1,5.222862E1,8.333615E2,1.1205308E1,3.6620224E1,2.7844769E1,1.0131905E1],"tree_param":{"num_deleted":"0","num_feature":"65","num_nodes":"29","size_leaf_vector":"1"}},{"base_weights":[-3.0779545E-3,3.8042244E-2,-4.3525127E-1,2.3128916E-2,1.1837384E0,-5.2910465E-1,7.519936E-1,-9.037944E-3,4.1186258E-1,3.8389828E-2,5.912954E-1,-5.656069E-1,3.235818E-2,3.0697886E-2,-1.409692E-2,-1.1645351E-3,1.8855078E-2,2.7271233E-2,-1.1138933E-2,-1.2343401E-2,3.1682473E-2,-2.1672452E-2,-3.3533266E-3],"categories":[],"categories_nodes":[],"categories_segments":[],"categories_sizes":[],"default_left":[0,1,1,1,0,0,1,0,1,0,0,1,0,0,0,0,0,0,0,0,0,0,0],"id":12,"left_children":[1,3,5,7,9,11,13,15,17,-1,19,21,-1,-1,-1,-1,-1,-1,-1,-1,-1,-1,-1],"loss_changes":[3.0788498E1,2.7003841E1,1.717003E1,1.9544838E1,3.9746284E-1,8.830738E0,4.2728243E0,2.74456E1,4.684886E1,0E0,2.6198761E0,9.713387E0,0E0,0E0,0E0,0E0,0E0,0E0,0E0,0E0,0E0,0E0,0E0],"parents":[2147483647,0,0,1,1,2,2,3,3,4,4,5,5,6,6,7,7,8,8,10,10,11,11],"right_children":[2,4,6,8,10,12,14,16,18,-1,20,22,-1,-1,-1,-1,-1,-1,-1,-1,-1,-1,-1],"split_conditions":[3.535201E-1,1.7125378E0,8.085106E1,5.9809437E1,3.768661E-1,8.930032E1,1.8491998E-1,1E0,-9.9582464E-1,3.8389828E-2,3.792954E-1,1.6920964E2,3.235818E-2,3.0697886E-2,-1.409692E-2,-1.1645351E-3,1.8855078E-2,2.7271233E-2,-1.1138933E-2,-1.2343401E-2,3.1682473E-2,-2.1672452E-2,-3.3533266E-3],"split_indices":[1,37,52,56,2,31,41,64,41,0,0,53,0,0,0,0,0,0,0,0,0,0,0],"split_type":[0,0,0,0,0,0,0,0,0,0,0,0,0,0,0,0,0,0,0,0,0,0,0],"sum_hessian":[1.7305767E3,1.5810552E3,1.4952144E2,1.5617465E3,1.9308798E1,1.390812E2,1.0440226E1,1.4432938E3,1.1845265E2,1.5619816E1,3.6889827E0,1.3662735E2,2.4538615E0,8.676526E0,1.7636988E0,1.3797825E3,6.3511333E1,7.235705E1,4.6095604E1,1.2046995E0,2.4842832E0,1.0110239E2,3.5524963E1],"tree_param":{"num_deleted":"0","num_feature":"65","num_nodes":"23","size_leaf_vector":"1"}},{"base_weights":[-7.4769626E-4,9.0252733E-1,-1.0588021E-1,1.6425114E0,6.499305E-1,-2.3193757E-1,1.718442E-1,6.521072E-2,2.7643403E-1,3.0799684E-1,1.3750733E0,-8.326341E-3,-2.6923606E-1,3.1426156E-1,-1.4955069E-1,4.7100686E-2,-1.1847353E-2,1.380471E-3,3.6247876E-2,-1.38273E-2,5.7195533E-2,2.1766985E-2,-5.1370184E-3,-1.0167815E-2,-4.9270634E-3,1.6439138E-2,1.8912866E-3,-6.106014E-3,5.4294035E-2],"categories":[],"categories_nodes":[],"categories_segments":[],"categories_sizes":[],"default_left":[0,0,0,1,0,0,0,0,0,1,0,0,0,0,1,0,0,0,0,0,0,0,0,0,0,0,0,0,0],"id":13,"left_children":[1,3,5,7,9,11,13,-1,15,17,19,21,23,25,27,-1,-1,-1,-1,-1,-1,-1,-1,-1,-1,-1,-1,-1,-1],"loss_changes":[1.05168E2,2.0513817E1,3.476867E1,2.0244919E1,2.1329506E1,5.6919365E0,1.4248552E1,0E0,8.5998955E0,1.4309549E1,2.8027191E1,1.1916267E1,4.2258224E0,1.2607296E1,1.051688E1,0E0,0E0,0E0,0E0,0E0,0E0,0E0,0E0,0E0,0E0,0E0,0E0,0E0,0E0],"parents":[2147483647,0,0,1,1,2,2,3,3,4,4,5,5,6,6,8,8,9,9,10,10,11,11,12,12,13,13,14,14],"right_children":[2,4,6,8,10,12,14,-1,16,18,20,22,24,26,28,-1,-1,-1,-1,-1,-1,-1,-1,-1,-1,-1,-1,-1,-1],"split_conditions":[3.0159143E-1,2.3123777E-1,2.5942034E-1,7.288007E1,1.747428E-3,1.474761E2,5.4482094E1,6.521072E-2,2.803006E-1,1.18471414E-1,1.609764E-1,4.01467E-1,2.2329685E-1,8.657626E-1,8.919461E-2,4.7100686E-2,-1.1847353E-2,1.380471E-3,3.6247876E-2,-1.38273E-2,5.7195533E-2,2.1766985E-2,-5.1370184E-3,-1.0167815E-2,-4.9270634E-3,1.6439138E-2,1.8912866E-3,-6.106014E-3,5.4294035E-2],"split_indices":[0,0,1,52,47,51,56,0,2,55,28,62,1,28,57,0,0,0,0,0,0,0,0,0,0,0,0,0,0],"split_type":[0,0,0,0,0,0,0,0,0,0,0,0,0,0,0,0,0,0,0,0,0,0,0,0,0,0,0,0,0],"sum_hessian":[1.10545E3,1.1445902E2,9.909909E2,2.7727789E1,8.673123E1,6.817251E2,3.0926584E2,1.95391E1,8.188688E0,5.99073E1,2.682393E1,9.763126E1,5.840938E2,2.143186E2,9.494724E1,2.340416E0,5.8482723E0,4.7217827E1,1.2689473E1,6.0512795E0,2.0772652E1,1.7107735E1,8.052353E1,3.497377E2,2.343561E2,1.10416466E2,1.0390214E2,9.327354E1,1.6737056E0],"tree_param":{"num_deleted":"0","num_feature":"65","num_nodes":"29","size_leaf_vector":"1"}},{"base_weights":[3.4034548E-3,-2.3226881E-1,9.8856725E-2,3.500757E-1,-3.123201E-1,-3.1086847E-1,1.3574365E-1,-4.4939993E-3,2.7804524E-2,3.162241E-2,-4.2909363E-1,-5.464505E-1,8.455415E-1,-4.6255756E-2,2.520649E-1,1.0632139E-2,-2.7350836E-2,-2.7209228E-2,4.9139303E-3,-2.2045666E-2,-7.953194E-3,5.8533237E-3,-2.3666402E-2,2.8621348E-2,-1.5572148E-2,1.0174699E-2,-5.756158E-3,1.4080196E-2,3.1804105E-3],"categories":[],"categories_nodes":[],"categories_segments":[],"categories_sizes":[],"default_left":[0,0,0,0,1,1,0,0,0,0,0,0,0,0,1,0,0,0,0,0,0,0,0,0,0,0,0,0,0],"id":14,"left_children":[1,3,5,7,9,11,13,15,-1,17,19,21,23,25,27,-1,-1,-1,-1,-1,-1,-1,-1,-1,-1,-1,-1,-1,-1],"loss_changes":[4.434008E1,2.6597204E1,2.1243885E1,1.4142697E1,2.009758E1,3.2109512E1,2.7272E1,1.4587776E1,0E0,1.5988011E1,1.8526901E1,1.761286E1,3.4643507E0,2.8290695E1,2.4884098E1,0E0,0E0,0E0,0E0,0E0,0E0,0E0,0E0,0E0,0E0,0E0,0E0,0E0,0E0],"parents":[2147483647,0,0,1,1,2,2,3,3,4,4,5,5,6,6,7,7,9,9,10,10,11,11,12,12,13,13,14,14],"right_children":[2,4,6,8,10,12,14,16,-1,18,20,22,24,26,28,-1,-1,-1,-1,-1,-1,-1,-1,-1,-1,-1,-1,-1,-1],"split_conditions":[3.4695795E-1,1.309E2,-1.1782756E0,-6.759941E-2,1.354392E2,1.7229858E-1,1.0659201E0,1.2925072E2,2.7804524E-2,9.7936356E-1,5E0,6.324037E-1,3.568892E6,1.3270053E2,8.797806E-2,1.0632139E-2,-2.7350836E-2,-2.7209228E-2,4.9139303E-3,-2.2045666E-2,-7.953194E-3,5.8533237E-3,-2.3666402E-2,2.8621348E-2,-1.5572148E-2,1.0174699E-2,-5.756158E-3,1.4080196E-2,3.1804105E-3],"split_indices":[0,8,40,57,50,55,30,29,0,37,35,43,11,54,55,0,0,0,0,0,0,0,0,0,0,0,0,0,0],"split_type":[0,0,0,0,0,0,0,0,0,0,0,0,0,0,0,0,0,0,0,0,0,0,0,0,0,0,0,0,0],"sum_hessian":[1.9690272E3,5.6719653E2,1.4018306E3,6.813872E1,4.9905783E2,1.151676E2,1.286663E3,4.2811344E1,2.5327377E1,1.2667648E2,3.7238135E2,9.611472E1,1.905288E1,5.019308E2,7.8473224E2,3.1112309E1,1.1699034E1,1.49132595E1,1.1176322E2,1.2878131E2,2.4360004E2,2.3728245E1,7.2386475E1,1.7928234E1,1.1246468E0,1.3727266E2,3.646581E2,3.145598E2,4.7017242E2],"tree_param":{"num_deleted":"0","num_feature":"65","num_nodes":"29","size_leaf_vector":"1"}},{"base_weights":[8.685751E-3,-2.6789793E-1,6.4610936E-2,-5.9570634E-1,-3.6230024E-2,-3.7213674E-1,9.94342E-2,-6.7794603E-1,-4.689778E-2,-2.813108E-1,3.82536E-1,3.222142E-2,-4.6011454E-1,6.314715E-2,9.3665206E-1,-2.1902025E-2,6.414142E-3,-2.0142471E-2,2.6426088E-2,2.082858E-2,-1.192716E-2,-1.9948855E-2,1.6741833E-2,-1.5265766E-2,3.2063026E-2,6.2937853E-3,-1.0715432E-3,-1.8256675E-2,3.2569245E-2],"categories":[],"categories_nodes":[],"categories_segments":[],"categories_sizes":[],"default_left":[0,1,0,0,0,0,1,0,1,0,0,0,0,0,0,0,0,0,0,0,0,0,0,0,0,0,0,0,0],"id":15,"left_children":[1,3,5,7,9,11,13,15,17,19,21,-1,23,25,27,-1,-1,-1,-1,-1,-1,-1,-1,-1,-1,-1,-1,-1,-1],"loss_changes":[2.6950867E1,2.2233952E1,2.2077667E1,5.44223E0,1.7839535E1,1.4136826E1,4.0740227E1,5.055195E0,1.0372037E1,1.2703255E1,1.2176597E1,0E0,8.128752E0,1.8684671E1,1.3487789E1,0E0,0E0,0E0,0E0,0E0,0E0,0E0,0E0,0E0,0E0,0E0,0E0,0E0,0E0],"parents":[2147483647,0,0,1,1,2,2,3,3,4,4,5,5,6,6,7,7,8,8,9,9,10,10,12,12,13,13,14,14],"right_children":[2,4,6,8,10,12,14,16,18,20,22,-1,24,26,28,-1,-1,-1,-1,-1,-1,-1,-1,-1,-1,-1,-1,-1,-1],"split_conditions":[3.517837E-1,4.3191567E-1,1.3107E2,1.592043E2,9.160254E-1,-3.5209003E-1,6.0500748E1,1.6785E2,-3.6190447E-1,6.909914E-1,3.1535109E1,3.222142E-2,1.326E2,-1.9374534E-1,3.0377966E-1,-2.1902025E-2,6.414142E-3,-2.0142471E-2,2.6426088E-2,2.082858E-2,-1.192716E-2,-1.9948855E-2,1.6741833E-2,-1.5265766E-2,3.2063026E-2,6.2937853E-3,-1.0715432E-3,-1.8256675E-2,3.2569245E-2],"split_indices":[2,40,23,12,41,46,56,24,40,40,52,0,25,32,0,0,0,0,0,0,0,0,0,0,0,0,0,0,0],"split_type":[0,0,0,0,0,0,0,0,0,0,0,0,0,0,0,0,0,0,0,0,0,0,0,0,0,0,0,0,0],"sum_hessian":[1.7402445E3,2.9205695E2,1.4481875E3,1.2028423E2,1.717727E2,1.06226425E2,1.341961E3,1.0440387E2,1.5880363E1,1.08564255E2,6.3208458E1,5.4489007E0,1.0077753E2,1.2872443E3,5.4716846E1,9.880989E1,5.593973E0,9.656495E0,6.223869E0,1.1030543E1,9.753371E1,8.6713295E0,5.453713E1,9.831033E1,2.467192E0,5.1791095E2,7.693333E2,4.5405965E0,5.017625E1],"tree_param":{"num_deleted":"0","num_feature":"65","num_nodes":"29","size_leaf_vector":"1"}},{"base_weights":[4.998467E-3,1.140364E0,-1.0429864E-1,1.9004503E0,8.610627E-1,-1.9870159E-1,2.9991847E-1,6.20085E-2,-2.5550567E-3,4.5936924E-1,1.6444942E0,-5.140871E-2,-2.8487203E-1,7.601238E-2,6.88021E-1,-2.4523961E-4,3.918129E-2,6.84704E-2,1.737758E-2,-2.3146877E-3,6.3488774E-2,-3.1951824E-3,-1.02555165E-2,-2.2437203E-5,2.5303554E-2,-1.3427007E-4,3.3596627E-2],"categories":[],"categories_nodes":[],"categories_segments":[],"categories_sizes":[],"default_left":[0,0,0,0,1,0,0,0,0,0,0,1,0,0,1,0,0,0,0,0,0,0,0,0,0,0,0],"id":16,"left_children":[1,3,5,7,9,11,13,-1,-1,15,17,19,21,23,25,-1,-1,-1,-1,-1,-1,-1,-1,-1,-1,-1,-1],"loss_changes":[1.3480217E2,1.8614471E1,3.7873817E1,8.376625E0,2.1772732E1,1.0189228E1,1.6285915E1,0E0,0E0,1.9292885E1,1.4901093E1,1.6792894E1,5.116146E0,7.09049E0,2.053947E1,0E0,0E0,0E0,0E0,0E0,0E0,0E0,0E0,0E0,0E0,0E0,0E0],"parents":[2147483647,0,0,1,1,2,2,3,3,4,4,5,5,6,6,9,9,10,10,11,11,12,12,13,13,14,14],"right_children":[2,4,6,8,10,12,14,-1,-1,16,18,20,22,24,26,-1,-1,-1,-1,-1,-1,-1,-1,-1,-1,-1,-1],"split_conditions":[3.0159143E-1,2.3123777E-1,2.7959925E-1,8.6485244E-2,1.076224E-1,4.01467E-1,5.309451E1,6.20085E-2,-2.5550567E-3,-2.298593E-3,1.4550745E0,1.716402E2,8.9839613E-1,1.6745E2,1.34325E2,-2.4523961E-4,3.918129E-2,6.84704E-2,1.737758E-2,-2.3146877E-3,6.3488774E-2,-3.1951824E-3,-1.02555165E-2,-2.2437203E-5,2.5303554E-2,-1.3427007E-4,3.3596627E-2],"split_indices":[0,0,1,47,55,62,31,0,0,47,30,50,30,23,50,0,0,0,0,0,0,0,0,0,0,0,0],"split_type":[0,0,0,0,0,0,0,0,0,0,0,0,0,0,0,0,0,0,0,0,0,0,0,0,0,0,0],"sum_hessian":[1.0843484E3,9.43911E1,9.899573E2,2.3804792E1,7.05863E1,8.029424E2,1.870149E2,2.1925333E1,1.8794599E0,4.771002E1,2.2876286E1,2.9695233E2,5.0599008E2,1.19353E2,6.766189E1,3.1374802E1,1.6335217E1,1.3593885E1,9.2824E0,2.9441968E2,2.532655E0,1.23198364E2,3.8279172E2,1.0940881E2,9.944186E0,2.636897E1,4.1292915E1],"tree_param":{"num_deleted":"0","num_feature":"65","num_nodes":"27","size_leaf_vector":"1"}},{"base_weights":[-3.0198386E-3,-1.783837E-1,2.2771879E-1,1.2459387E-1,-2.8664276E-1,-2.2566521E-1,2.903701E-1,1.644682E-1,-2.6409587E-2,-4.7144267E-1,-1.2320029E-1,-5.696465E-1,4.8529378E-1,-8.3916E-2,3.7088707E-1,-1.0838232E-2,7.167792E-3,4.5432104E-4,-1.7992316E-2,-5.8069183E-3,2.1808289E-2,-2.9049477E-2,-4.5269757E-5,-2.4067825E-2,2.0340377E-2,3.8369098E-3,-2.8272225E-2,1.3314042E-2,-7.0024678E-3],"categories":[],"categories_nodes":[],"categories_segments":[],"categories_sizes":[],"default_left":[0,1,0,0,0,1,0,0,0,0,1,0,0,1,1,0,0,0,0,0,0,0,0,0,0,0,0,0,0],"id":17,"left_children":[1,3,5,7,9,11,13,15,-1,17,19,21,23,25,27,-1,-1,-1,-1,-1,-1,-1,-1,-1,-1,-1,-1,-1,-1],"loss_changes":[7.907816E1,3.6456707E1,2.4037296E1,1.1885808E1,2.4660477E1,2.5471333E1,2.2389362E1,1.1151709E1,0E0,2.3965965E1,2.6200378E1,1.58286495E1,9.013395E0,2.4152372E1,2.701432E1,0E0,0E0,0E0,0E0,0E0,0E0,0E0,0E0,0E0,0E0,0E0,0E0,0E0,0E0],"parents":[2147483647,0,0,1,1,2,2,3,3,4,4,5,5,6,6,7,7,9,9,10,10,11,11,12,12,13,13,14,14],"right_children":[2,4,6,8,10,12,14,16,-1,18,20,22,24,26,28,-1,-1,-1,-1,-1,-1,-1,-1,-1,-1,-1,-1,-1,-1],"split_conditions":[3.8784546E-1,1.39977E2,-2.3738058E-1,1.6505E2,3.4793398E-1,1.5824051E-1,-1.1782756E0,8.421392E-2,-2.6409587E-2,-2.3400581E-1,2.5388646E0,4.044114E-1,4.015638E-1,-7.703138E-3,1.714264E2,-1.0838232E-2,7.167792E-3,4.5432104E-4,-1.7992316E-2,-5.8069183E-3,2.1808289E-2,-2.9049477E-2,-4.5269757E-5,-2.4067825E-2,2.0340377E-2,3.8369098E-3,-2.8272225E-2,1.3314042E-2,-7.0024678E-3],"split_indices":[0,49,46,10,0,55,41,55,0,34,41,2,0,57,50,0,0,0,0,0,0,0,0,0,0,0,0,0,0],"split_type":[0,0,0,0,0,0,0,0,0,0,0,0,0,0,0,0,0,0,0,0,0,0,0,0,0,0,0,0,0],"sum_hessian":[1.9523185E3,1.1093939E3,8.4292456E2,2.92011E2,8.1738293E2,1.0202273E2,7.4090186E2,2.8167078E2,1.0340182E1,3.827423E2,4.3464066E2,6.889043E1,3.3132298E1,1.3115953E2,6.097423E2,3.4464947E1,2.4720584E2,8.00462E1,3.026961E2,4.0212997E2,3.2510704E1,4.0069077E1,2.8821354E1,3.9017634E0,2.9230536E1,1.058857E2,2.5273834E1,5.443298E2,6.54125E1],"tree_param":{"num_deleted":"0","num_feature":"65","num_nodes":"29","size_leaf_vector":"1"}},{"base_weights":[-9.007269E-3,3.2410856E-2,-4.680848E-1,4.0911757E-3,6.267783E-1,-5.6264544E-1,7.056666E-1,1.9444562E-1,-5.5008363E-2,7.631974E-1,-1.9483756E-2,-5.993317E-1,3.145536E-2,2.9727744E-2,-1.4475851E-2,8.929672E-3,-1.2750732E-2,-3.7603197E-3,6.5024793E-3,2.7572537E-2,-1.9683441E-2,2.6035314E-2,-1.9112343E-2],"categories":[],"categories_nodes":[],"categories_segments":[],"categories_sizes":[],"default_left":[0,0,1,0,1,0,1,1,1,1,0,0,0,0,0,0,0,0,0,0,0,0,0],"id":18,"left_children":[1,3,5,7,9,11,13,15,17,19,-1,21,-1,-1,-1,-1,-1,-1,-1,-1,-1,-1,-1],"loss_changes":[3.477558E1,2.823841E1,1.7195553E1,1.8038445E1,1.3779514E1,8.940258E0,4.453185E0,2.4414005E1,2.3415586E1,1.5955822E1,0E0,8.20253E0,0E0,0E0,0E0,0E0,0E0,0E0,0E0,0E0,0E0,0E0,0E0],"parents":[2147483647,0,0,1,1,2,2,3,3,4,4,5,5,6,6,7,7,8,8,9,9,11,11],"right_children":[2,4,6,8,10,12,14,16,18,20,-1,22,-1,-1,-1,-1,-1,-1,-1,-1,-1,-1,-1],"split_conditions":[3.535201E-1,1E0,8.085106E1,-3.9059454E-1,6.215008E1,9.124231E1,1.8491998E-1,1.7131846E-1,4.503848E-2,1.553704E2,-1.9483756E-2,3.763863E-1,3.145536E-2,2.9727744E-2,-1.4475851E-2,8.929672E-3,-1.2750732E-2,-3.7603197E-3,6.5024793E-3,2.7572537E-2,-1.9683441E-2,2.6035314E-2,-1.9112343E-2],"split_indices":[1,64,52,40,56,31,41,55,57,50,0,37,0,0,0,0,0,0,0,0,0,0,0],"split_type":[0,0,0,0,0,0,0,0,0,0,0,0,0,0,0,0,0,0,0,0,0,0,0],"sum_hessian":[1.8271357E3,1.676785E3,1.503507E2,1.6014863E3,7.5298744E1,1.3962294E2,1.0727761E1,3.7887448E2,1.2226118E3,6.839037E1,6.9083686E0,1.3712851E2,2.4944239E0,8.784766E0,1.9429951E0,3.2521054E2,5.366394E1,9.716664E2,2.5094543E2,6.193979E1,6.4505844E0,2.8878672E0,1.3424065E2],"tree_param":{"num_deleted":"0","num_feature":"65","num_nodes":"23","size_leaf_vector":"1"}},{"base_weights":[-4.4299467E-4,-9.8033175E-2,1.1531041E0,-2.3172222E-1,1.6388638E-1,6.4557046E-1,1.5805295E0,-3.2129905E-1,-1.13289505E-1,2.5557423E-1,-2.525973E-1,1.46704E0,8.005264E-3,6.389939E-2,1.118273E0,-1.0192273E-2,5.6424094E-3,-3.7567648E-3,4.5337275E-2,6.219941E-2,6.8407934E-3,-1.3147134E-2,-2.8039657E-3,9.197649E-3,6.2885575E-2,3.796165E-2,-4.2867656E-3,4.716671E-2,2.2387956E-3],"categories":[],"categories_nodes":[],"categories_segments":[],"categories_sizes":[],"default_left":[0,0,0,0,0,0,0,0,1,0,0,0,0,0,1,0,0,0,0,0,0,0,0,0,0,0,0,0,0],"id":19,"left_children":[1,3,5,7,9,11,13,15,17,19,21,23,25,-1,27,-1,-1,-1,-1,-1,-1,-1,-1,-1,-1,-1,-1,-1,-1],"loss_changes":[1.23767944E2,3.5532314E1,1.7583084E1,7.0877495E0,1.3167753E1,2.14066E1,9.26638E0,3.6507835E0,5.826642E0,1.3634417E1,1.8028328E0,1.2400227E1,4.74022E0,0E0,1.2680214E1,0E0,0E0,0E0,0E0,0E0,0E0,0E0,0E0,0E0,0E0,0E0,0E0,0E0,0E0],"parents":[2147483647,0,0,1,1,2,2,3,3,4,4,5,5,6,6,7,7,8,8,9,9,10,10,11,11,12,12,14,14],"right_children":[2,4,6,8,10,12,14,16,18,20,22,24,26,-1,28,-1,-1,-1,-1,-1,-1,-1,-1,-1,-1,-1,-1,-1,-1],"split_conditions":[3.592752E-1,2.5942034E-1,-8.078489E-1,2.1956383E-1,7.260295E1,-1.1747975E0,6.261424E-1,1.7435E2,4.0756884E0,1.3227715E2,1.6165E2,2.1525E2,1.9582996E-1,6.389939E-2,1.473351E2,-1.0192273E-2,5.6424094E-3,-3.7567648E-3,4.5337275E-2,6.219941E-2,6.8407934E-3,-1.3147134E-2,-2.8039657E-3,9.197649E-3,6.2885575E-2,3.796165E-2,-4.2867656E-3,4.716671E-2,2.2387956E-3],"split_indices":[1,1,43,1,56,43,41,26,35,29,24,18,0,0,51,0,0,0,0,0,0,0,0,0,0,0,0,0,0],"split_type":[0,0,0,0,0,0,0,0,0,0,0,0,0,0,0,0,0,0,0,0,0,0,0,0,0,0,0,0,0],"sum_hessian":[1.0974237E3,1.01266693E3,8.475669E1,6.705301E2,3.4213687E2,3.989497E1,4.4861725E1,3.8079904E2,2.8973105E2,2.8072278E2,6.1414074E1,1.686469E1,2.3030277E1,1.8849236E1,2.6012487E1,3.678144E2,1.2984646E1,2.88534E2,1.197044E0,3.08219E0,2.776406E2,2.7536512E1,3.3877563E1,6.4517784E0,1.0412913E1,1.6763132E0,2.1353964E1,1.777465E1,8.237838E0],"tree_param":{"num_deleted":"0","num_feature":"65","num_nodes":"29","size_leaf_vector":"1"}},{"base_weights":[8.960022E-3,-8.993398E-2,2.4936736E-1,1.5772897E-1,-1.6890836E-1,3.1263286E-1,-4.1988736E-1,2.1387239E-1,-2.7329938E-2,-4.8151708E-1,-7.578421E-2,-6.2695724E-1,3.5334814E-1,2.4871564E-2,-6.4348483E-1,-2.744715E-2,7.5603584E-3,-3.569048E-3,-2.0184698E-2,-7.910542E-3,2.291554E-3,-2.8061546E-2,2.105856E-2,1.2790137E-2,-1.1262519E-3,-2.88725E-2,1.1072557E-2],"categories":[],"categories_nodes":[],"categories_segments":[],"categories_sizes":[],"default_left":[0,1,1,0,0,0,0,0,0,0,0,1,0,0,0,0,0,0,0,0,0,0,0,0,0,0,0],"id":20,"left_children":[1,3,5,7,9,11,13,15,-1,17,19,21,23,-1,25,-1,-1,-1,-1,-1,-1,-1,-1,-1,-1,-1,-1],"loss_changes":[4.7577454E1,2.7760695E1,2.482684E1,2.0796713E1,3.1276154E1,2.0629276E1,1.4720145E1,1.4309392E1,0E0,1.7029774E1,2.3749935E1,9.885541E0,1.4622154E1,0E0,1.4451609E1,0E0,0E0,0E0,0E0,0E0,0E0,0E0,0E0,0E0,0E0,0E0,0E0],"parents":[2147483647,0,0,1,1,2,2,3,3,4,4,5,5,6,6,7,7,9,9,10,10,11,11,12,12,14,14],"right_children":[2,4,6,8,10,12,14,16,-1,18,20,22,24,-1,26,-1,-1,-1,-1,-1,-1,-1,-1,-1,-1,-1,-1],"split_conditions":[4.0621793E-1,1.39977E2,5.4482094E1,1.6555E2,3.259592E-1,-3.4054223E-1,1.2856E2,-2.6347044E0,-2.7329938E-2,2.919315E1,2.4753918E-1,1.725976E2,4.6035716E-1,2.4871564E-2,1.6492E2,-2.744715E-2,7.5603584E-3,-3.569048E-3,-2.0184698E-2,-7.910542E-3,2.291554E-3,-2.8061546E-2,2.105856E-2,1.2790137E-2,-1.1262519E-3,-2.88725E-2,1.1072557E-2],"split_indices":[0,49,56,8,0,46,26,42,0,56,1,50,46,0,24,0,0,0,0,0,0,0,0,0,0,0,0],"split_type":[0,0,0,0,0,0,0,0,0,0,0,0,0,0,0,0,0,0,0,0,0,0,0,0,0,0,0],"sum_hessian":[1.9992249E3,1.4169669E3,5.822578E2,3.423532E2,1.0746138E3,5.3245685E2,4.9800964E1,3.2602597E2,1.6327236E1,2.4568898E2,8.289248E2,2.1516644E1,5.1094022E2,7.1508665E0,4.26501E1,9.904496E0,3.1612146E2,8.5423256E1,1.6026573E2,3.7058682E2,4.5833795E2,1.7703865E1,3.8127785E0,4.3046924E2,8.0470985E1,3.2471878E1,1.017822E1],"tree_param":{"num_deleted":"0","num_feature":"65","num_nodes":"27","size_leaf_vector":"1"}},{"base_weights":[-1.28370505E-2,3.02134E-2,-4.8975685E-1,-1.5158638E-2,4.812362E-1,-5.5309963E-1,4.8933336E-1,8.903575E-1,-3.0139705E-2,-1.9764377E-2,5.7056415E-1,-5.9035915E-1,3.0659433E-2,3.1295456E-2,-1.6358105E-2,3.4694526E-2,-1.7111497E-2,-2.2615325E-3,8.434522E-3,-2.0402884E-2,1.9869551E-2,2.6390173E-2,-1.8873358E-2],"categories":[],"categories_nodes":[],"categories_segments":[],"categories_sizes":[],"default_left":[0,0,1,0,0,0,0,0,1,0,0,0,0,0,0,0,0,0,0,0,0,0,0],"id":21,"left_children":[1,3,5,7,9,11,13,15,17,-1,19,21,-1,-1,-1,-1,-1,-1,-1,-1,-1,-1,-1],"loss_changes":[3.60192E1,3.294099E1,9.278587E0,1.987643E1,1.5359478E1,8.636967E0,5.930158E0,9.929884E0,2.0307913E1,0E0,1.6168953E1,8.207634E0,0E0,0E0,0E0,0E0,0E0,0E0,0E0,0E0,0E0,0E0,0E0],"parents":[2147483647,0,0,1,1,2,2,3,3,4,4,5,5,6,6,7,7,8,8,10,10,11,11],"right_children":[2,4,6,8,10,12,14,16,18,-1,20,22,-1,-1,-1,-1,-1,-1,-1,-1,-1,-1,-1],"split_conditions":[3.535201E-1,1.9168733E0,8.085106E1,1.2951931E-1,1.2659E2,9.124231E1,4.6445122E-1,1.7355E2,1.684326E2,-1.9764377E-2,-6.753351E-1,-3.2520196E0,3.0659433E-2,3.1295456E-2,-1.6358105E-2,3.4694526E-2,-1.7111497E-2,-2.2615325E-3,8.434522E-3,-2.0402884E-2,1.9869551E-2,2.6390173E-2,-1.8873358E-2],"split_indices":[1,43,52,1,26,31,28,25,50,0,46,43,0,0,0,0,0,0,0,0,0,0,0],"split_type":[0,0,0,0,0,0,0,0,0,0,0,0,0,0,0,0,0,0,0,0,0,0,0],"sum_hessian":[1.7526082E3,1.6083617E3,1.4424646E2,1.4622305E3,1.4613123E2,1.3589006E2,8.356394E0,2.2846779E1,1.4393837E3,1.0154838E1,1.359764E2,1.3336052E2,2.5295374E0,5.4373536E0,2.9190397E0,1.9502062E1,3.3447158E0,1.257386E3,1.8199776E2,8.855736E0,1.2712066E2,2.8679862E0,1.3049254E2],"tree_param":{"num_deleted":"0","num_feature":"65","num_nodes":"23","size_leaf_vector":"1"}},{"base_weights":[-1.5340314E-2,7.181399E-1,-1.257711E-1,1.5463692E0,5.241611E-1,1.5601918E-1,-2.341267E-1,5.5989634E-2,-3.4993358E-2,9.110744E-1,2.8274202E-1,-1.09610595E-2,4.1757977E-1,-3.2968447E-1,-1.3065585E-1,-1.4682817E-2,3.0365828E-2,3.713056E-2,9.078924E-3,2.1034783E-2,3.5654507E-3,-1.5642943E-3,2.6100852E-2,4.003318E-3,3.2047138E-2,8.383576E-3,-1.0403795E-2,-4.455518E-3,3.574418E-2],"categories":[],"categories_nodes":[],"categories_segments":[],"categories_sizes":[],"default_left":[0,0,0,1,0,0,1,0,0,0,0,0,0,0,1,0,0,0,0,0,0,0,0,0,0,0,0,0,0],"id":22,"left_children":[1,3,5,7,9,11,13,-1,15,17,19,21,23,25,27,-1,-1,-1,-1,-1,-1,-1,-1,-1,-1,-1,-1,-1,-1],"loss_changes":[9.022884E1,2.260878E1,2.9595062E1,1.3801773E1,1.0916008E1,1.1773468E1,6.8742294E0,0E0,3.1366398E0,8.669609E0,5.0674148E0,6.0477357E0,1.9273266E1,3.8804932E0,8.148259E0,0E0,0E0,0E0,0E0,0E0,0E0,0E0,0E0,0E0,0E0,0E0,0E0,0E0,0E0],"parents":[2147483647,0,0,1,1,2,2,3,3,4,4,5,5,6,6,8,8,9,9,10,10,11,11,12,12,13,13,14,14],"right_children":[2,4,6,8,10,12,14,-1,16,18,20,22,24,26,28,-1,-1,-1,-1,-1,-1,-1,-1,-1,-1,-1,-1,-1,-1],"split_conditions":[3.120629E-1,2.3123777E-1,3.845699E-1,8.085106E1,3.443058E1,6.058839E5,-3.034032E-2,5.5989634E-2,4.6445122E-1,1.4768013E0,-5.9520805E-1,1.883884E0,5.2501694E1,5.455745E-1,4.3406987E0,-1.4682817E-2,3.0365828E-2,3.713056E-2,9.078924E-3,2.1034783E-2,3.5654507E-3,-1.5642943E-3,2.6100852E-2,4.003318E-3,3.2047138E-2,8.383576E-3,-1.0403795E-2,-4.455518E-3,3.574418E-2],"split_indices":[0,0,62,52,56,17,57,0,28,43,41,32,31,30,40,0,0,0,0,0,0,0,0,0,0,0,0,0,0],"split_type":[0,0,0,0,0,0,0,0,0,0,0,0,0,0,0,0,0,0,0,0,0,0,0,0,0,0,0,0,0],"sum_hessian":[1.1118378E3,1.4477051E2,9.6706726E2,2.614929E1,1.1862121E2,2.6846234E2,6.986049E2,2.159903E1,4.550261E0,4.451111E1,7.41101E1,1.6444121E2,1.0402114E2,3.6205362E2,3.3655127E2,3.5446599E0,1.005601E0,2.82906E1,1.6220509E1,1.9935925E1,5.4174175E1,1.5799644E2,6.4447722E0,7.3242134E1,3.0779013E1,9.472215E0,3.5258142E2,3.3294104E2,3.610231E0],"tree_param":{"num_deleted":"0","num_feature":"65","num_nodes":"29","size_leaf_vector":"1"}},{"base_weights":[1.2368367E-2,-7.969305E-2,2.3673676E-1,-2.781047E-2,-4.416506E-1,3.825624E-1,-1.1165156E-1,7.2793204E-1,-5.0404094E-2,2.2369323E-2,-4.9976388E-1,4.1309646E-1,-2.6271343E-2,2.5247963E-2,-2.8230235E-1,2.3818165E-2,-1.7342066E-2,-9.806716E-4,-2.8070709E-2,1.002188E-4,-1.8062385E-2,-2.6668511E-2,1.3219671E-2,-3.8449292E-3,-2.9035605E-2],"categories":[],"categories_nodes":[],"categories_segments":[],"categories_sizes":[],"default_left":[0,0,1,0,0,0,0,0,1,0,0,0,0,0,0,0,0,0,0,0,0,0,0,0,0],"id":23,"left_children":[1,3,5,7,9,11,13,15,17,-1,19,21,-1,-1,23,-1,-1,-1,-1,-1,-1,-1,-1,-1,-1],"loss_changes":[4.20675E1,2.7108427E1,3.0144676E1,2.1622753E1,1.2860374E1,1.641787E1,2.8803638E1,3.6280098E0,1.9234766E1,0E0,8.914543E0,1.5056808E1,0E0,0E0,1.5693591E1,0E0,0E0,0E0,0E0,0E0,0E0,0E0,0E0,0E0,0E0],"parents":[2147483647,0,0,1,1,2,2,3,3,4,4,5,5,6,6,7,7,8,8,10,10,11,11,14,14],"right_children":[2,4,6,8,10,12,14,16,18,-1,20,22,-1,-1,24,-1,-1,-1,-1,-1,-1,-1,-1,-1,-1],"split_conditions":[4.0567014E-1,1.6326913E0,4.2159515E1,1.2843E2,1.3494887E1,2.497332E0,1.3045143E2,3.175466E-1,4.0010414E0,2.2369323E-2,-3.4788004E-1,-3.6071867E-2,-2.6271343E-2,2.5247963E-2,2.2284254E-1,2.3818165E-2,-1.7342066E-2,-9.806716E-4,-2.8070709E-2,1.002188E-4,-1.8062385E-2,-2.6668511E-2,1.3219671E-2,-3.8449292E-3,-2.9035605E-2],"split_indices":[0,43,56,23,31,43,29,43,40,0,34,47,0,0,34,0,0,0,0,0,0,0,0,0,0],"split_type":[0,0,0,0,0,0,0,0,0,0,0,0,0,0,0,0,0,0,0,0,0,0,0,0,0],"sum_hessian":[2.0346941E3,1.4431818E3,5.915123E2,1.2631938E3,1.7998792E2,4.1690814E2,1.746042E2,3.576191E1,1.2274319E3,7.846549E0,1.7214137E2,4.0768668E2,9.221486E0,2.5914555E1,1.4868965E2,3.441464E1,1.3472724E0,1.2043688E3,2.3063128E1,2.9255264E1,1.4288611E2,7.8024244E0,3.9988425E2,1.2236442E2,2.6325235E1],"tree_param":{"num_deleted":"0","num_feature":"65","num_nodes":"25","size_leaf_vector":"1"}},{"base_weights":[3.4297667E-2,-2.1923317E-2,4.5700023E-1,1.9544544E-2,-4.9094805E-1,6.085343E-1,-2.6569608E-1,-2.5706097E-2,3.6595047E-1,2.5963366E-2,-5.30199E-1,7.6440877E-1,1.9424828E-2,-2.1191005E-2,5.876254E-1,-5.7159015E-3,1.1484921E-3,2.4460755E-2,-3.519765E-3,-1.8227747E-2,6.7729913E-3,-2.0214893E-2,2.5656406E-2,2.749046E-2,-1.4807203E-2,3.7213013E-2,-1.8262109E-2],"categories":[],"categories_nodes":[],"categories_segments":[],"categories_sizes":[],"default_left":[0,0,0,0,0,0,1,1,0,0,1,0,0,0,0,0,0,0,0,0,0,0,0,0,0,0,0],"id":24,"left_children":[1,3,5,7,9,11,13,15,17,-1,19,21,23,-1,25,-1,-1,-1,-1,-1,-1,-1,-1,-1,-1,-1,-1],"loss_changes":[4.1350014E1,2.988976E1,2.252998E1,2.2149921E1,7.1049557E0,1.5517902E1,1.3989893E1,1.31931715E1,3.5553127E1,0E0,7.2715683E0,1.8041794E1,1.7209007E1,0E0,1.0782906E1,0E0,0E0,0E0,0E0,0E0,0E0,0E0,0E0,0E0,0E0,0E0,0E0],"parents":[2147483647,0,0,1,1,2,2,3,3,4,4,5,5,6,6,7,7,8,8,10,10,11,11,12,12,14,14],"right_children":[2,4,6,8,10,12,14,16,18,-1,20,22,24,-1,26,-1,-1,-1,-1,-1,-1,-1,-1,-1,-1,-1,-1],"split_conditions":[1.6326913E0,3.535201E-1,4.102275E-1,1.6823E2,-3.2520196E0,2.487698E-1,2.0764379E-1,2.549955E1,3.6863297E-1,2.5963366E-2,5.3737892E1,1.5944954E1,1.4645265E2,-2.1191005E-2,6.760995E-3,-5.7159015E-3,1.1484921E-3,2.4460755E-2,-3.519765E-3,-1.8227747E-2,6.7729913E-3,-2.0214893E-2,2.5656406E-2,2.749046E-2,-1.4807203E-2,3.7213013E-2,-1.8262109E-2],"split_indices":[43,1,0,9,43,32,35,56,2,0,56,31,51,0,47,0,0,0,0,0,0,0,0,0,0,0,0],"split_type":[0,0,0,0,0,0,0,0,0,0,0,0,0,0,0,0,0,0,0,0,0,0,0,0,0,0,0],"sum_hessian":[1.7385505E3,1.5352983E3,2.0325217E2,1.411465E3,1.2383345E2,1.6815219E2,3.509998E1,1.249208E3,1.6225693E2,2.8906944E0,1.2094276E2,1.3273407E2,3.541812E1,2.3260202E1,1.1839777E1,3.4879663E2,9.004114E2,8.3718376E1,7.853855E1,1.09889046E2,1.1053714E1,7.5013313E0,1.25232735E2,1.2600756E1,2.2817368E1,7.636175E0,4.203602E0],"tree_param":{"num_deleted":"0","num_feature":"65","num_nodes":"27","size_leaf_vector":"1"}},{"base_weights":[-5.0032716E-3,-1.001144E-1,9.1580766E-1,-2.2807664E-1,1.5786724E-1,1.0704359E0,-2.310247E-1,-2.3464866E-1,5.248042E-2,-1.45125E-1,2.514469E-1,1.5075305E0,6.840532E-1,3.37672E-2,-4.5067826E-1,-7.2167297E-3,4.6810035E-2,-5.533623E-3,4.2940333E-2,3.980515E-3,2.062503E-2,-1.3166089E-2,4.893041E-2,1.4520989E-2,4.8896365E-2,-4.341559E-3,-1.5205228E-2],"categories":[],"categories_nodes":[],"categories_segments":[],"categories_sizes":[],"default_left":[0,0,0,0,1,1,0,1,0,0,0,0,0,0,0,0,0,0,0,0,0,0,0,0,0,0,0],"id":25,"left_children":[1,3,5,7,9,11,13,15,-1,17,19,21,23,-1,25,-1,-1,-1,-1,-1,-1,-1,-1,-1,-1,-1,-1],"loss_changes":[9.791163E1,3.348576E1,1.8807999E1,9.21788E0,9.578861E0,1.4575165E1,4.4579096E0,7.5491486E0,0E0,5.2271514E0,1.3243757E1,1.0937309E1,8.836792E0,0E0,1.3499308E-1,0E0,0E0,0E0,0E0,0E0,0E0,0E0,0E0,0E0,0E0,0E0,0E0],"parents":[2147483647,0,0,1,1,2,2,3,3,4,4,5,5,6,6,7,7,9,9,10,10,11,11,12,12,14,14],"right_children":[2,4,6,8,10,12,14,16,-1,18,20,22,24,-1,26,-1,-1,-1,-1,-1,-1,-1,-1,-1,-1,-1,-1],"split_conditions":[3.5582542E-1,2.5895005E-1,2.2249806E0,1.8141357E2,1.5041193E2,5.108473E-1,1.000001E1,4.0756884E0,5.248042E-2,5.6996113E-1,5.278058E6,1.609764E-1,5.4089344E-1,3.37672E-2,1E-1,-7.2167297E-3,4.6810035E-2,-5.533623E-3,4.2940333E-2,3.980515E-3,2.062503E-2,-1.3166089E-2,4.893041E-2,1.4520989E-2,4.8896365E-2,-4.341559E-3,-1.5205228E-2],"split_indices":[1,1,28,29,53,40,40,35,0,46,11,28,62,0,5,0,0,0,0,0,0,0,0,0,0,0,0],"split_type":[0,0,0,0,0,0,0,0,0,0,0,0,0,0,0,0,0,0,0,0,0,0,0,0,0,0,0],"sum_hessian":[1.1159292E3,1.0122632E3,1.0366601E2,6.7671814E2,3.3554507E2,9.140801E1,1.2257995E1,6.753549E2,1.3632237E0,7.9049095E1,2.5649597E2,4.1527958E1,4.988006E1,1.1334436E0,1.1124551E1,6.740021E2,1.3527994E0,7.798652E1,1.0625795E0,2.0261604E2,5.3879925E1,2.3250704E0,3.920289E1,4.24208E1,7.459259E0,2.2800741E0,8.844477E0],"tree_param":{"num_deleted":"0","num_feature":"65","num_nodes":"27","size_leaf_vector":"1"}},{"base_weights":[9.336975E-3,1.2544788E-1,-2.078667E-1,3.2595107E-1,2.6523892E-2,2.8420327E-2,-3.9462924E-1,-2.8522791E-2,3.8913348E-1,-5.851767E-2,3.5698092E-1,-2.0416468E-1,4.009016E-1,-3.1612873E-1,-8.1746316E-1,2.8034798E-3,1.7175974E-2,-1.3847894E-2,-4.0299758E-5,1.4846757E-2,-1.8251024E-2,-1.5729487E-2,4.969955E-3,-1.0606732E-2,1.7638937E-2,-1.4155688E-2,-9.398361E-4,1.1314623E-2,-2.7965112E-2],"categories":[],"categories_nodes":[],"categories_segments":[],"categories_sizes":[],"default_left":[0,1,1,0,0,0,0,0,0,0,0,1,0,0,0,0,0,0,0,0,0,0,0,0,0,0,0,0,0],"id":26,"left_children":[1,3,5,7,9,11,13,-1,15,17,19,21,23,25,27,-1,-1,-1,-1,-1,-1,-1,-1,-1,-1,-1,-1,-1,-1],"loss_changes":[4.9864037E1,2.5545776E1,3.0406477E1,3.4698254E1,2.429633E1,2.6505396E1,1.25131035E1,0E0,2.1974232E1,1.5851972E1,2.3857615E1,2.2396568E1,1.6802057E1,1.4450478E1,8.52108E0,0E0,0E0,0E0,0E0,0E0,0E0,0E0,0E0,0E0,0E0,0E0,0E0,0E0,0E0],"parents":[2147483647,0,0,1,1,2,2,3,3,4,4,5,5,6,6,8,8,9,9,10,10,11,11,12,12,13,13,14,14],"right_children":[2,4,6,8,10,12,14,-1,16,18,20,22,24,26,28,-1,-1,-1,-1,-1,-1,-1,-1,-1,-1,-1,-1,-1,-1],"split_conditions":[2.6068184E-1,8.797806E-2,1.449116E2,3.283172E-1,1.7336707E-1,1.6513883E0,7.24641E-1,-2.8522791E-2,1.0760353E0,-1.1782756E0,1.615E2,-5.665818E-1,1.382692E2,-1.656665E-1,-4.8490974E-1,2.8034798E-3,1.7175974E-2,-1.3847894E-2,-4.0299758E-5,1.4846757E-2,-1.8251024E-2,-1.5729487E-2,4.969955E-3,-1.0606732E-2,1.7638937E-2,-1.4155688E-2,-9.398361E-4,1.1314623E-2,-2.7965112E-2],"split_indices":[1,55,50,28,55,40,32,0,30,40,10,41,50,33,42,0,0,0,0,0,0,0,0,0,0,0,0,0,0],"split_type":[0,0,0,0,0,0,0,0,0,0,0,0,0,0,0,0,0,0,0,0,0,0,0,0,0,0,0,0,0],"sum_hessian":[1.9751508E3,1.2873777E3,6.877731E2,4.2456238E2,8.628153E2,3.040036E2,3.8376947E2,1.9357737E1,4.0520465E2,6.868743E2,1.7594096E2,1.8742403E2,1.1657957E2,3.2515164E2,5.8617832E1,1.5569525E2,2.4950938E2,8.4447365E1,6.0242694E2,1.5437419E2,2.1566769E1,1.0023533E2,8.7188705E1,2.2985361E1,9.359421E1,2.0978537E2,1.1536627E2,4.9349437E0,5.3682888E1],"tree_param":{"num_deleted":"0","num_feature":"65","num_nodes":"29","size_leaf_vector":"1"}},{"base_weights":[-1.1672693E-2,-3.3458915E-1,5.338513E-2,4.3331942E-1,-4.2550257E-1,4.0302515E-1,1.3118685E-2,-2.0836573E-2,1.0327221E0,-1.7993636E-1,-5.640832E-1,5.812658E-2,7.71561E-1,-3.5037395E-2,2.8329396E-1,3.6469016E-2,-1.534568E-2,-1.412935E-2,1.055381E-2,1.5004302E-2,-1.8644864E-2,-1.3126825E-2,1.4355363E-2,8.483192E-3,3.3364646E-2,-1.32272765E-2,5.0902767E-5,-1.3027008E-2,1.3539993E-2],"categories":[],"categories_nodes":[],"categories_segments":[],"categories_sizes":[],"default_left":[0,0,0,1,0,1,0,0,0,0,0,0,0,0,0,0,0,0,0,0,0,0,0,0,0,0,0,0,0],"id":27,"left_children":[1,3,5,7,9,11,13,-1,15,17,19,21,23,25,27,-1,-1,-1,-1,-1,-1,-1,-1,-1,-1,-1,-1,-1,-1],"loss_changes":[3.853951E1,2.165989E1,2.1493412E1,2.3066746E1,9.275841E0,1.9995674E1,1.7839167E1,0E0,6.8328114E0,1.5776621E1,1.1044838E1,1.74062E1,1.2361099E1,1.7354502E1,2.5204468E1,0E0,0E0,0E0,0E0,0E0,0E0,0E0,0E0,0E0,0E0,0E0,0E0,0E0,0E0],"parents":[2147483647,0,0,1,1,2,2,3,3,4,4,5,5,6,6,8,8,9,9,10,10,11,11,12,12,13,13,14,14],"right_children":[2,4,6,8,10,12,14,-1,16,18,20,22,24,26,28,-1,-1,-1,-1,-1,-1,-1,-1,-1,-1,-1,-1,-1,-1],"split_conditions":[3.517837E-1,3.466323E-1,8E-1,1.58711E2,-2.3897605E-2,-5.084527E-2,5.9809437E1,-2.0836573E-2,-1.51202E-1,-3.9612483E-2,1.35286E2,1.584E2,3.443058E1,1.3227E2,1.2984357E2,3.6469016E-2,-1.534568E-2,-1.412935E-2,1.055381E-2,1.5004302E-2,-1.8644864E-2,-1.3126825E-2,1.4355363E-2,8.483192E-3,3.3364646E-2,-1.32272765E-2,5.0902767E-5,-1.3027008E-2,1.3539993E-2],"split_indices":[2,62,4,50,57,57,56,0,32,57,49,8,56,10,29,0,0,0,0,0,0,0,0,0,0,0,0,0,0],"split_type":[0,0,0,0,0,0,0,0,0,0,0,0,0,0,0,0,0,0,0,0,0,0,0,0,0,0,0,0,0],"sum_hessian":[1.8326444E3,3.0661392E2,1.5260304E3,3.2058926E1,2.74555E2,1.5666594E2,1.3693645E3,1.1070073E1,2.0988853E1,9.987465E1,1.7468036E2,8.152632E1,7.5139626E1,1.1629503E3,2.0641412E2,1.8956322E1,2.0325305E0,6.4619484E1,3.525517E1,8.546475E0,1.6613388E2,3.739365E1,4.413267E1,3.160843E1,4.3531193E1,9.560608E1,1.0673442E3,3.886715E1,1.6754697E2],"tree_param":{"num_deleted":"0","num_feature":"65","num_nodes":"29","size_leaf_vector":"1"}},{"base_weights":[1.0613538E-2,-1.7075703E-1,5.449986E-1,-2.6274767E-2,-2.6621544E-1,1.0215669E0,3.4287682E-1,-7.051236E-2,6.8882537E-1,-3.714081E-1,-1.6414292E-1,7.073191E-1,1.714168E0,4.6307972E-1,-1.546272E-1,2.7799131E-2,-2.8865475E-3,5.9811473E-2,1.04733575E-2,-1.1674142E-2,4.9741063E-2,-6.5647205E-3,5.959671E-3,3.245195E-2,-2.6119086E-3,5.6217205E-2,-6.8262196E-3,4.5561325E-2,1.2137733E-2,-8.104022E-3,4.9271833E-2],"categories":[],"categories_nodes":[],"categories_segments":[],"categories_sizes":[],"default_left":[0,0,0,1,1,0,0,0,0,1,0,0,0,0,0,0,0,0,0,0,0,0,0,0,0,0,0,0,0,0,0],"id":28,"left_children":[1,3,5,7,9,11,13,15,17,19,21,23,25,27,29,-1,-1,-1,-1,-1,-1,-1,-1,-1,-1,-1,-1,-1,-1,-1,-1],"loss_changes":[1.0489931E2,1.1138355E1,2.606678E1,1.0253969E1,5.1626625E0,1.6453949E1,1.167787E1,7.899886E0,7.6764755E0,9.23748E0,4.9772587E0,1.7207584E1,8.0662E0,9.052139E0,8.438526E0,0E0,0E0,0E0,0E0,0E0,0E0,0E0,0E0,0E0,0E0,0E0,0E0,0E0,0E0,0E0,0E0],"parents":[2147483647,0,0,1,1,2,2,3,3,4,4,5,5,6,6,7,7,8,8,9,9,10,10,11,11,12,12,13,13,14,14],"right_children":[2,4,6,8,10,12,14,16,18,20,22,24,26,28,30,-1,-1,-1,-1,-1,-1,-1,-1,-1,-1,-1,-1,-1,-1,-1,-1],"split_conditions":[2.838432E-1,3.8284633E-1,2.8483942E-1,1.600882E2,1.463726E2,1.5810143E2,7.260295E1,1.464313E2,3.5462955E-1,5E0,7.7343495E-3,1.562E2,8.6485244E-2,-6.865925E-2,9.056411E6,2.7799131E-2,-2.8865475E-3,5.9811473E-2,1.04733575E-2,-1.1674142E-2,4.9741063E-2,-6.5647205E-3,5.959671E-3,3.245195E-2,-2.6119086E-3,5.6217205E-2,-6.8262196E-3,4.5561325E-2,1.2137733E-2,-8.104022E-3,4.9271833E-2],"split_indices":[1,0,0,50,50,27,56,51,2,40,47,8,47,57,11,0,0,0,0,0,0,0,0,0,0,0,0,0,0,0,0],"split_type":[0,0,0,0,0,0,0,0,0,0,0,0,0,0,0,0,0,0,0,0,0,0,0,0,0,0,0,0,0,0,0],"sum_hessian":[1.0803495E3,8.0709985E2,2.7324963E2,3.2160538E2,4.8549448E2,8.0169525E1,1.9308011E2,3.0371814E2,1.7887245E1,2.3779347E2,2.47701E2,5.6538204E1,2.3631323E1,1.5556334E2,3.7516766E1,6.7520876E0,2.9696603E2,2.6891189E0,1.5198127E1,2.3653526E2,1.2582088E0,2.1560222E2,3.2098778E1,3.8180874E1,1.8357332E1,2.1867281E1,1.7640408E0,6.856049E0,1.4870729E2,3.604931E1,1.4674585E0],"tree_param":{"num_deleted":"0","num_feature":"65","num_nodes":"31","size_leaf_vector":"1"}},{"base_weights":[-2.3172868E-2,-3.604296E-1,3.5377055E-2,-4.2575368E-1,7.573697E-1,2.1145134E-1,-6.2976554E-2,-1.8469687E-1,-6.301264E-1,2.6275469E-2,-1.4198431E-2,2.46297E-1,-2.7466593E-2,-2.7681056E-1,6.363007E-2,8.8786246E-4,-2.1555347E-2,3.371151E-3,-2.354848E-2,1.0335332E-2,-4.0665534E-3,-9.66317E-3,2.587819E-2,5.559845E-3,-7.1284035E-3],"categories":[],"categories_nodes":[],"categories_segments":[],"categories_sizes":[],"default_left":[0,0,1,0,1,0,0,0,1,0,0,0,0,0,0,0,0,0,0,0,0,0,0,0,0],"id":29,"left_children":[1,3,5,7,9,11,13,15,17,-1,-1,19,-1,21,23,-1,-1,-1,-1,-1,-1,-1,-1,-1,-1],"loss_changes":[3.937442E1,2.1860107E1,2.9442827E1,1.3644112E1,2.8415442E0,2.4152977E1,2.9557209E1,1.4843045E1,1.741706E1,0E0,0E0,2.2241016E1,0E0,2.1229614E1,2.519897E1,0E0,0E0,0E0,0E0,0E0,0E0,0E0,0E0,0E0,0E0],"parents":[2147483647,0,0,1,1,2,2,3,3,4,4,5,5,6,6,7,7,8,8,11,11,13,13,14,14],"right_children":[2,4,6,8,10,12,14,16,18,-1,-1,20,-1,22,24,-1,-1,-1,-1,-1,-1,-1,-1,-1,-1],"split_conditions":[3.1955132E-1,2.5011253E0,1.3634012E2,-1.5432766E-3,1.4504E2,4.518925E-1,6.7889065E-1,2.9068983E-1,1.26010185E2,2.6275469E-2,-1.4198431E-2,4.6035716E-1,-2.7466593E-2,8.458148E1,1.3743428E0,8.8786246E-4,-2.1555347E-2,3.371151E-3,-2.354848E-2,1.0335332E-2,-4.0665534E-3,-9.66317E-3,2.587819E-2,5.559845E-3,-7.1284035E-3],"split_indices":[0,28,54,47,50,2,28,43,54,0,0,46,0,31,28,0,0,0,0,0,0,0,0,0,0],"split_type":[0,0,0,0,0,0,0,0,0,0,0,0,0,0,0,0,0,0,0,0,0,0,0,0,0],"sum_hessian":[1.9923638E3,2.9395883E2,1.6984049E3,2.7831335E2,1.5645483E1,6.082879E2,1.0901171E3,1.2856966E2,1.4974368E2,1.4534497E1,1.1109854E0,5.908024E2,1.7485462E1,4.0496292E2,6.851541E2,9.241538E1,3.6154274E1,2.5883951E1,1.2385973E2,4.7001038E2,1.2079204E2,3.9016986E2,1.4793082E1,4.8828052E2,1.9687361E2],"tree_param":{"num_deleted":"0","num_feature":"65","num_nodes":"25","size_leaf_vector":"1"}},{"base_weights":[1.30065875E-2,4.0834602E-2,-5.642793E-1,-9.1537315E-4,3.807114E-1,-2.075405E-2,2.970198E-1,8.434859E-1,-1.4690927E-2,5.604771E-1,-3.0931786E-1,-1.7304694E-2,2.8296206E-2,3.558863E-2,-1.8754367E-2,-2.1011949E-2,3.0322324E-5,1.7605472E-3,2.6794644E-2,-2.1211471E-2,1.6268713E-2],"categories":[],"categories_nodes":[],"categories_segments":[],"categories_sizes":[],"default_left":[0,0,1,0,0,0,1,0,0,0,0,0,0,0,0,0,0,0,0,0,0],"id":30,"left_children":[1,3,5,7,9,-1,11,13,15,17,19,-1,-1,-1,-1,-1,-1,-1,-1,-1,-1],"loss_changes":[2.8847324E1,2.4302988E1,9.275864E0,1.7766554E1,2.3415323E1,0E0,6.9528685E0,1.3084974E1,1.6180882E1,2.4820961E1,1.3718184E1,0E0,0E0,0E0,0E0,0E0,0E0,0E0,0E0,0E0,0E0],"parents":[2147483647,0,0,1,1,2,2,3,3,4,4,6,6,7,7,8,8,9,9,10,10],"right_children":[2,4,6,8,10,-1,12,14,16,18,20,-1,-1,-1,-1,-1,-1,-1,-1,-1,-1],"split_conditions":[4.00168E-1,1.7351105E0,5.3737892E1,-3.0918353E0,4.102275E-1,-2.075405E-2,1.2964532E-1,7.124989E6,1.2814E2,-1.0407078E0,1.4338965E2,-1.7304694E-2,2.8296206E-2,3.558863E-2,-1.8754367E-2,-2.1011949E-2,3.0322324E-5,1.7605472E-3,2.6794644E-2,-2.1211471E-2,1.6268713E-2],"split_indices":[1,43,56,43,0,0,41,11,23,32,54,0,0,0,0,0,0,0,0,0,0],"split_type":[0,0,0,0,0,0,0,0,0,0,0,0,0,0,0,0,0,0,0,0,0],"sum_hessian":[1.7932598E3,1.7116777E3,8.158201E1,1.5253083E3,1.8636937E2,7.123228E1,1.0349727E1,2.3517597E1,1.5017908E3,1.4800026E2,3.836911E1,4.445454E0,5.9042726E0,1.9222914E1,4.294683E0,3.264276E1,1.469148E3,5.9472187E1,8.852806E1,2.6269892E1,1.209922E1],"tree_param":{"num_deleted":"0","num_feature":"65","num_nodes":"21","size_leaf_vector":"1"}},{"base_weights":[6.6802185E-3,-1.8292043E-1,4.218484E-1,-4.756079E-2,-2.6846722E-1,9.6861285E-1,2.5187668E-1,-7.029166E-2,1.2284467E0,-3.0879423E-1,-2.216602E-2,1.3301152E0,5.7653546E-1,5.931054E-2,2.2323446E-1,-3.7589925E-3,9.516973E-3,6.0116563E-2,-6.555785E-3,-9.633416E-3,1.0955258E-2,-1.0607338E-2,8.865237E-3,2.3523398E-2,5.3869117E-2,3.7299793E-2,1.0658659E-3,-5.191011E-3,9.85307E-3],"categories":[],"categories_nodes":[],"categories_segments":[],"categories_sizes":[],"default_left":[0,0,0,1,0,0,0,0,0,1,1,0,0,0,1,0,0,0,0,0,0,0,0,0,0,0,0,0,0],"id":31,"left_children":[1,3,5,7,9,11,13,15,17,19,21,23,25,-1,27,-1,-1,-1,-1,-1,-1,-1,-1,-1,-1,-1,-1,-1,-1],"loss_changes":[8.72552E1,8.799124E0,3.205204E1,8.669135E0,4.6224976E0,1.0864113E1,1.2724617E1,6.2574005E0,6.3097696E0,3.4420166E0,7.121625E0,9.249573E0,1.4793175E1,0E0,1.1030291E1,0E0,0E0,0E0,0E0,0E0,0E0,0E0,0E0,0E0,0E0,0E0,0E0,0E0,0E0],"parents":[2147483647,0,0,1,1,2,2,3,3,4,4,5,5,6,6,7,7,8,8,9,9,10,10,11,11,12,12,14,14],"right_children":[2,4,6,8,10,12,14,16,18,20,22,24,26,-1,28,-1,-1,-1,-1,-1,-1,-1,-1,-1,-1,-1,-1,-1,-1],"split_conditions":[2.729536E-1,3.846191E-1,2.8483942E-1,1.686864E2,7.883952E-3,1.3570802E0,1.327275E2,9.203451E-1,2.0556228E-1,1.6517291E2,1.359638E2,-8.964395E-2,5.5919405E-2,5.931054E-2,1.39977E2,-3.7589925E-3,9.516973E-3,6.0116563E-2,-6.555785E-3,-9.633416E-3,1.0955258E-2,-1.0607338E-2,8.865237E-3,2.3523398E-2,5.3869117E-2,3.7299793E-2,1.0658659E-3,-5.191011E-3,9.85307E-3],"split_indices":[1,0,0,50,47,41,49,33,33,54,50,34,46,0,49,0,0,0,0,0,0,0,0,0,0,0,0,0,0],"split_type":[0,0,0,0,0,0,0,0,0,0,0,0,0,0,0,0,0,0,0,0,0,0,0,0,0,0,0,0,0],"sum_hessian":[1.1064988E3,7.5998517E2,3.4651364E2,2.949095E2,4.6507565E2,8.1060326E1,2.654533E2,2.9067627E2,4.2332115E0,3.9942407E2,6.565158E1,4.092982E1,4.0130505E1,3.2243407E0,2.6222897E2,2.5513689E2,3.553939E1,2.5055797E0,1.7276316E0,3.927681E2,6.655964E0,3.2075714E1,3.357587E1,2.0072058E1,2.0857763E1,1.7394098E1,2.2736408E1,5.487668E1,2.073523E2],"tree_param":{"num_deleted":"0","num_feature":"65","num_nodes":"29","size_leaf_vector":"1"}},{"base_weights":[1.406155E-2,1.6009586E-1,-8.948282E-2,-1.3981713E-1,2.8135905E-1,-3.531594E-1,1.8696463E-2,2.4172604E-1,-5.168162E-1,1.4132868E-1,4.99943E-1,-6.777758E-2,-5.304086E-1,5.3302813E-2,-5.363736E-1,1.4379333E-2,-2.8730163E-2,-2.6206E-2,9.538873E-4,8.629204E-3,-1.0519866E-2,1.6759489E-2,-2.6023464E-2,6.5192585E-3,-2.6734747E-2,-2.6515469E-2,-1.2043912E-2,1.8603314E-2,2.4219765E-4,8.111104E-3,-2.8851725E-2],"categories":[],"categories_nodes":[],"categories_segments":[],"categories_sizes":[],"default_left":[1,0,0,0,0,0,0,1,0,0,1,0,0,0,0,0,0,0,0,0,0,0,0,0,0,0,0,0,0,0,0],"id":32,"left_children":[1,3,5,7,9,11,13,15,17,19,21,23,25,27,29,-1,-1,-1,-1,-1,-1,-1,-1,-1,-1,-1,-1,-1,-1,-1,-1],"loss_changes":[2.9874338E1,2.984796E1,3.2983723E1,3.416532E1,1.7803959E1,1.6979439E1,1.5793823E1,3.416928E1,2.3385214E1,2.5823748E1,1.8758007E1,3.0715036E1,9.095276E0,1.9823954E1,1.6819088E1,0E0,0E0,0E0,0E0,0E0,0E0,0E0,0E0,0E0,0E0,0E0,0E0,0E0,0E0,0E0,0E0],"parents":[2147483647,0,0,1,1,2,2,3,3,4,4,5,5,6,6,7,7,8,8,9,9,10,10,11,11,12,12,13,13,14,14],"right_children":[2,4,6,8,10,12,14,16,18,20,22,24,26,28,30,-1,-1,-1,-1,-1,-1,-1,-1,-1,-1,-1,-1,-1,-1,-1,-1],"split_conditions":[1.432636E2,-1.0945324E-2,3.4776628E-1,1.3516E2,3.940814E-1,-1.5432766E-3,2.4491806E0,2.7401338E0,5.816998E-1,9.370114E-1,6.38211E1,1.587494E2,1.494206E2,1.5215646E2,1.0420829E-1,1.4379333E-2,-2.8730163E-2,-2.6206E-2,9.538873E-4,8.629204E-3,-1.0519866E-2,1.6759489E-2,-2.6023464E-2,6.5192585E-3,-2.6734747E-2,-2.6515469E-2,-1.2043912E-2,1.8603314E-2,2.4219765E-4,8.111104E-3,-2.8851725E-2],"split_indices":[50,47,0,10,0,47,30,40,33,33,56,50,50,53,55,0,0,0,0,0,0,0,0,0,0,0,0,0,0,0,0],"split_type":[0,0,0,0,0,0,0,0,0,0,0,0,0,0,0,0,0,0,0,0,0,0,0,0,0,0,0,0,0,0,0],"sum_hessian":[1.9737339E3,8.186296E2,1.1551042E3,2.3565219E2,5.829774E2,3.3538095E2,8.197233E2,1.1729859E2,1.1835361E2,3.5634216E2,2.2663521E2,1.2902513E2,2.0635582E2,7.7246716E2,4.7256203E1,9.840602E1,1.889257E1,7.136113E1,4.699248E1,2.749817E2,8.13605E1,2.1787267E2,8.762544E0,9.638797E1,3.263716E1,5.3595375E1,1.5276044E2,5.614604E1,7.163211E2,1.643984E1,3.081636E1],"tree_param":{"num_deleted":"0","num_feature":"65","num_nodes":"31","size_leaf_vector":"1"}},{"base_weights":[1.2477876E-2,4.8324563E-2,-3.7806246E-1,2.911668E-1,1.4328408E-3,-4.6620244E-1,7.7427727E-1,-3.3319837E-1,4.083549E-1,-6.699094E-2,2.898144E-1,-5.0087315E-1,3.0478824E-2,2.9314408E-2,-1.2249318E-2,-2.1499941E-2,1.9653937E-2,1.6514977E-2,-8.811094E-3,1.0075846E-2,-3.901902E-3,1.3369403E-2,-7.98809E-3,2.4782605E-2,-1.610271E-2],"categories":[],"categories_nodes":[],"categories_segments":[],"categories_sizes":[],"default_left":[0,0,1,1,0,0,1,1,0,0,0,0,0,0,0,0,0,0,0,0,0,0,0,0,0],"id":33,"left_children":[1,3,5,7,9,11,13,15,17,19,21,23,-1,-1,-1,-1,-1,-1,-1,-1,-1,-1,-1,-1,-1],"loss_changes":[2.5039843E1,1.8651234E1,1.5634016E1,1.953186E1,2.7128443E1,7.7192574E0,3.052484E0,1.6554745E1,2.2479813E1,2.8278103E1,2.2965319E1,7.0038185E0,0E0,0E0,0E0,0E0,0E0,0E0,0E0,0E0,0E0,0E0,0E0,0E0,0E0],"parents":[2147483647,0,0,1,1,2,2,3,3,4,4,5,5,6,6,7,7,8,8,9,9,10,10,11,11],"right_children":[2,4,6,8,10,12,14,16,18,20,22,24,-1,-1,-1,-1,-1,-1,-1,-1,-1,-1,-1,-1,-1],"split_conditions":[3.535201E-1,4.065615E-1,8.085106E1,1.388305E2,1.6485E2,9.124231E1,2.2845784E-1,6.1158234E1,4.202824E-1,3.28994E-1,1.4559621E0,3.763863E-1,3.0478824E-2,2.9314408E-2,-1.2249318E-2,-2.1499941E-2,1.9653937E-2,1.6514977E-2,-8.811094E-3,1.0075846E-2,-3.901902E-3,1.3369403E-2,-7.98809E-3,2.4782605E-2,-1.610271E-2],"split_indices":[1,28,52,49,25,31,41,52,0,0,33,37,0,0,0,0,0,0,0,0,0,0,0,0,0],"split_type":[0,0,0,0,0,0,0,0,0,0,0,0,0,0,0,0,0,0,0,0,0,0,0,0,0],"sum_hessian":[1.7863093E3,1.6369355E3,1.4937383E2,2.6408517E2,1.3728503E3,1.3931346E2,1.0060357E1,4.144224E1,2.2264294E2,1.1102023E3,2.6264804E2,1.3677606E2,2.5373983E0,8.735523E0,1.3248339E0,3.005568E1,1.1386563E1,1.853345E2,3.7308437E1,1.4970308E2,9.604992E2,2.0531177E2,5.7336258E1,3.0215142E0,1.3375455E2],"tree_param":{"num_deleted":"0","num_feature":"65","num_nodes":"25","size_leaf_vector":"1"}},{"base_weights":[7.979183E-3,-2.048747E-1,2.9760933E-1,-2.111436E-1,4.5732766E-2,1.193976E0,2.2924945E-1,-3.1921312E-1,-1.4316314E-1,4.761409E-2,1.085284E-1,2.0550063E-1,6.083868E-2,-1.2567321E-2,-4.316664E-3,-5.7098805E-3,2.6362464E-3,3.6043048E-2,-1.26598375E-2,2.8084582E-2,5.310824E-3],"categories":[],"categories_nodes":[],"categories_segments":[],"categories_sizes":[],"default_left":[0,1,0,1,0,1,0,0,0,0,0,0,0,0,0,0,0,0,0,0,0],"id":34,"left_children":[1,3,5,7,-1,9,11,13,15,-1,17,19,-1,-1,-1,-1,-1,-1,-1,-1,-1],"loss_changes":[6.713844E1,7.127123E0,2.7993408E1,4.555891E0,0E0,1.36762085E1,1.794571E1,4.1531296E0,4.226373E0,0E0,6.132327E0,8.683708E0,0E0,0E0,0E0,0E0,0E0,0E0,0E0,0E0,0E0],"parents":[2147483647,0,0,1,1,2,2,3,3,5,5,6,6,7,7,8,8,10,10,11,11],"right_children":[2,4,6,8,-1,10,12,14,16,-1,18,20,-1,-1,-1,-1,-1,-1,-1,-1,-1],"split_conditions":[2.5724483E-1,4.0756884E0,2.3123777E-1,1.430678E2,4.5732766E-2,7.288007E1,1.766E2,2.1956383E-1,2.2181869E-1,4.761409E-2,5.199641E-3,-1.0645813E0,6.083868E-2,-1.2567321E-2,-4.316664E-3,-5.7098805E-3,2.6362464E-3,3.6043048E-2,-1.26598375E-2,2.8084582E-2,5.310824E-3],"split_indices":[1,35,0,50,0,52,23,1,46,0,47,42,0,0,0,0,0,0,0,0,0],"split_type":[0,0,0,0,0,0,0,0,0,0,0,0,0,0,0,0,0,0,0,0,0],"sum_hessian":[1.0870563E3,6.267443E2,4.6031192E2,6.253552E2,1.389076E0,3.1450617E1,4.2886133E2,2.4004944E2,3.8530582E2,2.2748632E1,8.701983E0,4.2437247E2,4.4888573E0,1.5214394E2,8.7905495E1,3.201281E2,6.517769E1,2.430466E0,6.2715178E0,1.4721602E1,4.0965085E2],"tree_param":{"num_deleted":"0","num_feature":"65","num_nodes":"21","size_leaf_vector":"1"}},{"base_weights":[-1.6421964E-2,-3.4694567E-1,5.4327197E-2,5.5885665E-2,-5.1687664E-1,6.7377716E-1,3.313122E-2,-5.88902E-1,2.4206471E-1,1.22214966E-1,-6.324228E-1,8.751579E-1,-2.6836273E-1,1.2950628E-1,-1.8361992E-1,2.3060579E-2,-2.6005898E-2,1.1034339E-2,-2.4814798E-2,2.0093217E-2,-9.184303E-3,-2.1328403E-2,3.59554E-4,1.47709455E-2,2.7085999E-2,2.218727E-2,-2.7347885E-2,4.7820765E-3,-9.904288E-3,-1.0244555E-2,1.0243412E-3],"categories":[],"categories_nodes":[],"categories_segments":[],"categories_sizes":[],"default_left":[0,0,0,0,0,0,1,0,0,0,1,0,0,0,0,0,0,0,0,0,0,0,0,0,0,0,0,0,0,0,0],"id":35,"left_children":[1,3,5,7,9,11,13,15,17,19,21,23,25,27,29,-1,-1,-1,-1,-1,-1,-1,-1,-1,-1,-1,-1,-1,-1,-1,-1],"loss_changes":[4.6647057E1,2.4104061E1,2.1553923E1,1.2777081E1,1.8350395E1,1.0540419E1,3.323752E1,9.674653E0,1.1379711E1,9.288482E0,1.0621002E1,3.2619476E-2,7.372139E0,1.5185049E1,1.6849161E1,0E0,0E0,0E0,0E0,0E0,0E0,0E0,0E0,0E0,0E0,0E0,0E0,0E0,0E0,0E0,0E0],"parents":[2147483647,0,0,1,1,2,2,3,3,4,4,5,5,6,6,7,7,8,8,9,9,10,10,11,11,12,12,13,13,14,14],"right_children":[2,4,6,8,10,12,14,16,18,20,22,24,26,28,30,-1,-1,-1,-1,-1,-1,-1,-1,-1,-1,-1,-1,-1,-1,-1,-1],"split_conditions":[3.28994E-1,-8.078489E-1,1.34108E2,6.544826E-1,1.5023141E2,8.3549774E1,1.0609302E-3,2.0289819E-1,3.6773613E-1,5.06161E-1,1.9916493E0,1.371E2,3.5763386E-1,1.7948691E0,3.96101E-1,2.3060579E-2,-2.6005898E-2,1.1034339E-2,-2.4814798E-2,2.0093217E-2,-9.184303E-3,-2.1328403E-2,3.59554E-4,1.47709455E-2,2.7085999E-2,2.218727E-2,-2.7347885E-2,4.7820765E-3,-9.904288E-3,-1.0244555E-2,1.0243412E-3],"split_indices":[0,43,50,28,53,31,57,28,2,28,35,24,2,43,0,0,0,0,0,0,0,0,0,0,0,0,0,0,0,0,0],"split_type":[0,0,0,0,0,0,0,0,0,0,0,0,0,0,0,0,0,0,0,0,0,0,0,0,0,0,0,0,0,0,0],"sum_hessian":[1.9929984E3,3.5070096E2,1.6422975E3,1.0424744E2,2.464535E2,5.331731E1,1.5889801E3,2.2872114E1,8.137532E1,3.7726833E1,2.0872668E2,4.3986393E1,9.330917E0,1.100197E3,4.8878317E2,3.5870745E0,1.928504E1,7.3399185E1,7.976137E0,1.6312027E1,2.1414804E1,1.85963E2,2.2763676E1,4.2359896E0,3.9750404E1,3.576621E0,5.754297E0,1.033622E3,6.657509E1,2.8303384E2,2.0574933E2],"tree_param":{"num_deleted":"0","num_feature":"65","num_nodes":"31","size_leaf_vector":"1"}},{"base_weights":[1.1851729E-2,5.0598964E-2,-4.866667E-1,5.2007018E-3,3.8716784E-1,-5.9914625E-1,6.342013E-1,-2.9986115E-2,4.5330882E-1,-4.390953E-1,4.8265213E-1,2.6521945E-2,-6.4437187E-1,8.858786E-1,-1.4116901E-2,3.0117359E-3,-4.177369E-3,-1.2933772E-2,1.9306289E-2,-2.0835977E-2,2.900536E-2,-1.950626E-2,1.5957143E-2,-2.073876E-2,9.698369E-3,-1.1796239E-2,3.2829683E-2],"categories":[],"categories_nodes":[],"categories_segments":[],"categories_sizes":[],"default_left":[0,0,1,1,0,0,1,1,0,0,0,0,0,0,0,0,0,0,0,0,0,0,0,0,0,0,0],"id":36,"left_children":[1,3,5,7,9,11,13,15,17,19,21,-1,23,25,-1,-1,-1,-1,-1,-1,-1,-1,-1,-1,-1,-1,-1],"loss_changes":[3.411044E1,2.5030087E1,1.6436546E1,2.2790756E1,1.5572849E1,8.36808E0,3.7813683E0,1.910692E1,1.7983227E1,8.102882E0,1.0110645E1,0E0,5.371891E0,3.1504269E0,0E0,0E0,0E0,0E0,0E0,0E0,0E0,0E0,0E0,0E0,0E0,0E0,0E0],"parents":[2147483647,0,0,1,1,2,2,3,3,4,4,5,5,6,6,7,7,8,8,9,9,10,10,12,12,13,13],"right_children":[2,4,6,8,10,12,14,16,18,20,22,-1,24,26,-1,-1,-1,-1,-1,-1,-1,-1,-1,-1,-1,-1,-1],"split_conditions":[3.535201E-1,1.6326913E0,8.085106E1,1.6036151E2,-1.9070505E0,3.763863E-1,1.8491998E-1,-7.307355E-1,2.083919E6,1.4025E2,1.5944954E1,2.6521945E-2,3.045E2,9.715372E-4,-1.4116901E-2,3.0117359E-3,-4.177369E-3,-1.2933772E-2,1.9306289E-2,-2.0835977E-2,2.900536E-2,-1.950626E-2,1.5957143E-2,-2.073876E-2,9.698369E-3,-1.1796239E-2,3.2829683E-2],"split_indices":[1,43,52,54,33,37,41,41,11,9,31,0,18,47,0,0,0,0,0,0,0,0,0,0,0,0,0],"split_type":[0,0,0,0,0,0,0,0,0,0,0,0,0,0,0,0,0,0,0,0,0,0,0,0,0,0,0],"sum_hessian":[1.7636223E3,1.6372648E3,1.2635754E2,1.4435643E3,1.9370044E2,1.1525692E2,1.1100615E1,1.3393291E3,1.0423513E2,1.969274E1,1.7400769E2,2.861569E0,1.12395355E2,9.202349E0,1.8982654E0,6.1068805E2,7.286411E2,1.8227192E1,8.600794E1,1.709318E1,2.5995607E0,6.741639E0,1.6726605E2,1.0746988E2,4.9254723E0,1.1652954E0,8.037054E0],"tree_param":{"num_deleted":"0","num_feature":"65","num_nodes":"27","size_leaf_vector":"1"}},{"base_weights":[-1.1942013E-2,6.979206E-1,-1.0025042E-1,1.2871581E0,4.905832E-1,5.1356092E-2,-2.5706908E-1,-1.4625584E-1,4.6978716E-2,-6.9992766E-2,8.0419236E-1,2.731597E-2,1.2208697E0,2.4579753E-1,-2.6977217E-1,-1.2391918E-2,3.0557243E-3,-6.917323E-3,3.945359E-2,-9.215153E-3,3.0583862E-2,4.432004E-3,-3.8467406E-3,-4.1172015E-3,6.525454E-2,-2.8924232E-3,5.361698E-2,1.8534891E-2,-8.270599E-3],"categories":[],"categories_nodes":[],"categories_segments":[],"categories_sizes":[],"default_left":[0,0,0,0,0,0,0,0,0,1,0,0,0,0,0,0,0,0,0,0,0,0,0,0,0,0,0,0,0],"id":37,"left_children":[1,3,5,7,9,11,13,15,-1,17,19,21,23,25,27,-1,-1,-1,-1,-1,-1,-1,-1,-1,-1,-1,-1,-1,-1],"loss_changes":[6.9870636E1,1.4434605E1,2.3577822E1,1.281052E1,1.6377203E1,1.4158937E1,3.1796227E0,4.419707E-1,0E0,7.915765E0,1.4574974E1,9.302287E0,1.3445855E1,6.7826867E0,2.6683617E0,0E0,0E0,0E0,0E0,0E0,0E0,0E0,0E0,0E0,0E0,0E0,0E0,0E0,0E0],"parents":[2147483647,0,0,1,1,2,2,3,3,4,4,5,5,6,6,7,7,9,9,10,10,11,11,12,12,13,13,14,14],"right_children":[2,4,6,8,10,12,14,16,-1,18,20,22,24,26,28,-1,-1,-1,-1,-1,-1,-1,-1,-1,-1,-1,-1,-1,-1],"split_conditions":[3.0159143E-1,2.803006E-1,4.01467E-1,1.535853E2,3.083014E-1,1.1559759E7,-2.987474E0,1.7075382E-1,4.6978716E-2,1.6873183E0,1.914825E-1,9.1104525E-1,2.5211075E1,6.32631E-2,-4.0010414E0,-1.2391918E-2,3.0557243E-3,-6.917323E-3,3.945359E-2,-9.215153E-3,3.0583862E-2,4.432004E-3,-3.8467406E-3,-4.1172015E-3,6.525454E-2,-2.8924232E-3,5.361698E-2,1.8534891E-2,-8.270599E-3],"split_indices":[0,2,62,12,2,11,41,2,0,41,28,28,31,34,40,0,0,0,0,0,0,0,0,0,0,0,0,0,0],"split_type":[0,0,0,0,0,0,0,0,0,0,0,0,0,0,0,0,0,0,0,0,0,0,0,0,0,0,0,0,0],"sum_hessian":[1.1124819E3,1.2231952E2,9.901625E2,3.04825E1,9.183702E1,5.0378967E2,4.863728E2,5.040865E0,2.5441635E1,3.322471E1,5.8612312E1,4.9464526E2,9.144402E0,1.1531583E1,4.7484122E2,2.1085842E0,2.932281E0,3.0519882E1,2.7048275E0,9.441605E0,4.9170708E1,2.7882944E2,2.1581583E2,4.1270595E0,5.0173426E0,1.0203722E1,1.3278608E0,2.4583025E0,4.723829E2],"tree_param":{"num_deleted":"0","num_feature":"65","num_nodes":"29","size_leaf_vector":"1"}},{"base_weights":[2.8305825E-2,-3.1339934E-1,9.5703386E-2,5.2235615E-2,-5.6659347E-1,2.72786E-1,-3.785769E-2,2.0856808E-1,-6.1615026E-1,2.1823011E-2,-6.2362146E-1,2.6182756E-2,3.6577523E-1,-6.6202414E-1,2.6471743E-2,-2.555746E-2,1.0700259E-2,2.0946868E-2,-2.6316201E-2,9.625864E-3,-2.149242E-2,2.6164043E-3,-2.7916761E-2,1.180396E-2,-2.6255071E-2,-2.1892032E-2,2.197623E-2,-1.9954988E-3,9.484814E-3],"categories":[],"categories_nodes":[],"categories_segments":[],"categories_sizes":[],"default_left":[0,0,0,0,0,0,0,0,0,0,0,0,0,0,0,0,0,0,0,0,0,0,0,0,0,0,0,0,0],"id":38,"left_children":[1,3,5,7,9,11,13,15,17,-1,19,21,23,25,27,-1,-1,-1,-1,-1,-1,-1,-1,-1,-1,-1,-1,-1,-1],"loss_changes":[4.54838E1,3.0152723E1,3.901811E1,1.4135169E1,1.4647404E1,1.6254108E1,3.780296E1,1.7484379E1,9.41807E0,0E0,1.6422287E1,1.1483847E1,1.8038933E1,8.840828E0,2.3028181E1,0E0,0E0,0E0,0E0,0E0,0E0,0E0,0E0,0E0,0E0,0E0,0E0,0E0,0E0],"parents":[2147483647,0,0,1,1,2,2,3,3,4,4,5,5,6,6,7,7,8,8,10,10,11,11,12,12,13,13,14,14],"right_children":[2,4,6,8,10,12,14,16,18,-1,20,22,24,26,28,-1,-1,-1,-1,-1,-1,-1,-1,-1,-1,-1,-1,-1,-1],"split_conditions":[3.2552746E-1,-2.298593E-3,1.5122E2,1.3777044E0,-1.0793807E-1,-4.7182524E-1,1.5314E2,-1.0429655E0,1.8345808E1,2.1823011E-2,5.229409E-1,3.5983858E-1,1.5237E2,4.5554373E-1,4.1835958E-1,-2.555746E-2,1.0700259E-2,2.0946868E-2,-2.6316201E-2,9.625864E-3,-2.149242E-2,2.6164043E-3,-2.7916761E-2,1.180396E-2,-2.6255071E-2,-2.1892032E-2,2.197623E-2,-1.9954988E-3,9.484814E-3],"split_indices":[0,47,8,6,57,40,26,40,52,0,38,34,26,0,0,0,0,0,0,0,0,0,0,0,0,0,0,0,0],"split_type":[0,0,0,0,0,0,0,0,0,0,0,0,0,0,0,0,0,0,0,0,0,0,0,0,0,0,0,0,0],"sum_hessian":[1.9726699E3,3.2438586E2,1.648284E3,1.3304732E2,1.9133853E2,7.0823065E2,9.4005347E2,1.083846E2,2.466272E1,7.5801806E0,1.8375836E2,1.942829E2,5.1394775E2,8.696553E1,8.530879E2,1.2699698E1,9.56849E1,3.8092258E0,2.0853493E1,1.6218773E1,1.6753958E2,1.8348706E2,1.0795832E1,5.03398E2,1.054977E1,8.3393265E1,3.57226E0,6.4637555E2,2.0671236E2],"tree_param":{"num_deleted":"0","num_feature":"65","num_nodes":"29","size_leaf_vector":"1"}},{"base_weights":[2.4993338E-3,4.060982E-2,-4.5221114E-1,7.975041E-2,-4.8658055E-1,-5.557034E-1,6.6139704E-1,4.9098003E-1,3.3945184E-2,2.856055E-2,-5.760714E-1,-2.0530805E-2,-2.7856486E-2,2.6881041E-2,-1.36068715E-2,3.07436E-2,6.663749E-3,2.6774802E-4,2.0285198E-2,2.2413952E-2,-2.0313293E-2,-1.9758066E-2,2.1490637E-2],"categories":[],"categories_nodes":[],"categories_segments":[],"categories_sizes":[],"default_left":[0,1,1,0,0,1,1,0,0,0,0,0,0,0,0,0,0,0,0,0,0,0,0],"id":39,"left_children":[1,3,5,7,9,11,13,15,17,-1,19,-1,21,-1,-1,-1,-1,-1,-1,-1,-1,-1,-1],"loss_changes":[2.9815805E1,3.279483E1,1.5701841E1,2.7834627E1,1.4691019E1,8.285271E0,3.485653E0,2.1029083E1,2.1388975E1,0E0,1.4415741E1,0E0,1.2210019E1,0E0,0E0,0E0,0E0,0E0,0E0,0E0,0E0,0E0,0E0],"parents":[2147483647,0,0,1,1,2,2,3,3,4,4,5,5,6,6,7,7,8,8,10,10,12,12],"right_children":[2,4,6,8,10,12,14,16,18,-1,20,-1,22,-1,-1,-1,-1,-1,-1,-1,-1,-1,-1],"split_conditions":[3.535201E-1,2.5388646E0,8.085106E1,-3.3007643E-1,3.0505398E-1,1.594054E2,1.8491998E-1,8.861535E-1,1E0,2.856055E-2,-5.4897163E-2,-2.0530805E-2,2.6347044E0,2.6881041E-2,-1.36068715E-2,3.07436E-2,6.663749E-3,2.6774802E-4,2.0285198E-2,2.2413952E-2,-2.0313293E-2,-1.9758066E-2,2.1490637E-2],"split_indices":[1,41,52,46,0,50,41,30,64,0,57,0,35,0,0,0,0,0,0,0,0,0,0],"split_type":[0,0,0,0,0,0,0,0,0,0,0,0,0,0,0,0,0,0,0,0,0,0,0],"sum_hessian":[1.7184891E3,1.5864364E3,1.3205273E2,1.4775839E3,1.0885264E2,1.2128245E2,1.0770296E1,1.4711327E2,1.3304706E3,5.8103848E0,1.0304225E2,9.727599E1,2.4006449E1,9.060013E0,1.7102828E0,4.8334446E1,9.877882E1,1.2815569E3,4.8913654E1,6.8563704E0,9.618588E1,1.3056027E1,1.0950422E1],"tree_param":{"num_deleted":"0","num_feature":"65","num_nodes":"23","size_leaf_vector":"1"}},{"base_weights":[-4.9547246E-4,-1.7115773E-1,3.5667157E-1,-4.144421E-2,-2.9627708E-1,1.1085738E0,2.778137E-1,-8.029764E-2,8.232787E-1,7.956315E-1,-3.1508017E-1,4.3942362E-2,7.747424E-2,6.9560945E-2,4.5005965E-1,-2.9426387E-3,5.8283452E-2,5.903164E-5,5.2388236E-2,-3.204564E-4,5.901829E-2,5.448492E-3,-1.0198855E-2,-8.111843E-3,3.187568E-2,5.408322E-2,5.56431E-4,1.06238825E-2,5.996233E-2],"categories":[],"categories_nodes":[],"categories_segments":[],"categories_sizes":[],"default_left":[0,0,0,0,0,1,0,1,0,0,0,0,1,0,1,0,0,0,0,0,0,0,0,0,0,0,0,0,0],"id":40,"left_children":[1,3,5,7,9,11,13,15,17,19,21,-1,23,25,27,-1,-1,-1,-1,-1,-1,-1,-1,-1,-1,-1,-1,-1,-1],"loss_changes":[6.593187E1,1.1866531E1,2.0428623E1,1.217882E1,7.8964157E0,1.1955303E1,1.1370762E1,1.2641132E1,1.1815801E1,6.244684E0,4.5949745E0,0E0,3.5402827E0,1.2793705E1,2.5111412E1,0E0,0E0,0E0,0E0,0E0,0E0,0E0,0E0,0E0,0E0,0E0,0E0,0E0,0E0],"parents":[2147483647,0,0,1,1,2,2,3,3,4,4,5,5,6,6,7,7,8,8,9,9,10,10,12,12,13,13,14,14],"right_children":[2,4,6,8,10,12,14,16,18,20,22,-1,24,26,28,-1,-1,-1,-1,-1,-1,-1,-1,-1,-1,-1,-1,-1,-1],"split_conditions":[2.729536E-1,3.96101E-1,2.3123777E-1,1.7659426E0,-2.7401338E0,7.288007E1,3.6537462E-1,3.7260346E0,-2.962254E-1,-6.4911306E-2,-3.3533442E-1,4.3942362E-2,6.909914E-1,-7.8513783E-1,1.7650711E2,-2.9426387E-3,5.8283452E-2,5.903164E-5,5.2388236E-2,-3.204564E-4,5.901829E-2,5.448492E-3,-1.0198855E-2,-8.111843E-3,3.187568E-2,5.408322E-2,5.56431E-4,1.06238825E-2,5.996233E-2],"split_indices":[1,0,0,33,41,52,62,40,34,34,46,0,40,35,53,0,0,0,0,0,0,0,0,0,0,0,0,0,0],"split_type":[0,0,0,0,0,0,0,0,0,0,0,0,0,0,0,0,0,0,0,0,0,0,0,0,0,0,0,0,0],"sum_hessian":[1.0796478E3,7.309194E2,3.4872852E2,3.5952472E2,3.7139462E2,3.1862724E1,3.168658E2,3.4493344E2,1.4591289E1,5.5878944E0,3.6580673E2,2.3369617E1,8.493106E0,1.4407582E2,1.7278998E2,3.4286984E2,2.0635731E0,8.251221E0,6.340067E0,3.896943E0,1.6909512E0,1.7150148E1,3.486566E2,6.812706E0,1.6803999E0,3.1375024E0,1.4093831E2,1.6386816E2,8.921825E0],"tree_param":{"num_deleted":"0","num_feature":"65","num_nodes":"29","size_leaf_vector":"1"}},{"base_weights":[-1.6531134E-2,5.091238E-2,-2.5554875E-1,1.077247E-1,-2.1209116E-1,-5.2962783E-3,-5.0140506E-1,3.349704E-1,3.0565856E-2,-4.287853E-1,2.3656264E-1,2.0064192E-1,-7.3222554E-1,3.560585E-1,-5.9705347E-1,1.356724E-2,-8.40203E-3,-1.3665554E-2,2.634495E-3,1.4387984E-2,-1.5956908E-2,2.0893749E-2,-1.4491526E-3,-2.9237103E-4,1.7031716E-2,-2.6536813E-2,1.9270735E-2,2.5378842E-2,-2.4863958E-2,-1.971744E-2,1.703277E-2],"categories":[],"categories_nodes":[],"categories_segments":[],"categories_sizes":[],"default_left":[0,1,0,0,0,1,0,0,0,0,0,0,1,0,1,0,0,0,0,0,0,0,0,0,0,0,0,0,0,0,0],"id":41,"left_children":[1,3,5,7,9,11,13,15,17,19,21,23,25,27,29,-1,-1,-1,-1,-1,-1,-1,-1,-1,-1,-1,-1,-1,-1,-1,-1],"loss_changes":[3.082196E1,2.2307623E1,2.5885597E1,2.1506771E1,2.5891766E1,3.1514166E1,1.7619274E1,2.2554482E1,2.5564575E1,1.7043175E1,1.1436846E1,1.26757965E1,1.0299034E1,1.3427998E1,1.3787125E1,0E0,0E0,0E0,0E0,0E0,0E0,0E0,0E0,0E0,0E0,0E0,0E0,0E0,0E0,0E0,0E0],"parents":[2147483647,0,0,1,1,2,2,3,3,4,4,5,5,6,6,7,7,8,8,9,9,10,10,11,11,12,12,13,13,14,14],"right_children":[2,4,6,8,10,12,14,16,18,20,22,24,26,28,30,-1,-1,-1,-1,-1,-1,-1,-1,-1,-1,-1,-1,-1,-1,-1,-1],"split_conditions":[2.871502E-1,5.031664E1,-1.2324156E-3,1.8882525E-1,2.439586E-1,1.586646E2,5.229409E-1,1.6823E2,3.4520274E-1,1.2815E2,2.5537637E-1,8.0678046E-1,1.4803555E2,1.6112E2,4.3406987E0,1.356724E-2,-8.40203E-3,-1.3665554E-2,2.634495E-3,1.4387984E-2,-1.5956908E-2,2.0893749E-2,-1.4491526E-3,-2.9237103E-4,1.7031716E-2,-2.6536813E-2,1.9270735E-2,2.5378842E-2,-2.4863958E-2,-1.971744E-2,1.703277E-2],"split_indices":[1,56,47,1,1,50,38,9,28,9,1,32,51,24,41,0,0,0,0,0,0,0,0,0,0,0,0,0,0,0,0],"split_type":[0,0,0,0,0,0,0,0,0,0,0,0,0,0,0,0,0,0,0,0,0,0,0,0,0,0,0,0,0,0,0],"sum_hessian":[1.9102029E3,1.4904344E3,4.1976837E2,1.2261582E3,2.642763E2,2.0853058E2,2.112378E2,3.0995306E2,9.162051E2,1.7823523E2,8.604108E1,1.6305989E2,4.5470684E1,2.0925297E1,1.903125E2,2.6053995E2,4.9413136E1,9.580657E1,8.203985E2,1.7797039E1,1.6043819E2,3.235757E1,5.3683506E1,1.0427161E2,5.8788284E1,4.1255165E1,4.2155175E0,1.5006557E1,5.918739E0,1.8137523E2,8.937268E0],"tree_param":{"num_deleted":"0","num_feature":"65","num_nodes":"31","size_leaf_vector":"1"}},{"base_weights":[-3.3364943E-3,-4.4180608E-1,2.4586353E-2,-5.2469105E-1,6.3773733E-1,-2.1367466E-2,4.131827E-2,2.6464498E-2,-5.7521206E-1,2.9463362E-2,-1.3185964E-2,-3.6184784E-4,3.3044863E-1,-1.8843139E-2,2.527842E-2,-5.760236E-3,2.7328518E-3,1.5711304E-2,-1.3846208E-2],"categories":[],"categories_nodes":[],"categories_segments":[],"categories_sizes":[],"default_left":[0,1,0,0,0,0,0,0,1,0,0,0,0,0,0,0,0,0,0],"id":42,"left_children":[1,3,5,7,9,-1,11,-1,13,-1,-1,15,17,-1,-1,-1,-1,-1,-1],"loss_changes":[2.1921225E1,9.926147E0,2.0783289E1,7.622017E0,3.4346738E0,0E0,1.98475E1,0E0,7.8211403E0,0E0,0E0,2.5264658E1,3.2002914E1,0E0,0E0,0E0,0E0,0E0,0E0],"parents":[2147483647,0,0,1,1,2,2,3,3,4,4,6,6,8,8,11,11,12,12],"right_children":[2,4,6,8,10,-1,12,-1,14,-1,-1,16,18,-1,-1,-1,-1,-1,-1],"split_conditions":[3.2019475E-1,9.4944626E-2,-1.0793807E-1,3.763863E-1,5.7336056E-1,-2.1367466E-2,4.1719458E-1,2.6464498E-2,5E0,2.9463362E-2,-1.3185964E-2,1.3776987E2,6.078908E5,-1.8843139E-2,2.527842E-2,-5.760236E-3,2.7328518E-3,1.5711304E-2,-1.3846208E-2],"split_indices":[2,57,57,37,30,0,2,0,40,0,0,54,17,0,0,0,0,0,0],"split_type":[0,0,0,0,0,0,0,0,0,0,0,0,0,0,0,0,0,0,0],"sum_hessian":[1.7885769E3,1.0619443E2,1.6823826E3,9.909974E1,7.094691E0,3.6432014E1,1.6459506E3,2.8647585E0,9.623498E1,5.443029E0,1.6516618E0,1.4394436E3,2.0650688E2,9.331097E1,2.924008E0,4.6465964E2,9.7478394E2,1.6627188E2,4.0235E1],"tree_param":{"num_deleted":"0","num_feature":"65","num_nodes":"19","size_leaf_vector":"1"}},{"base_weights":[-1.02850245E-2,4.9001905E-1,-1.0118674E-1,1.5378955E-1,7.929309E-1,3.9255895E-2,-2.1333672E-1,7.067878E-1,-9.494174E-2,5.815143E-1,4.8084024E-2,4.3791125E-4,7.934913E-1,-2.5673124E-1,-2.0250555E-2,7.2160424E-3,5.9356853E-2,1.1723869E-2,-8.71968E-3,5.33232E-3,2.9333374E-2,-6.1603513E-4,3.8878866E-2,6.257183E-2,1.001319E-2,-1.1136229E-2,-5.0499085E-3,-2.2724057E-3,5.8841236E-2],"categories":[],"categories_nodes":[],"categories_segments":[],"categories_sizes":[],"default_left":[0,0,0,0,1,0,0,0,0,0,0,1,0,0,0,0,0,0,0,0,0,0,0,0,0,0,0,0,0],"id":43,"left_children":[1,3,5,7,9,11,13,15,17,19,-1,21,23,25,27,-1,-1,-1,-1,-1,-1,-1,-1,-1,-1,-1,-1,-1,-1],"loss_changes":[5.0842945E1,1.7385345E1,1.49079895E1,1.1443484E1,1.450993E1,1.2321274E1,4.403084E0,1.4809733E1,5.6207714E0,1.1520206E1,0E0,1.0928725E1,1.1540997E1,4.2838745E0,1.0885116E1,0E0,0E0,0E0,0E0,0E0,0E0,0E0,0E0,0E0,0E0,0E0,0E0,0E0,0E0],"parents":[2147483647,0,0,1,1,2,2,3,3,4,4,5,5,6,6,7,7,8,8,9,9,11,11,12,12,13,13,14,14],"right_children":[2,4,6,8,10,12,14,16,18,20,-1,22,24,26,28,-1,-1,-1,-1,-1,-1,-1,-1,-1,-1,-1,-1,-1,-1],"split_conditions":[3.4462553E-1,3.7675086E-1,3.968178E-1,7.88158E-1,1.586646E2,1.980535E0,1.583229E2,5.2501694E1,1.6044E2,-7.046661E-1,4.8084024E-2,6.38211E1,2.1587877E0,1.525E2,2.0748284E-1,7.2160424E-3,5.9356853E-2,1.1723869E-2,-8.71968E-3,5.33232E-3,2.9333374E-2,-6.1603513E-4,3.8878866E-2,6.257183E-2,1.001319E-2,-1.1136229E-2,-5.0499085E-3,-2.2724057E-3,5.8841236E-2],"split_indices":[2,62,62,28,50,32,12,31,26,43,0,56,30,9,46,0,0,0,0,0,0,0,0,0,0,0,0,0,0],"split_type":[0,0,0,0,0,0,0,0,0,0,0,0,0,0,0,0,0,0,0,0,0,0,0,0,0,0,0,0,0],"sum_hessian":[1.1158654E3,1.7089642E2,9.44969E2,8.170846E1,8.9187965E1,4.1985056E2,5.251184E2,2.4778173E1,5.6930286E1,7.208754E1,1.7100428E1,4.0025153E2,1.9599031E1,4.2848938E2,9.662905E1,1.900117E1,5.7770047E0,1.6064217E1,4.086607E1,3.642311E1,3.566443E1,3.9484378E2,5.4077244E0,4.214735E0,1.5384296E1,1.853142E2,2.4317519E2,9.4932205E1,1.6968437E0],"tree_param":{"num_deleted":"0","num_feature":"65","num_nodes":"29","size_leaf_vector":"1"}},{"base_weights":[-1.9400222E-2,-2.5382003E-1,6.292888E-2,2.2862978E-1,-3.7788492E-1,1.6376881E-1,-1.547078E-1,-2.7211929E-2,3.4847334E-1,-2.816545E-1,-2.5384933E-2,4.2019203E-1,6.316644E-2,5.5854577E-1,-2.2248124E-1,1.3377396E-2,-2.588065E-2,-2.614555E-2,-6.402642E-3,1.5172117E-2,-3.4208708E-3,3.353203E-3,-1.9930728E-2,2.5380168E-2,-2.7175918E-2,-1.3490093E-2,-2.4679212E-3],"categories":[],"categories_nodes":[],"categories_segments":[],"categories_sizes":[],"default_left":[0,1,1,0,0,0,0,0,0,0,0,0,0,0,0,0,0,0,0,0,0,0,0,0,0,0,0],"id":44,"left_children":[1,3,5,7,9,11,13,-1,15,17,-1,19,21,23,25,-1,-1,-1,-1,-1,-1,-1,-1,-1,-1,-1,-1],"loss_changes":[3.7286797E1,3.0142483E1,3.1409357E1,1.4381141E1,1.7778133E1,2.5195478E1,2.2036936E1,0E0,1.1501476E1,1.3222826E1,0E0,1.2639992E1,2.4948261E1,1.7444935E1,1.3173136E1,0E0,0E0,0E0,0E0,0E0,0E0,0E0,0E0,0E0,0E0,0E0,0E0],"parents":[2147483647,0,0,1,1,2,2,3,3,4,4,5,5,6,6,8,8,9,9,11,11,12,12,13,13,14,14],"right_children":[2,4,6,8,10,12,14,-1,16,18,-1,20,22,24,26,-1,-1,-1,-1,-1,-1,-1,-1,-1,-1,-1,-1],"split_conditions":[3.4475344E-1,1.25534386E2,5.4014183E-4,1.2266015E2,1.619942E0,1.5629025E2,1.34108E2,-2.7211929E-2,7.522283E1,3.530718E-1,-2.5384933E-2,8.156846E-1,4.17055E-1,5.238513E6,3.980803E-1,1.3377396E-2,-2.588065E-2,-2.614555E-2,-6.402642E-3,1.5172117E-2,-3.4208708E-3,3.353203E-3,-1.9930728E-2,2.5380168E-2,-2.7175918E-2,-1.3490093E-2,-2.4679212E-3],"split_indices":[0,54,57,54,43,51,50,0,31,62,0,32,2,11,62,0,0,0,0,0,0,0,0,0,0,0,0],"split_type":[0,0,0,0,0,0,0,0,0,0,0,0,0,0,0,0,0,0,0,0,0,0,0,0,0,0,0],"sum_hessian":[1.9301736E3,5.011476E2,1.429026E3,1.0233925E2,3.9880838E2,9.767196E2,4.5230643E2,9.141485E0,9.319776E1,3.321531E2,6.665527E1,2.7432407E2,7.023955E2,3.862041E1,4.13686E2,8.684294E1,6.354822E0,3.3217827E1,2.9893527E2,2.3650558E2,3.7818493E1,6.5919977E2,4.3195774E1,3.263628E1,5.9841294E0,1.5703738E2,2.5664862E2],"tree_param":{"num_deleted":"0","num_feature":"65","num_nodes":"27","size_leaf_vector":"1"}},{"base_weights":[2.2130543E-2,-4.0352997E-1,5.5895917E-2,-5.421238E-1,2.0983343E-1,-5.987085E-1,7.5972535E-2,-6.318493E-1,2.5360718E-1,-1.934328E-2,7.7667236E-1,4.6640843E-2,-2.1291863E-2,4.5545205E-2,4.661596E-1,-2.0565806E-2,5.8091288E-3,2.7533703E-2,-1.7744068E-2,-1.2758852E-2,2.8949311E-2,-1.737141E-2,2.8399529E-2,-6.1046495E-4,8.688539E-3,2.3461146E-2,-4.293279E-3],"categories":[],"categories_nodes":[],"categories_segments":[],"categories_sizes":[],"default_left":[0,1,0,1,0,0,1,0,0,0,0,0,0,0,1,0,0,0,0,0,0,0,0,0,0,0,0],"id":45,"left_children":[1,3,5,7,9,11,13,15,17,-1,19,21,-1,23,25,-1,-1,-1,-1,-1,-1,-1,-1,-1,-1,-1,-1],"loss_changes":[2.4714537E1,1.0857538E1,2.0975908E1,7.540573E0,1.2134298E1,3.4366264E0,1.8334637E1,4.2616386E0,6.8226767E0,0E0,3.7810078E0,5.0030475E0,0E0,2.3090792E1,2.1616276E1,0E0,0E0,0E0,0E0,0E0,0E0,0E0,0E0,0E0,0E0,0E0,0E0],"parents":[2147483647,0,0,1,1,2,2,3,3,4,4,5,5,6,6,7,7,8,8,10,10,11,11,13,13,14,14],"right_children":[2,4,6,8,10,12,14,16,18,-1,20,22,-1,24,26,-1,-1,-1,-1,-1,-1,-1,-1,-1,-1,-1,-1],"split_conditions":[2.937431E-1,1.435136E0,-2.162175E0,9.4944626E-2,3.3163807E1,3.1955132E-1,6.0500748E1,3.947247E-1,5.7336056E-1,-1.934328E-2,2.4717234E-1,3.187452E-1,-2.1291863E-2,1.6492E2,-9.9582464E-1,-2.0565806E-2,5.8091288E-3,2.7533703E-2,-1.7744068E-2,-1.2758852E-2,2.8949311E-2,-1.737141E-2,2.8399529E-2,-6.1046495E-4,8.688539E-3,2.3461146E-2,-4.293279E-3],"split_indices":[0,41,35,57,56,0,56,2,30,0,0,0,0,25,41,0,0,0,0,0,0,0,0,0,0,0,0],"split_type":[0,0,0,0,0,0,0,0,0,0,0,0,0,0,0,0,0,0,0,0,0,0,0,0,0,0,0],"sum_hessian":[1.7169916E3,1.2538496E2,1.5916066E3,1.0236989E2,2.3015066E1,4.6504116E1,1.5451024E3,9.218158E1,1.0188309E1,9.123017E0,1.3892049E1,6.9110126E0,3.95931E1,1.4343654E3,1.1073707E2,8.67126E1,5.468978E0,5.6565385E0,4.53177E0,1.7111379E0,1.2180911E1,4.287182E0,2.623831E0,1.1301638E3,3.042016E2,7.274071E1,3.799636E1],"tree_param":{"num_deleted":"0","num_feature":"65","num_nodes":"27","size_leaf_vector":"1"}},{"base_weights":[1.5022953E-2,-1.5603839E-1,4.4707787E-1,-2.6977783E-1,-6.5304644E-2,1.2864064E0,3.4883678E-1,-2.9331997E-1,2.1100247E-1,5.4935493E-2,-7.684199E-2,-1.2365141E-2,4.2625047E-2,1.2690293E0,2.7530828E-1,-2.2296417E-3,-1.0072223E-2,-6.545166E-3,3.836388E-2,2.6440127E-2,-2.8411383E-3,1.5093497E-3,6.1267152E-2,-6.723487E-3,1.0043649E-2],"categories":[],"categories_nodes":[],"categories_segments":[],"categories_sizes":[],"default_left":[0,0,0,0,0,0,0,0,0,0,0,0,0,0,0,0,0,0,0,0,0,0,0,0,0],"id":46,"left_children":[1,3,5,7,9,11,13,15,17,-1,19,-1,-1,21,23,-1,-1,-1,-1,-1,-1,-1,-1,-1,-1],"loss_changes":[7.979638E1,7.965027E0,2.4800919E1,3.9432812E0,9.584082E0,7.827175E0,1.8291298E1,3.015995E0,7.88144E0,0E0,7.4421473E0,0E0,0E0,1.8845787E1,7.6914577E0,0E0,0E0,0E0,0E0,0E0,0E0,0E0,0E0,0E0,0E0],"parents":[2147483647,0,0,1,1,2,2,3,3,4,4,5,5,6,6,7,7,8,8,10,10,13,13,14,14],"right_children":[2,4,6,8,10,12,14,16,18,-1,20,-1,-1,22,24,-1,-1,-1,-1,-1,-1,-1,-1,-1,-1],"split_conditions":[2.8094012E-1,2.1956383E-1,2.803006E-1,9.346034E6,-2.6009114E0,1.4595044E5,3.96E0,1.477171E2,1E-1,5.4935493E-2,1.464313E2,-1.2365141E-2,4.2625047E-2,1.5009E2,-4.3234217E-1,-2.2296417E-3,-1.0072223E-2,-6.545166E-3,3.836388E-2,2.6440127E-2,-2.8411383E-3,1.5093497E-3,6.1267152E-2,-6.723487E-3,1.0043649E-2],"split_indices":[1,1,2,11,43,15,21,51,5,0,51,0,0,26,34,0,0,0,0,0,0,0,0,0,0],"split_type":[0,0,0,0,0,0,0,0,0,0,0,0,0,0,0,0,0,0,0,0,0,0,0,0,0],"sum_hessian":[1.0777294E3,7.725116E2,3.052178E2,3.4192172E2,4.3058984E2,3.071427E1,2.7450354E2,3.263323E2,1.5589442E1,1.6499869E0,4.2893985E2,2.1009917E0,2.8613277E1,1.9108315E1,2.5539522E2,5.3400867E1,2.7293143E2,1.1687574E1,3.901868E0,6.965394E0,4.2197446E2,7.8307323E0,1.1277582E1,2.6885244E1,2.2850998E2],"tree_param":{"num_deleted":"0","num_feature":"65","num_nodes":"25","size_leaf_vector":"1"}},{"base_weights":[6.5752026E-3,-8.5248396E-2,2.2559132E-1,-1.3233803E-1,2.1611051E-1,-4.8629608E-2,3.771267E-1,9.559925E-2,-2.1052842E-1,4.0655816E-1,-5.15008E-1,4.0805783E-2,-2.8653963E-2,6.4025974E-1,1.5218937E-1,7.216005E-3,-7.1525304E-3,-4.969644E-3,-2.431668E-2,1.5045633E-2,-2.6310345E-2,-2.556272E-2,4.0254435E-3,4.0841373E-3,-2.8060945E-2,1.1802656E-2,2.4404375E-2,1.0162455E-3,2.4895454E-2],"categories":[],"categories_nodes":[],"categories_segments":[],"categories_sizes":[],"default_left":[0,1,0,1,0,0,1,0,0,0,0,0,0,1,0,0,0,0,0,0,0,0,0,0,0,0,0,0,0],"id":47,"left_children":[1,3,5,7,9,11,13,15,17,19,21,23,-1,25,27,-1,-1,-1,-1,-1,-1,-1,-1,-1,-1,-1,-1,-1,-1],"loss_changes":[4.0226696E1,2.0029472E1,2.4571665E1,2.175587E1,2.6783237E1,1.7160894E1,2.2434708E1,1.5170462E1,2.4324253E1,1.8963478E1,8.841619E0,1.8105165E1,0E0,7.1682053E0,1.6532444E1,0E0,0E0,0E0,0E0,0E0,0E0,0E0,0E0,0E0,0E0,0E0,0E0,0E0,0E0],"parents":[2147483647,0,0,1,1,2,2,3,3,4,4,5,5,6,6,7,7,8,8,9,9,10,10,11,11,13,13,14,14],"right_children":[2,4,6,8,10,12,14,16,18,20,22,24,-1,26,28,-1,-1,-1,-1,-1,-1,-1,-1,-1,-1,-1,-1,-1,-1],"split_conditions":[4.0567014E-1,1.6169088E0,-5.361847E-3,1.2668833E2,2.9904142E-1,-6.3641206E-3,1.52816E2,6.063979E-1,4.2234185E-1,3.8647616E0,1.6759E2,4.4111064E-1,-2.8653963E-2,-4.7182524E-1,4.027972E0,7.216005E-3,-7.1525304E-3,-4.969644E-3,-2.431668E-2,1.5045633E-2,-2.6310345E-2,-2.556272E-2,4.0254435E-3,4.0841373E-3,-2.8060945E-2,1.1802656E-2,2.4404375E-2,1.0162455E-3,2.4895454E-2],"split_indices":[0,41,47,54,1,47,49,32,2,30,8,0,0,40,30,0,0,0,0,0,0,0,0,0,0,0,0,0,0],"split_type":[0,0,0,0,0,0,0,0,0,0,0,0,0,0,0,0,0,0,0,0,0,0,0,0,0,0,0,0,0],"sum_hessian":[1.9982922E3,1.4084171E3,5.898751E2,1.2185675E3,1.8984961E2,2.1019034E2,3.796848E2,3.111867E2,9.073808E2,1.5096814E2,3.8881474E1,1.9218443E2,1.80059E1,1.7413466E2,2.0555016E2,2.1721443E2,9.3972275E1,8.4543054E2,6.1950237E1,1.411357E2,9.832434E0,2.5387049E1,1.3494424E1,1.7586967E2,1.631477E1,7.3157036E1,1.0097762E2,1.7589084E2,2.9659317E1],"tree_param":{"num_deleted":"0","num_feature":"65","num_nodes":"29","size_leaf_vector":"1"}},{"base_weights":[-6.329594E-3,-1.9973662E-1,5.851711E-2,4.0060857E-1,-3.143056E-1,4.5373747E-1,-2.768222E-3,-2.2631367E-1,9.161787E-1,-3.668283E-1,5.68941E-1,-4.0486956E-1,6.6881406E-1,-3.77883E-1,5.9927147E-2,2.848995E-2,-2.1330003E-2,3.1182429E-2,-1.7003382E-2,-7.4892477E-3,-2.1524783E-2,-1.832883E-2,3.2021478E-2,-1.63736E-2,3.3407208E-2,-2.040014E-2,2.2299549E-2,-1.6134022E-2,9.799724E-3,6.4305756E-3,-2.6274323E-3],"categories":[],"categories_nodes":[],"categories_segments":[],"categories_sizes":[],"default_left":[0,0,0,0,1,0,0,0,0,0,0,0,0,0,1,0,0,0,0,0,0,0,0,0,0,0,0,0,0,0,0],"id":48,"left_children":[1,3,5,7,9,11,13,15,17,19,21,23,25,27,29,-1,-1,-1,-1,-1,-1,-1,-1,-1,-1,-1,-1,-1,-1,-1,-1],"loss_changes":[2.2175127E1,3.0661629E1,3.2075188E1,2.3345566E1,1.7529526E1,3.310065E1,2.7007837E1,1.9545235E1,7.8041573E0,1.43276825E1,1.3207418E1,8.361164E0,