{"learner":{"attributes":{"best_iteration":"492","best_score":"0.6945574123831105","scikit_learn":"{\"_estimator_type\": \"classifier\"}"},"feature_names":[],"feature_types":[],"gradient_booster":{"model":{"cats":{"enc":[],"feature_segments":[],"sorted_idx":[]},"gbtree_model_param":{"num_parallel_tree":"1","num_trees":"1500"},"iteration_indptr":[0,3,6,9,12,15,18,21,24,27,30,33,36,39,42,45,48,51,54,57,60,63,66,69,72,75,78,81,84,87,90,93,96,99,102,105,108,111,114,117,120,123,126,129,132,135,138,141,144,147,150,153,156,159,162,165,168,171,174,177,180,183,186,189,192,195,198,201,204,207,210,213,216,219,222,225,228,231,234,237,240,243,246,249,252,255,258,261,264,267,270,273,276,279,282,285,288,291,294,297,300,303,306,309,312,315,318,321,324,327,330,333,336,339,342,345,348,351,354,357,360,363,366,369,372,375,378,381,384,387,390,393,396,399,402,405,408,411,414,417,420,423,426,429,432,435,438,441,444,447,450,453,456,459,462,465,468,471,474,477,480,483,486,489,492,495,498,501,504,507,510,513,516,519,522,525,528,531,534,537,540,543,546,549,552,555,558,561,564,567,570,573,576,579,582,585,588,591,594,597,600,603,606,609,612,615,618,621,624,627,630,633,636,639,642,645,648,651,654,657,660,663,666,669,672,675,678,681,684,687,690,693,696,699,702,705,708,711,714,717,720,723,726,729,732,735,738,741,744,747,750,753,756,759,762,765,768,771,774,777,780,783,786,789,792,795,798,801,804,807,810,813,816,819,822,825,828,831,834,837,840,843,846,849,852,855,858,861,864,867,870,873,876,879,882,885,888,891,894,897,900,903,906,909,912,915,918,921,924,927,930,933,936,939,942,945,948,951,954,957,960,963,966,969,972,975,978,981,984,987,990,993,996,999,1002,1005,1008,1011,1014,1017,1020,1023,1026,1029,1032,1035,1038,1041,1044,1047,1050,1053,1056,1059,1062,1065,1068,1071,1074,1077,1080,1083,1086,1089,1092,1095,1098,1101,1104,1107,1110,1113,1116,1119,1122,1125,1128,1131,1134,1137,1140,1143,1146,1149,1152,1155,1158,1161,1164,1167,1170,1173,1176,1179,1182,1185,1188,1191,1194,1197,1200,1203,1206,1209,1212,1215,1218,1221,1224,1227,1230,1233,1236,1239,1242,1245,1248,1251,1254,1257,1260,1263,1266,1269,1272,1275,1278,1281,1284,1287,1290,1293,1296,1299,1302,1305,1308,1311,1314,1317,1320,1323,1326,1329,1332,1335,1338,1341,1344,1347,1350,1353,1356,1359,1362,1365,1368,1371,1374,1377,1380,1383,1386,1389,1392,1395,1398,1401,1404,1407,1410,1413,1416,1419,1422,1425,1428,1431,1434,1437,1440,1443,1446,1449,1452,1455,1458,1461,1464,1467,1470,1473,1476,1479,1482,1485,1488,1491,1494,1497,1500],"tree_info":[0,1,2,0,1,2,0,1,2,0,1,2,0,1,2,0,1,2,0,1,2,0,1,2,0,1,2,0,1,2,0,1,2,0,1,2,0,1,2,0,1,2,0,1,2,0,1,2,0,1,2,0,1,2,0,1,2,0,1,2,0,1,2,0,1,2,0,1,2,0,1,2,0,1,2,0,1,2,0,1,2,0,1,2,0,1,2,0,1,2,0,1,2,0,1,2,0,1,2,0,1,2,0,1,2,0,1,2,0,1,2,0,1,2,0,1,2,0,1,2,0,1,2,0,1,2,0,1,2,0,1,2,0,1,2,0,1,2,0,1,2,0,1,2,0,1,2,0,1,2,0,1,2,0,1,2,0,1,2,0,1,2,0,1,2,0,1,2,0,1,2,0,1,2,0,1,2,0,1,2,0,1,2,0,1,2,0,1,2,0,1,2,0,1,2,0,1,2,0,1,2,0,1,2,0,1,2,0,1,2,0,1,2,0,1,2,0,1,2,0,1,2,0,1,2,0,1,2,0,1,2,0,1,2,0,1,2,0,1,2,0,1,2,0,1,2,0,1,2,0,1,2,0,1,2,0,1,2,0,1,2,0,1,2,0,1,2,0,1,2,0,1,2,0,1,2,0,1,2,0,1,2,0,1,2,0,1,2,0,1,2,0,1,2,0,1,2,0,1,2,0,1,2,0,1,2,0,1,2,0,1,2,0,1,2,0,1,2,0,1,2,0,1,2,0,1,2,0,1,2,0,1,2,0,1,2,0,1,2,0,1,2,0,1,2,0,1,2,0,1,2,0,1,2,0,1,2,0,1,2,0,1,2,0,1,2,0,1,2,0,1,2,0,1,2,0,1,2,0,1,2,0,1,2,0,1,2,0,1,2,0,1,2,0,1,2,0,1,2,0,1,2,0,1,2,0,1,2,0,1,2,0,1,2,0,1,2,0,1,2,0,1,2,0,1,2,0,1,2,0,1,2,0,1,2,0,1,2,0,1,2,0,1,2,0,1,2,0,1,2,0,1,2,0,1,2,0,1,2,0,1,2,0,1,2,0,1,2,0,1,2,0,1,2,0,1,2,0,1,2,0,1,2,0,1,2,0,1,2,0,1,2,0,1,2,0,1,2,0,1,2,0,1,2,0,1,2,0,1,2,0,1,2,0,1,2,0,1,2,0,1,2,0,1,2,0,1,2,0,1,2,0,1,2,0,1,2,0,1,2,0,1,2,0,1,2,0,1,2,0,1,2,0,1,2,0,1,2,0,1,2,0,1,2,0,1,2,0,1,2,0,1,2,0,1,2,0,1,2,0,1,2,0,1,2,0,1,2,0,1,2,0,1,2,0,1,2,0,1,2,0,1,2,0,1,2,0,1,2,0,1,2,0,1,2,0,1,2,0,1,2,0,1,2,0,1,2,0,1,2,0,1,2,0,1,2,0,1,2,0,1,2,0,1,2,0,1,2,0,1,2,0,1,2,0,1,2,0,1,2,0,1,2,0,1,2,0,1,2,0,1,2,0,1,2,0,1,2,0,1,2,0,1,2,0,1,2,0,1,2,0,1,2,0,1,2,0,1,2,0,1,2,0,1,2,0,1,2,0,1,2,0,1,2,0,1,2,0,1,2,0,1,2,0,1,2,0,1,2,0,1,2,0,1,2,0,1,2,0,1,2,0,1,2,0,1,2,0,1,2,0,1,2,0,1,2,0,1,2,0,1,2,0,1,2,0,1,2,0,1,2,0,1,2,0,1,2,0,1,2,0,1,2,0,1,2,0,1,2,0,1,2,0,1,2,0,1,2,0,1,2,0,1,2,0,1,2,0,1,2,0,1,2,0,1,2,0,1,2,0,1,2,0,1,2,0,1,2,0,1,2,0,1,2,0,1,2,0,1,2,0,1,2,0,1,2,0,1,2,0,1,2,0,1,2,0,1,2,0,1,2,0,1,2,0,1,2,0,1,2,0,1,2,0,1,2,0,1,2,0,1,2,0,1,2,0,1,2,0,1,2,0,1,2,0,1,2,0,1,2,0,1,2,0,1,2,0,1,2,0,1,2,0,1,2,0,1,2,0,1,2,0,1,2,0,1,2,0,1,2,0,1,2,0,1,2,0,1,2,0,1,2,0,1,2,0,1,2,0,1,2,0,1,2,0,1,2,0,1,2,0,1,2,0,1,2,0,1,2,0,1,2,0,1,2,0,1,2,0,1,2,0,1,2,0,1,2,0,1,2,0,1,2,0,1,2,0,1,2,0,1,2,0,1,2,0,1,2,0,1,2,0,1,2,0,1,2,0,1,2,0,1,2,0,1,2,0,1,2,0,1,2,0,1,2,0,1,2,0,1,2,0,1,2,0,1,2,0,1,2,0,1,2,0,1,2,0,1,2,0,1,2,0,1,2,0,1,2,0,1,2,0,1,2,0,1,2,0,1,2,0,1,2,0,1,2,0,1,2,0,1,2,0,1,2,0,1,2,0,1,2,0,1,2,0,1,2,0,1,2,0,1,2,0,1,2,0,1,2,0,1,2,0,1,2,0,1,2,0,1,2,0,1,2,0,1,2,0,1,2,0,1,2,0,1,2,0,1,2,0,1,2,0,1,2,0,1,2,0,1,2,0,1,2,0,1,2,0,1,2,0,1,2,0,1,2,0,1,2,0,1,2,0,1,2,0,1,2,0,1,2,0,1,2,0,1,2,0,1,2,0,1,2,0,1,2,0,1,2,0,1,2,0,1,2,0,1,2,0,1,2,0,1,2,0,1,2,0,1,2,0,1,2,0,1,2,0,1,2,0,1,2,0,1,2,0,1,2,0,1,2,0,1,2,0,1,2,0,1,2,0,1,2,0,1,2,0,1,2,0,1,2,0,1,2,0,1,2,0,1,2,0,1,2,0,1,2,0,1,2,0,1,2,0,1,2,0,1,2,0,1,2,0,1,2,0,1,2,0,1,2,0,1,2,0,1,2,0,1,2,0,1,2,0,1,2,0,1,2,0,1,2,0,1,2,0,1,2,0,1,2,0,1,2,0,1,2,0,1,2,0,1,2,0,1,2,0,1,2,0,1,2,0,1,2,0,1,2,0,1,2,0,1,2,0,1,2,0,1,2,0,1,2,0,1,2,0,1,2,0,1,2,0,1,2,0,1,2,0,1,2,0,1,2,0,1,2,0,1,2,0,1,2,0,1,2,0,1,2,0,1,2,0,1,2,0,1,2,0,1,2,0,1,2,0,1,2,0,1,2,0,1,2,0,1,2,0,1,2,0,1,2,0,1,2,0,1,2,0,1,2,0,1,2,0,1,2,0,1,2,0,1,2,0,1,2,0,1,2,0,1,2,0,1,2,0,1,2,0,1,2,0,1,2,0,1,2,0,1,2],"trees":[{"base_weights":[-3.9987966E-2,5.2759655E-2,-3.9988115E-1,1.1628643E-2,7.176879E-1,-4.471143E-1,3.8022637E-2,2.1683724E-1,-1.21733844E-1,1.1044378E0,-2.1238895E-2,8.7315476E-1,-4.9503824E-1,1.9031658E-4,1.6867742E-2,3.0454867E-2,-4.990718E-3,-1.6626991E-2,3.5711717E-2,3.8022637E-2,-1.5985074E-2,-1.589608E-2,3.520203E-2],"categories":[],"categories_nodes":[],"categories_segments":[],"categories_sizes":[],"default_left":[0,0,1,0,0,0,0,0,0,0,0,0,0,0,0,0,0,0,0,0,0,0,0],"id":0,"left_children":[1,3,5,7,9,11,-1,13,15,17,-1,19,21,-1,-1,-1,-1,-1,-1,-1,-1,-1,-1],"loss_changes":[5.8191303E1,3.7911377E1,2.8697117E1,3.5788395E1,4.5306923E1,2.245752E1,0E0,3.74477E1,4.0382473E1,9.771507E0,0E0,7.6349163E0,2.0179695E1,0E0,0E0,0E0,0E0,0E0,0E0,0E0,0E0,0E0,0E0],"parents":[2147483647,0,0,1,1,2,2,3,3,4,4,5,5,7,7,8,8,9,9,11,11,12,12],"right_children":[2,4,6,8,10,12,-1,14,16,18,-1,20,22,-1,-1,-1,-1,-1,-1,-1,-1,-1,-1],"split_conditions":[2.9608124E-1,1.94435E3,3.0841148E0,6.5E0,7.72145E5,3.4413064E-1,3.8022637E-2,1.6026E3,-2.5123296E0,-2.2267315E0,-2.1238895E-2,3.8452924E-3,2.4720703E1,1.9031658E-4,1.6867742E-2,3.0454867E-2,-4.990718E-3,-1.6626991E-2,3.5711717E-2,3.8022637E-2,-1.5985074E-2,-1.589608E-2,3.520203E-2],"split_indices":[1,27,37,20,11,62,0,9,43,35,0,57,28,0,0,0,0,0,0,0,0,0,0],"split_type":[0,0,0,0,0,0,0,0,0,0,0,0,0,0,0,0,0,0,0,0,0,0,0],"sum_hessian":[1.7417064E3,1.3855034E3,3.5620297E2,1.3057501E3,7.9753365E1,3.471017E2,9.10124E0,5.140859E2,7.9166425E2,6.291195E1,1.6841415E1,1.1554845E1,3.3554688E2,3.200633E2,1.9402255E2,2.9078001E1,7.6258624E2,2.8310826E0,6.0080868E1,9.10124E0,2.453605E0,3.2935355E2,6.1933193E0],"tree_param":{"num_deleted":"0","num_feature":"65","num_nodes":"23","size_leaf_vector":"1"}},{"base_weights":[-1.6119897E-2,-1.4223246E-1,1.2968668E0,-2.9356557E-1,7.710418E-2,2.2177703E0,8.445447E-1,-3.040038E-1,4.9976158E-1,7.631892E-1,-8.420113E-3,-1.4108632E-2,2.6434064E0,7.8857265E-2,5.9304416E-1,-9.569222E-3,5.2097687E-3,6.1183818E-2,-1.0924451E-2,1.0256421E-2,6.358633E-2,-1.0850846E-3,6.964134E-2,-1.278952E-2,1.1418817E-2,8.626761E-2,1.1418817E-2,1.235553E-2,7.284527E-2],"categories":[],"categories_nodes":[],"categories_segments":[],"categories_sizes":[],"default_left":[0,0,0,0,1,0,0,0,1,0,0,0,0,0,0,0,0,0,0,0,0,0,0,0,0,0,0,0,0],"id":1,"left_children":[1,3,5,7,9,11,13,15,17,19,21,23,25,-1,27,-1,-1,-1,-1,-1,-1,-1,-1,-1,-1,-1,-1,-1,-1],"loss_changes":[1.8629973E2,3.4091644E1,3.9197327E1,5.183075E0,2.4641203E1,3.0304932E1,2.8833214E1,4.347904E0,1.174093E1,2.5873356E1,2.4282124E1,1.1544569E0,1.2966537E1,0E0,1.9169588E1,0E0,0E0,0E0,0E0,0E0,0E0,0E0,0E0,0E0,0E0,0E0,0E0,0E0,0E0],"parents":[2147483647,0,0,1,1,2,2,3,3,4,4,5,5,6,6,7,7,8,8,9,9,10,10,11,11,12,12,14,14],"right_children":[2,4,6,8,10,12,14,16,18,20,22,24,26,-1,28,-1,-1,-1,-1,-1,-1,-1,-1,-1,-1,-1,-1,-1,-1],"split_conditions":[3.618008E-1,2.1080609E-1,-1.4079793E-1,1.7578547E1,1.47829E3,1.9510672E0,1.9526228E-1,1.94605E3,1.7640243E0,1.466335E3,1.97045E3,4.2553143E1,1.3562261E1,7.8857265E-2,7.216173E1,-9.569222E-3,5.2097687E-3,6.1183818E-2,-1.0924451E-2,1.0256421E-2,6.358633E-2,-1.0850846E-3,6.964134E-2,-1.278952E-2,1.1418817E-2,8.626761E-2,1.1418817E-2,1.235553E-2,7.284527E-2],"split_indices":[1,1,34,32,49,28,2,25,35,49,9,31,28,0,31,0,0,0,0,0,0,0,0,0,0,0,0,0,0],"split_type":[0,0,0,0,0,0,0,0,0,0,0,0,0,0,0,0,0,0,0,0,0,0,0,0,0,0,0,0,0],"sum_hessian":[1.1229922E3,1.0253947E3,9.7597626E1,6.065571E2,4.1883746E2,3.0861723E1,6.673591E1,5.9928876E2,7.268368E0,4.554522E1,3.7329224E2,5.0977645E0,2.5763958E1,7.0777802E0,5.9658127E1,5.8139954E2,1.7889235E1,2.123334E0,5.145034E0,3.5706264E1,9.838954E0,3.698713E2,3.420927E0,2.4545538E0,2.6432104E0,2.3120749E1,2.6432104E0,5.5411457E1,4.246668E0],"tree_param":{"num_deleted":"0","num_feature":"65","num_nodes":"29","size_leaf_vector":"1"}},{"base_weights":[1.5352136E-2,-4.6197805E-1,8.490766E-2,4.637544E-1,-5.6235933E-1,6.079989E-1,3.8761657E-2,-2.3491766E-2,7.127388E-1,2.3726293E-1,-6.793278E-1,7.0733297E-1,-2.667729E-2,-7.280957E-1,7.387995E-2,-1.7933875E-2,2.5252085E-2,1.8018868E-2,-2.6087867E-2,-2.3515213E-2,-1.4101244E-3,1.0943188E-2,2.7831234E-2,-2.5361512E-2,1.8733734E-2,-3.8249525E-3,6.2289075E-3],"categories":[],"categories_nodes":[],"categories_segments":[],"categories_sizes":[],"default_left":[0,0,0,0,0,0,0,0,0,0,1,0,0,1,0,0,0,0,0,0,0,0,0,0,0,0,0],"id":2,"left_children":[1,3,5,7,9,11,13,-1,15,17,19,21,-1,23,25,-1,-1,-1,-1,-1,-1,-1,-1,-1,-1,-1,-1],"loss_changes":[6.47943E1,2.3326576E1,4.10888E1,8.266333E0,2.1148132E1,2.115374E1,4.223213E1,0E0,4.09064E0,1.2337015E1,1.2916649E1,9.473503E0,0E0,1.1422344E1,4.0387825E1,0E0,0E0,0E0,0E0,0E0,0E0,0E0,0E0,0E0,0E0,0E0,0E0],"parents":[2147483647,0,0,1,1,2,2,3,3,4,4,5,5,6,6,8,8,9,9,10,10,11,11,13,13,14,14],"right_children":[2,4,6,8,10,12,14,-1,16,18,20,22,-1,24,26,-1,-1,-1,-1,-1,-1,-1,-1,-1,-1,-1,-1],"split_conditions":[3.02708E-1,1.43175E3,1.41925E3,2.457443E-1,-3.7578994E-1,1.4288E3,1.433E3,-2.3491766E-2,7.22538E5,2.033531E1,-1.3325821E0,1.2330231E1,-2.667729E-2,7.645851E1,6.5E0,-1.7933875E-2,2.5252085E-2,1.8018868E-2,-2.6087867E-2,-2.3515213E-2,-1.4101244E-3,1.0943188E-2,2.7831234E-2,-2.5361512E-2,1.8733734E-2,-3.8249525E-3,6.2289075E-3],"split_indices":[0,26,10,0,46,23,10,0,11,56,42,30,0,56,20,0,0,0,0,0,0,0,0,0,0,0,0],"split_type":[0,0,0,0,0,0,0,0,0,0,0,0,0,0,0,0,0,0,0,0,0,0,0,0,0,0,0],"sum_hessian":[1.949398E3,2.4721611E2,1.7021818E3,2.38302E1,2.2338591E2,1.3700269E2,1.5651791E3,3.609629E0,2.0220572E1,2.8375597E1,1.9501031E2,1.2897354E2,8.029138E0,6.7674675E1,1.4975044E3,1.4863179E0,1.8734253E1,2.1706888E1,6.668708E0,1.6714447E2,2.786585E1,5.1529358E1,7.744418E1,6.2619534E1,5.055143E0,5.976747E2,8.998297E2],"tree_param":{"num_deleted":"0","num_feature":"65","num_nodes":"27","size_leaf_vector":"1"}},{"base_weights":[5.8659674E-3,-2.6154628E-1,1.7180575E-1,-2.9116106E-1,3.7162043E-2,-1.184043E-1,2.6522058E-1,5.420856E-1,-3.2381666E-1,-3.0898282E-1,5.266722E-1,-4.5342115E-1,3.2923326E-1,2.8152842E-2,-1.9438593E-2,-1.944241E-2,-6.973227E-3,4.428221E-3,-1.6593544E-2,3.895804E-2,-4.520016E-3,-1.8867612E-2,2.3960574E-2,8.20622E-3,2.9088454E-2],"categories":[],"categories_nodes":[],"categories_segments":[],"categories_sizes":[],"default_left":[0,1,0,0,0,0,0,1,0,0,0,0,0,0,0,0,0,0,0,0,0,0,0,0,0],"id":3,"left_children":[1,3,5,7,-1,9,11,13,15,17,19,21,23,-1,-1,-1,-1,-1,-1,-1,-1,-1,-1,-1,-1],"loss_changes":[7.964403E1,3.0897053E1,3.0056324E1,1.8536686E1,0E0,3.3402626E1,3.8705776E1,1.2787429E1,1.9107811E1,2.3417582E1,3.2629738E1,1.5658452E1,2.7202621E1,0E0,0E0,0E0,0E0,0E0,0E0,0E0,0E0,0E0,0E0,0E0,0E0],"parents":[2147483647,0,0,1,1,2,2,3,3,5,5,6,6,7,7,8,8,9,9,10,10,11,11,12,12],"right_children":[2,4,6,8,-1,10,12,14,16,18,20,22,24,-1,-1,-1,-1,-1,-1,-1,-1,-1,-1,-1,-1],"split_conditions":[3.6142465E-1,2.1168907E0,1.572816E3,-2.5343611E0,3.7162043E-2,1.3056681E1,-2.2959728E0,2.3705368E0,3.0636227E-1,4.5639477E0,1.47753105E1,1.9345393E3,6.797045E1,2.8152842E-2,-1.9438593E-2,-1.944241E-2,-6.973227E-3,4.428221E-3,-1.6593544E-2,3.895804E-2,-4.520016E-3,-1.8867612E-2,2.3960574E-2,8.20622E-3,2.9088454E-2],"split_indices":[2,37,50,43,0,28,40,41,2,28,30,29,56,0,0,0,0,0,0,0,0,0,0,0,0],"split_type":[0,0,0,0,0,0,0,0,0,0,0,0,0,0,0,0,0,0,0,0,0,0,0,0,0],"sum_hessian":[1.7928094E3,6.8628455E2,1.1065249E3,6.7379016E2,1.2494337E1,2.6937994E2,8.371449E2,2.4822193E1,6.48968E2,2.0834767E2,6.1032288E1,6.7971855E1,7.6917303E2,1.8779205E1,6.0429864E0,1.4133218E2,5.076358E2,7.272684E1,1.3562083E2,2.8095766E1,3.2936523E1,6.005243E1,7.9194293E0,7.089449E2,6.022819E1],"tree_param":{"num_deleted":"0","num_feature":"65","num_nodes":"25","size_leaf_vector":"1"}},{"base_weights":[3.9901584E-3,2.0233915E0,-7.609803E-2,-2.0272443E-1,2.3153172E0,-2.6807022E-1,1.7466052E-1,2.6617632E-3,-1.2763735E-2,8.1007585E-2,7.951281E-1,-2.767892E-1,9.2506194E-1,7.261625E-1,7.1150094E-2,6.1659098E-2,-2.868358E-3,-3.2105164E-3,-9.55255E-3,5.7544887E-2,-1.1558361E-2,2.6910102E-3,3.666493E-2,4.8321094E-2,1.281644E-3],"categories":[],"categories_nodes":[],"categories_segments":[],"categories_sizes":[],"default_left":[0,0,0,0,0,0,0,0,0,0,0,0,1,0,0,0,0,0,0,0,0,0,0,0,0],"id":4,"left_children":[1,3,5,7,9,11,13,-1,-1,-1,15,17,19,21,23,-1,-1,-1,-1,-1,-1,-1,-1,-1,-1],"loss_changes":[1.7753058E2,2.7681091E1,5.0875023E1,4.1257167E-1,1.956247E1,6.4814568E0,2.611898E1,0E0,0E0,0E0,1.0201649E1,4.170063E0,6.6881704E0,2.272649E1,1.6873674E1,0E0,0E0,0E0,0E0,0E0,0E0,0E0,0E0,0E0,0E0],"parents":[2147483647,0,0,1,1,2,2,3,3,4,4,5,5,6,6,10,10,11,11,12,12,13,13,14,14],"right_children":[2,4,6,8,10,12,14,-1,-1,-1,16,18,20,22,24,-1,-1,-1,-1,-1,-1,-1,-1,-1,-1],"split_conditions":[2.4220951E-1,1.5767621E0,2.1944052E-1,2.2446239E-1,2.007142E3,2.5281465E0,3.1652424E-1,2.6617632E-3,-1.2763735E-2,8.1007585E-2,1.7553614E-1,-1.3519962E0,8.416254E-1,-7.173998E-1,-3.655567E0,6.1659098E-2,-2.868358E-3,-3.2105164E-3,-9.55255E-3,5.7544887E-2,-1.1558361E-2,2.6910102E-3,3.666493E-2,4.8321094E-2,1.281644E-3],"split_indices":[0,28,1,0,53,43,2,0,0,0,46,43,35,41,34,0,0,0,0,0,0,0,0,0,0],"split_type":[0,0,0,0,0,0,0,0,0,0,0,0,0,0,0,0,0,0,0,0,0,0,0,0,0],"sum_hessian":[1.0957438E3,4.0873188E1,1.0548706E3,4.774E0,3.6099186E1,5.9742975E2,4.5744086E2,2.3286197E0,2.4453804E0,2.8185835E1,7.913353E0,5.938581E2,3.57169E0,7.133796E1,3.861029E2,2.7356617E0,5.177691E0,1.17645775E2,4.762123E2,1.7679235E0,1.8037666E0,3.1762123E1,3.9575832E1,5.9912066E0,3.801117E2],"tree_param":{"num_deleted":"0","num_feature":"65","num_nodes":"25","size_leaf_vector":"1"}},{"base_weights":[-2.4905551E-2,-4.3234164E-1,5.79258E-2,-2.92385E-2,-2.3606963E-1,7.535047E-2,-2.8990164E-2,-4.7205245E-1,1.5877263E-1,8.702411E-1,5.606435E-2,2.5507186E-2,-1.681698E-2,1.0146777E-2,-2.7540637E-2,2.7475033E-2,1.5203948E-2,5.4827165E-3,-2.7148167E-3],"categories":[],"categories_nodes":[],"categories_segments":[],"categories_sizes":[],"default_left":[0,0,1,0,0,0,0,0,0,0,0,0,0,0,0,0,0,0,0],"id":5,"left_children":[1,3,5,-1,7,9,-1,11,13,15,17,-1,-1,-1,-1,-1,-1,-1,-1],"loss_changes":[6.638636E1,3.514154E1,2.9253683E1,0E0,2.2934345E1,2.4611504E1,0E0,1.8478748E1,1.8189484E1,1.6612053E-1,2.9197033E1,0E0,0E0,0E0,0E0,0E0,0E0,0E0,0E0],"parents":[2147483647,0,0,1,1,2,2,4,4,5,5,7,7,8,8,9,9,10,10],"right_children":[2,4,6,-1,8,10,-1,12,14,16,18,-1,-1,-1,-1,-1,-1,-1,-1],"split_conditions":[3.2567802E-1,-7.115856E-1,5.195617E-1,-2.92385E-2,7.3991595E-3,1.4017E3,-2.8990164E-2,-3.1347272E0,1.496791E1,4.778119E1,9.5E-1,2.5507186E-2,-1.681698E-2,1.0146777E-2,-2.7540637E-2,2.7475033E-2,1.5203948E-2,5.4827165E-3,-2.7148167E-3],"split_indices":[0,34,38,0,47,24,0,42,30,31,4,0,0,0,0,0,0,0,0],"split_type":[0,0,0,0,0,0,0,0,0,0,0,0,0,0,0,0,0,0,0],"sum_hessian":[1.96535E3,3.3133566E2,1.6340143E3,8.699996E1,2.443357E2,1.6075925E3,2.6421738E1,1.5281075E2,9.1524956E1,3.7035282E1,1.5705573E3,9.047383E0,1.4376335E2,7.903865E1,1.2486305E1,3.1556665E1,5.478615E0,8.4223596E2,7.283213E2],"tree_param":{"num_deleted":"0","num_feature":"65","num_nodes":"19","size_leaf_vector":"1"}},{"base_weights":[2.1562104E-3,-2.5671157E-1,1.5510754E-1,-7.7875042E-3,-4.6705467E-1,-2.1633182E-2,1.8287702E-1,-2.044731E-1,4.1322854E-1,-5.11335E-1,4.1774938E-1,1.4615926E-1,1.2157375E0,-9.853045E-3,1.3645249E-2,2.0497674E-2,-1.3264731E-2,-9.427211E-3,-2.007692E-2,-1.9187981E-2,3.1340137E-2,8.869597E-3,-6.2588404E-4,-1.3057936E-2,3.870564E-2],"categories":[],"categories_nodes":[],"categories_segments":[],"categories_sizes":[],"default_left":[0,1,0,1,0,0,0,1,1,0,0,0,0,0,0,0,0,0,0,0,0,0,0,0,0],"id":6,"left_children":[1,3,5,7,9,-1,11,13,15,17,19,21,23,-1,-1,-1,-1,-1,-1,-1,-1,-1,-1,-1,-1],"loss_changes":[7.000558E1,3.437949E1,2.7174395E1,2.5073568E1,1.4157677E1,0E0,4.070678E1,1.7014515E1,2.2572933E1,1.0351639E1,1.2276945E1,2.6028198E1,5.093807E0,0E0,0E0,0E0,0E0,0E0,0E0,0E0,0E0,0E0,0E0,0E0,0E0],"parents":[2147483647,0,0,1,1,2,2,3,3,4,4,6,6,7,7,8,8,9,9,10,10,11,11,12,12],"right_children":[2,4,6,8,10,-1,12,14,16,18,20,22,24,-1,-1,-1,-1,-1,-1,-1,-1,-1,-1,-1,-1],"split_conditions":[3.6142465E-1,3.763863E-1,-3.7260346E0,-6.779033E-1,1.91515E3,-2.1633182E-2,1.9384976E3,5.3348935E-1,2.3705368E0,2.6595995E-1,1.9758673E3,1.2803366E1,6.094438E0,-9.853045E-3,1.3645249E-2,2.0497674E-2,-1.3264731E-2,-9.427211E-3,-2.007692E-2,-1.9187981E-2,3.1340137E-2,8.869597E-3,-6.2588404E-4,-1.3057936E-2,3.870564E-2],"split_indices":[2,40,40,40,8,0,49,38,41,1,53,30,30,0,0,0,0,0,0,0,0,0,0,0,0],"split_type":[0,0,0,0,0,0,0,0,0,0,0,0,0,0,0,0,0,0,0,0,0,0,0,0,0],"sum_hessian":[1.7660721E3,6.5567456E2,1.1103976E3,3.0077206E2,3.549025E2,3.334335E1,1.0770542E3,2.0535223E2,9.541984E1,3.383897E2,1.6512762E1,1.0411821E3,3.5872086E1,1.732755E2,3.2076725E1,7.267812E1,2.274171E1,1.5184189E2,1.8654784E2,6.13888E0,1.0373882E1,5.4901404E2,4.9216806E2,1.3387101E0,3.453338E1],"tree_param":{"num_deleted":"0","num_feature":"65","num_nodes":"25","size_leaf_vector":"1"}},{"base_weights":[-7.3860795E-4,-1.3986155E-1,1.1700634E0,-2.7946496E-1,5.1318873E-2,2.0921547E0,8.4158504E-1,-2.9242703E-1,4.8517025E-1,1.6284165E0,2.2584025E-2,-7.0972927E-4,2.2614105E0,4.384769E-1,1.6277955E0,-9.722282E-3,-1.636017E-3,-5.9931306E-3,6.191654E-2,-7.713593E-3,7.0436746E-2,9.964795E-3,-1.8317972E-3,3.666596E-2,7.3923685E-2,6.9537394E-2,6.58323E-3,7.6318726E-2,1.5815917E-2],"categories":[],"categories_nodes":[],"categories_segments":[],"categories_sizes":[],"default_left":[0,0,0,0,0,0,1,0,0,0,0,0,0,0,0,0,0,0,0,0,0,0,0,0,0,0,0,0,0],"id":7,"left_children":[1,3,5,7,9,11,13,15,17,19,21,-1,23,25,27,-1,-1,-1,-1,-1,-1,-1,-1,-1,-1,-1,-1,-1,-1],"loss_changes":[1.8087628E2,2.6503849E1,3.396103E1,5.8288345E0,1.898402E1,1.0906097E1,2.7376411E1,4.235115E0,1.1161519E1,1.077335E1,1.0720389E1,0E0,2.9017181E0,2.4174791E1,2.8578415E1,0E0,0E0,0E0,0E0,0E0,0E0,0E0,0E0,0E0,0E0,0E0,0E0,0E0,0E0],"parents":[2147483647,0,0,1,1,2,2,3,3,4,4,5,5,6,6,7,7,8,8,9,9,10,10,12,12,13,13,14,14],"right_children":[2,4,6,8,10,12,14,16,18,20,22,-1,24,26,28,-1,-1,-1,-1,-1,-1,-1,-1,-1,-1,-1,-1,-1,-1],"split_conditions":[3.5021222E-1,2.1080609E-1,2.186862E-1,1.9454928E3,-3.655567E0,1.5767621E0,4.8659878E1,1.8844944E1,1.0830428E1,-5.419074E-1,4.6191387E1,-7.0972927E-4,1.7341987E3,-6.304698E0,2.706475E-1,-9.722282E-3,-1.636017E-3,-5.9931306E-3,6.191654E-2,-7.713593E-3,7.0436746E-2,9.964795E-3,-1.8317972E-3,3.666596E-2,7.3923685E-2,6.9537394E-2,6.58323E-3,7.6318726E-2,1.5815917E-2],"split_indices":[1,1,0,27,34,28,52,28,30,46,31,0,51,32,43,0,0,0,0,0,0,0,0,0,0,0,0,0,0],"split_type":[0,0,0,0,0,0,0,0,0,0,0,0,0,0,0,0,0,0,0,0,0,0,0,0,0,0,0,0,0],"sum_hessian":[1.1084465E3,9.91509E2,1.16937546E2,5.727874E2,4.1872153E2,2.930486E1,8.763268E1,5.638467E2,8.940765E0,6.4964542E0,4.1222507E2,2.234339E0,2.7070518E1,5.896016E1,2.8672525E1,4.973213E2,6.652536E1,6.8446183E0,2.0961473E0,1.9717349E0,4.524719E0,8.705466E1,3.251704E2,5.5659065E0,2.1504612E1,5.153994E0,5.3806164E1,1.4931657E1,1.3740869E1],"tree_param":{"num_deleted":"0","num_feature":"65","num_nodes":"29","size_leaf_vector":"1"}},{"base_weights":[-1.2153998E-2,-4.2130578E-1,5.5714916E-2,5.121041E-1,-5.2813584E-1,5.2953935E-1,-3.5274036E-3,-2.3063924E-2,7.311261E-1,3.842847E-2,-6.706633E-1,6.431238E-1,-4.9902967E-1,7.937763E-1,-3.837922E-2,-1.9368563E-2,2.6040563E-2,9.947908E-3,-2.664129E-2,-2.3224806E-2,2.4273E-3,2.044828E-2,-2.411077E-2,2.2171577E-2,-2.804762E-2,2.7354684E-2,-2.4253234E-2,-6.345454E-3,3.8899246E-3],"categories":[],"categories_nodes":[],"categories_segments":[],"categories_sizes":[],"default_left":[0,0,0,0,0,0,0,0,0,0,1,0,0,0,1,0,0,0,0,0,0,0,0,0,0,0,0,0,0],"id":8,"left_children":[1,3,5,7,9,11,13,-1,15,17,19,21,23,25,27,-1,-1,-1,-1,-1,-1,-1,-1,-1,-1,-1,-1,-1,-1],"loss_changes":[5.539591E1,2.8572422E1,4.8037025E1,8.881903E0,2.0630936E1,2.2540096E1,4.2324413E1,0E0,5.4299965E0,1.4482088E1,1.5925781E1,1.010878E1,1.1201807E1,1.2802467E1,4.2483612E1,0E0,0E0,0E0,0E0,0E0,0E0,0E0,0E0,0E0,0E0,0E0,0E0,0E0,0E0],"parents":[2147483647,0,0,1,1,2,2,3,3,4,4,5,5,6,6,8,8,9,9,10,10,11,11,12,12,13,13,14,14],"right_children":[2,4,6,8,10,12,14,-1,16,18,20,22,24,26,28,-1,-1,-1,-1,-1,-1,-1,-1,-1,-1,-1,-1,-1,-1],"split_conditions":[3.1412536E-1,1.43175E3,1.525585E3,2.457443E-1,-3.483757E-1,2.6819665E0,1.4079E3,-2.3063924E-2,7.22538E5,2.8042791E-2,-1.3325821E0,9.667238E1,-1.6148098E0,3.4972212E0,1.681549E3,-1.9368563E-2,2.6040563E-2,9.947908E-3,-2.664129E-2,-2.3224806E-2,2.4273E-3,2.044828E-2,-2.411077E-2,2.2171577E-2,-2.804762E-2,2.7354684E-2,-2.4253234E-2,-6.345454E-3,3.8899246E-3],"split_indices":[0,26,50,0,46,34,27,0,11,57,42,52,43,41,54,0,0,0,0,0,0,0,0,0,0,0,0,0,0],"split_type":[0,0,0,0,0,0,0,0,0,0,0,0,0,0,0,0,0,0,0,0,0,0,0,0,0,0,0,0,0],"sum_hessian":[1.9930602E3,2.8282504E2,1.7102351E3,2.8655828E1,2.541692E2,1.8918457E2,1.5210505E3,3.8178499E0,2.4837978E1,5.1234818E1,2.0293439E2,1.7070808E2,1.8476482E1,6.2791683E1,1.4582589E3,1.9102397E0,2.2927738E1,3.94071E1,1.1827719E1,1.7834497E2,2.4589413E1,1.6680006E2,3.9080272E0,4.630045E0,1.3846438E1,5.888418E1,3.9075065E0,7.181188E2,7.401401E2],"tree_param":{"num_deleted":"0","num_feature":"65","num_nodes":"29","size_leaf_vector":"1"}},{"base_weights":[3.8532495E-2,1.2154353E-1,-3.2067877E-1,-2.1874337E-2,1.6165423E-1,-3.8484007E-1,1.0446482E0,-4.5477733E-1,2.1887966E-1,-5.1328826E-1,2.876966E-1,3.986209E-2,-1.4976338E-2,3.3875067E-2,-1.6732045E-2,8.919068E-3,-7.189683E-3,2.6925206E-2,-1.6721914E-2,-2.0212073E-2,1.6349087E-2],"categories":[],"categories_nodes":[],"categories_segments":[],"categories_sizes":[],"default_left":[0,0,0,0,0,0,0,0,0,0,0,0,0,0,0,0,0,0,0,0,0],"id":9,"left_children":[1,3,5,-1,7,9,11,13,15,17,19,-1,-1,-1,-1,-1,-1,-1,-1,-1,-1],"loss_changes":[5.2011555E1,4.8451645E1,2.9087227E1,0E0,4.7846695E1,2.7228489E1,7.2275677E0,1.943367E1,4.463389E1,1.69021E1,1.2960351E1,0E0,0E0,0E0,0E0,0E0,0E0,0E0,0E0,0E0,0E0],"parents":[2147483647,0,0,1,1,2,2,4,4,5,5,6,6,7,7,8,8,9,9,10,10],"right_children":[2,4,6,-1,8,10,12,14,16,18,20,-1,-1,-1,-1,-1,-1,-1,-1,-1,-1],"split_conditions":[2.9608124E-1,1.4188E3,2.642449E1,-2.1874337E-2,1.528788E3,1.9811135E3,3.5021222E-1,-6.036306E-2,6.2048844E5,2.8040738E0,1.4874286E3,3.986209E-2,-1.4976338E-2,3.3875067E-2,-1.6732045E-2,8.919068E-3,-7.189683E-3,2.6925206E-2,-1.6721914E-2,-2.0212073E-2,1.6349087E-2],"split_indices":[1,9,30,0,50,53,1,47,17,30,27,0,0,0,0,0,0,0,0,0,0],"split_type":[0,0,0,0,0,0,0,0,0,0,0,0,0,0,0,0,0,0,0,0,0],"sum_hessian":[1.7419641E3,1.4155116E3,3.2645248E2,6.2963856E1,1.3525477E3,3.1248587E2,1.3966626E1,1.1430531E2,1.2382424E3,2.6257358E2,4.9912296E1,1.1913706E1,2.05292E0,6.368106E0,1.0793721E2,1.0576978E3,1.805447E2,7.3739786E0,2.551996E2,1.0194934E1,3.971736E1],"tree_param":{"num_deleted":"0","num_feature":"65","num_nodes":"21","size_leaf_vector":"1"}},{"base_weights":[2.8842637E-2,-1.2351393E-1,1.1366109E0,-2.785172E-1,1.1280504E-1,2.1966588E0,7.0867485E-1,-2.9236782E-1,2.7433795E-1,6.418338E-2,8.729567E-2,8.255958E-3,7.085483E-2,1.4738511E0,3.94864E-1,4.412668E-4,-9.40634E-3,5.2379E-2,-7.71143E-4,1.9974574E-3,6.372131E-2,6.489544E-2,6.4777215E-3,6.1807092E-2,7.9748845E-3],"categories":[],"categories_nodes":[],"categories_segments":[],"categories_sizes":[],"default_left":[0,0,0,0,0,0,0,0,0,0,0,0,0,1,0,0,0,0,0,0,0,0,0,0,0],"id":10,"left_children":[1,3,5,7,9,11,13,15,17,-1,19,-1,-1,21,23,-1,-1,-1,-1,-1,-1,-1,-1,-1,-1],"loss_changes":[1.7847154E2,3.408897E1,5.643985E1,4.38192E0,1.8889591E1,1.0867981E1,2.16428E1,3.5716362E0,6.335207E0,0E0,1.5276406E1,0E0,0E0,2.2557827E1,1.3850765E1,0E0,0E0,0E0,0E0,0E0,0E0,0E0,0E0,0E0,0E0],"parents":[2147483647,0,0,1,1,2,2,3,3,4,4,5,5,6,6,7,7,8,8,10,10,13,13,14,14],"right_children":[2,4,6,8,10,12,14,16,18,-1,20,-1,-1,22,24,-1,-1,-1,-1,-1,-1,-1,-1,-1,-1],"split_conditions":[3.364879E-1,2.101568E-1,2.3437095E-1,1.94605E3,1.6910078E3,1.3674032E1,6.24671E5,1.5384788E3,-5.877176E-1,6.418338E-2,4.4524914E-1,8.255958E-3,7.085483E-2,1.7803552E3,-6.353107E0,4.412668E-4,-9.40634E-3,5.2379E-2,-7.71143E-4,1.9974574E-3,6.372131E-2,6.489544E-2,6.4777215E-3,6.1807092E-2,7.9748845E-3],"split_indices":[1,1,0,25,51,56,11,53,35,0,0,0,0,51,32,0,0,0,0,0,0,0,0,0,0],"split_type":[0,0,0,0,0,0,0,0,0,0,0,0,0,0,0,0,0,0,0,0,0,0,0,0,0],"sum_hessian":[1.0556158E3,9.287667E2,1.26849144E2,5.6077313E2,3.6799356E2,3.529245E1,9.1556694E1,5.4752716E2,1.3245964E1,3.5442574E0,3.644493E2,3.0046444E0,3.2287804E1,2.555308E1,6.600362E1,3.5342747E1,5.1218445E2,1.4271442E0,1.181882E1,3.6180246E2,2.6468453E0,1.6042385E1,9.510694E0,3.6700373E0,6.233358E1],"tree_param":{"num_deleted":"0","num_feature":"65","num_nodes":"25","size_leaf_vector":"1"}},{"base_weights":[-5.6718173E-3,-4.1366088E-1,7.884704E-2,-5.830542E-1,-2.968444E-2,6.2495154E-1,3.265536E-2,4.4728982E-1,-6.726424E-1,-5.235358E-1,2.935106E-1,4.6889495E-2,8.401817E-1,-1.5456267E-1,1.7733732E-1,-2.2782888E-2,2.4075959E-2,2.2259008E-2,-2.1239998E-2,5.8193896E-3,-2.8017685E-2,1.5370306E-2,-2.5896067E-2,-2.7527688E-2,1.6141694E-2,2.6130732E-2,-1.8011622E-2,-1.1914124E-2,2.8629876E-3,-1.8787941E-2,6.8887034E-3],"categories":[],"categories_nodes":[],"categories_segments":[],"categories_sizes":[],"default_left":[0,0,0,0,0,0,1,0,0,1,0,0,0,1,0,0,0,0,0,0,0,0,0,0,0,0,0,0,0,0,0],"id":11,"left_children":[1,3,5,7,9,11,13,15,17,19,21,23,25,27,29,-1,-1,-1,-1,-1,-1,-1,-1,-1,-1,-1,-1,-1,-1,-1,-1],"loss_changes":[6.626112E1,2.1431087E1,4.013526E1,2.1417007E1,1.6433329E1,1.5399517E1,3.9812305E1,8.711544E0,1.107196E1,1.2167239E1,1.6209764E1,1.6944351E1,4.537941E0,3.8897976E1,3.497499E1,0E0,0E0,0E0,0E0,0E0,0E0,0E0,0E0,0E0,0E0,0E0,0E0,0E0,0E0,0E0,0E0],"parents":[2147483647,0,0,1,1,2,2,3,3,4,4,5,5,6,6,7,7,8,8,9,9,10,10,11,11,12,12,13,13,14,14],"right_children":[2,4,6,8,10,12,14,16,18,20,22,24,26,28,30,-1,-1,-1,-1,-1,-1,-1,-1,-1,-1,-1,-1,-1,-1,-1,-1],"split_conditions":[3.283202E-1,7.3991595E-3,1.42085E3,-1.30877E0,1.578822E2,1.1215023E1,-1.5487792E-2,5.9459488E1,1.3453507E0,-1.1196501E0,2.8042791E-2,1.4157E3,3.4972212E0,-5.877176E-1,-2.136915E0,-2.2782888E-2,2.4075959E-2,2.2259008E-2,-2.1239998E-2,5.8193896E-3,-2.8017685E-2,1.5370306E-2,-2.5896067E-2,-2.7527688E-2,1.6141694E-2,2.6130732E-2,-1.8011622E-2,-1.1914124E-2,2.8629876E-3,-1.8787941E-2,6.8887034E-3],"split_indices":[0,47,8,42,12,30,57,31,28,41,57,8,41,41,43,0,0,0,0,0,0,0,0,0,0,0,0,0,0,0,0],"split_type":[0,0,0,0,0,0,0,0,0,0,0,0,0,0,0,0,0,0,0,0,0,0,0,0,0,0,0,0,0,0,0],"sum_hessian":[1.9196259E3,3.2875705E2,1.5908689E3,2.2776071E2,1.0099634E2,1.230907E2,1.4677782E3,1.7900166E1,2.0986055E2,3.9705425E1,6.1290916E1,3.3726475E1,8.936423E1,6.3980457E2,8.279736E2,3.812325E0,1.4087841E1,4.630142E0,2.0523041E2,1.4638675E1,2.506675E1,5.2008705E1,9.282209E0,1.108711E1,2.2639364E1,8.7878105E1,1.486119E0,3.2442303E2,3.1538153E2,4.9910213E1,7.7806335E2],"tree_param":{"num_deleted":"0","num_feature":"65","num_nodes":"31","size_leaf_vector":"1"}},{"base_weights":[1.9910796E-2,-3.3267203E-1,1.8201488E-1,-2.3770991E-1,-6.3091564E-1,1.13069795E-1,6.9915897E-1,-4.91579E-1,-2.8830495E-2,-6.7939293E-1,3.1923775E-2,2.3207426E-1,-1.4922586E-1,3.847325E-2,4.1555253E-1,-1.6580468E-2,2.3048418E-2,1.4481151E-2,-5.526525E-3,2.672089E-2,-2.189896E-2,5.0875694E-3,2.829582E-2,1.1990399E-2,-8.362272E-3,-4.809594E-3,2.1883115E-2],"categories":[],"categories_nodes":[],"categories_segments":[],"categories_sizes":[],"default_left":[0,1,0,0,0,0,0,0,0,0,0,0,0,0,0,0,0,0,0,0,0,0,0,0,0,0,0],"id":12,"left_children":[1,3,5,7,9,11,13,15,17,19,-1,21,23,-1,25,-1,-1,-1,-1,-1,-1,-1,-1,-1,-1,-1,-1],"loss_changes":[9.913675E1,1.5322784E1,4.228362E1,2.2044605E1,1.1514935E1,3.2796196E1,2.2556E1,1.4874653E1,1.8313108E1,1.0837151E1,0E0,3.194067E1,2.3442543E1,0E0,1.7359753E1,0E0,0E0,0E0,0E0,0E0,0E0,0E0,0E0,0E0,0E0,0E0,0E0],"parents":[2147483647,0,0,1,1,2,2,3,3,4,4,5,5,6,6,7,7,8,8,9,9,11,11,12,12,14,14],"right_children":[2,4,6,8,10,12,14,16,18,20,-1,22,24,-1,26,-1,-1,-1,-1,-1,-1,-1,-1,-1,-1,-1,-1],"split_conditions":[3.5456634E-1,7.041543E-1,4.6406302E-1,-4.955751E-3,6.1891613E0,6.0630317E0,-1.19571075E-1,1.92055E3,3.6931786E1,1.429945E3,3.1923775E-2,1.92675E3,-1.2168987E0,3.847325E-2,-1.9027437E-1,-1.6580468E-2,2.3048418E-2,1.4481151E-2,-5.526525E-3,2.672089E-2,-2.189896E-2,5.0875694E-3,2.829582E-2,1.1990399E-2,-8.362272E-3,-4.809594E-3,2.1883115E-2],"split_indices":[2,35,2,47,34,32,43,9,31,49,0,22,34,0,33,0,0,0,0,0,0,0,0,0,0,0,0],"split_type":[0,0,0,0,0,0,0,0,0,0,0,0,0,0,0,0,0,0,0,0,0,0,0,0,0,0,0],"sum_hessian":[1.7324614E3,5.453189E2,1.1871426E3,4.1498334E2,1.3033557E2,1.0485674E3,1.3857521E2,1.8670784E2,2.282755E2,1.2729421E2,3.0413558E0,7.2138684E2,3.2718054E2,4.4183254E1,9.439195E1,1.7860672E2,8.101123E0,5.269537E1,1.7558014E2,3.4538085E0,1.238404E2,6.642549E2,5.7131947E1,6.206329E1,2.6511725E2,3.3471783E1,6.092017E1],"tree_param":{"num_deleted":"0","num_feature":"65","num_nodes":"27","size_leaf_vector":"1"}},{"base_weights":[-8.764467E-4,-1.3147657E-1,9.8112494E-1,-2.758533E-1,6.234667E-2,1.8498179E0,6.6787636E-1,-3.785374E-1,-2.1007761E-1,3.7420712E-2,1.4772699E0,-4.9287686E-3,1.9982469E0,4.598322E-1,6.785067E-2,-4.302255E-3,-1.328933E-2,-6.598889E-3,4.5018237E-2,5.9790242E-2,6.182962E-4,6.5768205E-2,-1.1714119E-2,1.1867332E-2,6.522423E-2,2.5305752E-2,-2.8410142E-3],"categories":[],"categories_nodes":[],"categories_segments":[],"categories_sizes":[],"default_left":[0,0,0,0,0,0,0,0,0,0,0,0,0,0,0,0,0,0,0,0,0,0,0,0,0,0,0],"id":13,"left_children":[1,3,5,7,9,11,13,15,17,19,21,-1,23,25,-1,-1,-1,-1,-1,-1,-1,-1,-1,-1,-1,-1,-1],"loss_changes":[1.4194254E2,2.7352877E1,3.411676E1,3.7029E0,1.4680862E1,1.0452713E1,3.113993E1,3.2306767E0,6.1406746E0,1.349103E1,1.0480902E1,0E0,8.05304E0,1.8611969E1,0E0,0E0,0E0,0E0,0E0,0E0,0E0,0E0,0E0,0E0,0E0,0E0,0E0],"parents":[2147483647,0,0,1,1,2,2,3,3,4,4,5,5,6,6,7,7,8,8,9,9,10,10,12,12,13,13],"right_children":[2,4,6,8,10,12,14,16,18,20,22,-1,24,26,-1,-1,-1,-1,-1,-1,-1,-1,-1,-1,-1,-1,-1],"split_conditions":[3.5021222E-1,2.1080609E-1,2.186862E-1,6.7582946E0,1.97045E3,1.5767621E0,6.9377475E0,3.76928E5,1.9566E3,3.0027336E-1,1.692797E1,-4.9287686E-3,1.3674032E1,3.1912223E-1,6.785067E-2,-4.302255E-3,-1.328933E-2,-6.598889E-3,4.5018237E-2,5.9790242E-2,6.182962E-4,6.5768205E-2,-1.1714119E-2,1.1867332E-2,6.522423E-2,2.5305752E-2,-2.8410142E-3],"split_indices":[1,1,0,28,9,28,33,11,10,2,33,0,56,2,0,0,0,0,0,0,0,0,0,0,0,0,0],"split_type":[0,0,0,0,0,0,0,0,0,0,0,0,0,0,0,0,0,0,0,0,0,0,0,0,0,0,0],"sum_hessian":[1.1047631E3,9.758475E2,1.2891557E2,5.5901807E2,4.1682944E2,3.2866306E1,9.604927E1,2.1641386E2,3.426042E2,4.106222E2,6.2072673E0,2.2484918E0,3.0617813E1,8.609907E1,9.950204E0,4.7246582E1,1.6916728E2,3.415022E2,1.1019826E0,2.4978254E0,4.0812436E2,4.363201E0,1.8440665E0,3.3493156E0,2.7268497E1,5.0580326E1,3.551874E1],"tree_param":{"num_deleted":"0","num_feature":"65","num_nodes":"27","size_leaf_vector":"1"}},{"base_weights":[8.421522E-3,-4.2633379E-1,7.906523E-2,5.2570224E-1,-5.3516704E-1,5.9087294E-1,3.2945614E-2,-2.1738447E-2,7.1762866E-1,2.5193073E-2,-5.89906E-1,-4.142944E-1,7.1903145E-1,6.2083114E-2,-8.0009E-1,-1.8225964E-2,2.5080644E-2,-4.270268E-3,-2.2486806E-2,2.366572E-2,-2.7305387E-2,2.532361E-2,7.7065346E-3,2.7142027E-3,-2.386338E-2,-2.89013E-2,1.9123036E-2],"categories":[],"categories_nodes":[],"categories_segments":[],"categories_sizes":[],"default_left":[0,0,0,0,0,0,1,0,0,0,0,0,0,0,0,0,0,0,0,0,0,0,0,0,0,0,0],"id":14,"left_children":[1,3,5,7,9,11,13,-1,15,-1,17,19,21,23,25,-1,-1,-1,-1,-1,-1,-1,-1,-1,-1,-1,-1],"loss_changes":[6.1435947E1,2.9252304E1,4.0595097E1,7.524453E0,1.9417725E1,1.8612717E1,3.8387337E1,0E0,4.556772E0,0E0,1.7212631E1,1.0688574E1,7.0938263E0,3.724791E1,1.3160484E1,0E0,0E0,0E0,0E0,0E0,0E0,0E0,0E0,0E0,0E0,0E0,0E0],"parents":[2147483647,0,0,1,1,2,2,3,3,4,4,5,5,6,6,8,8,10,10,11,11,12,12,13,13,14,14],"right_children":[2,4,6,8,10,12,14,-1,16,-1,18,20,22,24,26,-1,-1,-1,-1,-1,-1,-1,-1,-1,-1,-1,-1],"split_conditions":[3.1412536E-1,1.43175E3,1.4231E3,2.457443E-1,1.8196099E-1,-2.1017668E0,1.8161832E3,-2.1738447E-2,8.06656E5,2.5193073E-2,4.27E0,8.787478E-2,4.37557E1,1.95195E3,1.602E3,-1.8225964E-2,2.5080644E-2,-4.270268E-3,-2.2486806E-2,2.366572E-2,-2.7305387E-2,2.532361E-2,7.7065346E-3,2.7142027E-3,-2.386338E-2,-2.89013E-2,1.9123036E-2],"split_indices":[0,26,23,0,1,42,51,0,11,0,21,1,52,22,23,0,0,0,0,0,0,0,0,0,0,0,0],"split_type":[0,0,0,0,0,0,0,0,0,0,0,0,0,0,0,0,0,0,0,0,0,0,0,0,0,0,0],"sum_hessian":[1.998244E3,2.7860696E2,1.7196371E3,2.8188988E1,2.5041797E2,1.4117297E2,1.5784641E3,3.3818996E0,2.4807089E1,9.038822E0,2.4137915E2,1.5711617E1,1.2546136E2,1.5260134E3,5.2450653E1,1.6957059E0,2.3111383E1,6.3962555E1,1.774166E2,4.413198E0,1.1298419E1,9.8085976E1,2.7375381E1,1.4779764E3,4.803704E1,4.739675E1,5.0539026E0],"tree_param":{"num_deleted":"0","num_feature":"65","num_nodes":"27","size_leaf_vector":"1"}},{"base_weights":[-2.5721312E-2,-1.0535316E-1,3.5066375E-1,-1.3873397E-1,7.1492547E-1,-7.617792E-2,5.142408E-1,-4.4570214E-1,-6.502842E-2,-2.015535E-2,9.771948E-1,-4.4452077E-1,3.00915E-1,-8.3043516E-2,7.2107875E-1,1.2868542E-4,-1.7980466E-2,-1.39421765E-2,-2.755594E-4,-1.8082784E-2,3.441202E-2,1.3278589E-2,-2.1888137E-2,2.5647832E-2,-1.16951335E-2,3.5080556E-2,-1.0416834E-2,5.319576E-3,2.9692085E-2],"categories":[],"categories_nodes":[],"categories_segments":[],"categories_sizes":[],"default_left":[0,1,0,0,0,0,0,1,0,0,0,0,0,0,0,0,0,0,0,0,0,0,0,0,0,0,0,0,0],"id":15,"left_children":[1,3,5,7,9,11,13,15,17,-1,19,21,23,25,27,-1,-1,-1,-1,-1,-1,-1,-1,-1,-1,-1,-1,-1,-1],"loss_changes":[5.3646202E1,4.0543404E1,2.1863297E1,3.210205E1,2.1722559E1,1.2283215E1,2.7992622E1,1.9001812E1,2.558341E1,0E0,1.3873646E1,1.1615779E1,1.7101679E1,1.99451E1,2.4373512E1,0E0,0E0,0E0,0E0,0E0,0E0,0E0,0E0,0E0,0E0,0E0,0E0,0E0,0E0],"parents":[2147483647,0,0,1,1,2,2,3,3,4,4,5,5,6,6,7,7,8,8,10,10,11,11,12,12,13,13,14,14],"right_children":[2,4,6,8,10,12,14,16,18,-1,20,22,24,26,28,-1,-1,-1,-1,-1,-1,-1,-1,-1,-1,-1,-1,-1,-1],"split_conditions":[4.40616E-1,5.035982E-1,-1.2093387E0,3.2799459E-1,2.828705E-1,4.6446773E-1,-2.5016062E0,-2.1017668E0,-9.631657E-1,-2.015535E-2,1.42225E3,3.5709953E1,1.9279E3,4.23E0,1.5945E3,1.2868542E-4,-1.7980466E-2,-1.39421765E-2,-2.755594E-4,-1.8082784E-2,3.441202E-2,1.3278589E-2,-2.1888137E-2,2.5647832E-2,-1.16951335E-2,3.5080556E-2,-1.0416834E-2,5.319576E-3,2.9692085E-2],"split_indices":[2,38,41,2,2,2,34,41,40,0,8,52,8,21,24,0,0,0,0,0,0,0,0,0,0,0,0,0,0],"split_type":[0,0,0,0,0,0,0,0,0,0,0,0,0,0,0,0,0,0,0,0,0,0,0,0,0,0,0,0,0],"sum_hessian":[1.7876305E3,1.4760602E3,3.1157022E2,1.4191399E3,5.6920288E1,8.646938E1,2.2510085E2,2.7379483E2,1.1453451E3,8.804438E0,4.811585E1,4.3651733E1,4.281765E1,5.8054832E1,1.67046E2,6.9937614E1,2.0385722E2,1.395021E2,1.005843E3,4.42368E0,4.369217E1,1.0481669E1,3.3170063E1,2.3628735E1,1.9188913E1,9.516153E0,4.8538677E1,5.5789253E1,1.1125676E2],"tree_param":{"num_deleted":"0","num_feature":"65","num_nodes":"29","size_leaf_vector":"1"}},{"base_weights":[-1.3856054E-2,-1.270183E-1,1.0772748E0,-2.8053215E-1,7.931309E-2,1.337962E0,2.998483E-1,-2.9859507E-1,3.8726723E-1,5.5262323E-2,6.1461482E-2,4.1005757E-2,1.5643121E0,-9.167904E-2,5.758264E-2,-9.393742E-3,4.3842494E-3,-9.985484E-3,4.377189E-2,1.9888382E-2,-7.0682727E-4,-7.665534E-3,4.2812157E-2,2.534372E-2,5.6639362E-2,4.0489692E-2,-7.0734094E-3],"categories":[],"categories_nodes":[],"categories_segments":[],"categories_sizes":[],"default_left":[0,0,0,0,0,0,0,0,0,1,0,0,1,0,0,0,0,0,0,0,0,0,0,0,0,0,0],"id":16,"left_children":[1,3,5,7,9,11,13,15,17,19,-1,21,23,25,-1,-1,-1,-1,-1,-1,-1,-1,-1,-1,-1,-1,-1],"loss_changes":[1.3714308E2,3.1893993E1,2.0750717E1,7.077759E0,2.025609E1,2.2796204E1,1.761235E1,3.6808357E0,1.2553718E1,2.0415249E1,0E0,5.542396E0,1.3839127E1,5.1157703E0,0E0,0E0,0E0,0E0,0E0,0E0,0E0,0E0,0E0,0E0,0E0,0E0,0E0],"parents":[2147483647,0,0,1,1,2,2,3,3,4,4,5,5,6,6,7,7,8,8,9,9,11,11,12,12,13,13],"right_children":[2,4,6,8,10,12,14,16,18,20,-1,22,24,26,-1,-1,-1,-1,-1,-1,-1,-1,-1,-1,-1,-1,-1],"split_conditions":[3.6471486E-1,2.1080609E-1,2.3819005E0,1.94605E3,1.97045E3,1.9510672E0,1.107732E6,1.5723559E1,4.319295E-1,1.5660248E3,6.1461482E-2,1.4983E3,1.9020363E1,4.96227E5,5.758264E-2,-9.393742E-3,4.3842494E-3,-9.985484E-3,4.377189E-2,1.9888382E-2,-7.0682727E-4,-7.665534E-3,4.2812157E-2,2.534372E-2,5.6639362E-2,4.0489692E-2,-7.0734094E-3],"split_indices":[1,1,34,25,9,28,11,32,62,53,0,23,56,11,0,0,0,0,0,0,0,0,0,0,0,0,0],"split_type":[0,0,0,0,0,0,0,0,0,0,0,0,0,0,0,0,0,0,0,0,0,0,0,0,0,0,0],"sum_hessian":[1.1085886E3,1.00521985E3,1.03368744E2,5.76176E2,4.290438E2,7.6871216E1,2.6497532E1,5.6154016E2,1.4635899E1,4.248831E2,4.1607027E0,1.1597901E1,6.5273315E1,2.209864E1,4.3988924E0,5.440614E2,1.747873E1,9.166542E0,5.4693565E0,4.7933285E1,3.769498E2,1.0225907E1,1.3719938E0,2.137223E1,4.390108E1,1.2481651E0,2.0850475E1],"tree_param":{"num_deleted":"0","num_feature":"65","num_nodes":"27","size_leaf_vector":"1"}},{"base_weights":[4.4828383E-3,6.154239E-1,-3.560651E-2,-2.4593756E-2,6.826354E-1,-3.9945188E-1,2.6154917E-2,7.500446E-1,-2.4651287E-2,9.968174E-2,-5.097906E-1,5.3504807E-1,-3.1773545E-2,2.340552E-2,-1.9951478E-2,1.2863231E-2,-2.5858885E-2,-2.7733063E-2,-8.9384755E-3,1.9815084E-2,-1.4412942E-2,-1.5287536E-2,2.7296436E-4],"categories":[],"categories_nodes":[],"categories_segments":[],"categories_sizes":[],"default_left":[0,0,0,0,1,0,0,0,0,0,0,0,0,0,0,0,0,0,0,0,0,0,0],"id":17,"left_children":[1,3,5,-1,7,9,11,13,-1,15,17,19,21,-1,-1,-1,-1,-1,-1,-1,-1,-1,-1],"loss_changes":[4.8974606E1,1.2437237E1,4.2180023E1,0E0,1.2599411E1,1.5051693E1,4.7337135E1,5.3649254E0,0E0,1.6239828E1,1.9332867E1,2.1223736E1,2.8167564E1,0E0,0E0,0E0,0E0,0E0,0E0,0E0,0E0,0E0,0E0],"parents":[2147483647,0,0,1,1,2,2,4,4,5,5,6,6,7,7,9,9,10,10,11,11,12,12],"right_children":[2,4,6,-1,8,10,12,14,-1,16,18,20,22,-1,-1,-1,-1,-1,-1,-1,-1,-1,-1],"split_conditions":[1.42085E3,-2.7401338E0,3.1412536E-1,-2.4593756E-2,3.4972212E0,1.4802E3,1.525585E3,1.4295E3,-2.4651287E-2,7.9904336E-1,1.6163E3,2.6819665E0,-2.156186E0,2.340552E-2,-1.9951478E-2,1.2863231E-2,-2.5858885E-2,-2.7733063E-2,-8.9384755E-3,1.9815084E-2,-1.4412942E-2,-1.5287536E-2,2.7296436E-4],"split_indices":[8,41,0,0,41,23,50,24,0,41,8,34,43,0,0,0,0,0,0,0,0,0,0],"split_type":[0,0,0,0,0,0,0,0,0,0,0,0,0,0,0,0,0,0,0,0,0,0,0],"sum_hessian":[1.9977026E3,1.2213141E2,1.8755713E3,4.9626703E0,1.1716874E2,2.7137787E2,1.6041934E3,1.12623535E2,4.545206E0,4.9147663E1,2.2223021E2,1.6310481E2,1.4410885E3,1.1071415E2,1.9093809E0,3.7029575E1,1.2118086E1,7.400796E1,1.4822224E2,1.4548128E2,1.7623539E1,1.1265442E2,1.3284341E3],"tree_param":{"num_deleted":"0","num_feature":"65","num_nodes":"23","size_leaf_vector":"1"}},{"base_weights":[3.0186292E-2,-6.213926E-2,5.1278204E-1,-3.726254E-1,1.3195637E-2,9.533467E-1,3.289017E-1,-7.7264115E-2,-5.71848E-1,-5.056084E-1,5.5162854E-2,-1.9039588E-1,1.1417639E0,4.0592883E-2,1.8459783E-1,-2.148956E-2,9.905853E-3,-1.9130008E-2,3.3440997E-3,-2.155706E-2,1.0524301E-3,-1.1279783E-3,1.0179016E-2,-2.0510897E-2,3.1850517E-2,3.8231123E-2,-1.8698903E-2,-1.7336323E-3,2.0484678E-2],"categories":[],"categories_nodes":[],"categories_segments":[],"categories_sizes":[],"default_left":[0,0,0,0,0,1,0,0,0,0,0,0,0,0,0,0,0,0,0,0,0,0,0,0,0,0,0,0,0],"id":18,"left_children":[1,3,5,7,9,11,13,15,17,19,21,23,25,-1,27,-1,-1,-1,-1,-1,-1,-1,-1,-1,-1,-1,-1,-1,-1],"loss_changes":[7.955654E1,3.5069492E1,2.2914825E1,1.7181774E1,2.6315277E1,1.8299355E1,2.987438E1,3.124279E1,7.926876E0,1.0440649E1,2.947742E1,8.585262E0,1.7689217E1,0E0,2.1753817E1,0E0,0E0,0E0,0E0,0E0,0E0,0E0,0E0,0E0,0E0,0E0,0E0,0E0,0E0],"parents":[2147483647,0,0,1,1,2,2,3,3,4,4,5,5,6,6,7,7,8,8,9,9,10,10,11,11,12,12,14,14],"right_children":[2,4,6,8,10,12,14,16,18,20,22,24,26,-1,28,-1,-1,-1,-1,-1,-1,-1,-1,-1,-1,-1,-1,-1,-1],"split_conditions":[4.40616E-1,3.2799459E-1,4.3E0,6.261424E-1,1.52188E3,-1.1446514E-1,4.4370243E-1,-1.151877E-1,1.34901E0,1E0,2.2267315E0,1.5429525E-1,1.9969342E0,4.0592883E-2,4.788191E-1,-2.148956E-2,9.905853E-3,-1.9130008E-2,3.3440997E-3,-2.155706E-2,1.0524301E-3,-1.1279783E-3,1.0179016E-2,-2.0510897E-2,3.1850517E-2,3.8231123E-2,-1.8698903E-2,-1.7336323E-3,2.0484678E-2],"split_indices":[2,2,21,40,50,57,62,46,43,64,41,43,43,0,62,0,0,0,0,0,0,0,0,0,0,0,0,0,0],"split_type":[0,0,0,0,0,0,0,0,0,0,0,0,0,0,0,0,0,0,0,0,0,0,0,0,0,0,0,0,0],"sum_hessian":[1.7838287E3,1.4980983E3,2.8573047E2,2.917461E2,1.2063522E3,8.290679E1,2.0282365E2,1.1807683E2,1.7366927E2,8.9454666E1,1.1168975E3,1.1724634E1,7.118216E1,2.4013254E1,1.7881041E2,4.5677975E1,7.239885E1,1.5847168E2,1.5197596E1,6.3941254E1,2.5513412E1,8.426621E2,2.7423535E2,8.736526E0,2.9881089E0,6.6466606E1,4.7155547E0,1.2088436E2,5.792604E1],"tree_param":{"num_deleted":"0","num_feature":"65","num_nodes":"29","size_leaf_vector":"1"}},{"base_weights":[-1.5742978E-2,-1.1186242E-1,1.1332165E0,-2.7082244E-1,9.001591E-2,4.8322758E-1,1.544164E0,-3.579649E-1,-1.908881E-1,6.2070806E-2,6.0673103E-2,1.9700809E-1,5.6884665E-2,-2.397818E-1,1.7439305E0,-1.1308133E-2,1.5826756E-2,4.712965E-2,-6.0632084E-3,1.4753898E-2,-1.5449435E-4,5.1045544E-2,-3.2216543E-3,-1.3299725E-2,1.1140148E-3,-1.0093332E-2,5.6403086E-2],"categories":[],"categories_nodes":[],"categories_segments":[],"categories_sizes":[],"default_left":[0,0,1,0,0,0,0,0,0,1,0,0,0,0,0,0,0,0,0,0,0,0,0,0,0,0,0],"id":19,"left_children":[1,3,5,7,9,11,13,15,17,19,-1,21,-1,23,25,-1,-1,-1,-1,-1,-1,-1,-1,-1,-1,-1,-1],"loss_changes":[1.23821686E2,3.322174E1,2.2374115E1,3.9649048E0,2.4524828E1,1.3773728E1,1.9154129E1,4.8338203E0,6.329213E0,1.303027E1,0E0,1.4016044E1,0E0,3.6442652E-1,1.4060654E1,0E0,0E0,0E0,0E0,0E0,0E0,0E0,0E0,0E0,0E0,0E0,0E0],"parents":[2147483647,0,0,1,1,2,2,3,3,4,4,5,5,6,6,7,7,8,8,9,9,11,11,13,13,14,14],"right_children":[2,4,6,8,10,12,14,16,18,20,-1,22,-1,24,26,-1,-1,-1,-1,-1,-1,-1,-1,-1,-1,-1,-1],"split_conditions":[3.9950895E-1,2.158228E-1,1.9479101E1,4.5864314E-1,1.97045E3,4.57E0,1.5767621E0,1.93835E3,1.4107E3,1.475355E3,6.0673103E-2,2.2018902E-1,5.6884665E-2,1.2964532E-1,1.429945E3,-1.1308133E-2,1.5826756E-2,4.712965E-2,-6.0632084E-3,1.4753898E-2,-1.5449435E-4,5.1045544E-2,-3.2216543E-3,-1.3299725E-2,1.1140148E-3,-1.0093332E-2,5.6403086E-2],"split_indices":[1,1,56,41,9,21,28,26,9,49,0,2,0,41,49,0,0,0,0,0,0,0,0,0,0,0,0],"split_type":[0,0,0,0,0,0,0,0,0,0,0,0,0,0,0,0,0,0,0,0,0,0,0,0,0,0,0],"sum_hessian":[1.1190461E3,1.0334894E3,8.555682E1,5.780155E2,4.5547382E2,3.3982746E1,5.1574078E1,2.748751E2,3.031404E2,4.499984E2,5.4753914E0,2.9205889E1,4.7768593E0,5.1735115E0,4.6400566E1,2.6967154E2,5.2035494E0,1.0383625E0,3.0210205E2,6.0015717E1,3.899827E2,4.142309E0,2.506358E1,2.6354387E0,2.538073E0,2.760242E0,4.3640324E1],"tree_param":{"num_deleted":"0","num_feature":"65","num_nodes":"27","size_leaf_vector":"1"}},{"base_weights":[-6.103352E-3,-3.3694756E-1,6.1416756E-2,2.8232467E-1,-4.389652E-1,-4.7273272E-1,9.778112E-2,5.758905E-1,-3.5664386E-1,-5.9219974E-1,8.543954E-2,-8.4025913E-1,3.2190463E-1,3.1284858E-2,3.759763E-1,-2.1155437E-2,2.21955E-2,-2.5562532E-2,2.1439388E-2,1.2268204E-2,-2.0464111E-2,-2.7070485E-2,1.4995157E-2,-2.8732989E-2,1.1713699E-2,1.9582678E-2,-2.5976885E-2,1.6881768E-2,-6.5083365E-4,1.3340561E-2,-1.6366834E-2],"categories":[],"categories_nodes":[],"categories_segments":[],"categories_sizes":[],"default_left":[0,0,0,0,0,0,1,0,0,0,1,0,0,0,0,0,0,0,0,0,0,0,0,0,0,0,0,0,0,0,0],"id":20,"left_children":[1,3,5,7,9,11,13,15,17,19,21,23,25,27,29,-1,-1,-1,-1,-1,-1,-1,-1,-1,-1,-1,-1,-1,-1,-1,-1],"loss_changes":[4.511224E1,2.1748314E1,3.2625347E1,9.400618E0,2.3696716E1,3.154306E1,2.9053429E1,7.6571465E0,9.127336E0,2.079435E1,2.8046911E1,1.1002407E1,1.4157077E1,3.5746075E1,1.942886E1,0E0,0E0,0E0,0E0,0E0,0E0,0E0,0E0,0E0,0E0,0E0,0E0,0E0,0E0,0E0,0E0],"parents":[2147483647,0,0,1,1,2,2,3,3,4,4,5,5,6,6,7,7,8,8,9,9,10,10,11,11,12,12,13,13,14,14],"right_children":[2,4,6,8,10,12,14,16,18,20,22,24,26,28,30,-1,-1,-1,-1,-1,-1,-1,-1,-1,-1,-1,-1,-1,-1,-1,-1],"split_conditions":[3.283202E-1,1.4417E3,-2.156186E0,4.48E0,6.831535E1,5.123725E-1,4.6808217E-2,2.4220951E-1,1.478804E0,-3.7260346E0,1.5167258E3,1.338365E6,1.5548532E-1,1.42085E3,1.9994386E-1,-2.1155437E-2,2.21955E-2,-2.5562532E-2,2.1439388E-2,1.2268204E-2,-2.0464111E-2,-2.7070485E-2,1.4995157E-2,-2.8732989E-2,1.1713699E-2,1.9582678E-2,-2.5976885E-2,1.6881768E-2,-6.5083365E-4,1.3340561E-2,-1.6366834E-2],"split_indices":[0,8,43,21,31,0,57,0,43,40,54,11,1,8,55,0,0,0,0,0,0,0,0,0,0,0,0,0,0,0,0],"split_type":[0,0,0,0,0,0,0,0,0,0,0,0,0,0,0,0,0,0,0,0,0,0,0,0,0,0,0,0,0,0,0],"sum_hessian":[2.017545E3,3.4128418E2,1.6762609E3,4.8020496E1,2.9326367E2,1.06079445E2,1.5701815E3,3.297108E1,1.5049416E1,2.2684793E2,6.641575E1,7.249328E1,3.3586163E1,1.2681672E3,3.0201422E2,3.3665023E0,2.9604578E1,1.0430316E1,4.619099E0,1.840667E1,2.0844127E2,1.9280344E1,4.7135403E1,6.637743E1,6.115848E0,2.6621445E1,6.9647155E0,1.1409068E2,1.1540765E3,2.8154025E2,2.0473963E1],"tree_param":{"num_deleted":"0","num_feature":"65","num_nodes":"31","size_leaf_vector":"1"}},{"base_weights":[-1.977447E-2,5.685056E-2,-3.6523E-1,1.2319037E-1,-3.0457065E-1,-3.984949E-1,3.202252E-2,-4.4903392E-1,1.717418E-1,-4.380236E-1,5.462743E-1,-6.6551656E-1,-2.4665321E-1,3.2272093E-2,-1.7207218E-2,-1.3436016E-2,6.860398E-3,-1.4898689E-2,3.2902405E-2,-1.994165E-2,3.2327406E-2,-2.1636743E-2,1.9052485E-2,2.8001373E-3,-1.6393496E-2],"categories":[],"categories_nodes":[],"categories_segments":[],"categories_sizes":[],"default_left":[0,0,0,0,0,0,0,0,0,0,0,0,1,0,0,0,0,0,0,0,0,0,0,0,0],"id":21,"left_children":[1,3,5,7,9,11,-1,13,15,17,19,21,23,-1,-1,-1,-1,-1,-1,-1,-1,-1,-1,-1,-1],"loss_changes":[4.6677963E1,3.4647465E1,1.5681332E1,3.398083E1,2.569135E1,1.2550144E1,0E0,1.8793781E1,3.9813408E1,1.802087E1,2.055652E1,8.651756E0,2.0589165E1,0E0,0E0,0E0,0E0,0E0,0E0,0E0,0E0,0E0,0E0,0E0,0E0],"parents":[2147483647,0,0,1,1,2,2,3,3,4,4,5,5,7,7,8,8,9,9,10,10,11,11,12,12],"right_children":[2,4,6,8,10,12,-1,14,16,18,20,22,24,-1,-1,-1,-1,-1,-1,-1,-1,-1,-1,-1,-1],"split_conditions":[2.9608124E-1,6.148182E5,2.4720703E1,1.528788E3,3.3284156E0,-3.4895748E-1,3.202252E-2,-6.036306E-2,1.42085E3,2.312328E6,4.06373E5,1.951E3,1.6476005E3,3.2272093E-2,-1.7207218E-2,-1.3436016E-2,6.860398E-3,-1.4898689E-2,3.2902405E-2,-1.994165E-2,3.2327406E-2,-2.1636743E-2,1.9052485E-2,2.8001373E-3,-1.6393496E-2],"split_indices":[1,17,28,50,34,34,0,47,8,11,11,10,53,0,0,0,0,0,0,0,0,0,0,0,0],"split_type":[0,0,0,0,0,0,0,0,0,0,0,0,0,0,0,0,0,0,0,0,0,0,0,0,0],"sum_hessian":[1.7616085E3,1.4424877E3,3.1912085E2,1.2193347E3,2.2315295E2,3.1258475E2,6.53612E0,9.472013E1,1.1246146E3,1.9331686E2,2.9836092E1,1.120884E2,2.0049634E2,6.5756283E0,8.81445E1,9.4069626E1,1.0305449E3,1.8685878E2,6.4580755E0,9.021788E0,2.0814304E1,1.0791171E2,4.1766863E0,9.4272804E1,1.06223526E2],"tree_param":{"num_deleted":"0","num_feature":"65","num_nodes":"25","size_leaf_vector":"1"}},{"base_weights":[-1.5056499E-2,1.52614E0,-8.359373E-2,-1.022987E-2,1.6505502E0,1.8173812E-1,-1.8564275E-1,5.7263914E-2,5.67839E-1,6.107108E-2,1.4831047E-1,4.1171227E-2,-2.5606778E-1,4.708959E-2,-6.125764E-3,8.080715E-3,-4.599486E-3,-3.087427E-4,6.459927E-2,-1.0986372E-2,-5.3935405E-3],"categories":[],"categories_nodes":[],"categories_segments":[],"categories_sizes":[],"default_left":[0,0,0,0,0,0,0,0,0,0,0,0,0,0,0,0,0,0,0,0,0],"id":22,"left_children":[1,3,5,-1,7,9,11,-1,13,-1,15,17,19,-1,-1,-1,-1,-1,-1,-1,-1],"loss_changes":[1.17732346E2,1.1586357E1,2.8922476E1,0E0,1.1404022E1,1.809605E1,1.2326803E1,0E0,8.073946E0,0E0,1.072761E1,1.9972986E1,4.8788567E0,0E0,0E0,0E0,0E0,0E0,0E0,0E0,0E0],"parents":[2147483647,0,0,1,1,2,2,4,4,5,5,6,6,8,8,10,10,11,11,12,12],"right_children":[2,4,6,-1,8,10,12,-1,14,-1,16,18,20,-1,-1,-1,-1,-1,-1,-1,-1],"split_conditions":[2.4220951E-1,1.3566599E3,3.6153054E-1,-1.022987E-2,2.007142E3,-2.162175E0,4.1160673E-1,5.7263914E-2,1.7553614E-1,6.107108E-2,1.90505E3,2.1393521E-1,-2.4785213E-1,4.708959E-2,-6.125764E-3,8.080715E-3,-4.599486E-3,-3.087427E-4,6.459927E-2,-1.0986372E-2,-5.3935405E-3],"split_indices":[0,54,0,0,53,35,62,0,46,0,10,55,41,0,0,0,0,0,0,0,0],"split_type":[0,0,0,0,0,0,0,0,0,0,0,0,0,0,0,0,0,0,0,0,0],"sum_hessian":[1.1123721E3,4.64557E1,1.0659164E3,2.7932959E0,4.3662403E1,2.958674E2,7.70049E2,3.4637684E1,9.024719E0,4.179246E0,2.9168817E2,1.8254665E2,5.875023E2,3.478174E0,5.546545E0,2.0822981E2,8.345835E1,1.7917612E2,3.3705335E0,2.3884094E2,3.486614E2],"tree_param":{"num_deleted":"0","num_feature":"65","num_nodes":"21","size_leaf_vector":"1"}},{"base_weights":[-3.1862464E-2,4.6155187E-1,-7.4500956E-2,5.4462373E-1,-2.6089469E-2,-4.5675717E-2,-2.8935371E-2,5.2044257E-3,8.276476E-1,5.3867415E-2,-2.0214863E-1,1.5514451E-2,-1.821771E-2,2.5530014E-2,1.1307564E-2,-1.2873409E-2,3.3831855E-3,-7.283637E-3,1.6928235E-2],"categories":[],"categories_nodes":[],"categories_segments":[],"categories_sizes":[],"default_left":[0,0,0,0,0,1,0,0,0,1,0,0,0,0,0,0,0,0,0],"id":23,"left_children":[1,3,5,7,-1,9,-1,11,13,15,17,-1,-1,-1,-1,-1,-1,-1,-1],"loss_changes":[4.17359E1,1.7924324E1,4.678505E1,2.276603E1,0E0,2.7566677E1,0E0,1.6722614E1,7.088394E-1,3.0833233E1,2.1568563E1,0E0,0E0,0E0,0E0,0E0,0E0,0E0,0E0],"parents":[2147483647,0,0,1,1,2,2,3,3,5,5,7,7,8,8,9,9,10,10],"right_children":[2,4,6,8,-1,10,-1,12,14,16,18,-1,-1,-1,-1,-1,-1,-1,-1],"split_conditions":[1.41925E3,1.4288E3,2.207829E6,1.1010169E1,-2.6089469E-2,1.7066925E3,-2.8935371E-2,-8.351104E-1,5.0979397E1,1.6158985E1,2.0047267E3,1.5514451E-2,-1.821771E-2,2.5530014E-2,1.1307564E-2,-1.2873409E-2,3.3831855E-3,-7.283637E-3,1.6928235E-2],"split_indices":[10,23,11,30,0,51,0,43,31,56,53,0,0,0,0,0,0,0,0],"split_type":[0,0,0,0,0,0,0,0,0,0,0,0,0,0,0,0,0,0,0],"sum_hessian":[1.9811581E3,1.5680296E2,1.8243551E3,1.481488E2,8.654152E0,1.7681407E3,5.6214314E1,5.1332275E1,9.681653E1,1.0810602E3,6.870807E2,2.804536E1,2.3286917E1,9.120312E1,5.613412E0,1.16832794E2,9.6422736E2,6.5313184E2,3.3948826E1],"tree_param":{"num_deleted":"0","num_feature":"65","num_nodes":"19","size_leaf_vector":"1"}},{"base_weights":[-2.1074891E-2,-2.695525E-1,1.1189222E-1,3.9155063E-1,-3.2339647E-1,6.818533E-3,3.892435E-1,7.8130955E-1,-3.1086937E-1,-3.5061747E-1,3.3734124E-2,-3.7309176E-1,7.644285E-2,8.224707E-1,1.995042E-1,-1.8839892E-2,3.1800967E-2,-2.0281065E-2,3.2365274E-2,-1.832603E-2,-8.041517E-3,-1.4961548E-2,1.8177351E-2,-2.1445908E-2,3.4134916E-3,-1.9251308E-3,3.1210931E-2,1.0198167E-2,-1.2436083E-2],"categories":[],"categories_nodes":[],"categories_segments":[],"categories_sizes":[],"default_left":[0,0,0,0,1,0,0,0,0,0,0,0,0,0,1,0,0,0,0,0,0,0,0,0,0,0,0,0,0],"id":24,"left_children":[1,3,5,7,9,11,13,15,17,19,-1,21,23,25,27,-1,-1,-1,-1,-1,-1,-1,-1,-1,-1,-1,-1,-1,-1],"loss_changes":[5.7547688E1,2.1738762E1,3.3066196E1,1.288508E1,2.2542675E1,2.182356E1,2.5462505E1,1.244319E1,9.45508E0,1.170536E1,0E0,1.6018736E1,2.0681581E1,1.8349281E1,1.89504E1,0E0,0E0,0E0,0E0,0E0,0E0,0E0,0E0,0E0,0E0,0E0,0E0,0E0,0E0],"parents":[2147483647,0,0,1,1,2,2,3,3,4,4,5,5,6,6,7,7,8,8,9,9,11,11,12,12,13,13,14,14],"right_children":[2,4,6,8,10,12,14,16,18,20,-1,22,24,26,28,-1,-1,-1,-1,-1,-1,-1,-1,-1,-1,-1,-1,-1,-1],"split_conditions":[3.572703E-1,-2.156186E0,4.6522593E-1,2.9079452E-1,3.0841148E0,1.541624E3,1.8096014E3,-5.9151487E0,3.3027792E-1,3.0730653E-1,3.3734124E-2,8.245056E1,-2.987474E0,7.812869E-2,5.6216156E-1,-1.8839892E-2,3.1800967E-2,-2.0281065E-2,3.2365274E-2,-1.832603E-2,-8.041517E-3,-1.4961548E-2,1.8177351E-2,-2.1445908E-2,3.4134916E-3,-1.9251308E-3,3.1210931E-2,1.0198167E-2,-1.2436083E-2],"split_indices":[2,43,62,1,37,50,51,34,2,2,0,31,40,1,40,0,0,0,0,0,0,0,0,0,0,0,0,0,0],"split_type":[0,0,0,0,0,0,0,0,0,0,0,0,0,0,0,0,0,0,0,0,0,0,0,0,0,0,0,0,0],"sum_hessian":[1.7398796E3,6.061434E2,1.1337362E3,4.517741E1,5.6096594E2,8.229781E2,3.1075815E2,2.8983004E1,1.6194405E1,5.5135785E2,9.608106E0,1.2678851E2,6.9618964E2,9.363313E1,2.1712502E2,4.578683E0,2.4404322E1,1.3231252E1,2.9631531E0,1.3125249E2,4.2010535E2,1.1280399E2,1.3984517E1,3.0553844E1,6.6563574E2,1.861035E1,7.502278E1,1.770736E2,4.0051407E1],"tree_param":{"num_deleted":"0","num_feature":"65","num_nodes":"29","size_leaf_vector":"1"}},{"base_weights":[8.973506E-3,-1.085465E-1,9.3059266E-1,-2.5181833E-1,7.709518E-2,4.056474E-1,1.259628E0,-3.2867387E-1,-1.597502E-1,5.7936076E-2,6.1639138E-2,1.5104988E-1,1.3433353E0,5.7882775E-2,7.4284744E-1,-1.0212303E-2,1.9397205E-2,-5.897762E-3,9.734678E-3,1.455663E-2,-5.1917956E-4,-3.553243E-4,4.7624808E-2,5.861846E-2,-1.2880108E-2,3.9086193E-2,1.1124962E-3],"categories":[],"categories_nodes":[],"categories_segments":[],"categories_sizes":[],"default_left":[0,0,1,1,0,0,0,1,0,0,0,1,1,0,0,0,0,0,0,0,0,0,0,0,0,0,0],"id":25,"left_children":[1,3,5,7,9,11,13,15,17,19,-1,21,23,-1,25,-1,-1,-1,-1,-1,-1,-1,-1,-1,-1,-1,-1],"loss_changes":[1.18974075E2,2.593336E1,2.0946594E1,3.84029E0,1.5989649E1,1.1576178E1,2.4834877E1,3.6412048E0,4.563927E0,1.3579341E1,0E0,9.362127E0,1.2106052E1,0E0,1.7525843E1,0E0,0E0,0E0,0E0,0E0,0E0,0E0,0E0,0E0,0E0,0E0,0E0],"parents":[2147483647,0,0,1,1,2,2,3,3,4,4,5,5,6,6,7,7,8,8,9,9,11,11,12,12,14,14],"right_children":[2,4,6,8,10,12,14,16,18,20,-1,22,24,-1,26,-1,-1,-1,-1,-1,-1,-1,-1,-1,-1,-1,-1],"split_conditions":[3.5762244E-1,2.1080609E-1,2.033531E1,4.448967E1,4.4524914E-1,8.0980235E-1,1.8932834E-1,4.3406987E0,2.5192956E-2,-1.6743824E0,6.1639138E-2,2.8355846E-1,1.9617723E1,5.7882775E-2,1.16608456E-1,-1.0212303E-2,1.9397205E-2,-5.897762E-3,9.734678E-3,1.455663E-2,-5.1917956E-4,-3.553243E-4,4.7624808E-2,5.861846E-2,-1.2880108E-2,3.9086193E-2,1.1124962E-3],"split_indices":[1,1,56,52,0,32,46,41,47,34,0,41,56,0,55,0,0,0,0,0,0,0,0,0,0,0,0],"split_type":[0,0,0,0,0,0,0,0,0,0,0,0,0,0,0,0,0,0,0,0,0,0,0,0,0,0,0],"sum_hessian":[1.0965394E3,9.733103E2,1.23229164E2,5.4914374E2,4.241666E2,4.834001E1,7.488915E1,2.9789798E2,2.5124571E2,4.2111597E2,3.0506165E0,3.8930763E1,9.409247E0,3.1425325E1,4.346383E1,2.949989E2,2.8990993E0,2.3403398E2,1.7211733E1,6.2236767E1,3.588792E2,3.5856373E1,3.074391E0,6.922475E0,2.4867723E0,2.3762321E1,1.9701508E1],"tree_param":{"num_deleted":"0","num_feature":"65","num_nodes":"27","size_leaf_vector":"1"}},{"base_weights":[2.761591E-3,7.976879E-1,-1.9227574E-2,2.523266E-2,-1.6244674E-2,-7.6812994E-1,2.3027915E-3,-2.7896069E-2,2.3124628E-2,1.9571226E-2,-2.5805803E-2,1.3847478E-3,-1.5964584E-2],"categories":[],"categories_nodes":[],"categories_segments":[],"categories_sizes":[],"default_left":[0,0,0,0,0,0,0,0,0,0,0,0,0],"id":26,"left_children":[1,3,5,-1,-1,7,9,-1,-1,11,-1,-1,-1],"loss_changes":[3.4330837E1,3.5281105E0,3.081967E1,0E0,0E0,1.4012337E1,2.7702826E1,0E0,0E0,2.6770967E1,0E0,0E0,0E0],"parents":[2147483647,0,0,1,1,2,2,5,5,6,6,9,9],"right_children":[2,4,6,-1,-1,8,10,-1,-1,12,-1,-1,-1],"split_conditions":[-2.802253E1,1.803E3,-2.5343611E0,2.523266E-2,-1.6244674E-2,2.1373762E-1,5.5924E-1,-2.7896069E-2,2.3124628E-2,1.9454928E3,-2.5805803E-2,1.3847478E-3,-1.5964584E-2],"split_indices":[32,10,43,0,0,47,1,0,0,27,0,0,0],"split_type":[0,0,0,0,0,0,0,0,0,0,0,0,0],"sum_hessian":[1.9621558E3,5.1866405E1,1.9102893E3,5.0598515E1,1.267889E0,5.2415512E1,1.8578738E3,4.778883E1,4.6266837E0,1.8223647E3,3.5509094E1,1.7394583E3,8.290643E1],"tree_param":{"num_deleted":"0","num_feature":"65","num_nodes":"13","size_leaf_vector":"1"}},{"base_weights":[9.220412E-3,-2.5929672E-1,1.3704282E-1,-7.381843E-2,-4.4756728E-1,5.029286E-1,6.295933E-2,-1.1772154E-1,3.3167306E-2,3.413249E-2,-4.8685655E-1,-3.3375752E-1,6.5915596E-1,-8.976737E-3,5.348969E-1,-2.1325419E-2,-4.1769532E-4,-1.9164933E-2,-7.1388194E-3,-2.1628631E-2,3.675732E-2,2.3756858E-2,-5.624128E-3,8.418941E-3,-3.504255E-3,3.3563778E-2,7.211063E-3],"categories":[],"categories_nodes":[],"categories_segments":[],"categories_sizes":[],"default_left":[0,1,1,1,0,0,0,0,0,0,0,0,0,0,0,0,0,0,0,0,0,0,0,0,0,0,0],"id":27,"left_children":[1,3,5,7,9,11,13,15,-1,-1,17,19,21,23,25,-1,-1,-1,-1,-1,-1,-1,-1,-1,-1,-1,-1],"loss_changes":[6.1998886E1,2.0310612E1,3.3139427E1,1.5387501E1,1.854924E1,2.7135952E1,3.4593536E1,1.7535698E1,0E0,0E0,1.0538628E1,2.0841612E1,1.9686157E1,2.767229E1,2.2908627E1,0E0,0E0,0E0,0E0,0E0,0E0,0E0,0E0,0E0,0E0,0E0,0E0],"parents":[2147483647,0,0,1,1,2,2,3,3,4,4,5,5,6,6,7,7,10,10,11,11,12,12,13,13,14,14],"right_children":[2,4,6,8,10,12,14,16,-1,-1,18,20,22,24,26,-1,-1,-1,-1,-1,-1,-1,-1,-1,-1,-1,-1],"split_conditions":[3.5536462E-1,5.237278E-1,2.8319021E1,3.0841148E0,3.4144032E-1,1.531045E3,4.6446773E-1,-9.0075725E-1,3.3167306E-2,3.413249E-2,1.0768985E0,2.207829E6,1.76565E3,6.419046E-2,8.81887E-1,-2.1325419E-2,-4.1769532E-4,-1.9164933E-2,-7.1388194E-3,-2.1628631E-2,3.675732E-2,2.3756858E-2,-5.624128E-3,8.418941E-3,-3.504255E-3,3.3563778E-2,7.211063E-3],"split_indices":[2,40,52,37,62,49,2,40,0,0,34,11,8,55,43,0,0,0,0,0,0,0,0,0,0,0,0],"split_type":[0,0,0,0,0,0,0,0,0,0,0,0,0,0,0,0,0,0,0,0,0,0,0,0,0,0,0],"sum_hessian":[1.804327E3,5.8157697E2,1.2227501E3,2.936622E2,2.8791476E2,2.04916E2,1.0178341E3,2.839908E2,9.671401E0,6.286751E0,2.8162802E2,3.2063168E1,1.7285283E2,8.8406036E2,1.3377376E2,4.1425934E1,2.4256488E2,1.7388689E2,1.0774113E2,2.6114796E1,5.948371E0,1.4948094E2,2.3371887E1,2.3942487E2,6.446355E2,4.3914864E1,8.985889E1],"tree_param":{"num_deleted":"0","num_feature":"65","num_nodes":"27","size_leaf_vector":"1"}},{"base_weights":[-1.2686647E-2,-1.3577984E-1,7.0437425E-1,-2.6217884E-1,3.2405887E-2,1.3010383E0,4.2108336E-1,-3.70666E-1,-1.8247794E-1,1.5342568E0,9.250528E-4,2.111601E-1,1.7068758E0,1.1499078E0,1.6978799E-1,5.519296E-3,-1.1747034E-2,5.080988E-2,-5.837215E-3,6.6484205E-2,-8.677335E-3,1.6565902E-2,-1.8757726E-3,2.885754E-2,-1.3557209E-2,-7.2988374E-3,5.635656E-2,3.4738542E-3,4.4655286E-2,-2.788065E-3,1.5755886E-2],"categories":[],"categories_nodes":[],"categories_segments":[],"categories_sizes":[],"default_left":[0,0,0,0,0,1,0,0,0,0,1,0,0,0,0,0,0,0,0,0,0,0,0,0,0,0,0,0,0,0,0],"id":28,"left_children":[1,3,5,7,9,11,13,15,17,19,21,23,25,27,29,-1,-1,-1,-1,-1,-1,-1,-1,-1,-1,-1,-1,-1,-1,-1,-1],"loss_changes":[9.8146675E1,2.0181746E1,2.6990036E1,4.6178093E0,1.929149E1,2.2626984E1,2.0307838E1,2.7213898E0,7.4634886E0,1.1057455E1,1.404988E1,8.02251E0,1.3088394E1,9.817165E0,7.9312344E0,0E0,0E0,0E0,0E0,0E0,0E0,0E0,0E0,0E0,0E0,0E0,0E0,0E0,0E0,0E0,0E0],"parents":[2147483647,0,0,1,1,2,2,3,3,4,4,5,5,6,6,7,7,8,8,9,9,10,10,11,11,12,12,13,13,14,14],"right_children":[2,4,6,8,10,12,14,16,18,20,22,24,26,28,30,-1,-1,-1,-1,-1,-1,-1,-1,-1,-1,-1,-1,-1,-1,-1,-1],"split_conditions":[3.3254895E-1,2.1080609E-1,-1.4079793E-1,-2.4785213E-1,3.1099492E-1,4.7174785E-2,2.4220951E-1,1.4311785E1,2.022E2,4.5923764E-1,1.475355E3,3.0730653E-1,1.3453507E0,1.9390526E1,2.882197E-1,5.519296E-3,-1.1747034E-2,5.080988E-2,-5.837215E-3,6.6484205E-2,-8.677335E-3,1.6565902E-2,-1.8757726E-3,2.885754E-2,-1.3557209E-2,-7.2988374E-3,5.635656E-2,3.4738542E-3,4.4655286E-2,-2.788065E-3,1.5755886E-2],"split_indices":[1,1,34,41,2,55,0,31,18,46,49,2,28,56,0,0,0,0,0,0,0,0,0,0,0,0,0,0,0,0,0],"split_type":[0,0,0,0,0,0,0,0,0,0,0,0,0,0,0,0,0,0,0,0,0,0,0,0,0,0,0,0,0,0,0],"sum_hessian":[1.109867E3,9.479493E2,1.6191765E2,5.408887E2,4.070606E2,5.097086E1,1.109468E2,2.275296E2,3.133591E2,7.377289E0,3.9968332E2,1.4242603E1,3.6728256E1,2.7529087E1,8.341771E1,7.979767E0,2.1954984E2,1.116807E0,3.1224228E2,5.2127156E0,2.1645734E0,4.0459694E1,3.5922363E2,6.4682336E0,7.7743697E0,2.9378903E0,3.3790363E1,7.1215057E0,2.0407581E1,4.838744E1,3.503027E1],"tree_param":{"num_deleted":"0","num_feature":"65","num_nodes":"31","size_leaf_vector":"1"}},{"base_weights":[2.412204E-2,-4.0370074E-1,1.1102684E-1,-2.6363201E-2,-3.046566E-1,8.1274295E-1,8.638512E-2,-2.1534026E-1,-2.6660897E-2,2.5546435E-2,4.0139732E-1,1.2773378E-1,-3.7228724E-1,-1.2095368E-2,2.658141E-3,-1.7742038E-2,2.2361057E-2,2.3008133E-3,1.4297373E-2,-1.4073793E-2,2.4276203E-2],"categories":[],"categories_nodes":[],"categories_segments":[],"categories_sizes":[],"default_left":[0,0,0,0,0,0,0,0,0,0,0,0,0,0,0,0,0,0,0,0,0],"id":29,"left_children":[1,3,5,-1,7,9,11,13,-1,-1,15,17,19,-1,-1,-1,-1,-1,-1,-1,-1],"loss_changes":[7.293358E1,1.5316704E1,2.8118864E1,0E0,1.4185162E1,5.390892E-1,2.9937954E1,1.3758735E1,0E0,0E0,2.711412E0,2.5717709E1,1.5320419E1,0E0,0E0,0E0,0E0,0E0,0E0,0E0,0E0],"parents":[2147483647,0,0,1,1,2,2,4,4,5,5,6,6,7,7,10,10,11,11,12,12],"right_children":[2,4,6,-1,8,10,12,14,-1,-1,16,18,20,-1,-1,-1,-1,-1,-1,-1,-1],"split_conditions":[3.2693547E-1,-1.5528799E0,1.4079E3,-2.6363201E-2,1.463582E6,8.712308E-3,2.0157091E-1,6.042589E1,-2.6660897E-2,2.5546435E-2,1.42085E3,1.5054104E-2,4.9812655E0,-1.2095368E-2,2.658141E-3,-1.7742038E-2,2.2361057E-2,2.3008133E-3,1.4297373E-2,-1.4073793E-2,2.4276203E-2],"split_indices":[0,34,27,0,11,47,55,31,0,0,8,47,34,0,0,0,0,0,0,0,0],"split_type":[0,0,0,0,0,0,0,0,0,0,0,0,0,0,0,0,0,0,0,0,0],"sum_hessian":[1.9594369E3,3.3020898E2,1.6292278E3,5.5608086E1,2.7460092E2,5.418662E1,1.5750413E3,2.3936404E2,3.5236866E1,4.8537605E1,5.6490154E0,1.4454568E3,1.2958438E2,1.4773624E2,9.162781E1,1.2684823E0,4.380533E0,1.2620278E3,1.8342906E2,1.2032508E2,9.259306E0],"tree_param":{"num_deleted":"0","num_feature":"65","num_nodes":"21","size_leaf_vector":"1"}},{"base_weights":[3.6401033E-2,1.0987822E-1,-2.7122822E-1,-4.0445894E-1,1.501222E-1,-3.300613E-1,1.0717171E0,-5.125803E-1,9.3267375E-1,4.875742E-1,8.7458074E-2,-4.0752774E-1,2.5680214E-1,3.7919622E-2,-1.2606E-2,1.535612E-2,-1.9141195E-2,3.7582304E-2,-1.2695102E-2,1.7377598E-2,-2.123765E-2,3.3406746E-2,2.0418365E-3,2.5075385E-2,-1.3316121E-2,-2.0245483E-2,2.243431E-2],"categories":[],"categories_nodes":[],"categories_segments":[],"categories_sizes":[],"default_left":[0,0,0,0,0,0,0,0,0,1,0,0,0,0,0,0,0,0,0,0,0,0,0,0,0,0,0],"id":30,"left_children":[1,3,5,7,9,11,13,15,17,19,21,23,25,-1,-1,-1,-1,-1,-1,-1,-1,-1,-1,-1,-1,-1,-1],"loss_changes":[4.0338833E1,2.987106E1,2.7541416E1,1.56263485E1,2.8217154E1,1.5126667E1,4.7414474E0,1.2869099E1,4.0857587E0,2.3325893E1,2.2381342E1,1.3578724E1,1.8411106E1,0E0,0E0,0E0,0E0,0E0,0E0,0E0,0E0,0E0,0E0,0E0,0E0,0E0,0E0],"parents":[2147483647,0,0,1,1,2,2,3,3,4,4,5,5,6,6,7,7,8,8,9,9,10,10,11,11,12,12],"right_children":[2,4,6,8,10,12,14,16,18,20,22,24,26,-1,-1,-1,-1,-1,-1,-1,-1,-1,-1,-1,-1,-1,-1],"split_conditions":[2.9608124E-1,1.525585E3,2.642449E1,8.245056E1,6.607642E0,1.9239125E3,3.5021222E-1,-1.5981603E0,1.35529785E1,1.8080907E3,-3.1616976E0,3.4144032E-1,1.48475E3,3.7919622E-2,-1.2606E-2,1.535612E-2,-1.9141195E-2,3.7582304E-2,-1.2695102E-2,1.7377598E-2,-2.123765E-2,3.3406746E-2,2.0418365E-3,2.5075385E-2,-1.3316121E-2,-2.0245483E-2,2.243431E-2],"split_indices":[1,50,30,31,30,49,1,43,30,51,43,62,23,0,0,0,0,0,0,0,0,0,0,0,0,0,0],"split_type":[0,0,0,0,0,0,0,0,0,0,0,0,0,0,0,0,0,0,0,0,0,0,0,0,0,0,0],"sum_hessian":[1.7822909E3,1.4391847E3,3.4310614E2,1.0377976E2,1.335405E3,3.2942844E2,1.3677697E1,9.658639E1,7.193375E0,2.0808226E2,1.1273228E3,2.9128427E2,3.814418E1,1.2251558E1,1.4261389E0,1.0201905E1,8.638448E1,5.8810873E0,1.3122879E0,1.9374034E2,1.4341914E1,1.9868399E1,1.1074543E3,7.6475E0,2.8363678E2,1.3035627E1,2.5108551E1],"tree_param":{"num_deleted":"0","num_feature":"65","num_nodes":"27","size_leaf_vector":"1"}},{"base_weights":[-6.6453405E-4,-1.3235176E-1,7.3718804E-1,-2.75358E-1,8.48634E-2,1.3517071E0,4.5211786E-1,-2.9183006E-1,1.3216577E-1,6.1490025E-2,5.4081775E-2,-7.363849E-3,1.4507396E0,8.709275E-2,7.757253E-1,-9.613505E-3,-2.232571E-3,-2.206601E-3,5.4252833E-2,2.1872122E-2,-4.1496122E-4,1.6243888E-2,4.9780518E-2,1.996347E-2,-7.3388084E-3,4.0818483E-2,5.4476233E-3],"categories":[],"categories_nodes":[],"categories_segments":[],"categories_sizes":[],"default_left":[0,0,0,0,0,0,0,0,0,0,1,0,0,0,0,0,0,0,0,0,0,0,0,0,0,0,0],"id":31,"left_children":[1,3,5,7,9,11,13,15,17,-1,19,-1,21,23,25,-1,-1,-1,-1,-1,-1,-1,-1,-1,-1,-1,-1],"loss_changes":[1.0843902E2,2.9440182E1,2.8997215E1,3.8734474E0,2.26731E1,8.748154E0,1.3748201E1,3.3946953E0,8.023754E0,0E0,1.706002E1,0E0,8.605438E0,1.092353E1,2.1253197E1,0E0,0E0,0E0,0E0,0E0,0E0,0E0,0E0,0E0,0E0,0E0,0E0],"parents":[2147483647,0,0,1,1,2,2,3,3,4,4,5,5,6,6,7,7,8,8,10,10,12,12,13,13,14,14],"right_children":[2,4,6,8,10,12,14,16,18,-1,20,-1,22,24,26,-1,-1,-1,-1,-1,-1,-1,-1,-1,-1,-1,-1],"split_conditions":[3.3254895E-1,2.1080609E-1,2.4220951E-1,1.9391E3,-3.9617772E0,1.3453507E0,4.5324326E0,1.8844944E1,1.4491145E-2,6.1490025E-2,1.475355E3,-7.363849E-3,1.9390526E1,6.38991E5,4.174702E-3,-9.613505E-3,-2.232571E-3,-2.206601E-3,5.4252833E-2,2.1872122E-2,-4.1496122E-4,1.6243888E-2,4.9780518E-2,1.996347E-2,-7.3388084E-3,4.0818483E-2,5.4476233E-3],"split_indices":[1,1,0,24,34,28,28,28,47,0,49,0,56,11,47,0,0,0,0,0,0,0,0,0,0,0,0],"split_type":[0,0,0,0,0,0,0,0,0,0,0,0,0,0,0,0,0,0,0,0,0,0,0,0,0,0,0],"sum_hessian":[1.1140168E3,9.460013E2,1.6801564E2,5.702817E2,3.7571954E2,5.205666E1,1.1595898E2,5.4839935E2,2.1882374E1,4.7837443E0,3.709358E2,2.9529939E0,4.910367E1,5.5088722E1,6.087026E1,4.8418683E2,6.421251E1,2.0342022E1,1.5403526E0,3.3019814E1,3.37916E2,9.834297E0,3.926937E1,1.9712954E1,3.5375767E1,3.0023737E1,3.0846521E1],"tree_param":{"num_deleted":"0","num_feature":"65","num_nodes":"27","size_leaf_vector":"1"}},{"base_weights":[-4.1453112E-2,-3.9050213E-1,1.7137699E-2,6.229781E-1,-4.527545E-1,1.609653E-1,-1.4661528E-1,2.5450217E-2,-1.9168112E-2,-2.6216527E-2,-1.9121972E-1,2.1240257E-1,-5.3900063E-1,3.7521458E-1,-2.2028615E-1,1.5867863E-5,-2.1027438E-2,8.027025E-3,-1.1481507E-2,-2.8714955E-2,2.2250189E-2,1.678224E-2,-2.7074872E-2,-8.39009E-3,1.0266335E-2],"categories":[],"categories_nodes":[],"categories_segments":[],"categories_sizes":[],"default_left":[0,0,0,0,0,0,0,0,0,0,0,0,0,0,0,0,0,0,0,0,0,0,0,0,0],"id":32,"left_children":[1,3,5,7,9,11,13,-1,-1,-1,15,17,19,21,23,-1,-1,-1,-1,-1,-1,-1,-1,-1,-1],"loss_changes":[4.0174095E1,1.8095448E1,3.965563E1,5.308367E0,2.9194263E1,3.238688E1,3.0352606E1,0E0,0E0,0E0,1.6197927E1,2.7538353E1,3.3721237E1,2.35168E1,2.3164059E1,0E0,0E0,0E0,0E0,0E0,0E0,0E0,0E0,0E0,0E0],"parents":[2147483647,0,0,1,1,2,2,3,3,4,4,5,5,6,6,10,10,11,11,12,12,13,13,14,14],"right_children":[2,4,6,8,10,12,14,-1,-1,-1,16,18,20,22,24,-1,-1,-1,-1,-1,-1,-1,-1,-1,-1],"split_conditions":[3.153251E-1,-3.7260346E0,9.5E-1,3.5762244E-1,-1.2360724E-1,1.94275E3,1.424E3,2.5450217E-2,-1.9168112E-2,-2.6216527E-2,1.013049E6,1.655391E6,7.57478E5,5.5749226E1,7.659806E1,1.5867863E-5,-2.1027438E-2,8.027025E-3,-1.1481507E-2,-2.8714955E-2,2.2250189E-2,1.678224E-2,-2.7074872E-2,-8.39009E-3,1.0266335E-2],"split_indices":[0,40,4,1,34,24,23,0,0,0,11,11,11,31,31,0,0,0,0,0,0,0,0,0,0],"split_type":[0,0,0,0,0,0,0,0,0,0,0,0,0,0,0,0,0,0,0,0,0,0,0,0,0],"sum_hessian":[1.9630739E3,2.8134195E2,1.6817319E3,1.5759936E1,2.65582E2,8.953472E2,7.8638477E2,1.3649959E1,2.1099782E0,1.0084979E2,1.6473221E2,8.3470514E2,6.0642097E1,9.677924E1,6.896055E2,1.2042642E2,4.4305794E1,7.643992E2,7.030598E1,4.5905632E1,1.4736464E1,8.507683E1,1.1702409E1,6.242097E2,6.539579E1],"tree_param":{"num_deleted":"0","num_feature":"65","num_nodes":"25","size_leaf_vector":"1"}},{"base_weights":[-3.3344636E-3,-2.611977E-1,1.2401185E-1,9.928965E-1,-2.9352573E-1,-3.4127542E-1,1.6722058E-1,3.5995357E-2,-1.36029925E-2,-3.1837487E-1,3.16803E-2,-4.9350035E-1,5.6094867E-1,2.787412E-1,-2.493519E-2,4.4949815E-4,-1.294882E-2,3.7079718E-2,-1.9005826E-2,-1.83495E-2,3.680895E-2,3.6765095E-2,6.960809E-3,2.840706E-2,-3.7755503E-3],"categories":[],"categories_nodes":[],"categories_segments":[],"categories_sizes":[],"default_left":[0,0,0,0,1,0,0,0,0,1,0,0,0,0,0,0,0,0,0,0,0,0,0,0,0],"id":33,"left_children":[1,3,5,7,9,11,13,-1,-1,15,-1,17,19,21,23,-1,-1,-1,-1,-1,-1,-1,-1,-1,-1],"loss_changes":[5.96442E1,2.463522E1,2.4501715E1,5.12887E0,1.9992146E1,1.4511763E1,2.3862825E1,0E0,0E0,2.1764107E1,0E0,2.2388916E1,1.2801544E1,3.0873665E1,4.030384E1,0E0,0E0,0E0,0E0,0E0,0E0,0E0,0E0,0E0,0E0],"parents":[2147483647,0,0,1,1,2,2,3,3,4,4,5,5,6,6,9,9,11,11,12,12,13,13,14,14],"right_children":[2,4,6,8,10,12,14,-1,-1,16,-1,18,20,22,24,-1,-1,-1,-1,-1,-1,-1,-1,-1,-1],"split_conditions":[3.572703E-1,3.4413064E-1,1.528788E3,6.1447214E-2,3.0841148E0,8.245056E1,9.787944E0,3.5995357E-2,-1.36029925E-2,-1.8481723E0,3.16803E-2,-1.5981603E0,-1.0526611E0,-1.154394E-1,3.9297917E-1,4.4949815E-4,-1.294882E-2,3.7079718E-2,-1.9005826E-2,-1.83495E-2,3.680895E-2,3.6765095E-2,6.960809E-3,2.840706E-2,-3.7755503E-3],"split_indices":[2,62,50,57,37,31,28,0,0,41,0,43,43,57,62,0,0,0,0,0,0,0,0,0,0],"split_type":[0,0,0,0,0,0,0,0,0,0,0,0,0,0,0,0,0,0,0,0,0,0,0,0,0],"sum_hessian":[1.8143336E3,5.994526E2,1.2148811E3,1.4317657E1,5.8513495E2,1.0264664E2,1.1122345E3,1.2674537E1,1.6431206E0,5.7530585E2,9.829092E0,8.821573E1,1.4430904E1,7.034978E2,4.0873663E2,1.4610733E2,4.2919852E2,6.0211434E0,8.219459E1,5.2569914E0,9.173913E0,3.189264E1,6.7160516E2,3.7662216E1,3.7107443E2],"tree_param":{"num_deleted":"0","num_feature":"65","num_nodes":"25","size_leaf_vector":"1"}},{"base_weights":[-1.4606051E-2,7.6918465E-1,-1.1975791E-1,1.3183224E-1,1.0386955E0,-2.6112872E-1,5.058757E-2,7.510118E-1,-1.2263566E-1,4.862828E-2,6.992642E-1,-2.84669E-1,4.413689E-1,6.7412174E-1,1.1988763E-3,4.788564E-2,-4.595443E-3,3.799414E-2,-6.6684242E-3,6.038795E-3,3.9782256E-2,-1.4140684E-2,-7.385503E-3,-3.6175447E-3,7.133161E-2,6.2311348E-2,1.0916663E-2,-6.018901E-4,3.5529777E-2],"categories":[],"categories_nodes":[],"categories_segments":[],"categories_sizes":[],"default_left":[0,0,0,0,0,0,0,0,0,0,1,0,0,0,0,0,0,0,0,0,0,0,0,0,0,0,0,0,0],"id":34,"left_children":[1,3,5,7,9,11,13,15,17,-1,19,21,23,25,27,-1,-1,-1,-1,-1,-1,-1,-1,-1,-1,-1,-1,-1,-1],"loss_changes":[9.195591E1,2.2534035E1,2.3701092E1,6.452705E0,1.716986E1,9.01754E0,1.3763004E1,9.337523E0,4.3607354E0,0E0,1.8543642E1,3.6263008E0,1.9683697E1,1.3520345E1,1.0466832E1,0E0,0E0,0E0,0E0,0E0,0E0,0E0,0E0,0E0,0E0,0E0,0E0,0E0,0E0],"parents":[2147483647,0,0,1,1,2,2,3,3,4,4,5,5,6,6,7,7,8,8,10,10,11,11,12,12,13,13,14,14],"right_children":[2,4,6,8,10,12,14,16,18,-1,20,22,24,26,28,-1,-1,-1,-1,-1,-1,-1,-1,-1,-1,-1,-1,-1,-1],"split_conditions":[3.142753E-1,-5.6963805E-2,2.1258329E-1,1.8932834E-1,2.6111212E-1,2.5799816E1,3.5960487E1,6.6873925E-3,3.8090935E-1,4.862828E-2,-6.005048E-1,9.282669E-2,1.2241202E-1,3.8289544E-1,1.97045E3,4.788564E-2,-4.595443E-3,3.799414E-2,-6.6684242E-3,6.038795E-3,3.9782256E-2,-1.4140684E-2,-7.385503E-3,-3.6175447E-3,7.133161E-2,6.2311348E-2,1.0916663E-2,-6.018901E-4,3.5529777E-2],"split_indices":[2,57,1,46,2,28,31,47,62,0,41,1,1,62,9,0,0,0,0,0,0,0,0,0,0,0,0,0,0],"split_type":[0,0,0,0,0,0,0,0,0,0,0,0,0,0,0,0,0,0,0,0,0,0,0,0,0,0,0,0,0],"sum_hessian":[1.1136212E3,1.3098181E2,9.826394E2,3.9369072E1,9.161275E1,5.3669763E2,4.4594177E2,1.0898699E1,2.8470371E1,3.234828E1,5.9264465E1,5.198718E2,1.6825813E1,3.1801188E1,4.141406E2,5.2376213E0,5.661078E0,1.1218178E0,2.7348553E1,3.3762737E1,2.5501726E1,8.693187E1,4.3293994E2,1.3767916E1,3.0578978E0,4.7275114E0,2.7073677E1,4.0779517E2,6.345411E0],"tree_param":{"num_deleted":"0","num_feature":"65","num_nodes":"29","size_leaf_vector":"1"}},{"base_weights":[-2.8452645E-3,-4.5537424E-1,6.21638E-2,4.3769193E-1,-5.5200356E-1,4.5870996E-1,1.6263444E-2,-2.1847421E-2,6.809171E-1,-7.2369057E-1,-1.3441871E-1,5.988016E-1,-5.691369E-1,7.933528E-1,-8.854375E-3,2.5070302E-2,-1.7763283E-2,2.0258795E-2,-2.3156472E-2,2.5160214E-2,-2.042985E-2,-2.6491579E-2,1.9632237E-2,2.3044946E-2,-2.8366145E-2,2.5259567E-2,-1.7136816E-2,1.3498723E-2,-1.3404794E-3],"categories":[],"categories_nodes":[],"categories_segments":[],"categories_sizes":[],"default_left":[0,0,0,0,0,0,0,0,0,0,0,0,0,0,0,0,0,0,0,0,0,0,0,0,0,0,0,0,0],"id":35,"left_children":[1,3,5,7,9,11,13,-1,15,17,19,21,23,25,27,-1,-1,-1,-1,-1,-1,-1,-1,-1,-1,-1,-1,-1,-1],"loss_changes":[5.832798E1,2.1733757E1,3.1548414E1,7.549754E0,1.6046486E1,2.6233513E1,3.0356133E1,0E0,4.6512766E0,1.126403E1,3.6118217E1,1.3657944E1,1.1841398E1,3.712551E0,2.4795637E1,0E0,0E0,0E0,0E0,0E0,0E0,0E0,0E0,0E0,0E0,0E0,0E0,0E0,0E0],"parents":[2147483647,0,0,1,1,2,2,3,3,4,4,5,5,6,6,8,8,9,9,10,10,11,11,12,12,13,13,14,14],"right_children":[2,4,6,8,10,12,14,-1,16,18,20,22,24,26,28,-1,-1,-1,-1,-1,-1,-1,-1,-1,-1,-1,-1,-1,-1],"split_conditions":[3.1412536E-1,1.4293357E3,1.525924E3,9.91284E5,1.9254607E3,2.6296968E0,-2.6347044E0,-2.1847421E-2,1.413169E6,1.3453507E0,1.9308357E3,4.0456536E-1,-1.6148098E0,3.752706E-1,1.42085E3,2.5070302E-2,-1.7763283E-2,2.0258795E-2,-2.3156472E-2,2.5160214E-2,-2.042985E-2,-2.6491579E-2,1.9632237E-2,2.3044946E-2,-2.8366145E-2,2.5259567E-2,-1.7136816E-2,1.3498723E-2,-1.3404794E-3],"split_indices":[0,29,50,11,29,34,40,0,11,28,29,35,43,0,8,0,0,0,0,0,0,0,0,0,0,0,0,0,0],"split_type":[0,0,0,0,0,0,0,0,0,0,0,0,0,0,0,0,0,0,0,0,0,0,0,0,0,0,0,0,0],"sum_hessian":[1.9807361E3,2.4805025E2,1.7326859E3,2.3873878E1,2.2417636E2,1.7881956E2,1.5538663E3,3.7764974E0,2.0097382E1,1.5834212E2,6.583424E1,1.577379E2,2.1081657E1,4.7695286E1,1.506171E3,1.8225311E1,1.8720694E0,4.8395653E0,1.5350256E2,2.3486261E1,4.2347984E1,5.1668158E0,1.5257109E2,4.401812E0,1.6679844E1,4.642374E1,1.2715447E0,1.0825927E2,1.3979117E3],"tree_param":{"num_deleted":"0","num_feature":"65","num_nodes":"29","size_leaf_vector":"1"}},{"base_weights":[2.554254E-2,-2.0876916E-2,6.0306296E-2,1.3247709E-1,-2.5510484E-1,3.5114676E-1,1.0912262E-3,-3.180573E-1,1.1063381E0,3.4779247E-2,8.659596E-3,1.1081793E-2,-3.0295132E-3,-1.0947244E-2,1.8873792E-2,3.8308136E-2,-1.1704196E-2],"categories":[],"categories_nodes":[],"categories_segments":[],"categories_sizes":[],"default_left":[0,0,0,0,0,0,1,0,0,0,0,0,0,0,0,0,0],"id":36,"left_children":[1,-1,3,5,7,9,11,13,15,-1,-1,-1,-1,-1,-1,-1,-1],"loss_changes":[4.490728E1,0E0,3.8904102E1,3.994216E1,2.7632624E1,2.6019035E1,3.272429E1,1.3765003E1,4.1466827E0,0E0,0E0,0E0,0E0,0E0,0E0,0E0,0E0],"parents":[2147483647,0,0,2,2,3,3,4,4,5,5,6,6,7,7,8,8],"right_children":[2,-1,4,6,8,10,12,14,16,-1,-1,-1,-1,-1,-1,-1,-1],"split_conditions":[1.508991E3,-2.0876916E-2,2.9608124E-1,4.025892E-1,2.642449E1,1.4256608E-1,2.7203365E1,2.312328E6,3.5021222E-1,3.4779247E-2,8.659596E-3,1.1081793E-2,-3.0295132E-3,-1.0947244E-2,1.8873792E-2,3.8308136E-2,-1.1704196E-2],"split_indices":[50,0,1,0,30,1,52,11,1,0,0,0,0,0,0,0,0],"split_type":[0,0,0,0,0,0,0,0,0,0,0,0,0,0,0,0,0],"sum_hessian":[1.7878912E3,8.131763E1,1.7065736E3,1.3892682E3,3.1730542E2,5.208044E2,8.684638E2,3.040143E2,1.3291093E1,3.6122345E1,4.84682E2,1.8789429E2,6.805695E2,2.9027127E2,1.374304E1,1.2062646E1,1.2284472E0],"tree_param":{"num_deleted":"0","num_feature":"65","num_nodes":"17","size_leaf_vector":"1"}},{"base_weights":[-2.939808E-2,-1.404584E-1,7.8610605E-1,-2.5965577E-1,4.4329595E-3,2.2376018E-2,9.8473233E-1,-2.6867864E-1,5.330158E-1,-1.20292455E-2,5.498105E-2,-3.0513853E-1,4.896447E-2,1.4193612E0,4.2343053E-1,-1.1082424E-2,-5.983841E-3,-9.1840075E-3,5.6767162E-2,1.3949643E-2,-2.1147944E-3,3.327569E-2,-1.417594E-2,-1.0687935E-2,4.545874E-2,1.5310217E-3,4.9222898E-2],"categories":[],"categories_nodes":[],"categories_segments":[],"categories_sizes":[],"default_left":[0,0,1,0,0,0,0,0,0,1,0,0,0,0,0,0,0,0,0,0,0,0,0,0,0,0,0],"id":37,"left_children":[1,3,5,7,9,11,13,15,17,19,-1,21,-1,23,25,-1,-1,-1,-1,-1,-1,-1,-1,-1,-1,-1,-1],"loss_changes":[1.0305173E2,1.7292646E1,2.0667336E1,4.072071E0,1.3652554E1,1.5878641E1,2.5798561E1,3.7180824E0,8.013246E0,1.257785E1,0E0,6.462582E0,0E0,1.0855995E1,2.1970814E1,0E0,0E0,0E0,0E0,0E0,0E0,0E0,0E0,0E0,0E0,0E0,0E0],"parents":[2147483647,0,0,1,1,2,2,3,3,4,4,5,5,6,6,7,7,8,8,9,9,11,11,13,13,14,14],"right_children":[2,4,6,8,10,12,14,16,18,20,-1,22,-1,24,26,-1,-1,-1,-1,-1,-1,-1,-1,-1,-1,-1,-1],"split_conditions":[3.5762244E-1,2.1080609E-1,1.3773567E3,2.29252E0,4.4524914E-1,2.1189527E-1,5.921343E1,-2.4785213E-1,6.3747334E0,1.475355E3,5.498105E-2,1.9048433E-1,4.896447E-2,1.429945E3,7.3593693E0,-1.1082424E-2,-5.983841E-3,-9.1840075E-3,5.6767162E-2,1.3949643E-2,-2.1147944E-3,3.327569E-2,-1.417594E-2,-1.0687935E-2,4.545874E-2,1.5310217E-3,4.9222898E-2],"split_indices":[1,1,54,43,0,34,31,41,30,49,0,0,0,49,32,0,0,0,0,0,0,0,0,0,0,0,0],"split_type":[0,0,0,0,0,0,0,0,0,0,0,0,0,0,0,0,0,0,0,0,0,0,0,0,0,0,0],"sum_hessian":[1.135592E3,1.0002057E3,1.3538634E2,5.4832477E2,4.518809E2,2.8172815E1,1.07213524E2,5.428071E2,5.517644E0,4.488329E2,3.0479875E0,2.40834E1,4.0894146E0,5.9563465E1,4.7650055E1,2.1930461E2,3.2350253E2,3.8905137E0,1.6271302E0,4.824445E1,4.0058844E2,1.9533099E0,2.213009E1,2.9139397E0,5.664953E1,3.728581E1,1.0364246E1],"tree_param":{"num_deleted":"0","num_feature":"65","num_nodes":"27","size_leaf_vector":"1"}},{"base_weights":[1.626138E-2,-3.7032777E-1,7.572625E-2,-7.63189E-1,-1.3895796E-1,5.464469E-1,3.922569E-2,-2.5466602E-2,2.8792867E-1,-2.4076343E-2,-2.7536068E-2,6.1522096E-1,-2.5583249E-2,8.735698E-2,-3.3836105E-1,-1.8569665E-2,2.5482662E-2,1.9113263E-2,-4.299602E-3,2.2296071E-2,-2.6756497E-3,-1.7543078E-3,5.8430606E-3,-1.5326984E-2,1.9193204E-2],"categories":[],"categories_nodes":[],"categories_segments":[],"categories_sizes":[],"default_left":[0,0,0,1,0,0,0,0,0,0,0,1,0,0,0,0,0,0,0,0,0,0,0,0,0],"id":38,"left_children":[1,3,5,7,9,11,13,-1,15,-1,17,19,-1,21,23,-1,-1,-1,-1,-1,-1,-1,-1,-1,-1],"loss_changes":[4.535106E1,2.380001E1,2.9351318E1,9.005363E0,1.2306689E1,1.2355656E1,2.888228E1,0E0,4.6395893E0,0E0,1.1158057E1,1.0683052E1,0E0,2.2080887E1,3.0653803E1,0E0,0E0,0E0,0E0,0E0,0E0,0E0,0E0,0E0,0E0],"parents":[2147483647,0,0,1,1,2,2,3,3,4,4,5,5,6,6,8,8,10,10,11,11,13,13,14,14],"right_children":[2,4,6,8,10,12,14,-1,16,-1,18,20,-1,22,24,-1,-1,-1,-1,-1,-1,-1,-1,-1,-1],"split_conditions":[3.1412536E-1,-2.9573298E-1,1.42085E3,7.826255E1,2.186862E-1,8.5E-1,1.908312E3,-2.5466602E-2,3.4660053E-1,-2.4076343E-2,1.43675E3,4.9791232E-1,-2.5583249E-2,6.5E0,4.96194E-1,-1.8569665E-2,2.5482662E-2,1.9113263E-2,-4.299602E-3,2.2296071E-2,-2.6756497E-3,-1.7543078E-3,5.8430606E-3,-1.5326984E-2,1.9193204E-2],"split_indices":[0,34,8,56,0,3,50,0,2,0,9,37,0,20,0,0,0,0,0,0,0,0,0,0,0],"split_type":[0,0,0,0,0,0,0,0,0,0,0,0,0,0,0,0,0,0,0,0,0,0,0,0,0],"sum_hessian":[1.9705541E3,2.6200388E2,1.7085503E3,9.625916E1,1.657447E2,1.2194499E2,1.5866052E3,8.918066E1,7.0785127E0,2.2937119E1,1.4280759E2,1.1676607E2,5.1789308E0,1.4079069E3,1.7869838E2,2.6675384E0,4.410974E0,2.0518856E1,1.2228873E2,9.876649E1,1.7999573E1,5.9734357E2,8.1056335E2,1.5230939E2,2.6388994E1],"tree_param":{"num_deleted":"0","num_feature":"65","num_nodes":"25","size_leaf_vector":"1"}},{"base_weights":[-2.1719187E-2,-4.6594128E-1,5.871488E-2,-5.073941E-1,7.395083E-1,-5.3313625E-1,9.322732E-2,-5.928316E-1,6.7493215E-2,-1.5027705E-2,3.5973486E-2,-6.0964817E-1,2.8834747E-2,4.8662614E-2,4.9736783E-1,1.6517721E-2,-1.9425938E-2,1.8855376E-2,-1.9835621E-2,6.5629925E-3,-2.0794636E-2,3.645616E-2,8.853733E-4,2.7841415E-2,4.6229134E-3],"categories":[],"categories_nodes":[],"categories_segments":[],"categories_sizes":[],"default_left":[0,1,0,0,0,0,0,0,0,0,0,0,0,0,0,0,0,0,0,0,0,0,0,0,0],"id":39,"left_children":[1,3,5,7,9,11,13,15,17,-1,-1,19,-1,21,23,-1,-1,-1,-1,-1,-1,-1,-1,-1,-1],"loss_changes":[6.167964E1,1.3599159E1,2.9909468E1,1.2635391E1,5.84845E0,9.811995E0,2.4868675E1,1.4326508E1,1.4346533E1,0E0,0E0,5.504402E0,0E0,2.7798605E1,2.013519E1,0E0,0E0,0E0,0E0,0E0,0E0,0E0,0E0,0E0,0E0],"parents":[2147483647,0,0,1,1,2,2,3,3,4,4,5,5,6,6,7,7,8,8,11,11,13,13,14,14],"right_children":[2,4,6,8,10,12,14,16,18,-1,-1,20,-1,22,24,-1,-1,-1,-1,-1,-1,-1,-1,-1,-1],"split_conditions":[3.2799459E-1,1.0380903E0,1.52188E3,2.8397546E0,2.9660994E-1,9.667238E1,4.6446773E-1,1.38314905E1,1E0,-1.5027705E-2,3.5973486E-2,4.18E0,2.8834747E-2,1.7349548E0,-1.7764863E-3,1.6517721E-2,-1.9425938E-2,1.8855376E-2,-1.9835621E-2,6.5629925E-3,-2.0794636E-2,3.645616E-2,8.853733E-4,2.7841415E-2,4.6229134E-3],"split_indices":[2,38,50,34,2,52,2,56,64,0,0,21,0,28,47,0,0,0,0,0,0,0,0,0,0],"split_type":[0,0,0,0,0,0,0,0,0,0,0,0,0,0,0,0,0,0,0,0,0,0,0,0,0],"sum_hessian":[1.7244762E3,2.6364148E2,1.4608347E3,2.5543665E2,8.204825E0,7.969549E1,1.3811392E3,2.2235927E2,3.3077385E1,2.1938825E0,6.010943E0,7.63768E1,3.3186843E0,1.2449757E3,1.3616348E2,9.73782E0,2.1262144E2,1.8766394E1,1.431099E1,6.8456445E0,6.953116E1,1.9098911E1,1.2258768E3,5.9637127E1,7.652635E1],"tree_param":{"num_deleted":"0","num_feature":"65","num_nodes":"25","size_leaf_vector":"1"}},{"base_weights":[-1.0250956E-3,-1.01658925E-1,7.5421107E-1,-2.3099068E-1,7.821422E-2,1.0370733E0,2.6092777E-1,-2.6717585E-1,1.5920782E-1,5.879751E-2,5.7338897E-2,4.807834E-2,1.3419844E0,8.5167587E-1,5.1747505E-3,-9.006073E-3,1.003972E-3,-5.70172E-3,1.997061E-2,1.0170778E-3,5.2336205E-2,-5.7152607E-3,3.8743917E-2,4.8650462E-2,2.2442209E-2,-5.132188E-3,4.7375336E-2,2.2059277E-2,-7.010814E-3],"categories":[],"categories_nodes":[],"categories_segments":[],"categories_sizes":[],"default_left":[0,0,0,0,0,1,0,0,0,0,0,0,0,0,0,0,0,0,0,0,0,0,0,0,0,0,0,0,0],"id":40,"left_children":[1,3,5,7,9,11,13,15,17,-1,19,21,23,25,27,-1,-1,-1,-1,-1,-1,-1,-1,-1,-1,-1,-1,-1,-1],"loss_changes":[8.207123E1,2.218505E1,1.7445671E1,7.872677E0,1.5572866E1,2.4168549E1,7.1887364E0,5.0528336E0,8.562669E0,0E0,1.5597655E1,6.1714873E0,8.984039E0,1.0968273E1,6.1420264E0,0E0,0E0,0E0,0E0,0E0,0E0,0E0,0E0,0E0,0E0,0E0,0E0,0E0,0E0],"parents":[2147483647,0,0,1,1,2,2,3,3,4,4,5,5,6,6,7,7,8,8,10,10,11,11,12,12,13,13,14,14],"right_children":[2,4,6,8,10,12,14,16,18,-1,20,22,24,26,28,-1,-1,-1,-1,-1,-1,-1,-1,-1,-1,-1,-1,-1,-1],"split_conditions":[3.6471486E-1,2.1792129E-1,1.4260968E0,1.972404E1,1.455584E3,1.3760996E3,2.987474E0,1.90465E3,1.2377902E-1,5.879751E-2,1.97045E3,2.1189527E-1,1.382517E6,5.653692E5,2.4220951E-1,-9.006073E-3,1.003972E-3,-5.70172E-3,1.997061E-2,1.0170778E-3,5.2336205E-2,-5.7152607E-3,3.8743917E-2,4.8650462E-2,2.2442209E-2,-5.132188E-3,4.7375336E-2,2.2059277E-2,-7.010814E-3],"split_indices":[1,1,34,28,50,54,35,23,1,0,9,34,11,17,0,0,0,0,0,0,0,0,0,0,0,0,0,0,0],"split_type":[0,0,0,0,0,0,0,0,0,0,0,0,0,0,0,0,0,0,0,0,0,0,0,0,0,0,0,0,0],"sum_hessian":[1.077843E3,9.518731E2,1.2596994E2,5.535659E2,3.9830722E2,7.936022E1,4.660972E1,5.068759E2,4.6690006E1,3.351111E0,3.9495612E2,1.8974174E1,6.0386047E1,1.3378191E1,3.323153E1,4.5670648E2,5.0169422E1,2.8003618E1,1.8686386E1,3.905512E2,4.404911E0,1.6629925E1,2.3442507E0,3.9876156E1,2.050989E1,5.878637E0,7.499554E0,7.679569E0,2.5551958E1],"tree_param":{"num_deleted":"0","num_feature":"65","num_nodes":"29","size_leaf_vector":"1"}},{"base_weights":[6.2763956E-3,5.0090224E-1,-2.23634E-2,7.248445E-1,-1.0274171E-1,2.047607E-2,-4.8798376E-1,7.5534993E-1,-1.844941E-2,-2.7914733E-2,5.5840886E-1,4.8680574E-2,-5.803988E-1,-8.36631E-1,-1.3299293E-3,8.333785E-3,2.3782745E-2,-1.9414905E-2,2.3193909E-2,-3.9971506E-4,1.2460603E-2,-2.735912E-2,9.51029E-3,-2.7923996E-2,1.4053732E-2,1.2994335E-2,-1.7214648E-2],"categories":[],"categories_nodes":[],"categories_segments":[],"categories_sizes":[],"default_left":[0,0,0,0,0,0,0,0,0,0,0,1,0,1,0,0,0,0,0,0,0,0,0,0,0,0,0],"id":41,"left_children":[1,3,5,7,9,11,13,15,-1,-1,17,19,21,23,25,-1,-1,-1,-1,-1,-1,-1,-1,-1,-1,-1,-1],"loss_changes":[2.7123999E1,1.4241196E1,3.611671E1,3.5938454E0,1.6518309E1,2.813698E1,2.5882221E1,1.1251259E0,0E0,0E0,4.8692656E0,3.6044422E1,2.2438974E1,1.1358772E1,1.6335321E1,0E0,0E0,0E0,0E0,0E0,0E0,0E0,0E0,0E0,0E0,0E0,0E0],"parents":[2147483647,0,0,1,1,2,2,3,3,4,4,5,5,6,6,7,7,10,10,11,11,12,12,13,13,14,14],"right_children":[2,4,6,8,10,12,14,16,-1,-1,18,20,22,24,26,-1,-1,-1,-1,-1,-1,-1,-1,-1,-1,-1,-1],"split_conditions":[1.42085E3,3.393398E1,1.549074E6,1.7656507E1,1E-1,1.95195E3,5.3592983E1,4.9469998E-1,-1.844941E-2,-2.7914733E-2,1.4022306E3,1.8620514E3,7.72145E5,1.6169088E0,4.4911483E-1,8.333785E-3,2.3782745E-2,-1.9414905E-2,2.3193909E-2,-3.9971506E-4,1.2460603E-2,-2.735912E-2,9.51029E-3,-2.7923996E-2,1.4053732E-2,1.2994335E-2,-1.7214648E-2],"split_indices":[8,52,11,28,5,22,52,38,0,0,54,54,11,35,62,0,0,0,0,0,0,0,0,0,0,0,0],"split_type":[0,0,0,0,0,0,0,0,0,0,0,0,0,0,0,0,0,0,0,0,0,0,0,0,0,0,0],"sum_hessian":[1.9129369E3,1.0379787E2,1.809139E3,7.556403E1,2.8233835E1,1.6575884E3,1.5155063E2,7.4308395E1,1.2556373E0,1.2356421E1,1.5877413E1,1.5841488E3,7.343948E1,8.787577E1,6.3674866E1,6.010007E0,6.829839E1,2.0958893E0,1.3781524E1,1.3558398E3,2.2830896E2,5.3614082E1,1.9825401E1,8.222929E1,5.6464777E0,3.633953E1,2.7335333E1],"tree_param":{"num_deleted":"0","num_feature":"65","num_nodes":"27","size_leaf_vector":"1"}},{"base_weights":[1.2680321E-2,-3.6126878E-2,5.005512E-1,-3.4525743E-1,2.7226912E-2,1.0995517E0,2.0419542E-1,-3.8287625E-1,2.8676592E-2,1.9829911E-1,-1.1753678E-1,1.1344928E0,5.80844E-1,-2.2084227E-2,4.63351E-1,2.5339248E-2,-1.273934E-2,1.4564676E-2,2.4092658E-3,-2.2426773E-4,-1.3958544E-2,1.7725725E-2,3.5205945E-2,-1.335663E-2,2.9784488E-2,6.8667606E-3,2.9039975E-2],"categories":[],"categories_nodes":[],"categories_segments":[],"categories_sizes":[],"default_left":[0,0,0,1,1,0,0,0,0,0,0,0,0,0,0,0,0,0,0,0,0,0,0,0,0,0,0],"id":42,"left_children":[1,3,5,7,9,11,13,15,-1,17,19,21,23,-1,25,-1,-1,-1,-1,-1,-1,-1,-1,-1,-1,-1,-1],"loss_changes":[4.079966E1,3.0519306E1,2.7436836E1,1.3339006E1,3.206464E1,2.7168274E-1,2.6044704E1,1.3602409E1,0E0,2.0068495E1,2.6842373E1,3.0532455E-1,2.6780462E0,0E0,9.634489E0,0E0,0E0,0E0,0E0,0E0,0E0,0E0,0E0,0E0,0E0,0E0,0E0],"parents":[2147483647,0,0,1,1,2,2,3,3,4,4,5,5,6,6,7,7,9,9,10,10,11,11,12,12,14,14],"right_children":[2,4,6,8,10,12,14,16,-1,18,20,22,24,-1,26,-1,-1,-1,-1,-1,-1,-1,-1,-1,-1,-1,-1],"split_conditions":[4.6446773E-1,3.2799459E-1,-1.19571075E-1,3.296824E0,9.175208E-2,3.581169E-3,-6.1797404E-1,3.496244E-1,2.8676592E-2,1.5062548E-1,1E-1,1.45045E3,4.198495E-1,-2.2084227E-2,6.38991E5,2.5339248E-2,-1.273934E-2,1.4564676E-2,2.4092658E-3,-2.2426773E-4,-1.3958544E-2,1.7725725E-2,3.5205945E-2,-1.335663E-2,2.9784488E-2,6.8667606E-3,2.9039975E-2],"split_indices":[2,2,43,37,55,47,32,62,0,1,3,8,0,0,11,0,0,0,0,0,0,0,0,0,0,0,0],"split_type":[0,0,0,0,0,0,0,0,0,0,0,0,0,0,0,0,0,0,0,0,0,0,0,0,0,0,0],"sum_hessian":[1.7116759E3,1.5568524E3,1.5482346E2,2.6403955E2,1.2928129E3,5.0348267E1,1.0447519E2,2.5730603E2,6.733522E0,5.923926E2,7.004203E2,4.6058537E1,4.2897305E0,2.2174677E1,8.2300514E1,7.834636E0,2.494714E2,1.7160025E2,4.2079233E2,5.3280927E2,1.6761102E2,4.1669407E0,4.1891598E1,1.2058111E0,3.0839195E0,5.718568E1,2.5114836E1],"tree_param":{"num_deleted":"0","num_feature":"65","num_nodes":"27","size_leaf_vector":"1"}},{"base_weights":[-2.53798E-3,7.428596E-1,-1.0913615E-1,5.226932E-1,1.399116E0,-2.8646444E-3,-2.742594E-1,-1.8049735E-1,7.15395E-1,4.9415536E-2,-3.4526736E-2,-1.7068721E-1,1.1152649E-1,-3.0507937E-1,7.565831E-1,-1.3264709E-2,4.1497678E-2,3.843775E-2,1.19287E-2,2.949684E-2,-1.4537672E-2,-5.7251044E-3,5.1097605E-2,2.8370637E-2,1.7094865E-3,-9.859143E-3,1.06487665E-2,5.5058055E-2,8.809362E-3],"categories":[],"categories_nodes":[],"categories_segments":[],"categories_sizes":[],"default_left":[0,0,0,0,1,0,0,0,0,0,0,0,0,0,0,0,0,0,0,0,0,0,0,0,0,0,0,0,0],"id":43,"left_children":[1,3,5,7,9,11,13,15,17,-1,19,21,23,25,27,-1,-1,-1,-1,-1,-1,-1,-1,-1,-1,-1,-1,-1,-1],"loss_changes":[8.776186E1,1.923539E1,1.6955643E1,1.4367144E1,1.2190926E1,1.1324924E1,1.2251734E1,1.0185876E1,1.43565445E1,0E0,3.230421E0,9.353569E0,1.5907754E1,5.840412E0,5.0895724E0,0E0,0E0,0E0,0E0,0E0,0E0,0E0,0E0,0E0,0E0,0E0,0E0,0E0,0E0],"parents":[2147483647,0,0,1,1,2,2,3,3,4,4,5,5,6,6,7,7,8,8,10,10,11,11,12,12,13,13,14,14],"right_children":[2,4,6,8,10,12,14,16,18,-1,20,22,24,26,28,-1,-1,-1,-1,-1,-1,-1,-1,-1,-1,-1,-1,-1,-1],"split_conditions":[3.142753E-1,1.6144214E3,4.4812012E-1,-5.237278E-1,-6.133102E-1,5.199254E0,1.94175E3,7.370289E0,2.6111212E-1,4.9415536E-2,1.7208E3,8.245056E1,5.966127E0,9.607635E0,3.5609715E-2,-1.3264709E-2,4.1497678E-2,3.843775E-2,1.19287E-2,2.949684E-2,-1.4537672E-2,-5.7251044E-3,5.1097605E-2,2.8370637E-2,1.7094865E-3,-9.859143E-3,1.06487665E-2,5.5058055E-2,8.809362E-3],"split_indices":[2,29,62,42,42,28,8,28,2,0,25,31,28,33,57,0,0,0,0,0,0,0,0,0,0,0,0,0,0],"split_type":[0,0,0,0,0,0,0,0,0,0,0,0,0,0,0,0,0,0,0,0,0,0,0,0,0,0,0,0,0],"sum_hessian":[1.1024858E3,1.3719165E2,9.652941E2,1.0407289E2,3.3118767E1,5.879277E2,3.773665E2,2.2399158E1,8.167373E1,2.8106451E1,5.0123158E0,2.3810826E2,3.498194E2,3.6709515E2,1.0271314E1,1.9802837E1,2.5963216E0,2.8281033E1,5.33927E1,1.1736399E0,3.8386757E0,2.3646385E2,1.6444213E0,2.046716E1,3.2935223E2,3.5492877E2,1.2166383E1,2.194212E0,8.077102E0],"tree_param":{"num_deleted":"0","num_feature":"65","num_nodes":"29","size_leaf_vector":"1"}},{"base_weights":[3.8577635E-3,7.986877E-1,-2.2882693E-2,1.406922E-2,2.454214E-2,4.4482082E-2,-2.9517758E-1,7.230574E-2,-7.3755527E-1,-4.5961198E-1,2.5964832E-1,-1.9339862E-3,7.428845E-3,2.0337498E-2,-2.6950411E-2,2.0689142E-3,-2.1091716E-2,-2.5310995E-2,1.1227555E-2],"categories":[],"categories_nodes":[],"categories_segments":[],"categories_sizes":[],"default_left":[0,0,0,0,0,0,0,0,0,0,0,0,0,0,0,0,0,0,0],"id":44,"left_children":[1,3,5,-1,-1,7,9,11,13,15,17,-1,-1,-1,-1,-1,-1,-1,-1],"loss_changes":[4.1058037E1,1.8184662E-2,3.429697E1,0E0,0E0,3.2675E1,3.3949883E1,3.475271E1,1.23521805E1,3.6902637E1,1.111611E1,0E0,0E0,0E0,0E0,0E0,0E0,0E0,0E0],"parents":[2147483647,0,0,1,1,2,2,5,5,6,6,7,7,8,8,9,9,10,10],"right_children":[2,4,6,-1,-1,8,10,12,14,16,18,-1,-1,-1,-1,-1,-1,-1,-1],"split_conditions":[1.4079E3,3.1577027E-1,4.7867456E-1,1.406922E-2,2.454214E-2,1.9489679E3,2.007142E3,1.3777044E0,1.9595007E3,-1.5958661E1,1.4186E3,-1.9339862E-3,7.428845E-3,2.0337498E-2,-2.6950411E-2,2.0689142E-3,-2.1091716E-2,-2.5310995E-2,1.1227555E-2],"split_indices":[27,2,62,0,0,29,53,6,53,33,25,0,0,0,0,0,0,0,0],"split_type":[0,0,0,0,0,0,0,0,0,0,0,0,0,0,0,0,0,0,0],"sum_hessian":[1.9299088E3,6.187503E1,1.8680338E3,4.8345327E0,5.70405E1,1.4982169E3,3.6981686E2,1.4476205E3,5.0596516E1,2.8540317E2,8.441367E1,8.1357184E2,6.3404865E2,4.83319E0,4.5763325E1,9.022362E1,1.9517957E2,7.3443046E0,7.706937E1],"tree_param":{"num_deleted":"0","num_feature":"65","num_nodes":"19","size_leaf_vector":"1"}},{"base_weights":[1.0949522E-3,-2.3714244E-1,1.1710188E-1,-2.8102037E-1,5.693158E-1,8.525023E-2,7.5227207E-1,9.9940505E-3,-3.921785E-1,-1.9227488E-2,1.0294029E0,-9.226916E-3,3.2691634E-1,-1.8658873E-2,8.780777E-1,2.0788357E-2,-6.378822E-3,-1.3003725E-2,2.578014E-2,-1.1976336E-2,3.3822168E-2,-9.279754E-3,2.352885E-3,1.8979432E-2,5.5126868E-5,3.3133317E-2,-2.957159E-3],"categories":[],"categories_nodes":[],"categories_segments":[],"categories_sizes":[],"default_left":[0,1,0,1,0,0,0,0,0,0,0,0,0,0,0,0,0,0,0,0,0,0,0,0,0,0,0],"id":45,"left_children":[1,3,5,7,9,11,13,15,17,-1,19,21,23,-1,25,-1,-1,-1,-1,-1,-1,-1,-1,-1,-1,-1,-1],"loss_changes":[4.7615005E1,2.012456E1,2.3376896E1,1.733487E1,1.7054264E1,2.5219875E1,1.0089525E1,2.2809566E1,2.0401596E1,0E0,3.4906406E0,2.0937363E1,3.0853283E1,0E0,1.1380764E1,0E0,0E0,0E0,0E0,0E0,0E0,0E0,0E0,0E0,0E0,0E0,0E0],"parents":[2147483647,0,0,1,1,2,2,3,3,4,4,5,5,6,6,7,7,8,8,10,10,11,11,12,12,14,14],"right_children":[2,4,6,8,10,12,14,16,18,-1,20,22,24,-1,26,-1,-1,-1,-1,-1,-1,-1,-1,-1,-1,-1,-1],"split_conditions":[3.572703E-1,5.6944245E-1,2.0159562E3,-1.8481723E0,2.828705E-1,4.40616E-1,3.7616363E-1,1.5078E3,1.9467E3,-1.9227488E-2,1.48475E3,8.5E-1,8.921842E-1,-1.8658873E-2,8.857445E0,2.0788357E-2,-6.378822E-3,-1.3003725E-2,2.578014E-2,-1.1976336E-2,3.3822168E-2,-9.279754E-3,2.352885E-3,1.8979432E-2,5.5126868E-5,3.3133317E-2,-2.957159E-3],"split_indices":[2,38,53,41,2,2,62,24,26,0,23,63,43,0,28,0,0,0,0,0,0,0,0,0,0,0,0],"split_type":[0,0,0,0,0,0,0,0,0,0,0,0,0,0,0,0,0,0,0,0,0,0,0,0,0,0,0],"sum_hessian":[1.7208552E3,5.631988E2,1.1576564E3,5.347553E2,2.8443516E1,1.1034559E3,5.4200386E1,1.4805478E2,3.867005E2,7.726465E0,2.071705E1,7.9400775E2,3.094482E2,4.2149253E0,4.9985462E1,3.5877686E1,1.121771E2,3.7498593E2,1.1714567E1,1.1326492E0,1.9584402E1,1.7892296E2,6.1508484E2,1.5898203E2,1.5046619E2,4.0473686E1,9.511775E0],"tree_param":{"num_deleted":"0","num_feature":"65","num_nodes":"27","size_leaf_vector":"1"}},{"base_weights":[-5.5678254E-3,-1.1261191E-1,6.788118E-1,-2.4828443E-1,6.028374E-2,3.9360726E-1,1.0114553E0,-2.5651562E-1,7.880552E-1,5.330236E-2,4.382424E-2,2.2948068E-1,1.1728334E0,1.271091E0,3.883377E-1,-8.075931E-3,5.3668087E-3,-1.1587466E-2,5.796274E-2,8.717014E-4,5.6474794E-2,2.490193E-3,3.7580088E-2,-7.0152413E-3,4.655674E-2,4.2205077E-2,-9.885912E-3,4.2223737E-2,-1.493431E-3],"categories":[],"categories_nodes":[],"categories_segments":[],"categories_sizes":[],"default_left":[0,0,0,0,0,1,0,0,0,0,0,0,0,0,1,0,0,0,0,0,0,0,0,0,0,0,0,0,0],"id":46,"left_children":[1,3,5,7,9,11,13,15,17,-1,19,21,23,25,27,-1,-1,-1,-1,-1,-1,-1,-1,-1,-1,-1,-1,-1,-1],"loss_changes":[8.0730316E1,2.2367182E1,1.3742531E1,4.758335E0,1.1781716E1,1.0203211E1,1.0534554E1,2.9784203E0,6.7305193E0,0E0,1.1262912E1,1.0219323E1,7.8295555E0,1.0822716E1,9.664792E0,0E0,0E0,0E0,0E0,0E0,0E0,0E0,0E0,0E0,0E0,0E0,0E0,0E0,0E0],"parents":[2147483647,0,0,1,1,2,2,3,3,4,4,5,5,6,6,7,7,8,8,10,10,11,11,12,12,13,13,14,14],"right_children":[2,4,6,8,10,12,14,16,18,-1,20,22,24,26,28,-1,-1,-1,-1,-1,-1,-1,-1,-1,-1,-1,-1,-1,-1],"split_conditions":[3.5021222E-1,2.1080609E-1,6.261424E-1,4.8906782E-1,1.7008401E0,7.8513783E-1,1.4573588E0,1.5723559E1,1.4111E3,5.330236E-2,8.0411434E-2,6.187528E-1,2.0764379E-1,7.595912E1,1.2410674E0,-8.075931E-3,5.3668087E-3,-1.1587466E-2,5.796274E-2,8.717014E-4,5.6474794E-2,2.490193E-3,3.7580088E-2,-7.0152413E-3,4.655674E-2,4.2205077E-2,-9.885912E-3,4.2223737E-2,-1.493431E-3],"split_indices":[1,1,40,47,38,35,34,32,22,0,47,1,38,31,40,0,0,0,0,0,0,0,0,0,0,0,0,0,0],"split_type":[0,0,0,0,0,0,0,0,0,0,0,0,0,0,0,0,0,0,0,0,0,0,0,0,0,0,0,0,0],"sum_hessian":[1.0999447E3,9.51894E2,1.4805066E2,5.33117E2,4.1877698E2,8.088453E1,6.716613E1,5.296626E2,3.4544017E0,2.9618049E0,4.158152E2,6.788134E1,1.3003189E1,4.6677174E1,2.0488958E1,5.150428E2,1.4619806E1,2.0315173E0,1.4228846E0,4.1350983E2,2.305358E0,6.0326454E1,7.5548873E0,2.8415112E0,1.0161678E1,4.3139668E1,3.5375054E0,5.4948144E0,1.4994144E1],"tree_param":{"num_deleted":"0","num_feature":"65","num_nodes":"29","size_leaf_vector":"1"}},{"base_weights":[-1.6183581E-2,-3.5328484E-1,4.9862098E-2,4.391337E-1,-4.3621844E-1,-6.2429714E-1,7.4915916E-2,-1.8987715E-2,5.9764034E-1,-7.2789526E-1,-1.8714325E-1,-2.7037118E-2,1.1201365E-1,6.8251956E-1,4.9877714E-2,2.321417E-2,-2.1263845E-2,-2.3619417E-2,2.0789096E-2,9.907174E-3,-1.3741719E-2,-2.5690755E-2,2.5443267E-2,-2.3880096E-2,2.3883283E-2,-3.4552708E-3,4.6636346E-3],"categories":[],"categories_nodes":[],"categories_segments":[],"categories_sizes":[],"default_left":[0,0,0,0,0,0,0,0,0,0,0,0,0,0,0,0,0,0,0,0,0,0,0,0,0,0,0],"id":47,"left_children":[1,3,5,7,9,11,13,-1,15,17,19,-1,21,23,25,-1,-1,-1,-1,-1,-1,-1,-1,-1,-1,-1,-1],"loss_changes":[4.3137424E1,2.1051231E1,2.7414602E1,5.5731153E0,2.0775234E1,1.1961809E1,2.3746878E1,0E0,6.7964134E0,1.1709702E1,2.2101934E1,0E0,1.26925E1,1.1010517E1,2.619807E1,0E0,0E0,0E0,0E0,0E0,0E0,0E0,0E0,0E0,0E0,0E0,0E0],"parents":[2147483647,0,0,1,1,2,2,3,3,4,4,5,5,6,6,8,8,9,9,10,10,12,12,13,13,14,14],"right_children":[2,4,6,8,10,12,14,-1,16,18,20,-1,22,24,26,-1,-1,-1,-1,-1,-1,-1,-1,-1,-1,-1,-1],"split_conditions":[3.2567802E-1,1.43175E3,-2.5343611E0,2.4220951E-1,9.455529E0,5.251778E-1,1.4079E3,-1.8987715E-2,2.882197E-1,7.287583E1,4.8261194E0,-2.7037118E-2,-2.2951586E1,4.688812E0,6.5E0,2.321417E-2,-2.1263845E-2,-2.3619417E-2,2.0789096E-2,9.907174E-3,-1.3741719E-2,-2.5690755E-2,2.5443267E-2,-2.3880096E-2,2.3883283E-2,-3.4552708E-3,4.6636346E-3],"split_indices":[0,26,43,0,30,62,27,0,0,31,28,0,33,28,20,0,0,0,0,0,0,0,0,0,0,0,0],"split_type":[0,0,0,0,0,0,0,0,0,0,0,0,0,0,0,0,0,0,0,0,0,0,0,0,0,0,0],"sum_hessian":[1.9357433E3,3.164113E2,1.6193319E3,2.957087E1,2.868404E2,5.7165985E1,1.562166E3,3.4234395E0,2.614743E1,1.3123576E2,1.5560463E2,4.1378704E1,1.5787284E1,6.078691E1,1.501379E3,2.3399797E1,2.747633E0,1.2639595E2,4.839818E0,5.3401424E1,1.0220321E2,6.747375E0,9.039908E0,3.9082437E0,5.687867E1,5.856743E2,9.157047E2],"tree_param":{"num_deleted":"0","num_feature":"65","num_nodes":"27","size_leaf_vector":"1"}},{"base_weights":[1.1940671E-2,-2.3678812E-1,1.3348006E-1,-2.4841726E-2,-4.4397432E-1,6.337992E-1,4.981138E-2,-2.9697603E-1,2.1176805E-1,9.2575145E-1,-4.9941897E-1,-3.504226E-1,7.368702E-1,-1.1618698E-2,4.4028825E-1,3.3919778E-2,-1.2479584E-2,1.0539925E-2,-2.0634752E-2,3.34902E-2,-1.1948084E-2,-1.8452076E-2,5.7439505E-5,-2.1035634E-2,2.7047634E-2,3.9520822E-3,2.8694537E-2,-1.0692845E-3,2.531664E-2,1.7671068E-3,2.3887727E-2],"categories":[],"categories_nodes":[],"categories_segments":[],"categories_sizes":[],"default_left":[0,1,1,0,0,0,0,0,0,0,0,0,0,0,0,0,0,0,0,0,0,0,0,0,0,0,0,0,0,0,0],"id":48,"left_children":[1,3,5,7,9,11,13,15,17,19,21,23,25,27,29,-1,-1,-1,-1,-1,-1,-1,-1,-1,-1,-1,-1,-1,-1,-1,-1],"loss_changes":[5.4635387E1,2.604037E1,5.078767E1,1.9014036E1,2.3240917E1,1.7893959E1,2.497927E1,2.3798077E1,2.0080961E1,3.4775763E0,1.6752571E1,8.167141E0,2.083014E1,1.8539875E1,1.9170784E1,0E0,0E0,0E0,0E0,0E0,0E0,0E0,0E0,0E0,0E0,0E0,0E0,0E0,0E0,0E0,0E0],"parents":[2147483647,0,0,1,1,2,2,3,3,4,4,5,5,6,6,7,7,8,8,9,9,10,10,11,11,12,12,13,13,14,14],"right_children":[2,4,6,8,10,12,14,16,18,20,22,24,26,28,30,-1,-1,-1,-1,-1,-1,-1,-1,-1,-1,-1,-1,-1,-1,-1,-1],"split_conditions":[3.572703E-1,5.3656614E-1,2.7203365E1,6.48149E5,3.4413064E-1,1.42945E3,4.6446773E-1,6.909914E-1,2.3194294E0,5.87268E1,2.6819665E0,4.3757698E-1,4.02003E5,3.5465687E1,1.8747321E-1,3.3919778E-2,-1.2479584E-2,1.0539925E-2,-2.0634752E-2,3.34902E-2,-1.1948084E-2,-1.8452076E-2,5.7439505E-5,-2.1035634E-2,2.7047634E-2,3.9520822E-3,2.8694537E-2,-1.0692845E-3,2.531664E-2,1.7671068E-3,2.3887727E-2],"split_indices":[2,40,52,11,62,9,2,37,34,52,34,2,11,30,32,0,0,0,0,0,0,0,0,0,0,0,0,0,0,0,0],"split_type":[0,0,0,0,0,0,0,0,0,0,0,0,0,0,0,0,0,0,0,0,0,0,0,0,0,0,0,0,0,0,0],"sum_hessian":[1.8052573E3,5.922589E2,1.2129985E3,2.933198E2,2.989391E2,1.728458E2,1.0401527E3,1.363003E2,1.5701952E2,1.1019224E1,2.8791986E2,1.6157595E1,1.566882E2,8.9959766E2,1.4055505E2,9.833839E0,1.2646645E2,1.3645877E2,2.0560745E1,9.769754E0,1.2494693E0,2.3376651E2,5.4153343E1,1.2965196E1,3.192399E0,4.2149006E1,1.145392E2,8.759576E2,2.3640078E1,6.841783E1,7.213722E1],"tree_param":{"num_deleted":"0","num_feature":"65","num_nodes":"31","size_leaf_vector":"1"}},{"base_weights":[-6.1586876E-3,6.6822124E-1,-1.0721671E-1,6.1303217E-2,8.878249E-1,-9.731284E-3,-2.5874248E-1,3.3355054E-2,-1.1593698E-1,4.8607942E-1,1.4540457E0,-2.2862293E-2,1.2602946E0,-2.980593E-1,4.8223025E-1,3.8785357E-2,-6.8910606E-3,8.991732E-3,4.450959E-2,4.6249665E-2,3.1249423E-3,8.478717E-3,-2.39634E-3,-7.554165E-3,6.1408658E-2,4.8275404E-2,-9.239272E-3,5.60487E-2,4.962554E-3],"categories":[],"categories_nodes":[],"categories_segments":[],"categories_sizes":[],"default_left":[0,0,0,0,1,1,0,0,0,0,1,1,0,0,0,0,0,0,0,0,0,0,0,0,0,0,0,0,0],"id":49,"left_children":[1,3,5,7,9,11,13,-1,15,17,19,21,23,25,27,-1,-1,-1,-1,-1,-1,-1,-1,-1,-1,-1,-1,-1,-1],"loss_changes":[7.503535E1,1.906997E1,1.4140771E1,7.427544E0,2.3244263E1,9.762478E0,1.1062672E1,0E0,5.817554E0,1.1284412E1,4.9480896E0,1.010169E1,7.641431E0,7.2387066E0,8.151574E0,0E0,0E0,0E0,0E0,0E0,0E0,0E0,0E0,0E0,0E0,0E0,0E0,0E0,0E0],"parents":[2147483647,0,0,1,1,2,2,3,3,4,4,5,5,6,6,8,8,9,9,10,10,11,11,12,12,13,13,14,14],"right_children":[2,4,6,8,10,12,14,-1,16,18,20,22,24,26,28,-1,-1,-1,-1,-1,-1,-1,-1,-1,-1,-1,-1,-1,-1],"split_conditions":[3.142753E-1,-3.163486E-1,4.4812012E-1,1.9048433E-1,4.2982685E1,9.430844E1,1.9364E3,3.3355054E-2,3.7723327E-1,1.59285E3,5E0,1.493705E3,3.163486E-1,-5.885753E-1,4.7199455E-1,3.8785357E-2,-6.8910606E-3,8.991732E-3,4.450959E-2,4.6249665E-2,3.1249423E-3,8.478717E-3,-2.39634E-3,-7.554165E-3,6.1408658E-2,4.8275404E-2,-9.239272E-3,5.60487E-2,4.962554E-3],"split_indices":[2,42,62,0,52,52,24,0,62,26,40,49,35,46,62,0,0,0,0,0,0,0,0,0,0,0,0,